-0.2972150146192625,-0.2665387644676336,0.7117500882918564,-0.8101893108530065,0.2010492565059243,0.9781042986341897,0.1120863316638101,0.09496535718510057,-0.303374813760521,0.4655599429863624,-0.34684750584830915,-0.23147176874141762,-0.5452155152773754,-0.5872313587458375,-0.44677656387883635,-0.12559633154461447,0.6548130788154631,0.8650814549267827,-0.3066001640056033,-0.8249111555158213,-0.6369435403094428,-0.7627261930950464,-0.2044048160145675,0.2424509404762787,0.1282663767834875,0.28699614449066657,0.042434881948951286,-0.136822659545083,-0.11807347285348557,-0.14187663888631397,-0.5210287244898173,-0.014847861034563259,-0.5936859243609367,0.6396702052163996,-0.10255130865793505,
0.9904639439136471,-0.7243685992441895,-0.34335748725278026,0.33017832601177166,-0.41729581693276585,0.8806204197975815,-0.757603809142618,-0.23808680686157735,-0.3593328546324521,0.914650324741392,0.8377807031097233,-0.778060359986321,0.017517399733908423,-0.47065195007573424,0.12054560894265709,-0.9725687435125929,0.453941968025001,0.2604174765793017,-0.3108076499333614,0.6234386388470492,-0.47424124835324943,-0.22062664645105245,-0.1913436090958074,-0.7987834444133342,0.8609059447078433,-0.4555072293497193,0.5709085886411722,-0.924581528839479,-0.2623112940399377,-0.4956345002504776,0.2317668471458625,0.6620160153606331,-0.38438468350306465,0.15000286028103837,0.45591249935216815,
-0.17736986537325494,-0.8478952489105591,-0.583457446512841,-0.2646900717483831,-0.6727130535507218,0.822803912714938,-0.7968347244524423,-0.6580703922429485,0.23644189161840368,0.3902036821468553,0.6099168805340158,-0.166121180437395,0.11444158149937955,0.1546970302891435,-0.6172918649761034,0.35474735346275743,-0.8395777673646676,0.17417549833129864,-0.4871578194059065,-0.25082220537113487,0.5789716129919209,0.4527132340342439,-0.5450022719010785,-0.13662506046069756,-0.18829117247115446,-0.5241588628143894,0.007674732087003422,-0.6925305409265265,0.6122650422665519,0.4093664406013713,-0.45731340024046974,0.42735664965130216,0.37097638885712136,-0.21935321527987117,0.9753616183289608,
-0.7331678535380017,0.5819278356685846,0.5256803284647813,-0.3653052228104958,-0.10344895778010432,0.8938155446910412,-0.087673088192048,0.02276793743549499,0.6445390596511418,0.7974231296131429,-0.9605716841389766,0.34533645715816785,0.48368831916883637,-0.3236647571270146,0.3635488801606048,0.6505560786045659,-0.8851279003544474,-0.31615983243245394,-0.9804891042677695,-0.5695953405624594,0.13001859149159323,0.707801394995591,0.5778517004225632,0.6194288435871678,-0.9523172944064067,0.5466056958453898,0.321783673896499,0.06802629933260906,0.9843635329083193,0.3431242373994876,-0.8718093318936619,-0.22745016126918816,0.2580122754220111,-0.6900497156645364,0.6016473779563507,
-0.5878994131052389,0.31588383092514527,-0.17199349349059023,-0.7625982436923993,0.07195269288555317,-0.9629152857422842,0.11194180732064929,0.07871379411585622,0.42613250554843063,-0.3191251777434725,0.8095658147785347,0.5858965521488944,-0.8932479055757214,-0.46501654338080445,0.13889916145755077,-0.7511411750883952,0.5052746800323453,0.6639029156382037,-0.5347575844103898,0.8519019288157974,0.830969469265622,0.06532576284551728,-0.41800191645703433,-0.7610238369078943,0.8943894012865912,0.013595889346060597,-0.6171937946812807,0.9295556722677591,-0.21121509265676597,-0.597753796388238,-0.9011179591701741,0.9997433855984095,-0.5900558967142755,-0.5066019279757792,-0.17572538715375718,
0.2701711965050295,-0.4149713786542326,0.6400026247371644,-0.3369098689754817,0.03171332213061029,-0.5264481640682763,0.26760476073635364,0.5065542561453882,-0.7080161371250748,0.8587242157235593,0.6855164912336484,0.18411548626885899,-0.1599567675900886,0.964970133315141,0.14298678053538905,0.5316183887618797,0.30369080050247654,0.5174959023969627,-0.045839737948907056,0.7809055668956659,-0.18682599412901735,0.9023701939872815,0.48631880930873916,-0.40096652224883167,0.8870978609157858,0.49065290973778275,-0.6608956349807273,0.09161737732520558,-0.2792279479952533,0.45768931061576557,0.1381232215603998,0.13364647395076545,0.18418475458495487,0.7587627593227717,0.0245363787393289,
-0.4975595348935813,-0.47375329396607024,-0.6851217578511131,0.14294252354406578,-0.5387540179563939,-0.9660978038399943,-0.08247344727748485,0.21306455879103625,-0.32170085895404865,-0.2908451206316418,0.878857434436602,-0.3835476430739462,-0.33499055736699135,-0.5959871935187688,-0.966231595239343,-0.6623813422645695,-0.7217522797979465,-0.20719381814631177,0.3429929330673718,-0.4302721099275726,-0.7444508983485365,-0.9367116088466598,-0.9486483560338475,0.8281600719709339,0.2383703557968182,-0.7276192928034493,0.1229059390721774,0.010976274493690319,-0.712631224984311,-0.06062368766768644,0.5048343189848525,-0.9964856903739743,0.5049980886320955,-0.3611281407863953,-0.3355727464137195,

