-0.4412489087387814 	-1.3920068332719584 	0.4937517157801171 	0.6117271982804707 	-0.384627639720162 	-0.86483481648242 	-0.25251537898414345 	-0.8177591897923415 	-0.09228850590266431 	0.22880204992569098 	0.4733655605940048 	-0.6883821578527931 	-0.9569528595424168 	0.2673818105411085 	0.06824391899799344 	-0.9947676249438346 	0.08138693709567581 	-0.3867757554734931 	-0.5099371762030513 	-0.9873349715966147 	1.7007768251561846 	0.8510277409156399 	-0.33994026849655234 	0.19226108670547343 	-0.8828914120060405 	1.5081745332007603 	-0.45972950566506 	0.8260244796135476 	0.4524721406252803 	0.06607022684167903 	0.798181817766404 	0.2790393010205714 	0.46797927996001365 	0.46717130781852656 	1.5453328739635235 	-0.7591862286081401 	0.4683560569192361 	0.5769504296614523 	0.08590270913205873 	0.4099946421063947 	-0.7660587740069342 	0.7039684210920348 	0.7958983322517901 	-0.46596487837028344 	-0.31113520778053305 	0.6646199231908512 	-0.24637921227674292 	-0.7866978095543768 	0.7162529692045843 	0.31094896978462083 	1.4099489794055713 	-0.372264744040692 	-0.777014945804305 	-0.48641019737514013 	0.9418689570914351 	1.5615211735712657 	-0.9720513263523216 	0.5053280986293545 	0.782325194647361 	-0.5119737662152868 	0.25795706935176954 	0.014369060632860229 	-1.5455162266189135 	
-0.4441143533028013 	-0.3996994070297846 	-0.788703240043237 	-0.12009173568651814 	-0.3083554762124182 	-1.0976106080381012 	-0.35913805956139283 	0.41074934183404394 	0.7683318183321037 	0.019012041813817722 	1.463688334595242 	0.44466594767500717 	-0.01838014401310673 	-0.5582901244246186 	0.7105560068320376 	-0.6154281073813508 	0.21681895729989248 	0.9125867579112399 	0.05342902149870952 	0.9915999117021259 	-0.7708012168854372 	-0.38234314419787524 	-0.5836631901945559 	0.04889704260310868 	0.6530931014800911 	0.9505992192736656 	0.051109075500967195 	-0.7197516317655792 	0.5773146978475676 	-0.8497641499395145 	-0.21525934575119998 	0.7197936445884201 	0.9215421601232285 	-0.3705845958351273 	0.2183421216540521 	0.7545588951387749 	1.294775226842853 	0.6008556981421127 	-0.03671869556065319 	0.8272177892562778 	0.9232195028580901 	0.2489227469225117 	-0.4971275702566604 	-0.6359388153163235 	0.04123975602684086 	-0.5215562508206988 	0.3336070800453211 	1.1791342301652377 	0.029012542767478625 	-0.22133350472336172 	0.5013023925312203 	0.21074079308193594 	0.1310387889953965 	-0.33199402265946537 	-0.5799635092022122 	0.6079794779397278 	0.25182755163868004 	0.8832362777549712 	0.24369143492433198 	0.1906113545554532 	-1.10921409454961 	0.09328832786665832 	0.9053864660431006 	
0.3132260530599632 	-0.16600749819864793 	-0.026118470054959392 	-0.17352065931832858 	-0.9230404934938465 	-0.21024554874587767 	0.5185683275658737 	-1.0757775323028462 	0.08156270010668656 	0.6449050452935141 	0.5727141145520485 	-0.5248836368914147 	-0.7179675863058783 	-0.7440489055164565 	-0.1659108963097821 	-0.7351999146578834 	-0.6353528882315778 	-0.015339721907154547 	0.5196983589517258 	-1.1623400432002204 	-0.5229354192050103 	0.32451164331432825 	-0.2967395966842913 	0.7717049785048067 	0.49626645852933926 	0.6142563138827872 	-1.5084364658585139 	-0.608055828794686 	0.979318064437892 	0.4413529924200163 	0.7863043321924457 	0.18198947183706413 	-0.21760883369714637 	-1.4690530890079656 	-1.3329614743913358 	-0.02396134095534864 	-0.36399410007208843 	-0.9206474960800661 	-0.11364956018927601 	0.6470081755727592 	-0.18588867729754674 	-1.445007644139492 	0.41125585435634426 	-0.3466657803559666 	0.9310061853287361 	-0.6638183107357551 	0.3966623564615177 	-0.8629975904188305 	-0.7118421896983089 	-0.6751986234750083 	0.8603550925107737 	0.051768411711868884 	-0.5167952887598979 	0.5327297446892147 	-0.8847783561887386 	-0.82582382496374 	-0.5140326099263405 	-0.23690567610753124 	-0.5905841220429924 	0.15859559369299683 	-0.9985558217013262 	-0.4250605083443525 	1.213329795635331 	
-0.736990496609878 	0.5558220558826749 	-0.3474564970402144 	-0.3600379744376634 	0.44999037701167344 	-0.8060961647445873 	-1.2362635683836314 	-0.5312115456178726 	-1.0850605868963956 	-0.368037068896925 	0.6383875139162455 	-0.21843666591360236 	-0.24104397324515028 	0.45539742198184185 	-0.10358647308800074 	-0.5067274049355827 	0.11767481976651677 	-0.641952370469114 	-0.7825109004368093 	0.15698249172894704 	0.7282016012513038 	-1.2780182400439444 	-0.1064069856769697 	0.495230939521489 	-1.2022022581566068 	0.03760047655143681 	0.6754957528561186 	1.4750713343308106 	-0.35996704622991205 	0.10782804970968334 	-0.013844853560971907 	0.012862750713701259 	0.20999897661056166 	1.578758627672855 	-0.16526338948336178 	-1.5872544251338467 	0.9892474557477896 	0.3241908835869486 	-1.1852340784793054 	0.4995259324023636 	0.44651768045627993 	0.40477715018394533 	0.12347654070094148 	0.6813588643730112 	0.9671278635406847 	0.2971843925679152 	-1.1653328219723156 	1.1082413464570604 	0.14987369711890897 	0.49398443579015916 	-1.0515801583772055 	-0.15119572655677735 	0.4714793715497706 	-0.8649445006970743 	0.4193917271347102 	-0.40505550291586667 	0.4556337091034509 	0.1497943521405942 	1.1176180392314137 	0.26575257388214857 	-0.35694897237434586 	-0.3790518625181726 	-0.620058445944873 	
-0.4901830312174289 	-1.1216624699428 	-0.6248439224151339 	-0.4148970400594799 	-1.2427224860215589 	-0.5146892031704589 	0.5693321416866359 	-0.5582197050357365 	0.5435350219827022 	0.825406783311651 	-0.32854457449897845 	0.8619996007282202 	-0.09259336774503227 	-0.6962694978341968 	0.2882178105161547 	-1.0009342185290009 	-0.4924818078331157 	0.635180252137844 	-0.17026015009299825 	-0.11960748176560135 	0.17535548074821225 	-0.7541885752307949 	0.3988076842189685 	-0.5332412776809077 	0.17110445945096966 	0.5638442742384628 	0.5956289408569297 	-1.4894996243109966 	0.12115472118124773 	-0.7552487385243494 	-0.362252200721088 	-1.1062545102922108 	-1.4932224528062976 	0.6041864073522336 	-1.4759835621436928 	0.5949997026716602 	0.5514042337208074 	0.799918647530327 	-0.18048244800112026 	0.03166434468360151 	-0.3935196252241877 	-0.15568675932400747 	0.22568637638349512 	-0.6207839003526374 	-0.20282976014150114 	-0.49147824821131914 	-0.0661860648719533 	0.3974094561550381 	-0.5383176140344279 	-0.5478263841176219 	-0.12853094298702974 	0.3461950485686298 	0.3385332948430544 	-0.7987695607269372 	0.7647836593023503 	-1.1255011132895874 	-0.6852423439379733 	-0.9652731342235155 	0.03504267509198248 	-1.1845634120056272 	-1.0257498834394152 	1.2591356021958582 	-0.07147369890633316 	
1.5643654271429996 	0.19968897817295175 	0.764215401816565 	-0.01664478466712128 	-0.04040388519779269 	1.4078257320709762 	-0.8474915450266443 	-0.07395842175322193 	-0.7779368340836732 	-0.4790435993557373 	0.5136290536137588 	-0.08662890836771611 	-1.0128008210155446 	0.10146933999858615 	-1.1972961349459852 	0.9258983771926854 	0.4859429577318908 	1.162165199109071 	-0.49076975032625597 	-1.0229064519853965 	-0.5253448458996078 	0.2551253214275306 	-0.4347740551386597 	0.2578703704470408 	1.2960108464720352 	0.656301492374306 	-0.5329695548876887 	-1.1339155137880577 	0.6842853846298762 	0.5323825045573835 	1.4588062577351142 	0.38345178338436287 	0.8440874848389373 	0.2247598170857247 	-1.0200317346129868 	-0.1779783524919155 	0.2884207735447639 	1.0231371681674124 	0.1729870958684123 	0.648160092185609 	-0.20286201651846295 	0.10258764938713483 	-0.3444193881559667 	1.0916950293336032 	-0.5033336500824587 	0.8966368249035068 	1.0002076907359048 	-1.0660842531283692 	0.16863142942277107 	0.830036662742663 	-0.06103171695211407 	-0.18583507057361506 	0.14588276024861282 	-0.7998931343258038 	-1.1222424882184252 	0.24859677344958778 	0.7454697826213472 	0.07334955757436633 	-0.8050077619564546 	-0.0023152971252475302 	0.03620954657954574 	0.34491013376886265 	0.4053870509724435 	
0.2629515204268018 	-0.4042581903974898 	0.7389784069379451 	-0.8800927961552575 	-0.0022813567390262005 	-0.16169769979918708 	-0.41217427326503364 	0.5956284902888213 	0.4373299911816958 	1.0235340007945213 	-0.18955302183802536 	0.8481985292881514 	1.0575919639350253 	-1.0090038176781366 	-0.3614146601203858 	0.14029520968749787 	0.5363720876556687 	-0.6740418135013965 	-0.1619163202125793 	0.13837969365462782 	-0.01901079394323174 	-0.29308046195729875 	0.5801059419143125 	-0.6482567654853099 	-1.3130657171394413 	0.6175180168195159 	-0.27954163172590585 	1.7295037192635776 	-0.4450979618350668 	-0.6391991491840533 	-0.47638076830383447 	-0.4068003942039936 	-0.543486953053247 	-0.5263407697439076 	1.5948276296071582 	0.05196207052473732 	-0.07687340686639985 	-0.6320561844752924 	0.3314361952639937 	0.8867321866382215 	0.19968056005919932 	1.254538210439632 	-0.6663061237114497 	-0.24936484387125687 	0.03523187445760155 	-0.17933155567986958 	0.5610921817802662 	1.0967329679845288 	0.5429414495459127 	0.053450288696810025 	-1.235039314674861 	0.4249968919920849 	0.6123030213574042 	0.28162894551501694 	0.2036678561850388 	-0.33993898567213265 	0.9982153406013979 	-0.16525001697918895 	-0.4352309675458301 	0.048459282066092346 	0.5964275748908031 	-0.7680831768104971 	0.32960339941971717 	
0.028353322455780358 	-0.8846970068085105 	0.20797239304810364 	0.458289950085538 	1.0951484737738537 	0.6749732025466207 	1.1565108922980676 	0.35753245213863855 	0.776297372461697 	0.6322225916008173 	-0.39969437756441767 	-0.4335664312113952 	-1.0504139372077181 	1.4881049570257183 	0.516272055478684 	-0.8415367307558503 	-0.6955796257021554 	-0.8192438735058416 	-0.45048083498239705 	1.4452807735020519 	0.08515676980194092 	0.4510509075406966 	-0.020782471456204762 	-0.8923962175406361 	0.13837556445218288 	0.5688070033529056 	0.0604009822354769 	-1.0678565702087839 	-0.8180364675205261 	-0.035679007460205775 	-0.43721805867245483 	1.1220024377308075 	0.9967071593973447 	-0.37139707760368784 	-0.3738443973633097 	0.32104568063838396 	-0.7898187670891774 	-1.1375364286240217 	-1.0508009449778808 	-0.16643925871901535 	1.1519982921078153 	-1.024178064684483 	-1.0137646300981753 	-0.7908796541433225 	0.3058438572202263 	0.5415886882267678 	-0.6753199952402511 	-0.2871963073832052 	0.08978271311034824 	-0.11255716236808924 	0.9962170899427278 	0.47916155810735 	1.0522164951604813 	-0.8991512657748899 	0.0890268885964425 	0.7738998563783404 	-1.2878372949199217 	-0.8911959078875515 	0.7707400427100781 	0.6285720932176753 	-0.3010379976513263 	0.6909309070584118 	-0.21614208022242606 	
0.48095349546945076 	1.2980997708239015 	1.510547917981942 	0.4169894924063201 	0.1200138323842411 	0.7993861231386549 	0.2843503072559934 	-0.7129935702105613 	1.425035870165176 	-0.29599920278644565 	0.020954001128907933 	0.35475022880180107 	0.1631920114208342 	-0.4194262657138824 	0.5489132403767419 	1.0522829112022956 	-1.1667449307466289 	0.743856472026777 	0.14176709865426826 	0.060177849980479155 	-0.25246698565479964 	0.7536844328941089 	0.6578342881505629 	0.2311484686987069 	-0.6301955571198755 	-1.1459605936867052 	-0.8373486114387375 	0.7634729353646658 	0.4126872939301468 	0.9434988830606991 	0.10462012030458909 	0.92550262686196 	0.21415035719146505 	-0.26287587588583045 	-0.6177981870950947 	1.393537859681394 	0.31801727819823467 	-1.2381611051627126 	-0.876190165563817 	0.18925470882447679 	-0.1964851442100203 	-0.031913780386510895 	0.3378530259323359 	-0.12132174622379616 	0.15643403240261947 	-0.2548647175359364 	0.30557805028387097 	-1.302262178408597 	0.3976300483012265 	0.35818909023603973 	-0.8265004395010301 	-0.8538657918171014 	-0.10616075323473693 	-0.5368898834675909 	-0.6277680675310793 	0.1550010949763582 	0.18827538764606097 	-0.5818332582888396 	0.13233731029549048 	-0.3917160485670539 	0.35481018200016146 	-0.40290143798947875 	-0.021682954782096316 	
-0.09186589120033188 	-0.6367310498192242 	1.2674003337300292 	1.550758509723826 	0.10547675679960065 	-2.2186849472662167 	-0.08937475061564203 	-0.25898386640707116 	0.7565751277048667 	0.5336477087081957 	1.7106248592752409 	-0.5960702376506772 	-0.5147696449884541 	-0.3256465553079311 	0.22860979802844028 	0.6504881026742226 	0.34399190038269023 	-0.5758322093309329 	-0.7501366643577425 	-0.6772006038153358 	-0.6256329435888062 	0.7949453385198417 	-0.4222050817788928 	-0.6191839128308416 	-0.1353607483280072 	0.12052863310699273 	-1.4704421270767556 	-0.1348409246488066 	0.03616829500353792 	-0.3940832735999451 	-0.7637125441668631 	0.4422163851515257 	0.6374253200290028 	-2.4119973469478495 	-0.1503812121940558 	0.414833199273022 	0.5294843129655206 	0.5164505896232023 	-0.19589525732468138 	1.2439480181051534 	-0.23220519211291835 	-0.8665989310580859 	0.02789755638883118 	-0.6822929609507487 	-0.24386262796949723 	-0.3871802546262605 	-1.0806727551812243 	0.4139735768432855 	-0.8521265068039354 	-0.9174614402924068 	0.10602422440753369 	0.7380495270124943 	0.8172743652086003 	-0.557277579356209 	-0.043379792657544866 	-0.7342822388671435 	-0.8202142883805248 	1.054960186409831 	-1.2936468183203367 	0.9767488175649583 	1.10809501747767 	-1.0426859689922412 	1.1087217454933955 	
0.2759784462988018 	-0.33932431738092067 	0.2113711505991655 	-0.13536770684177757 	-0.4659182002380186 	-1.4217585380831144 	-0.5210845665661884 	-0.1549784047858703 	-0.3229414235311703 	0.20031720292464916 	1.2255756882996829 	-0.41771329375946803 	-0.21992518676931477 	-0.6141142221696826 	0.7000391514810562 	-0.09656566466204744 	0.524846756818944 	-0.022905786767827067 	0.33752336700249314 	0.11127628386739744 	0.13873134480869814 	0.6518950178104226 	0.3292721779850299 	0.4319106195416467 	-0.4239227926320443 	0.3372074595245062 	-1.0530487381598967 	0.6823205284709802 	1.2143497790806366 	0.12769198646920632 	-0.6307703317665784 	-1.5426013050809224 	-0.39711651932858777 	-1.228065664116104 	-0.5944176265694124 	-0.33357599028418977 	0.7377642727595976 	-0.5196521627481797 	0.9587721584839933 	-0.3688524589356356 	-0.28664183984358405 	0.21939955602206557 	0.12215885720694616 	0.41193530593939837 	-0.6888970947746095 	0.5037314998757844 	0.2875430736744395 	-0.16218081185782843 	0.34794451222026684 	-0.6197121038262524 	-0.9097773228882906 	-0.0637627911519775 	-0.5941466888351725 	0.4641650419370125 	2.04304214871157 	-0.7422413468081128 	0.7907555629649891 	0.2218917145989293 	0.09857653604071104 	-0.5969774664984188 	-1.5547980735211093 	-0.6209239409590234 	-0.7386926900843976 	
-1.1368093273362874 	0.15670451915768494 	-0.4264121849525102 	0.15052583130678684 	-1.422211441352033 	0.6811774741598636 	0.4613412499248778 	0.19758223097418878 	0.028752778992507628 	0.16053131482001357 	0.9179099956063627 	0.23010100740665687 	-0.219933183038812 	-1.6428478875341601 	-0.5502353960945124 	0.15102350031383446 	0.6590207234120654 	0.4532427576069874 	0.6768996356513213 	1.0237812033590359 	-0.09020602893462729 	-0.6615499991209509 	-1.5052746676946223 	-0.04228607716330087 	-0.2900230032672121 	-0.5057299351370589 	0.25060173844499484 	-0.6572018607405565 	0.16461567654359985 	-0.2688279485778171 	-0.02436966242056836 	-0.10127934824573526 	-0.47518246943544984 	0.003233954747224364 	-0.5641395356536545 	-0.9771837161853295 	0.6175480342232408 	-0.77256846525185 	-0.1939991370528867 	0.2771697456408908 	1.0230694291723257 	0.11733505642037564 	-0.13872584090019133 	-0.20119983424242385 	-0.6443652717458751 	-0.6479011336311543 	0.043809601742824056 	0.9735893284512521 	-0.5428779533039103 	-0.4217758921976569 	0.4863951686923149 	0.4427287949477806 	0.22528746314658923 	-0.34281665704035236 	-0.024026737332201023 	-0.11091193229629714 	0.4177812173789631 	-0.9925139471165255 	0.5589309370039411 	-1.8882695718891092 	-0.8875959223256282 	0.6493602986499637 	-0.14464256245454807 	
0.9368437113244373 	1.3320468915338843 	-1.2126476530351395 	1.6008483154755802 	0.8197364670577184 	-0.3009593525883622 	1.4565303118993873 	0.9352094483135222 	-0.71048780789683 	1.0066559394222891 	-0.01845718748983185 	0.8875641066335612 	0.6951640777498173 	-1.4673051018949794 	-0.38453714865919414 	-0.5541584777447366 	-0.18580892830658777 	-0.3107826694401163 	0.38509299673755876 	1.240286235768785 	-0.920965719906767 	-0.7789749968386138 	0.4243723727932918 	-0.2762689366341888 	0.4709643399750783 	-0.2006836059082823 	-0.6215728412140669 	0.41954501936107375 	-1.5295664900486956 	-0.845133509969397 	-1.2435753608547804 	1.4300932372314115 	-0.10448941855375538 	-0.5124798483801128 	0.6858063252245424 	-0.3402928858930199 	-0.26317350956337654 	0.7907017724161752 	-0.44520769131536136 	-0.6824356495056533 	0.3318261875254153 	7.98888404809504E-4 	-0.44223525381749756 	0.5779825637479085 	-0.7519243350185608 	0.4442747959470293 	-2.405950640166089 	0.28641853060756745 	-2.2970330283168847 	0.0818545862864255 	-0.964360603221743 	-0.7497901102287144 	1.0584633345386754 	-0.5208272995408856 	-0.30209867312490674 	-0.6337384239360985 	0.019473322295996888 	0.7130984309348568 	-0.40412592639836037 	0.7477422024844328 	1.689610795735032 	-2.6240778541696774 	1.3242430189193317 	
1.4585191866403255 	1.2462565808496084 	-1.2326246705391553 	-0.5494588219859635 	0.3987284953333851 	0.34701501374880644 	0.6464716828729367 	1.7006803680860887 	0.08571332078201235 	-0.7003682424172992 	-1.362555352581395 	-0.36051956916903743 	0.6380469254190206 	-0.9473688463285015 	0.45516483045117434 	1.2932854537006115 	0.5998890987371175 	-1.0141182493260634 	0.5580434665556842 	1.1077992160297978 	-0.8309487116897947 	0.20911023215428182 	0.012435882713731469 	-0.32371457970819967 	0.794067924848862 	-1.3363210220953528 	-0.7955303901082171 	-0.36536179624129755 	-0.5733549429074893 	0.12915161634936792 	-1.1563056939054723 	-0.3186809457877147 	-0.4398090118474996 	0.017462619230685542 	-0.17612864198282208 	-0.5868550692597572 	-0.22768341953950932 	0.44868681597418597 	0.17469291772202938 	0.038025267481781255 	-0.2442944829583114 	0.04839248671514407 	-0.615504275896706 	1.092663349050268 	-0.9437011486229268 	-0.019840381372154128 	0.6121265459935994 	-0.23466143212468665 	-2.542828186308442 	0.10800360339877871 	-1.5596349935156846 	0.7326768339337435 	-0.3046123826406289 	-0.09721601859522483 	0.8231930188106829 	-1.595528858986871 	-0.05546527009597402 	1.0150180498276107 	-0.27308614213951854 	-0.36798882853023157 	0.3906341301672965 	-1.788091191703651 	1.556889474464538 	
-0.18976078865818968 	0.27745954055793015 	-0.049847663742958424 	-1.5372191809041733 	-1.5546723145405053 	1.471788379967546 	-0.20513104190162035 	0.46048970886704604 	-0.4230933682400822 	-0.6134368584912736 	-0.4940006418584753 	-0.2205621876740792 	0.6273429074991251 	-0.16375457638441548 	0.27359337684161306 	0.25892464560620737 	-0.23237560879382435 	0.8449516735517836 	-0.7232346964298079 	0.7243497090445509 	0.4950401261783664 	-0.0952021928240323 	-0.2145101140950273 	-0.36238116765601697 	-0.3151791989077449 	0.3521505090156611 	2.2073410626683607 	0.13430199854246597 	-0.5310363863124855 	-0.07615003244165969 	0.45820697952856854 	0.1556704911297001 	0.6974110251088875 	0.7934561284198164 	-0.4560741402527168 	-0.4582281131469638 	-0.7775757714205572 	-1.040643816781005 	-0.5684959491072835 	-0.6254110277681518 	0.5684192744262705 	0.3145679833919363 	-0.9676774003855143 	0.3261707936876333 	0.4067251724848709 	0.1960666077871177 	0.17670535496374007 	-0.20461129660949168 	0.00866506317719954 	-0.42729995550823513 	0.37158464887699666 	0.4475909463517977 	-1.1029639353040355 	0.26807230496442586 	-0.4385043052434379 	-0.6285987945280805 	0.5922505336169411 	-0.11896047015778244 	-0.367795318518746 	-1.0727170844015237 	-1.4700473136043466 	1.819852340756905 	-1.6663861001425606 	
0.9821363774084091 	0.7437591378052808 	0.8370934472319957 	0.08534725709280588 	-0.8778203293341584 	0.10152320162970918 	-1.3910840656638899 	0.3492183233451858 	0.11319910403223732 	-0.5466419689351374 	1.267797976198575 	-0.11959698861619034 	-0.23030590708096532 	0.7008778338750647 	-0.058951944960992604 	0.01102030580742074 	-0.346831410980946 	0.258088167421384 	1.0344605560968037 	-0.1857956756038019 	-0.22838338843755418 	0.07795728077034234 	-0.1627524402795706 	-0.4770612348928828 	-0.49755734525126943 	0.7042761309129459 	-0.13667232398675722 	-0.02095812231978905 	-0.5682192106310198 	-0.44993284447511134 	0.17886048775834318 	-0.1403364904712462 	1.4294065028297072 	-0.8949946121949648 	0.21136798348065433 	-0.578925612586261 	-0.20310141248409236 	-0.3691230228485121 	-0.1215128595925909 	0.21518751708218037 	0.17751926683539831 	1.757697573542799 	0.31961826054429593 	0.009732054923833717 	-0.6138029717842084 	0.5598349331959922 	0.7369527647097014 	-0.4248052861636002 	0.33312250538217897 	0.8081675085030604 	0.4243324496301277 	-0.19748199075205108 	-0.23249672565227558 	-0.8549084349910299 	0.8963308480175072 	0.4269795577107341 	1.3294406837290669 	1.814359061879869 	0.13480179094093903 	0.5311243278319459 	-0.003775525198468791 	0.015271157839424667 	0.46927683554885946 	
-0.7805355556514829 	-0.0904983159694544 	-0.18636956435806246 	0.28338428564843077 	0.3308517618106178 	-1.2807813559913175 	-0.11982299358552495 	-0.14654775033027942 	1.0616326723947052 	0.4529629643709495 	0.6492259282909322 	-1.5907293652258674 	-1.8210016415474293 	1.1238742138559445 	-0.19734875364083265 	0.025493888786783502 	-0.025444671898696352 	0.8373200801137607 	-0.7546734645633933 	-0.9205629611958842 	0.2626625277514212 	0.3289828751224769 	-0.12525981306718892 	-0.10437177339478856 	0.6410970863148978 	0.968913847554148 	0.030445085267461845 	-0.9370487532093589 	0.6918096875092173 	0.4909526268518879 	0.24116321115347827 	0.07224204961388861 	1.6999511756479562 	0.21821628390884573 	-0.7002886744720817 	-0.4279592842170121 	-0.25468795003594946 	-0.3245892629329127 	-0.6280229893054233 	0.7675376047521073 	-0.038478349123452125 	-1.3947669189691765 	1.0745440876901546 	-0.7548460371091511 	-0.098753784703116 	-0.10427633736443395 	-0.054021145051750645 	-0.6691593867126967 	1.0063705597282206 	-0.9424179239332356 	-0.16613678686722666 	0.6881429118609922 	-0.06630910690157599 	-0.8090749966682872 	-0.4845313406078312 	1.0734795731942417 	-1.3903610163956488 	0.8796964489836819 	-0.11426712941478331 	0.7262223375637459 	0.5246176744969719 	1.1283634233990059 	-0.2524755330860634 	
-0.7303547138046534 	0.41200898735427327 	0.5263497148412594 	0.8463668949409987 	-0.005393962765712454 	-0.4018224641783492 	0.383046266933891 	-1.089081913058777 	0.22828188104092464 	0.13233939552540067 	-0.41844150993570817 	0.693114568854485 	-1.5664467919393543 	0.6062509763701165 	0.7182286079966093 	0.3112905956872781 	0.4990224269733379 	0.037897431081693925 	-0.6842198104013376 	-0.6521945264180479 	0.6168279231630628 	1.0739754143092923 	-0.9958640416680896 	1.5255315694784592 	-0.5429895465806484 	-0.2680549584415295 	-1.2187804278139371 	-0.6097026406148751 	0.16859995495662897 	1.0189686440403969 	1.5231445117043332 	0.5455324991000695 	-0.5288829247823971 	0.09724101971952114 	-0.7152426277120291 	-0.49455384113065837 	0.6502793102751964 	0.2537739552376663 	0.7015346387616462 	-0.282624599169246 	-0.18089579294531113 	-1.7437685943137906 	-0.20242355163906414 	-0.18223378216351085 	-0.9818381506888062 	0.040629728290653824 	0.671475835646708 	0.13352911475401988 	0.29580565732088515 	-0.1799355358548245 	0.12589429781201167 	-0.08298101596366807 	-0.7713062443263973 	-0.03888414808111254 	-0.3565829129720446 	0.5102396641973783 	0.2936744165852784 	0.33493670043828994 	0.7196109700676322 	-0.2327399928606251 	-0.028731616870523193 	0.9123448712794252 	-0.15645095584102423 	
0.8166405116057261 	0.09108033837798346 	-0.7204204453400765 	-1.8129621969243077 	-1.4276965470975118 	0.03420564940647765 	0.06566009646917026 	-0.7301745024201333 	0.06339550164307779 	0.13499621103614656 	0.14458664575185948 	0.5527513104582675 	0.22794375729691396 	-0.4597273831850063 	-0.45311658199077776 	0.7006119806583074 	0.12278584893616888 	0.9936875702726885 	1.2092490386806785 	0.558778759815625 	-0.22360487087538444 	1.0037826121264637 	0.5600222016235954 	0.9985092879502374 	-0.09287775817901386 	0.10201576137913144 	-0.4536721525249423 	0.1929450542407567 	0.7257782403284515 	1.152275966891119 	0.3712474938478142 	0.3658944348493657 	-1.2850968252769617 	-0.9048555853705108 	0.5262930410015966 	0.7031155045371437 	-0.908805733997241 	-0.5324211922063996 	0.3393002721066689 	0.4347472933975495 	-0.9597191321937234 	0.142952983442738 	-0.5623379044335531 	-0.6696225450297745 	0.14730528041896385 	-0.6144829388569778 	1.2038185918137434 	0.5719708555380597 	-0.5596981718629931 	-0.09143575455314062 	-0.5764115826906809 	-0.5791990578333578 	0.6123606302820402 	1.0138698616958612 	-0.1274415179071697 	-0.8407113831166203 	-0.4860084701342936 	0.4071224829023704 	0.3876523888613763 	-0.06657883733667647 	-0.11624179199601137 	-0.3401965512016434 	0.7667449552793361 	
-0.7924681891718678 	0.8134969017019872 	0.3355955185739542 	1.2451386812537777 	0.4986854938299362 	-0.3360676114586875 	-0.9304815696258789 	0.4941311508282151 	-1.2083999458666073 	-0.028640489560728403 	0.5485344740446686 	-1.2443404613712556 	-0.9125069392114735 	0.4458742733911597 	-0.23946756718236156 	0.5946187755365628 	0.5304832159496232 	-0.0691824713923133 	0.07995653849986206 	0.06398181524063105 	0.018472365923725875 	-0.6597821761151749 	-0.3633257901102156 	0.26518616598890304 	0.32544827139250243 	0.4047606213383673 	-0.23078054803639164 	-0.08508717407460933 	-1.0095436348494176 	-0.052112122227918535 	0.049539039846853976 	1.5164261509385861 	1.1551835298689777 	-0.24909536532117094 	0.5320581938390473 	0.2459317034052699 	1.3297197450408391 	0.4782337571244787 	-0.7531204094458658 	-0.26430339171752293 	-0.3756984248997399 	0.8976749253512465 	-0.31850514582640943 	-0.5453696392515069 	-0.004606082526131303 	-0.5839539854893284 	-0.6223793308691757 	0.2425475408616481 	-0.16138793467592533 	1.0353332949461516 	0.15527965258194604 	-0.6322249246498476 	0.27414964221771887 	0.115417707300004 	0.21791609802846057 	-0.20590670860214372 	0.731401283629913 	1.8684772356553703 	-0.22021301050634084 	-0.3171426721179873 	1.2118993709217842 	0.4855239346671518 	-0.44768544145698375 	
-0.30334443228784064 	0.33558623459010734 	0.4646304926007125 	-1.471634772333347 	-0.018668105257179206 	0.1659509526073416 	0.16536587008350295 	0.43469399621014065 	0.22564097370558678 	-0.0417017544025117 	-1.3688081090606903 	0.909281638759697 	0.3504840931412095 	0.6966671173123727 	-0.27108818083463454 	-0.40419486803875954 	-1.0133038009194508 	0.5775702182359396 	-0.46182450700051986 	-0.9714459049287488 	1.3458367637459339 	1.0818988305861739 	1.0060821101021757 	-0.014539978824648496 	-0.14451650082623918 	0.095768173957851 	-0.06950557047628375 	0.5683246178672458 	0.8827037724128152 	0.29466022580751045 	0.14930179003152105 	-1.5337779790509134 	-0.20387586002275543 	0.5271143044247503 	0.36293249406696776 	0.5292167024673947 	-0.42731361411745544 	-1.0162383937559962 	-0.4315222687746066 	0.7080411829131036 	-0.2666515567925018 	1.7679827979119715 	0.6977632218362685 	-0.5029758762656663 	-0.8586398630356799 	-0.5895048056463416 	0.7531305597175574 	-1.5957684941594041 	1.1378938185919842 	-1.2741469745312737 	0.6744543251751401 	-0.16988931744059893 	0.8401833998985574 	-0.8081890815909686 	0.6936751432422671 	-0.32416810150903713 	0.5392820999031914 	-0.850730120172824 	0.12937913152713404 	-1.1606116560131354 	-1.4699112814740687 	0.5315057524613215 	-0.7469406177149825 	
-1.391704351344358 	-0.16713076518490877 	-1.057428231113285 	0.6905596585778295 	1.2920670927545246 	-1.7660980753596023 	1.2434256108523305 	-0.7622554609816183 	-0.09276623561133429 	-0.8256170877849569 	1.3138998868345804 	-1.0074320544661532 	-0.1522407266355741 	0.5572193194602468 	-0.8338955580910585 	-1.0207329344530855 	0.27330444466062986 	0.28354177790680246 	-0.8326804143438815 	0.66949755460859 	-1.0091038859955 	0.15814414331908377 	-0.28503084845152493 	-1.2993372411898478 	0.29455804486425485 	0.5440700410795811 	-0.9137972328961259 	-0.46087803892725787 	0.3808981455032877 	-1.1311591409371686 	-0.9266410423609817 	0.2354961736529948 	0.5623464098233213 	-1.4930578480539511 	-0.5795919351248582 	-0.7117539851932737 	-0.25863587531719834 	-0.3391891422171698 	-0.34856720852052625 	0.8610041826404906 	0.3806955869338331 	-1.2069225286546599 	0.04857684718463549 	0.5156953755240208 	0.5413131912816969 	-0.9075802768868484 	-0.5088680862884026 	-0.07215941333775111 	0.37721603414670735 	-0.8813794011849532 	-0.4421059770760394 	0.5482984777571258 	-0.11791666821849614 	0.25149551004682535 	-0.3680282529580873 	-0.624428988947991 	0.1121937340296186 	-0.2640968216553561 	-0.43679996580015423 	1.0792708053724542 	0.8346134280997126 	-0.5554597495087896 	1.2772770253435233 	
1.3182459892590344 	0.971276474610814 	0.18757572933010677 	-0.5272235958936566 	0.5049149998482649 	-0.31373890459876586 	-0.5853579097946409 	-0.3234165394784624 	-1.7100582064042817 	-0.9839438793037942 	-0.020004012735122423 	0.2896565408426952 	0.4338633294866213 	-0.5313148570981684 	-0.4083552481055266 	-1.0284027273411618 	-0.25272620305742294 	0.42449681295469066 	-0.3127652167137195 	-0.9057832783689543 	-0.5017237027706453 	-1.4902629636654412 	0.251099949254516 	0.19063869293365385 	-0.12824690263637442 	-0.7269443485513412 	-0.8936960510846925 	0.5130206960237984 	-0.9805419717627395 	0.8003269514280991 	0.22016076178519808 	0.23291055284686887 	0.15337208958188517 	0.5283814951325111 	-0.39629857255542544 	-1.0232634627277009 	-0.6247826126858493 	0.21677107086994293 	0.40799991665692115 	-0.7087895832791973 	0.16323806076424377 	0.1336877156495936 	-0.7921708906535188 	0.7250996783544807 	-0.6353657497628848 	-0.5577862013036388 	-0.7589138682720775 	0.5679790855472782 	-0.28762411355566886 	0.15039938096018354 	-0.5430857113338224 	-0.19144261883309996 	-0.9522264901139059 	0.5223427941076975 	-0.08500524748223534 	-0.1296781675581174 	0.18784016030992481 	0.9851901961902407 	0.614032654736568 	-1.028663042033233 	0.5379745509218734 	0.23481158926496645 	-0.28132638086687833 	
1.5755452813181898 	0.8524777952705602 	0.8144767325176461 	-1.0144265173975135 	-0.046778492798897474 	0.04958628759782515 	0.48559834977487826 	-0.08849330037751262 	-0.7475780433713939 	0.36746022538453116 	0.39902852485682716 	1.1348043967823307 	-0.1536573344531216 	-0.306914294751954 	-0.3825585262030665 	0.44906917349500775 	-0.19830489505081136 	-0.5741267059119319 	0.5818901937203735 	-0.7932840355524102 	-0.09831119969850412 	-0.4732897475601582 	0.9785517016171024 	-0.3485469648891172 	1.3270753905427564 	0.5913511183837832 	-0.5777632809673365 	0.3849559905506288 	0.5956255059128615 	-0.1003402924350112 	0.19962975261756974 	0.7880194433853811 	-0.621638092299112 	-1.100127581931276 	-0.6884863787765985 	-0.5739445748082936 	-0.21339719960953016 	-0.25028642186310807 	-0.4038329585651734 	-0.9396514759383807 	-0.08132448633203969 	-1.1110769386228996 	-0.07105564132251306 	-0.09187685455602677 	0.8457268277033414 	0.7133785956922598 	-0.044037620101214155 	-1.0886385790429127 	-0.7162918111519385 	0.7311359849323995 	-1.1046519096242995 	-0.24078527659309198 	-0.5527881701928892 	-0.17360643747600088 	0.07583210985005806 	-1.0840620195195587 	0.19367797192379246 	-0.6800525946121254 	-1.0471036335340251 	-0.8162012278642319 	0.3201469541705233 	0.16287754276770852 	1.6505322530033435 	
-0.26163063940343545 	0.4188256868496233 	-0.8881824791241667 	0.34426755743919546 	-0.7774635580785779 	0.24382593417998796 	-0.9044669623549818 	-0.5254972624043882 	-1.6036472535450166 	0.19618119352978916 	0.323370312469894 	0.2421680592370691 	-1.6447564728501196 	0.2475609782239472 	-1.2617531330096767 	0.3924246140022286 	-1.3338428456787752 	-0.23652514184622644 	-0.8320009011261059 	0.3740693768171389 	0.04686885113482172 	0.25910442719518023 	-1.2635763243057676 	1.4642962335402494 	-0.9732509131221635 	-0.24870654987888513 	1.694179783840295 	0.5088503282739759 	0.4257343476610652 	0.45140436134834705 	-0.11643177804137353 	-0.5842931428065242 	-0.07898564959704574 	2.019991759133232 	-0.26237397463907297 	-0.9081286004367027 	-0.4584101162687676 	0.8502221635797905 	0.49490451301485616 	-0.11160580103893439 	-0.20826655497693466 	-0.3154412843345967 	0.01231762342616643 	0.267593818277995 	-1.1249999039880647 	-0.10852773561743576 	0.6352497957854456 	1.0538487046296283 	1.0599775956427608 	0.37126527878549087 	0.2628795125665357 	0.34558419692932474 	0.39955886456849865 	-1.0255963753292603 	-0.17887956710376127 	1.0256375251292127 	-0.08709659104396228 	-0.3993591185325648 	0.25146330557022567 	-0.7612505802798538 	-0.2765794162186124 	1.6627137321410963 	-1.9039312168528557 	
-0.4567099408327182 	-1.2217607398952952 	1.0965980206493022 	-0.42564085042092414 	0.7931419587390968 	-0.836750247766957 	0.7488436445828252 	-0.5434339865942003 	0.9990279133292239 	-0.20697929061077286 	0.09301490224702538 	0.702943052837184 	-0.12146795528021792 	0.31573351712789155 	0.9884926344742492 	0.2626121764591305 	-0.22243460369003218 	-0.3990205629425394 	-0.04856629693929897 	0.37776700761167226 	0.279476697751728 	-0.058199856391993904 	0.5681452237754413 	0.3013424677281783 	-0.2116490231634694 	0.05012665331799694 	-1.0096133459339005 	-0.09193248154488559 	0.9573900612746581 	-0.5282124502986215 	-0.8035782382807294 	0.1744853938007641 	-0.8788526860808613 	-0.321920407624968 	0.880035389156088 	0.3564975050649186 	-0.11207330698613373 	-0.410018657046444 	-0.2699366545684714 	0.7554953320131353 	0.38334978087879834 	0.8772687420034634 	0.7293058402915001 	-0.21797019813419966 	1.2102769664399478 	0.9585392333536654 	0.02795803033194943 	-0.8791982984877779 	0.7491716351722654 	-0.9389287532779654 	0.4590134834156705 	-0.281579915769273 	1.0922144654111732 	0.5005520156604621 	0.8639709545568582 	0.3324535118907276 	-1.0544031726413678 	-0.9188008541298877 	-0.6711761757026596 	0.7204665239821401 	0.13529403098527587 	0.6776398402358857 	0.13375514163069196 	
-0.5111553934907007 	-0.7936076242725352 	1.0391983789504298 	0.403975005224754 	0.18916469459168142 	-0.8505739261208414 	-0.36088945642690445 	0.1343723592637517 	1.08827973832726 	-0.3556745298282507 	1.0269089229020076 	0.4459690699010909 	0.03062763915405627 	-0.10953641588601071 	-0.199017471051293 	-0.39699445870450417 	0.16853734259567102 	0.9694909701508727 	-0.02635881496039495 	0.034711777095757394 	-0.952048591467967 	0.547855011504337 	-0.04758385901909363 	-0.33701055674511177 	-0.7425333382313686 	-0.47666575835618863 	-1.0615987932174782 	-0.41992893964242345 	0.744229935970812 	-0.6671525359329755 	-1.2388082100941546 	-1.307242439915267 	-0.21057057036468738 	-0.2526917647854158 	-0.4469147744090986 	0.6751032992040014 	1.1505185382631862 	-0.4412613496859203 	0.12464082122826428 	0.47220555284968846 	-0.932674320134387 	-0.42754774609090157 	-0.504530987995131 	-0.33543255087848584 	-0.3122162292394574 	0.32797763704999744 	0.21484984310681074 	-1.0635495291305426 	-0.8550228395505965 	-0.28160196182855607 	-0.22625137571133172 	-0.4399989670095931 	-0.7136164172891348 	0.2184475417883253 	0.42304834595138513 	-1.46910810359754 	0.6882077402095936 	0.7845753192251967 	-0.5156680994713396 	0.27629908275550547 	-1.2936459831673754 	0.00947852538005627 	1.4034853621581067 	
-0.7569463506648768 	0.13337234588810828 	-0.5521185329425704 	0.32122694685202063 	-1.3731946149333056 	-0.29346063555256235 	-0.7535347706616278 	0.3081465595996627 	0.7706119322809521 	-0.04509475478770182 	-0.9210782638893451 	-0.3644278798274659 	-0.49030431885323705 	0.7940901534770017 	0.4466395689825389 	-0.18690936287692053 	-1.0807824826004067 	0.6257660718301403 	-0.46434203512823796 	-1.419755270394034 	0.7271110624960866 	-0.84623656998624 	0.41428809536292216 	-0.8180431499491971 	-0.7321345766340899 	0.4715759881442743 	-0.4224988777124173 	0.5599016833070869 	-0.6637738529991002 	0.19843353745881462 	0.7900007369967976 	0.0773436113580233 	-1.8494186369923995 	0.5886107060649233 	-0.023714804505471636 	-0.3461316847367148 	-0.7793964617857634 	-0.44812412069065993 	0.9012851026482664 	-1.1168353537683966 	0.4135144101346601 	-0.11299742947166826 	-0.7762376448429269 	0.17942907725548254 	-0.07073744186585339 	0.2840956109760893 	-0.08280339000490221 	-1.0623693785129042 	0.09498380190586832 	-0.5264673060702509 	-0.4619437371730029 	-1.2619461507227048 	-1.140734463934764 	-0.95317870057038 	-0.0729590861500971 	-0.7010235258275335 	0.22571831111310683 	-0.9103199739805456 	-0.8815049937071948 	-0.08308770602467207 	0.15352037492077716 	-0.4489525664851481 	-1.7980100458752208 	
1.1712395971842116 	-0.2935355998297018 	1.1794929537081311 	-0.8610190827505575 	-0.011518149792138397 	0.2210707026273414 	0.6371072864750635 	-0.06416491355804643 	-0.13175405049126726 	-0.34204942839015706 	-0.35024359164080265 	0.7159519959952434 	0.7399079460056264 	-0.11342548374785963 	0.4481769737800131 	0.12976125611493852 	-0.9825479182988128 	0.17577581190362923 	0.06511189498294206 	-0.21478683511267693 	0.3071117654521167 	-0.26404019864891975 	1.2343505449408483 	-0.5471063192481606 	-0.5305530584596285 	-1.4672469190414228 	0.8732406891055189 	-0.38970902963963827 	0.3120570373933616 	0.06350016364005773 	-1.0243909634568837 	-0.21208722079633807 	-1.217268073490664 	-0.19076423049611957 	0.5888212534662822 	0.9972342318378529 	-0.46285743268143315 	-0.32216500307643237 	-0.7751529816645433 	-0.18465970218181688 	-0.873250263565277 	-0.09407092823971688 	-0.8954291232053957 	-0.10385324236401502 	0.19637084648881192 	0.7442568186999619 	-0.5938190146758091 	0.14314454579814845 	-0.7202298987817304 	0.4541125317884499 	0.05652508367721091 	-0.5671702853725128 	-0.8449767987066119 	-0.8410582558705306 	-0.7635811598700946 	0.9054342414055236 	0.3099063094676311 	0.7503819965653935 	1.293804701960129 	-0.13315065319263192 	1.0142939510381883 	-0.4368094155169068 	-1.2334721909399635 	
0.17770208622149905 	-0.7751448224315072 	-0.11178702168085392 	0.02511600943501326 	0.7826199891022616 	-0.5603563654001518 	0.0532909280360352 	-0.4941923179301598 	0.642985565504433 	0.5219077130630033 	-0.14679209285254569 	-0.356736620765498 	0.7359114978099139 	-0.4625663551042504 	-0.34384081182114684 	-0.4442373291244605 	-0.027131770091692996 	-0.10499253553393986 	-1.1968970145136861 	-0.11010713079378592 	1.2329399482660959 	0.7303222224825188 	0.05173983483759013 	-1.1816497154968877 	0.6545083392003512 	-0.3067540525241033 	0.15394274112882136 	1.152159432379623 	0.07091656703672772 	-0.5097248945162742 	-1.1312134268869736 	-1.1212845716478745 	-0.11597772505200843 	0.8759524173353899 	0.41028316325486985 	0.7360761640809022 	-0.3279297078631211 	0.37799354400224966 	-0.6029693966420838 	-0.2654061279690556 	-0.10370043675903176 	0.6791156911340617 	-0.37189608876599184 	0.17684478879245638 	-0.5921365102583247 	-0.4285196391907195 	-0.4828137382149475 	0.06636360399937477 	0.8278115017186538 	-0.6489876011984457 	-0.382732855810963 	-0.5013038077655261 	0.4853180349309561 	0.017513440162124565 	-0.22135526761763544 	0.6569371709711247 	-1.4048110510292915 	-0.41896592094092505 	0.7742417849353344 	0.1761276877667691 	0.3125636092772915 	-0.5326199707839719 	-0.9777908919358966 	
-0.11767298284417872 	1.5236262706183468 	-0.18285435462243618 	0.9628340243134423 	-0.45377491988103996 	1.4638608500195514 	-0.17413936246032988 	0.7821081049883263 	-0.4103330806121967 	0.9893692541172867 	0.006394723207988515 	-0.3752376606627283 	-0.45980579337775945 	1.6853612464911272 	0.10122051436196774 	-0.5670378977828199 	0.4103038959289425 	0.05871902734819194 	0.4760056580508682 	-0.0994849198952581 	-0.09193813454657973 	-0.016545382032722336 	-0.2511690602095998 	0.0909769161023949 	0.22007051730885854 	0.27777391569882676 	1.0245929968038203 	0.04690080632650249 	0.3007462948507526 	0.9371061710689659 	0.25344052933853833 	1.6089863817176202 	1.6608042078442782 	-0.03871523423618471 	0.5722394429171367 	-0.05948697972744511 	0.8429712523823771 	-1.0279530804347672 	-0.18768405106941374 	-0.7464701606322479 	0.23317668775122888 	-0.11340592369792683 	-0.5996428516921222 	0.6106527569299349 	-0.5224068015737497 	0.2875063775515842 	0.31553630421743845 	-0.5122066234044294 	0.14561812494573864 	0.8019318892855685 	-0.1694247969926064 	0.7948239967342041 	0.5636700982711573 	0.6662028294121514 	-0.7082894490371223 	1.4014510802614442 	0.3315019964870339 	1.3525379407298221 	0.7399096875370483 	1.3278415631140457 	-0.00402825791325008 	-0.033412547964488476 	0.2703267085592152 	
-0.06584289377407601 	-0.7030809975086791 	-0.2066055452437515 	0.5430434379668769 	1.50538923120146 	-1.969709809811351 	0.46483729157997045 	0.2660365425292083 	-0.3486289036129534 	-0.858687386751201 	0.15824217459001488 	0.9056754801067743 	-0.7288579127582819 	-1.0896474239880256 	0.9841064888452014 	0.879722799721623 	0.22906653814918254 	0.199583979094123 	0.22952957028436258 	-0.17188603518126244 	-0.10166548993702787 	-0.03296129279273849 	0.6794282476590972 	0.6098445656393976 	-0.3448818535616035 	-0.7091203227244112 	-2.498832480896825 	-0.37776541149175047 	0.22360411744359326 	-0.5548783415378054 	-1.3171032855876443 	0.4195043459473208 	0.08034926619483851 	-2.5105924961319275 	-0.6517539574921423 	0.41775661021801314 	1.3240143125069468 	-0.5958161411891656 	0.8005928257637798 	1.1401587277201928 	-0.5568886107328858 	-1.6272112372645575 	1.1937892122253897 	0.08187288729215603 	0.7910183829323929 	0.683877679219209 	-0.0571192514393562 	0.34840785800995766 	-0.2712140678651068 	-0.49133350797769926 	0.1952602857849438 	-0.41970236030662045 	-0.33263941665386454 	0.8615682213951241 	0.26932768772374605 	-0.4979450075907226 	-0.25940407902424545 	0.9491041445086861 	-0.41668025225384975 	1.569094047996377 	0.30493505897310824 	-0.35358522200033426 	0.5905921019556348 	
-1.297943394608271 	-1.0738250239790466 	0.35230240389299156 	0.9869067124915532 	0.6187974345009859 	0.5112902728543114 	0.14347722756957854 	0.42073089955879994 	-0.8776400595301239 	0.43206007337296864 	0.5490901383249671 	0.02859084303565226 	0.30557129761412055 	1.5015988193244456 	0.26408320403966884 	-0.9105116134055067 	-0.4189384001649998 	-0.19866834079937856 	0.39502764551989494 	-0.3372702881550797 	-0.6297549343747011 	-0.24087612942081538 	-1.1202268106062556 	-0.23362609094773934 	-0.4259165361773958 	0.9448726351203756 	-0.28909947742719605 	-1.1960575067639243 	-1.0125660479228027 	0.09908272298323753 	0.44715151004277126 	0.7254233763079991 	0.5030430743829666 	-0.06103942995487362 	-1.1110168782426517 	-0.40963343517206957 	-0.5798905070791605 	0.22906947825486693 	-0.1279340839725315 	-0.6258410260633918 	-0.05684331692697892 	-0.3111576793156255 	-0.8229149195339733 	-0.6252362588848377 	0.27005525774865885 	-0.592495916783345 	-0.8040403386974084 	0.04161798412175243 	0.7547224207645356 	-0.7224163757362798 	0.9914082396716122 	-0.760381831274531 	-0.3703759059842789 	-0.9799459867007643 	-1.0098351302684536 	1.5075832988965048 	-0.9449371273471892 	-0.22555607576863085 	0.7077848019210224 	-0.2690718703282216 	1.415565459594978 	0.39576548425633234 	0.27610625328863475 	
0.7770309493182811 	0.3749401647233321 	-0.3766040724893835 	0.45123294085677307 	-0.2236753184495938 	0.45753861606668683 	-0.672679544011063 	0.4037952292989527 	0.6873978835104718 	-0.4485222582857253 	-0.3224806449616823 	-0.669970518908599 	-0.6978462399181048 	0.29070245192204647 	-0.8873693102545771 	-0.7013728969408383 	-0.6448020724385141 	-1.0452006232338178 	0.3213241021047735 	1.012358685431346 	0.20077015492602532 	0.6629636583700781 	0.599229130530902 	-0.9540898262410366 	0.06349593901665855 	-1.0528243099766172 	0.1541204365899451 	-0.9469025500791227 	0.7499154599123029 	0.8514681564504741 	-0.4700550455937423 	-0.9862185477061096 	-0.0903671238999272 	0.8858293810531942 	0.6680355830211219 	0.8663221043792263 	-1.0161655885143104 	-1.0523448630635706 	0.03510747051771395 	0.06567186197986923 	-1.1934116639467005 	-0.5561575436718477 	0.8379556607357422 	0.16654427276719544 	-1.3701049849710873 	-0.3363031000325631 	-0.3530409370383952 	0.4076899196885007 	-0.7224166217549092 	-0.6063711891558684 	-0.4090747536623934 	0.30376760370143724 	-0.014705359712339963 	0.1007563134399392 	-0.2974912809039087 	-0.10825699626289993 	0.751030703328705 	0.31696625097107894 	0.9207078020866621 	-0.2801483937537979 	1.0072696458156982 	-0.6389359815211632 	0.14762174141784026 	
1.4827352398712814 	1.4341066055557903 	-0.77956616215891 	-0.17974000800081064 	-1.0479596040327264 	-0.37009321675220985 	-1.6929119467191738 	0.265734927262642 	-0.18132114065867633 	-1.1603081940050113 	-0.7428894917626824 	0.2384144634297351 	0.10106539629583673 	-0.48401852551803604 	-0.5340190011881775 	-0.7019620213239351 	0.7247802331909258 	-0.8203309389131413 	0.15073119324317413 	-0.6281401486672252 	0.953284405155942 	0.8402577704920714 	0.10102237356204143 	-0.39679066328206114 	-0.5988101110462861 	-0.22045624341017095 	0.20358275808945037 	1.0345532612368176 	0.030255372399957754 	0.5904846844791755 	-0.33214972328242565 	0.0861715663235894 	0.22508690219719468 	-0.3827964940074846 	0.48451001782737513 	-1.0262557159560068 	0.8939621269712644 	0.05936742378973276 	-0.8260841675941283 	-0.3385871809884712 	-0.39836832347265017 	0.8056287587373238 	-0.7588552271887602 	0.6621601393494781 	0.8141759971229433 	1.1127496529545198 	1.148250488062803 	0.5408659382706841 	1.2653617552954195 	-0.05665817159147627 	-0.28595367422366125 	0.541040656542327 	-0.745164692689145 	0.28514989280627356 	-0.5463245197650278 	-0.8082066643353004 	0.9144988815922915 	0.2343320437811363 	-1.2255851082168525 	-0.2699818205364138 	-0.331462314472424 	0.6414686027297855 	-1.017833718663529 	

