-0.24488446896358473,-0.2936484661813463,0.4325584514364835,-0.23255743905364556,0.1765328497162244,0.007944120464903337,-0.455974455242131,-0.08496064931897962,-0.36966341046868645,-0.4595946885126416,0.5519066104773818,-0.0969244798199429,0.21236850263399853,-0.12724028496336404,0.6736281872878984,-0.8573245890651415,-0.7363382918235624,0.2394549132228183,0.6781512689277909,-0.19836512145281082,0.0416481170162577,0.6833158643016477,0.2344711589354751,0.9327512044714299,-0.905888560660193,0.01509061837189063,-0.5241664565980491,-0.5162840733593594,0.9990324852526995,-0.12373052313745236,-0.21246100259095146,0.17154248800321592,-0.9114479580353576,0.4750624617084376,-0.4374617186313363,
0.5189519280600543,0.7928543624150559,0.411124324615723,0.46784797078194895,-0.7729044756490344,0.31985289797771155,0.41281755183357705,0.6261444587493357,-0.5015566254821231,-0.47086255510206776,0.7815089983271597,-0.9592777622685744,-0.0743762204416385,0.06372055572665514,0.8705970493772535,0.5783305890638566,0.12644993159583784,0.0706987176523235,0.0226709185869447,0.8732313259615736,0.4323232489550919,-0.8279776733572135,-0.9535946180483426,-0.3728525909182201,0.6266576614156141,-0.260853749432596,-0.46450130030379455,0.9536013614056817,-0.018080476301986836,0.9804113554974785,-0.8848363157888426,0.651470381607755,-0.34166615228288966,0.8675848896346345,0.04738520129314505,
0.5914120710215962,0.9042585544800985,-0.4919337456385955,0.5343607701261661,-0.23985522790300906,0.4376821437185583,0.21184265360667998,0.5302439676032795,-0.06860724826515208,-0.10974576116198276,-0.7926429134757085,0.9045131638896062,-0.5813644731946805,-0.7402898552655461,-0.2719702695577799,0.3959915232309881,0.9136292134419826,0.9435045354282967,-0.9787490158004473,0.9547475412668878,-0.974005633557071,-0.8840774619407947,-0.27575632598931166,0.7898078528484513,-0.18700548390019422,0.9628891571971119,0.006269409788875802,-0.2761822812443351,0.3249570531932344,-0.3968484404365178,-0.10576809441352197,-0.6985121235742016,0.9906155833187933,-0.5985386634248064,0.27880946536261875,
0.5068685737908099,-0.47201718706771567,0.818837924412303,0.24082507590316826,0.9151962026550509,-0.00981135340317163,-0.05305401553400002,-0.4573575924794946,0.6382596443084798,0.5420488258066811,-0.5619255767121585,0.3969533906751068,0.517937569880335,0.6119556771173167,0.6691566318505202,-0.04459916648468165,0.6807606567942632,0.17501184151122473,-0.3322754382355464,0.35205851658374954,0.7870557191229473,-0.9028452556533104,-0.42035597288018556,0.5918682769493635,-0.9085680453532985,0.7063499069300607,0.27292895575954246,0.09171324514189783,-0.22292687658509758,-0.9442439737783366,-0.9511113561517932,-0.738117604195655,0.9345015544405271,-0.2949035736046819,-0.6286879157748197,
0.15826196356690891,-0.9738160544994767,-0.7297030981004131,-0.9736505196200778,-0.05933446418209187,-0.28844803416630915,-0.522220800499692,-0.8097985883504661,-0.3597060538367518,-0.4972871581652052,-0.9913719842249791,-0.49131813212192355,0.5693940158802582,-0.12067055852432751,-0.9708236264007946,-0.5178279075193835,0.5987622322233934,-0.7881479107538283,-0.021617165234954827,-0.79856292945984,0.4838196353420565,0.1254869896206432,-0.08129704569191154,0.7942290465239965,0.43756035726720266,0.7829896372913985,0.5559835561419164,-0.180444931574413,-0.7712448775639731,-0.027424679179744782,-0.1047607402037094,-0.7140605464857883,0.22636992714617254,-0.14205966084738564,0.422995515386543,
-0.02803536719721178,-0.9837635574418133,0.7805927484752406,0.6932143214330089,-0.7081723205710604,-0.5164091303009759,-0.3996071104015022,0.24264281723094716,-0.9243982582652859,-0.4148256736389291,0.7184075142660216,0.8727568831768253,0.32334587646076773,0.427167278979238,-0.853114487378736,-0.4907026159333334,0.24415971565333217,0.7203076830851203,-0.2256355625899782,-0.9132741451163244,-0.29426837153432084,-0.798878553299806,0.3196220183004366,0.20375451741629513,-0.4031167319686091,0.18827115477247447,-0.6236111925770833,-0.34256633831754035,0.5450662861344557,0.08560805714538655,-0.5785585347796931,0.38710685372072784,-0.06728102826647087,-0.6514106573211098,-0.30810017833713244,
0.8458740912740923,-0.7791540849509269,-0.8016981594560573,-0.5667466390836182,0.36602922899402657,-0.7848654105252624,-0.8025893679197218,0.17784599559665404,0.6962676789718367,-0.900622676321442,0.6949301992229175,0.43425162177657484,0.5622876598018136,0.8129200222879986,0.10179232722571596,-0.5488246909972494,-0.16126303750438642,-0.33668835418065424,0.9767644740656292,0.5652189119480571,0.71928428456286,0.9422820413070441,0.9823503355578123,-0.9499477968741252,-0.8670758454001872,0.7526286150868629,0.9128810526631141,0.35523450816971547,0.5784505040542971,-0.7444543389258165,0.2020856344929245,0.15613435591082347,0.5353635804484609,0.11238300758557251,0.585005912182166,

