-0.0698257084168099	0.2071293940014367	-0.18025328251414563	0.2847521161803179	0.6402031584646934	-0.17243312548010659	-0.72532278211929	0.7523775455786466	0.6158483562670805	0.2708191290009043	0.4547386783674183	0.2792034185252916	-0.24059052931666014	-0.23222674132600218	0.1151120364521463	0.44456983550948026	-0.4547586971549422	0.13493883320859967	0.8476383857249921	-0.4762176717392912	-0.21433909149993968	0.7918930774942721	-0.5534990753504194	-0.09577189322956525	0.45524443272990656	-0.6128206442874329	0.8031513305826756	0.9404205894602209	0.25985376720942566	-0.8703554532638134	-0.20485712950031343	-0.43140964703697615	0.3964994243036779	-0.30240960978576403	0.049545597251280604	-0.3169192839057575	0.5224106545369633	-0.31399499191548275	-0.30986448722074655	-0.729053256631301	0.3364505458510543	-0.047468425060577024	0.21856576307681208	-0.39220269174731426	0.3732784622705405	0.9357209862192457	-0.46675748790810556	-0.5629395412152702	-0.37957112156277883	-0.9554926641521209	-0.2443556283047279	0.9864927080571737	-0.6092601445948422	-0.4442662997571116	-0.9876600034992808	-0.08010607660732316	0.517331684939982	0.10694846499611743	-0.3880263142675078	-0.12137039845007691	0.3856005544688239	-0.16541831605522983	-0.8399954172352906	
0.1367033704974816	-0.4235416000336236	0.4830018240334282	0.0700007601638235	0.07476297168080848	0.9673153199965405	-0.6021560052299935	0.6588054816771125	0.6725638529607549	-0.9779330419911778	0.2173919246450342	-0.44609272432631264	-0.9739457678027834	-0.30138527889502487	-0.7113147065603156	0.49486326305940387	-0.9856121701186189	-0.08778808033011964	0.3604159696373934	0.7766377841774275	-0.3261906931917318	-0.1848045369756035	0.9425665274097421	-0.4387623153990001	0.5794989188063795	-0.7115726168462346	0.8731353167180553	0.07503767173501608	0.5931040347709828	-0.012963271930516607	-0.9048170975536098	0.3127071451971102	0.7028242281472028	0.04281749685936842	0.4228255894150086	0.28466468473414897	-0.635441019805651	0.0979048429695808	0.16269181752313444	0.07350212227143538	-0.25323306640978105	0.7291160552556348	0.8577483226821243	0.005835279868796173	0.5883256404008836	0.5196092783829833	0.1332935947066487	0.0995553772535056	-0.002177442119958961	-0.9557209779458129	-0.34969385588178903	0.6124689732384956	0.4543478442751805	-0.14242840683876046	0.5092269490796613	0.9968313035985346	-0.4859996057529661	-0.7928288500643514	0.097644393247448	0.8552931858908293	0.28295939716587504	0.6442707613217331	-0.6617576269051846	
-0.40270340942802374	0.5871134881541757	-0.03908968267286017	-0.43123850728689983	-0.5890292670477497	-0.05011840064224504	0.9571269264282094	0.8736150078786302	0.894095188134262	0.9839988709543475	0.425431183621082	0.587190541698601	0.22871273679176385	0.6096823354303744	0.4373859037504144	-0.09823930257983182	-0.8625100303346718	0.6307314750343878	-0.47316844018464344	0.03831493716623258	0.025939513693978178	0.6317598101769337	-0.31343255652200974	-0.7234833657492357	0.6931332583005452	0.9038932899265337	-0.7699371275524607	0.2903797630705891	-0.2154483964615752	-0.8370868500595705	0.5170393220400551	-0.3008504376074803	-0.23577083503937968	0.19296072702759215	0.3015285499369338	0.5182627813171701	0.5993737750837227	0.23056227448857958	-0.9667201573280599	-0.7168456680100901	0.5791498889459266	-0.10212695119251913	-0.1718484845079742	-0.9809341443475368	0.7303344892778756	0.8006799884414277	0.020391542437400823	0.9429046836174417	0.14606858645112242	-0.4741566450674686	0.21947427297037647	-0.19140934284297773	-0.7900571961729168	0.7044980268208785	-0.3835718942974997	0.1452192503928047	0.1761715986204424	0.05147574114441	-0.08064635098291562	-0.7122392806757214	-0.14237377037551857	0.8480505848813522	-0.25490255481775215	
0.06290487940586864	-0.7229880260527264	-0.7957497127671789	0.5538127390956835	-0.7319481116439148	0.05249097092822819	0.6186166644594635	0.28540320387593043	-0.3306596649012208	-0.982432670041862	0.8474389385998888	-0.2583874471287222	-0.855005615952851	-0.8839324318479709	-0.09787509888764423	-0.5452128229237727	0.8131622327877646	-0.03343605571879005	-0.8874855407049782	-0.705894108341381	0.5088086509997964	-0.34339523903448765	-0.3744177212115922	-0.6176646899006051	0.8121161010491293	0.305630701184777	0.45311493987286755	-0.969063942296942	-0.018762723231927403	-0.2735268846474128	-0.7614096782058632	0.34860963681116286	-0.3948647890784074	0.11884357669171464	-0.7173732616922597	0.9381425256757236	0.567635827224878	0.14424208169138386	0.04801006649288553	-0.33133146852643747	-0.9982910171373194	0.9602252569308651	-0.6405522736304792	0.8952367870984683	0.3133850396639115	-0.16700789799028382	-0.18016055279739907	-0.3051616308557672	0.06760427996358365	0.8007606771395144	-0.4160058779742406	-0.30219014266999955	-0.4463132380058745	0.5264243456948972	0.5623649202689336	-0.08420197161973486	-0.8139981993084595	0.9564918689838022	-0.6284874134401093	-0.39776494183989985	0.5458059742303387	0.6943314650500296	-0.0953499779921878	
0.6285400914373529	-0.16689035713222067	0.09925458744247728	-0.7352393863494513	-0.8809723598508583	-0.22717789979842506	-0.9610094954370318	0.9844232060343621	0.1597698627919264	-0.39268271966979795	0.951618748915158	0.9506179768866563	-0.7185757233854706	-0.2920490824993507	0.414041608599814	0.2594278493874187	0.1133056886480055	0.5509518898783909	-0.23240441606580875	-0.6553094804725799	-0.8842552168371802	-0.6714991154558159	-0.4825856680586065	-0.8437035101555586	-0.37995700534252674	-0.6963003111951638	-0.7993260317250577	-0.09202962081474886	0.5400985731284913	-0.8314745539136887	0.20986443791535825	-0.02898809928598478	0.06704360226571326	0.12675495076686416	-0.33925162609239257	0.8596140951535147	-0.5820016630714153	-0.8007658921248766	0.8106835696876469	0.9350178850646151	0.2823142459285928	0.3367589877741308	0.7615006502656481	0.449901156237527	-0.006556678416272943	0.326224989184543	0.22214400891369412	-0.1389581854684694	0.6518357175022809	0.18859160213339266	0.9597986882215443	-0.04256390916040642	0.43403516035075795	0.7926008839514487	0.23424181628395568	0.28269133272462654	-0.854594617139848	-0.25392227174091	-0.01132586745851727	-0.4253439835934234	-0.2913120418347843	-0.7229680584179177	-0.13870025139972886	
0.5018883957682563	0.7278560318578697	-0.220328574535251	-0.8145583561332888	0.8457064072640816	0.5264960149725808	0.97582692365177	0.06199320221415072	0.4582025484553549	0.13221277852077162	0.23018013535883264	-0.6834776620708245	-0.17925262952522636	-0.4366788838360509	-0.5419242249670513	-0.3056380665308247	-0.16585400240057813	0.47135134510368615	0.27759123084959647	5.335305201390472E-4	-0.4092466175399865	0.7026620420381331	-0.4170740723884703	0.057368913531125054	-0.6895066503580991	0.6647196108100741	0.5540639342953526	-0.6687918539237023	-0.633131477297413	-0.4826312231511689	-0.7319448801699238	-0.12942990357185247	-0.6143120964535917	-0.8433150309409203	0.5401482592756661	0.8017050988382275	-0.2316203046662877	-0.2812360349492691	0.3984028372934383	-0.9565431995887121	-0.32660217202668207	-0.0969293295115885	0.683294634665178	-0.8681256230252927	0.48337096270687274	0.7997342890182855	-0.3357770956444168	0.08603345327757062	0.09228383064408963	-0.8975574816101004	-0.7222845666481004	-0.8999618762734103	0.9661205429885023	0.5983536154964497	0.6175202408940978	0.512193251132143	-0.13795857462856764	-0.35129041449602494	0.6446621387874807	-0.019148628542041024	-0.6646961210098687	-0.9913986251813383	0.7359335244295573	
0.08745413850496342	0.7197801944262321	0.7816004231780382	-0.3478205537828971	0.6908039759879918	-0.8629354760128778	-0.43526205435445253	-0.21687312389563473	-0.7273824748119093	-0.7291976976488541	0.9115783275068399	0.11340001687533907	-0.7570730250424214	0.13701608783582242	0.12589951088183438	0.25475280241657794	-0.28508724134333074	-0.11215711759078717	0.09575690994242292	-0.8975587434985655	0.6122651411215452	-0.1947630555692168	0.3874757221468814	-0.8009512487359012	0.13818876906186794	0.07283519252731363	-0.8586202990954825	-0.2730325956733224	-0.3863208817666972	0.6583208097034217	0.44583155067153823	-0.7988697258460247	-0.516283244974949	0.6952622529519943	0.8134253766056501	-0.6035209063511415	-0.10646125350000668	-0.8774544680462943	-0.8570633827067404	0.8200427209985108	-0.34683480688901036	0.021158026390263096	-0.8770982435234285	-0.8746070004057678	0.6368708013621851	0.08222244375701826	-0.5825357116069776	-0.7323657641644954	0.7053107262850107	0.9468208512306733	-0.8276095554716771	-0.09002610090524676	-0.9084769941040727	-0.22271115924480167	0.38892274266120386	0.618312650446585	-0.1419537410646281	-0.6486993462023025	0.5354052769377118	0.7181819523960951	-0.4890924743099456	0.21420630910294336	0.4013810852975077	
-0.6612512389111089	0.14724991807388688	-0.01827632158516801	-0.3538735955109691	-0.8685026923931918	-0.38311420840461086	0.7542270049425759	-0.24664738977602796	-0.5734119660289019	-0.905923270163266	0.785516305932916	-0.8239267533354042	0.1777850611215419	0.18435748666970797	-0.9569093178158341	0.34039740774763727	-0.05276604515405525	0.23223558311370596	-0.8964092094717258	0.8742780119064884	-0.6057377567049884	-0.1508838761396003	-0.05378499590231778	-0.06299207673081719	0.25776508325141556	0.8468139701777619	-0.36144436718342066	0.8475231847548501	0.6596305029495686	-0.2594660833617668	-0.3465587057557642	-0.6556615425199428	0.7070481178019041	-0.22378673014176398	0.6120125399185303	0.7572042720537624	-0.16556427204062185	-0.9593621524164786	0.6173985751774749	-0.8696574138265587	-0.8988897301421062	-0.37124310078320755	-0.9749969369477229	0.9093819092846358	-0.25128185861638586	-0.9288597519142905	-0.5104516664357464	-0.8111203161733358	-0.277167507983745	0.26553348832187207	0.43566711660842317	-0.28541593212482264	0.5760145425253478	0.009985779256510119	0.717972338614995	0.8443542161560234	0.19502663523227914	0.9010382832492274	-0.8318242906766817	0.4939225390496653	0.13277606847576728	0.8389775460723274	0.9709661461879651	
-0.27155058206469285	-0.024041099420582412	0.6731747083868771	-0.6329991485343058	-0.8919152222046893	-0.8577369289853982	-0.3759552436132627	0.050500809172973726	0.15551832092439422	0.7763821975218448	0.034178801433756734	-0.1894152250627421	0.3857644629465644	-0.9980197986956811	-0.2702853878747229	0.4596151731989808	0.22319444855380177	-0.31286056802089246	-0.18597084747503034	-0.10152915094298787	-0.1719068168344997	0.09371396780122776	0.06935068039054482	0.2878015017885365	-0.6352151707128242	0.30640115562184644	-0.6920956990862996	0.7259595359239692	-0.4343646915808941	-0.8247644531033296	-0.007279612913625888	0.5784464970791547	0.5800076304064294	-0.3444011304790495	-0.7607490790027365	-0.33964973688924704	0.04450900807457514	0.892730917996335	-0.08754577648420958	0.8423908625658989	0.0706371088450124	-0.8268824224980922	-0.04997529358612951	-0.6671662354231922	-0.5818042118621762	0.9530209386381048	-0.7290410341651872	0.8816689822469566	-0.4923816850755387	0.5748094336696736	-0.3303334759616332	0.4600956632455828	-0.8783992214005811	0.9946343105249849	-0.050652576689002915	-0.41250752642590527	0.6562137836837221	-0.1296087103057233	0.21437644695809688	0.4096946391403531	0.6039268437677212	-0.3032046780833786	-0.28005261220218625	
-0.12346130314854631	0.5857452606040019	-0.6752116411484825	-0.03175180644633402	-0.07672241925038548	0.6969243442220794	-0.8346108466568158	0.8439521364609879	-0.5703920066142723	0.19049250270354334	-0.3465132124921859	0.49782644765530537	0.9116941247435644	-0.40492054064689786	0.13496733243970027	-0.5842247653263064	-0.6032888626374528	-0.7516882303285901	-0.759042455241353	-0.34835063661780774	0.7360730264160793	-0.07569628131328754	0.025855603323971188	-0.4443285602262277	-0.2673497179862112	-0.25646328343307734	-0.32878595161937074	0.49633922137374986	0.8889229894911279	-0.12431331761646902	0.3954268708219657	-0.9478125788246567	0.32715555560288245	-0.3192762783914467	-0.6404339578852196	-0.05919701132268318	0.48932059138312245	-0.11912526796531853	0.8226017978882056	-0.443996602826604	-0.4063606192012128	0.1158047331079457	-0.4253676042392289	-0.5998938188651157	-0.4937527976067515	0.8056384932908485	0.764639343996008	0.9267292996256093	0.680632207785302	0.6312097435786732	-0.360325029429313	0.3505819146437381	-0.8758617349118252	0.1381908828702032	-0.5747203708699984	-0.16578264338847126	-0.03003932330605452	0.9815213343254734	0.6023164747418213	0.12773763516287828	-0.8352932719649455	-0.8511810577680388	0.1733024393359106	
-0.7840461153105214	-0.9742681449964152	-0.8637758414972085	-0.8382953547878653	-0.18147758778215373	0.9791034785985799	0.49739167397860284	0.550562462058994	-0.307907446619627	-0.3418143467201902	0.44611164203559683	0.14218492059867693	0.5995170324560957	0.7244771501192846	0.2653059256864321	-0.5914346430123238	0.5396919880046098	0.2664776790892496	-0.8400877511493361	0.3025447312441505	-0.6273905349188473	0.4389959246614412	0.8884338038262072	-0.7873542344650761	0.32771963077449895	0.1244554222233678	0.01769802194495762	0.7698913774968117	-0.9502820195788189	0.8293935427369727	-0.03236676966015861	0.05281060471467969	-0.1856150204118463	0.7734900459680907	0.14763808946601942	-0.11277366093316843	-0.6618749253945113	0.18510260312972449	0.43338448378497874	0.40030998534228557	0.20836428834006804	0.18642639443174858	-0.007341002035191613	0.7637782101017272	0.37798360243607854	0.3330367830812264	0.04111542539820778	0.14899807213608862	0.3954794160606352	-0.13328655403580258	0.4935750239318901	0.31715714752747015	0.083558941980036	-0.9529145059040312	0.6737774026225318	-0.01945369984503431	-0.7676065697595302	-0.4532215663727921	0.25525072810877814	-0.9036072856265032	0.5397684290570788	0.8263825887261604	0.4282349923858568	
-0.40742800469414386	-0.49111513810975227	0.6497059537781626	0.9223582033307476	-0.3250814430288067	-0.6944184873809647	0.4564119630417349	-0.0379687660505974	-0.17125576778924434	0.6802641564650815	0.17828592447707314	-0.5087086451012715	-0.09743460458727382	-0.024157281438234923	0.267012906941958	-0.9229080542535191	0.24992996226609931	-0.028506273534177007	-0.8045084789361343	0.7848002155795664	-0.19437436795066043	0.8530797553791956	0.5013470784389218	0.01693049290847659	0.18544240909675658	-0.045425103473424544	0.5604509059124634	-0.18409270849445458	-0.5759485402526545	-0.9191404206431102	0.7098899093657949	0.4539162571717721	-0.19654519105894663	-0.7992361230423002	-0.9160258073670029	0.2676687175550483	-0.6251504786388145	0.09025503583687944	0.5835090487970127	-0.3568308555620725	0.23964144846555913	-0.8908207928125855	-0.23230108961428786	-0.18465746859036858	0.4307341660545627	0.7109840150826696	-0.8603077805003962	-0.2803576464992672	0.3231088242263125	0.5133636246351359	0.2909156022929933	-0.48247311042712804	0.9031021602139291	0.7987841118051802	-0.32401318941922863	0.6149563819623798	-0.061320512777164105	0.16736207030276162	0.40913725574675497	-0.9971698677850851	-0.8816089076995777	0.7305851590122006	0.40471410319157086	
-0.429453611455763	0.5645905175930981	-0.28712075144696003	-0.5715259951174787	-0.32136383912199395	0.7768839270531813	0.6190420440968405	-0.8169797412632949	0.7236853364715152	0.02467013166893217	0.22907858647167845	-0.5801240761510684	0.6885263057500448	-0.5169773512552829	-0.4020095390503846	-0.7476732868694642	0.7429459759104595	0.9940537256901376	-0.033414898688495454	0.337306796556633	0.8449216978844014	-0.7637068938254454	0.03038793150384067	-0.5987572527007301	0.9896636878060034	-0.7024970074927761	-0.63274468218365	-0.2960892870401821	0.2635070399509718	0.17174329874724936	-0.009697353809152043	0.4660020579055473	-0.8180375426630206	0.5393895198791503	-0.02872407564088819	0.030234720281077543	-0.0739999557835418	-0.6608014574756593	-0.12948705154698392	0.5824865604313896	0.03790741494713257	0.10440655139950716	0.31315408617424034	-0.3714308442845935	-0.10217288158554161	0.8102349658347998	-0.532720866377381	0.1038994721131552	0.8743453638028464	0.06807027395400778	0.4081620433922635	0.9874691125414503	-0.5727304466978054	-0.09802550978852409	0.39385117707602535	-0.4018496742808315	0.6379966273276965	-0.9439261491932642	0.9307980925927308	-0.6294811997137153	0.6526416717329737	0.8067634465926694	-0.8257261317438394	
0.8390144534019925	-0.6546399620039061	-0.40844343740417544	-0.31317313729474816	0.8034014611102696	0.1440633303960588	-0.5832021813564321	0.8690525929437334	-0.7948707213083708	-0.5920058820859275	-0.03064966343714759	0.48046090946920295	-0.8866620707383848	-0.9936096052785786	-0.36724319879932743	-0.41575823808922374	0.400890149576705	0.8197368237124452	0.19626633922101444	-0.02175320739848008	0.18495525897082699	0.769864281700027	-0.054491961777018094	0.7155187856103018	0.9133080060364491	0.682426086716519	0.03648431511771366	0.6712175257727	0.09664899937298177	0.7950440868089941	-0.42005348862487524	0.27880563773910305	0.11889136165078007	0.046683774237332054	-0.29889338326027226	0.5368739227904964	0.3015008249500648	-0.5814167608415295	-0.009970435542303369	-0.8209989585620496	0.45461550359891567	-0.4556741159061106	0.22094012975723554	0.5025582053063902	-0.48318563007557325	-0.4335864397003639	-0.005928907207561673	0.768385425274343	0.5670407797262129	-0.21103898293392298	-0.9584321550602304	-0.6882191095729591	0.4863320330780294	0.06089904333969898	-0.6606434069840355	0.5462610718244583	0.8536429812977835	-0.9786602245250455	0.8797734150508252	-0.10493512511123404	0.2791945434460965	0.3485215572510496	-0.014857733697542619	
-0.6486096936459671	-0.6895819075500593	0.976018041560939	0.38038040335070855	-0.15313156546817774	-0.7102936635180992	0.8746616423866234	0.8931004814166426	-0.10120592609098567	0.09982386361506213	0.4458955768625268	-0.3874307211077064	-0.8898502704708011	0.6019691122865916	-0.1679635618241393	0.6142735836234006	-0.9875269778411855	-0.2468787899121785	0.5211935966206378	-0.055265792034022265	0.47013550268217164	-0.11655377683055934	-0.4906427913412559	0.46159965225636035	0.40561443668080766	0.42117671581663707	-0.020566688245803988	0.3369426521750212	0.9588565165338399	0.47151985980105704	-0.033230882220093294	-0.44292859678971563	-0.6401533755117366	0.08779045058235102	-0.19702241258525022	0.5900599864103326	0.7720117162583244	0.8171042643702384	0.26463600322235603	-0.45740811613692967	-0.8448961310270662	0.1596100975259218	0.30069897726444483	0.5906013574443456	0.7997243942337449	-0.05062319410344407	-0.027768078465703283	-0.7564113813718181	-0.3983359263948669	-0.6533052501790435	0.8103359993630952	-0.909626005209154	0.37275229855317127	-0.8743100476057535	0.18290279447388058	0.07444918209107731	0.5259220238474291	-0.7522094493554008	0.45810039126801927	0.05997164320742976	-0.674285828379876	0.3307262581615711	-0.23773981735488792	
-0.5251592927033637	-0.43853995810192026	-0.4456192843212625	0.9520980297962529	-0.8448155970067395	0.978895778669908	0.7889591773737956	-0.9440303628187754	0.16597524815870912	0.09697960447026577	-0.7124273959666381	0.886125582500555	-0.6646140694191327	-0.8598029370028328	-0.8455181926472093	-0.21630349508505864	-0.48411552786573386	-0.26734473391042446	0.9818839744926875	-0.4695942001737681	-0.827039325372958	0.7287838304576506	-0.4577335230004618	0.3457712354605893	-0.1972348001980797	0.0964741749937319	-0.7700085046927729	0.5858237981222625	-0.10716634855545815	0.1220058533443189	0.06491750727995549	0.2691371401532825	0.6654589843652368	-0.6278764775051815	-0.4974968473058965	0.878226631526138	-0.3188346693284714	-0.17285602335808425	-0.9610205516972843	0.01914269597362739	-0.46987205192482007	-0.6100118748967738	-0.34318173298127896	-0.5306509755634572	0.3022739711076765	0.5795489363239983	0.5248637606294115	0.903741180490393	0.30218930863288906	-0.36717896838345854	-0.9508637895228771	-0.8390724523078721	-0.43715188827566887	0.46873439819074525	-0.6355441271732936	0.2966599246646948	-0.8874287851015137	-0.9923506306262408	0.663677579955636	0.8685658270484404	-0.33748860613512166	-0.8060136840360703	0.38046553819733653	
-0.09389798574838037	0.4073525484845262	0.7354782473722365	0.173179500032415	-0.15808718624848028	-0.030197297235234233	0.05105160887569249	0.9015831230541873	-0.6844575266769028	-0.8301512705854954	0.2103545579187387	0.3447278412220125	-0.7922821468103611	-0.7373663297031097	0.751468421380276	0.2775033040616699	-0.4768183138578581	-0.4357934450459353	0.17935425447121434	-0.29501094339229117	0.8123233148229971	0.9722861247404384	0.6761004138823914	0.5478804014328684	-0.29338117893082916	0.7895701246964775	0.09505454501130228	0.8789037514104718	-0.15984113790045074	-0.5299875913525987	0.6644376004311199	0.9292761251521078	0.9393071335620056	-0.5661191338911209	0.9920539378542701	0.5159047035404452	0.1847989153183247	-0.06469969876133086	-0.058773504802594134	-0.7158367393431615	-0.914645745323025	0.11637343049877336	-0.2608971839672283	-0.7822782671981032	0.04914608974739454	0.8448659581422409	-0.7180083782519577	0.23604757616576677	-0.4007704939544974	0.7078306375200576	-0.9815930741818435	0.3818362411056524	-0.24869678005971485	0.6214364111903603	0.019011310846984042	0.09477044990700345	-0.5430588459815071	0.9176596703117568	-0.11633412562957046	-0.6253526405760486	0.21269623101735524	0.4813849069776659	0.989310004709661	
-0.7439457836888981	-0.054754370948255415	-0.4631477029426323	0.2484098416444669	0.9484126281498786	-0.894989338428968	0.020281446461025476	0.026229680516739462	-0.7606462423971265	0.5354518167397988	0.125890590901103	-0.8438035325668725	-0.6839743318630527	0.1325039052463235	0.5754201800765795	-0.9038571057649307	0.02807596732782658	0.5683821932517117	-0.563337421962173	-0.8157694624704168	-0.2023068418666174	-0.5737437114201087	-0.09561223590948043	0.6818698936394909	-0.1237700881074586	-0.02294607352268363	-0.6425518912787584	-0.16803069094197975	-0.5464262303982268	-0.47307737998457333	0.21873339388597124	-0.48563774312024455	0.24556989780010952	0.7736422371781091	-0.329960604091728	-0.753724899422771	0.6164415385514146	-0.06745212097842446	0.11180448579205948	0.25421599722455235	-0.9627049991831482	-0.4727118271241515	-0.5919429323728225	0.13467910459332888	-0.2615638683410839	-0.3119917817058393	-0.5801902188600334	0.22457565155374315	-0.2176343296728045	-0.44068579363991356	-0.8944743735556273	0.21831710931298942	0.46596232239162205	-0.007359156339184381	0.5551720411115604	0.7969930829923371	0.9545018442814335	0.08240875356527977	0.7247698028674114	0.07610131079080884	0.3568020433802528	-0.6973752357663514	0.35123396871054813	
-0.4681974698415301	0.06992391815014631	0.010343693250953745	0.5526950255068726	-0.2683104569478514	-0.8465002040642893	-0.09532487193814076	0.957378647253228	-0.3254253053542333	-0.26210068054120494	0.664786057741372	0.8545137183520115	-0.16518483142807594	-0.9729139504448399	-0.5623867598619456	0.8236277293774366	0.11021287442730698	-0.67384276168968	0.10576736621057337	0.5739809311049819	-0.21146064097799488	-0.2948006621934791	-0.6616247090654244	-0.6862203356554344	-0.6237472721924837	0.4052343399750624	0.3123722019029094	-0.13079906157731425	-0.3260105890009195	-0.10132949375525069	0.6890221158409964	0.9861504674763528	-0.16307124988499044	0.6358132201942996	0.9402096090830672	-0.2269325055528122	-0.6758558439066198	0.9406314727779372	0.44131228352220697	0.08097939400711751	0.6195701355474776	-0.7368832876012275	-0.11777134221402896	0.7674008834910395	0.3982303931321798	-0.9477893402644175	-0.5045987939027252	0.2535623341175359	0.4148877801582942	-0.11757958156389337	-0.6405584117522205	0.5598430972527713	-0.1917083149194614	-0.8511218415883652	0.6092286138619798	-0.9078248426798217	-0.25728417144716564	0.6397458120492823	0.7681166728499069	-0.1474250500188432	-0.6505071923167356	-0.3984974977873921	0.6151573407749542	
-0.5401503707521975	0.7847695351853452	0.531796569822121	0.010002940858590659	-0.60808343372836	0.885721773475848	-0.1338180845317305	-0.07957481771495956	0.1990642631250774	-0.6140176787162881	0.9692004341304576	-0.46784985941168955	0.08787414394268689	0.9420526437425474	-0.6030872365986164	0.7679730250395351	-0.7615871667171366	0.32598437943825376	0.2671195161347055	-0.19711443726906275	0.4926957826811278	-0.9443693502819832	0.7551570123315736	0.2342112037660291	0.640312957699203	-0.5377144570308845	-0.7727092377927995	-0.5494891538408186	0.4274984911427091	0.7365430889304025	0.33037176833648996	0.44028715075706115	-0.3711829850098487	0.8467245485909705	0.47556031139389265	-0.20871938653636857	0.04602882047020751	0.39023783090667985	0.5855634932068927	0.9534162783491342	0.13658838397989048	-0.583252426597622	0.7189728265538431	-0.02677362954365825	0.12461990746758578	0.05305234679519444	0.24192855030851823	0.8548387872962815	-0.08989507145345454	0.36307815981734626	-0.41352072654364536	-0.5376127662218038	-0.1325925501016545	0.2924155590621762	-0.6833562330278913	0.4509651907959178	0.7121527605766313	0.775341543576896	-0.7826744731197852	-0.9019896006976358	-0.9841333032080211	0.12328469566029221	0.4278684127047341	
-0.895727274473475	-0.33932757275803294	-0.3327947250592438	-0.7388160780107864	0.44328427147674376	-0.44826662144196994	-0.7076193183776143	0.2810211755356562	0.16051515633284308	0.24302012329831046	0.982599192900474	0.45409047275512204	-0.34183445792885836	0.7823710621230191	0.7817831944960203	-0.24960674733220012	0.44880842904017615	0.04470650675322552	0.6845767766245192	0.4342502482313233	0.6208643752684606	0.09764685751193891	-0.11655091951524499	-0.5298382513043063	0.33115531878341775	0.7316755248873408	-0.4716191703314645	-0.03822632684823524	0.5245486746412591	0.18737895946737737	0.6962157196477607	0.3488641846365579	0.7779704703499615	0.3251857246683789	-0.3797244043328738	0.20640563271081436	-0.3241693200178768	0.008417607801268545	-0.6031474249122915	0.9213979981110152	0.4461692312418408	0.30835676746650575	-0.6362920220817345	0.2673103715161109	-0.2784012976279604	-0.70957751186367	0.13672282740292796	-0.04739331271370539	0.23638243391548253	0.6034432495813467	-0.10563951688263762	0.5889747371222407	-0.9692444383760019	0.869398767679795	-0.084381864381333	-0.7934846386686896	-0.6941405598803474	-0.04110125779568774	0.6056582487276845	0.43729181936417594	0.45742705602664935	-0.36194534642395193	-0.715671499620741	
-0.20472168142803304	-0.986377427634541	-0.2147077135629636	-0.13370759828486212	0.09988790842733919	-0.7877974201317832	-0.5979573762227086	0.22751004709860978	0.021901012764714567	-0.22556542510326816	-0.020859966527853047	-0.46867704249970066	0.9747551357976143	-0.9320295710960591	-0.5688531545501843	-0.9215866842015783	-0.8692011352360582	0.2981423931074194	-0.22628583875095476	0.3484230151173793	-0.7887479793264114	-0.3730895990144283	0.9944795418026156	0.8170341451746659	-0.11974446667903815	-0.8090408031036134	-0.8441077207684431	-0.13917285549137892	-0.9324648944517837	-0.12479393189657695	0.6687485988385047	-0.39674991965157225	-0.6491569126109791	-0.6047523760181324	0.8881087522655522	0.9085462732867859	0.6484834714085113	-0.24796068784166425	-0.29134108040527074	0.8965046451613798	-0.09613341063604075	0.4443660941601497	-0.32552823388898955	-0.6705880460069349	-0.8118210860708934	-0.04057042478012929	-0.7314899293070223	-0.9863980832663151	0.703895725350044	0.00914160266441888	-0.48989259830614884	-0.038488053345963946	-0.4589956689324872	0.7394803718845979	-0.2359471967284137	0.4761738176503898	0.7194455597469342	0.7125306498932498	0.7527938999220736	0.5485799529615252	0.04542299912877956	0.8455954101826719	-0.8363332303975732	
-6.169745698891838E-4	0.6158694227763242	0.6890312835309909	0.9559485911055892	-0.3500979819757224	0.4245004681435298	0.43422709216397815	-0.5020779378312439	0.47342351231071844	-0.5454737384360329	0.8654084914748177	0.0020296426441623883	-0.8436977278974751	0.8872327818071934	0.1037196065015904	-0.6234129395807149	0.7893816597093062	0.6122846736340815	0.4392957576779304	0.5754156801681309	0.5137695000942277	0.09474235049305713	0.8068093395403406	0.8021449586550127	-0.13898011411465472	-0.16457340581822555	0.5322348554108975	-0.48617502613967534	0.2562888652129769	0.15540466104631334	-0.13665492955202185	-0.9311181374045732	-0.3059540453182745	0.8420126324630648	0.49371697317268204	0.07733767727753005	0.949439455062465	-0.6870316411342143	0.7997900957514383	-0.9633916934600169	0.854430037983039	0.38677219258091333	-0.16721309497335435	-0.32591741311750067	0.14632112718132406	-0.5082694402228345	-0.757930461322762	-0.43192278721808997	0.1873319696089064	-0.7974197899059268	-0.7462264950988047	0.08165198411065955	0.45737309550142213	0.36283071696597724	-0.41167565217141466	0.41916093495179396	-0.8617984469567557	-0.2674167626041877	0.7727084793570751	-0.29669395691632183	0.3356465576016807	0.09572488557295311	-0.3118642974457786	
0.37084902114000684	-0.4723857435908514	0.06703782687640936	-0.6090037137727045	-0.10196994713033991	-0.3209061808983309	-0.5410964834950669	-0.7452191621967403	-0.10786987176303287	0.1314043971310661	-0.0010770535613213728	-0.6971027118624957	-0.07649342184793939	0.8514365876060621	0.4339142793372637	0.23708431874542568	0.1228203342879084	-0.08234082212594207	-0.3876104299044798	0.11338715183021253	-0.46893477393819616	0.22317605645699712	-0.9932461941799624	-0.12257393892697288	0.46539983488851155	0.2921352142658271	-0.6818906280661559	-0.9570454620074484	0.751672366552109	-0.1656934582654206	0.3006895111374339	-0.31753066249748785	-0.4250786417971588	-0.7963394565377195	0.7495858002843154	-0.4041001808087672	0.9120234293670304	-0.7197034704410492	0.7145747734848962	0.03317082635116808	-0.9639479686898005	0.46108436500991345	0.4344890282475984	-0.3313027568565843	-0.5801997707086579	0.42289804776798645	0.23071995531675138	0.6606356893870773	-0.4836882208573978	0.11333745836229903	0.6550783703409282	0.5749832640259955	-0.6428441019707118	0.027348084913580095	0.5563813994395981	-0.28562054829418204	-0.31542966855380516	0.2441650665679722	0.4117735571075605	0.9637328779067316	-0.5785102001059728	-0.07247591176232704	-0.7370690123878052	
0.6495598943494503	0.68386563590625	-0.9669045859955854	-0.09606164685520158	0.10718771317984577	0.2525748755448356	0.8206158181583529	0.5867690653794253	0.6597411645549425	-0.5523940236135143	0.43420569237890705	0.4419384617361153	-0.46490340549757536	-0.3148996577031318	0.2928766191072987	0.056043067481340136	0.8817525543883622	0.6482185497188573	-0.6757509147976895	0.20453620316526622	0.4918331506781215	-0.03430847531171688	0.17801601171986725	0.607234066419559	-0.9007955642259511	-0.4326933937205286	0.47170375598571335	0.7556847592641007	-0.8070490385329263	0.4734700567539156	0.8497965917132944	0.3556742192719642	0.17122402619250887	0.6763778332809665	0.17830807072057486	-0.2652156926408056	0.35774023262324195	-0.01678357659459584	0.5503973043670762	0.6840571714252002	-0.0870266908565227	-0.7827928858028705	-0.0553569754042087	-0.36553741715073107	-0.005652000844628802	-0.989802349766721	0.3561062438537801	-0.18699571199222165	0.6545118581536951	-0.42910534058111716	0.011325234541479823	-0.9200577021133485	0.9140237748513729	-0.7242774885377345	-0.11809556461326332	-0.4822509153823118	-0.7954334244985413	0.7046836697375283	-0.8726271168367785	-0.47594205950642277	0.9510542424865738	-0.1675133071537127	-0.6734956098172002	
-0.8449978828202955	0.4457714669665196	-0.5144010699142625	-0.6026930227212433	0.7719846945109761	0.3649485898312499	-0.11122931843422901	-0.04059536211311765	-0.3359408653400333	0.2879394488762348	-0.8500306224549152	-0.44144976788493007	-0.7502585466324239	-0.5985624654650774	0.8705523579777406	-0.348476197060964	0.7062150673974055	0.20592890642518658	0.7178967712075117	0.5406866745347538	-0.5694689296016762	-0.5111518950611651	0.7605976424265912	0.5509762192923289	0.6065458352157262	0.08866752107982023	-0.3582667156178996	-0.3418561855864064	-0.6670202260035316	0.04641708578363435	0.2535905312160964	0.5055513535612628	-0.737878900581511	0.6258959519348632	0.47763031064731765	0.2878602242185244	-0.49466127358446865	-0.6188947594328371	0.7663664560958288	0.3334601187937527	0.6807101663484132	0.9591934268970808	0.8692211701296559	0.3835011954717613	-0.590290360395642	0.6494753834321523	0.8423097798219046	-0.45608975536171914	0.31404325764261154	-0.17615167969855205	0.6324999628053525	-0.32221574583218415	-0.3796421707771853	0.3611958907980879	-0.011020384535029626	-0.3909267354413921	0.849691502254297	0.9081358473411003	0.23095932971191502	-0.07552185739764661	0.7501741582853352	-0.5992668422492904	-0.5119746666316904	
0.3890053901757793	0.6256268073902203	-0.343434420612885	-0.5699504970234124	-0.9683634122563967	0.5193492068763992	-0.9562051870791681	0.21645443841170642	-0.18891473447651386	-0.6684741573971096	-0.7563388361007799	-0.5799792053991224	0.4376304189018001	0.8803217899373941	0.9450864369067327	0.018315954722123884	-0.5944692926162547	0.16087877264619865	-0.05516556853715149	0.19621317150697482	-0.41846039185289907	-0.386935630192595	0.5739442387217217	-0.334138997890963	0.7985569625529598	0.07796672001375238	0.630917480647686	-0.5141463488251257	-0.1805316060998905	-0.695232141953589	0.0744062416060447	0.949243299034124	0.7647392289552564	0.36376982956492454	-0.3870863731778924	0.01042577632364261	0.6383457615000285	-0.8720116616777263	-0.9737154034024951	0.9338227218057922	0.9401416883310987	0.10486829193135061	0.5635312675546484	0.3726724245062769	-0.48122631878465616	-0.6686817206042008	0.083800934450031	0.9241333882095399	0.7977755739006549	-0.21060086311796633	-0.25793795752477555	-0.642705025724778	-0.7015142201665769	0.8566446060724868	0.9683482236607552	-0.8264205898342061	0.9869490422705605	0.6741312874502441	-0.7508335985459083	-0.0655885304040158	-0.6120212878165248	0.9970561822540902	0.7919407322704504	
0.878920990620278	0.6380709706522023	0.08672110485508422	-0.46187101284861787	-0.24516407500260584	-0.3101207783463602	0.5094631186620786	-0.8120848709357871	-0.501387436154082	0.7344713145497122	-0.6727886826477403	0.9091458580104386	-0.5737586911721648	0.5736085749113684	0.09599074248819273	-0.7745549182035374	-0.06594358567943992	0.15280081753805352	-0.6671647796797842	0.21320692632326455	0.3592690772628804	0.7569077324168951	0.668210179608185	-0.41556840169439835	0.6128335478653113	-0.5264279920651889	-0.22981043774317178	-0.5078645562737845	0.4726471556837304	-0.5542146577296914	0.308268610131355	-0.032667742096053054	0.012974669062496114	0.16340461671277384	-0.2811622493269368	-0.21865300021658762	0.5463796126009193	-0.4155492880120297	-0.6590187477698999	0.2244909977629932	-0.33266611199577856	-0.7694626634442385	0.6104062412158302	-0.1981090760015476	0.5120698482368788	-0.43320488765250986	-0.5690521480999728	0.16953161658078097	0.18712716102436078	-0.04483128632192268	0.5872367125819236	-0.2316634281869414	-0.530559948796492	-0.7390167748297034	-0.8812438938761218	-0.43862269899864104	-0.6563015092036997	-0.20381017753306607	-0.055343720392334594	-0.960933404828304	-0.2818902562338652	0.698717299419471	0.7103343649561384	
0.22945833869531151	-0.25242391583565027	-0.9241290665770483	-0.17907142938643483	0.8355399315305398	-0.4063048590500995	0.2807369450689705	-0.06648349806242249	0.8186711431352138	0.16388097155052384	0.5440647201499453	0.7989476084642209	-0.24291277716256587	0.397292754927558	-0.14988345202337605	0.27588080661827385	-0.8693494397401169	-0.9968491027477953	0.423488528793484	0.583737932370388	0.3178007874136102	-0.7925910151541233	0.48492313090889705	0.4179263399413371	-0.46208185007238534	-0.9733584178589625	0.037648598406148315	0.4198221101318984	-0.76791815863735	-0.13660121919706092	-0.6382028941141924	-0.32435194507708864	-0.5525308872931496	0.8051679147588304	-0.37703215333186235	0.4125196589936415	0.6754077033850692	0.9094751668370042	0.5420182810579903	0.8665744065027416	-0.709640085845463	0.9705479918846767	0.42668077999340315	0.4172386887260604	0.24688062164155955	-0.21164694563406927	-0.9683802390006113	0.5133290361229454	-0.986140290735708	-0.20128819539015153	-0.3079429022535245	-0.33917671327542154	-0.1398778960673217	-0.9264110925795834	-0.032887702657336204	0.7987794651477296	0.5527274553218646	-0.8364621364762883	-0.36748291233582964	0.759019284942757	0.289073749088093	-0.97032041319808	-0.721618763097513	
0.18683526185020582	0.25617771154188373	0.4004797527623052	-0.003798828031121193	0.29412022145953576	0.5952683863273642	-0.7110179015787075	0.6803191755567637	0.1229580051314334	-0.2529027329568858	0.11904478893574444	0.3225559711107291	0.6168570454661968	0.16313304202601375	0.9345174984431823	0.3447560626996031	-0.27155420718009116	0.19007531241415565	0.5031884883196323	0.4924993787357781	0.036593065549015424	-0.43011315970571196	0.7777206059864312	-0.8957499417488191	0.9025543941992089	-0.5551903310441653	-0.8613141290627793	0.6737274469511949	-0.9361128016850815	-0.9834039130407402	0.12019926774384526	0.5393009317417898	0.746518345954976	0.08145120970693598	-0.09345673978597291	0.2627252327578822	0.8694879262069504	-0.45305102719457313	0.7885640355100174	-0.19945103727148106	0.7235334504390158	0.7344497164964225	0.9815124561978354	-0.0749557293889469	0.6238203212022844	0.7803127566120567	-0.26860771589735366	0.5175216536024974	0.46876375192428066	-0.22853718460952832	0.4747697638340498	-0.664590835294085	0.8810288263616488	-0.614364627895881	-0.032611758386362766	-0.35450912868156204	0.6634357759518577	0.753890921853092	0.759823020888035	-0.2807842277661212	0.6716381072194193	-0.9772456061391379	0.17380205050459652	
0.6020026247962853	-0.11291815915497416	-0.3343990444242637	-0.9792918019664241	0.7969834265029663	0.4678947394890527	0.9776758874441551	-0.29582993836009397	-0.45535756274658645	0.8619953904042836	0.3864008175215221	0.061538760402577	0.23332404369686155	-0.3141482380489502	-0.7816147705755279	0.3244386602081195	0.14159847551369342	0.003960738003691677	-0.6131727747732993	-0.08352984712332412	0.1919897426024142	-0.11174076647284448	0.09775276529334453	0.45653479420034926	0.6865850230228452	0.6933197985734025	-0.8791902517288266	-0.7008584893688787	0.09856275985319507	-0.6476772809001454	-0.5699033259377841	0.21844507226270649	-0.09031125826154063	-0.819561846014758	0.09277338664095858	0.43065777677546224	-0.7876509633008284	-0.8336075294481635	0.16796565421679333	0.049866050248503546	0.33570047353687227	0.5396328644134385	0.07574168452821683	-0.7148258651137016	-0.8909615299114386	-0.4803540720609285	0.405703695518697	0.21248848225811123	0.5414946239739309	0.5856252503558739	-0.5429960707142047	-0.20785446405471464	0.6756943216590194	-0.6511743632800862	-0.06364034436837351	0.9539779617770825	0.16401913236157162	0.1665797912892546	0.18790769792500384	-0.9656962509817093	0.7196343154882219	-0.9939043023078071	0.0885040699766273	
-0.37528612066574585	0.010458264712341903	0.7477932150097615	0.31434052439099625	0.9804244916714733	-0.20723445432802845	0.11207832402006623	0.06951557106696327	-0.4636497303201572	0.12213062256618312	0.7000948789290948	0.5644619053009876	0.7919469651520554	-0.6670636644725059	-0.7418659160614041	-0.4581002519414714	-0.14873998703074864	-0.856314993417046	0.20702208524379828	-0.029750657126121904	0.24250884206787715	0.7238669757749601	0.7219476568375587	-0.34079734114646243	0.29192553081893324	0.8491568408393984	-0.7951682260255157	-5.800741414274668E-4	-0.7105419071796506	-0.6247777996271651	-0.1395184660769606	-0.7119187258495416	0.9593382016792427	0.17644727517339387	-0.730587838712957	-0.8257092849441054	-0.6635945117135609	-0.5756124789248116	-0.6556393018476208	-0.35690584643730383	0.04946902544301457	-0.37821225398000413	0.8641559608075462	0.6541398663750579	0.22587938852171785	-0.8384874672936924	0.8977502229027032	-0.9392259777486172	0.7568733130777681	-0.6542479614237	-0.1371419450116429	-0.24236861450943725	-0.49885446260697996	-0.22061700270364337	-0.2922112504372041	0.13954499685181654	-0.8455087989566272	0.8423794205011859	-0.238299866594333	0.9018657599648681	0.9762543222789297	0.5496846253583356	-0.8323600525786776	
-0.027952544657748657	-0.6612925333623463	0.5229697425975544	0.49438488192390695	-0.06538083081239088	0.15337853167102722	0.027221182013944967	0.11722466272142196	0.6964321224428487	0.628732280118999	0.06611471743304631	-0.7355182521310661	0.3363335627001969	0.5265028926223789	-0.6163512217338376	-0.754303677809329	0.09318670792019645	0.1093660270217347	0.88552637565499	-0.6909525537092718	0.2684202327507592	-0.6894706701529631	0.47228955627142777	-0.18027798520562333	0.4540572803328189	0.3062100004261128	0.5672264192172438	-0.9924167526413361	-0.055560515427349744	-0.36514045865858513	-0.2744130581663722	0.4016316531084283	0.4496266258083119	0.28238640952305394	-0.3723420667893249	0.2503915692201555	-0.6992813124952215	0.7405172975117045	-0.5132350571841262	-0.2785023768414965	-0.7778874358509269	0.9458291615087842	-0.5557171076071175	-0.5196052640703928	0.4429711465342039	0.21987386171870238	0.8772540988259427	0.3672081138833996	0.42994833774681207	-0.14379103254235748	0.71022723703329	-0.6775220669598465	-0.15452113285919777	0.8380379408464138	0.8014464565632473	0.45659565590078155	0.4707079710969999	-0.6794458154952934	0.2645362836169587	-0.7855808540406932	-0.22059916653942024	0.9749734594976736	0.19034210167739363	
0.9556838074133709	-0.391061626333262	0.0666307810737441	0.6496033030056958	-0.046531454205324785	0.9467700961648524	0.2274072667777256	-0.9143498569331596	0.8071149623465042	-0.7645380965289281	-0.7168562237447065	-0.7526670263826376	-0.4273601455288678	0.7967416327985837	0.20958939871675075	0.6659057416945602	0.5328207731424519	0.9847102849427201	0.3158217668321972	0.34560324257652897	0.46077584092120727	0.5006537554344499	-0.9080315625740456	0.8161667205991467	-0.5250014045639004	-0.06334596941608583	-0.19155145291371634	-0.013413040329320003	0.14045103147305027	0.06246563933353855	0.9168443069161458	0.3428515716956897	0.33945596857802185	0.6298885431073875	0.5779030325521708	-0.05150316803372523	0.6177737415342521	-0.4588669230830056	-0.7699389086230999	-0.5647184533213296	-0.7946142803343099	-0.8875595633924025	-0.9877293267119787	-0.2876846231567496	-0.28184995024012216	0.8614853436639021	-0.9321973222187643	0.4754893777780991	-0.3343655349919392	0.7568554173819928	0.28108838739308495	-0.23492692142443294	0.3220720155180907	-0.8098345856498264	-0.16244695134532683	-0.20214287803394715	0.26152633672506576	0.06613163547243972	-0.8532136953500091	0.09123659012915475	-0.08500698583853739	-0.6468034496458224	0.13228422058870692	
-0.49985437033865066	0.8763053193548631	-0.8029402567615096	0.6663876804693698	0.203769902182801	-0.6346476431930996	-0.7282632337130175	0.016934473901420333	0.9074781166283556	0.2512581284784938	0.427532871678032	-0.42746944686317034	-0.4335690680090578	0.34481199462647627	0.8925847480159117	0.8262388408451522	-0.20915991320207228	-0.7114201013522843	0.29438875918479956	-0.377127033524135	-0.24113409724906032	-0.6952325405490694	-0.4100008673293605	-0.9870252489163112	-0.058341125531980786	-0.6949537929500906	-0.37165321847770727	0.7069446305721454	0.23606395119264056	0.4231956469730396	-0.48460654389818014	-0.9143149150390528	0.20402423404809378	0.900552582608733	0.21260201339545381	-4.928146005285239E-4	0.033734795988797917	0.4359024139164829	0.8714701535964362	-0.8250584220128883	0.56611349912462	-0.39441486873744513	-0.7083609743038395	-0.05051407490831772	0.27117171098905923	0.7662315672772808	-0.412644959848641	-0.7327896050694858	-0.587617156680093	0.9716841572762356	-0.3431719296554654	0.39353522220660775	0.8031622335447433	0.867298708741755	0.37129540278954876	0.6453828914470225	0.5380882690296926	0.2689633831481648	-0.4646341647385206	0.5833002266042906	0.8725093138631124	-0.8091883535014663	0.6174843382144575	

