0.7180974173288095 	0.6398834405019549 	0.28637171232944403 	0.9272038743930275 	0.8460520806291669 	0.7733448944762908 	0.837535846271275 	-0.3151374813275645 	-0.3161651303512918 	0.4835284622092515 	0.6906283979883856 	0.6147797063235017 	0.20092226161068028 	-0.3299690870491443 	-0.11809471064220345 	0.9019487422017793 	0.4428047289017685 	0.03974884450182592 	-0.8994442949732908 	0.7162224527347112 	-0.5075076214295227 	0.8952338413959895 	-0.9691302348498232 	0.4648038809467079 	0.7329111522494496 	-0.2051848435367627 	0.9535792162123189 	-0.26071173842646056 	-0.911039601942073 	-0.98820377607329 	-0.12013165998086062 	-0.16914727057786072 	-0.6169170345944999 	-0.4967643056139446 	0.7278833826034747 	
0.5016430377617502 	-0.5442246386184502 	-0.5554737341471359 	0.35039349614178184 	0.07735968984201835 	0.28254441068030856 	0.29418808244611694 	-0.41641221031350173 	-0.1345011016093649 	-0.038604849464566104 	-0.1760044411565087 	-0.08918178267621868 	-0.5943425101898479 	-0.8499875128703605 	0.5827613066415009 	0.8214282585756874 	0.12276305639878471 	0.2993768576368332 	-0.14219748265382015 	0.49363423142102847 	-0.4189553010741782 	-0.1393662207980748 	-0.6436810589949136 	0.041755196244515735 	0.7260121362292524 	-0.46538711848817416 	-0.45038563974303103 	0.2419139611655019 	0.2536646491943759 	-0.41152706732919686 	0.9062974319916635 	-0.6133377877457729 	-0.43939605106367896 	0.28152492884217706 	0.08629949581030139 	
-0.2821916745817288 	0.605678490792878 	0.5223654209273318 	-0.4242485929574846 	-0.25194340361496903 	-0.5467602548607042 	0.022028700783580435 	0.2134637546321918 	0.7058935536020552 	0.2700444069357302 	0.41294680512205817 	-0.407041572184192 	-0.6755147144163836 	0.11228880938076369 	0.07108127855564139 	-0.580297924393629 	0.24417890201648018 	-0.033783937882947424 	0.7086719209929131 	-0.43860411575739655 	-0.5904724578968348 	0.1951885781995184 	-0.8023757875687993 	-0.2501214916487149 	-0.9844119079382414 	0.7980722925735773 	-0.46136507072959465 	-0.32359756500432724 	0.7945680755577087 	0.6982321603767483 	-0.5912651806363216 	0.567747284347127 	-0.2672733280016828 	-0.340609169877224 	-0.6999955775446876 	
0.23883649681582586 	0.6687622927030032 	-0.6359435136308289 	-0.09520248351169713 	-0.9117730288554162 	-0.3512515946098411 	0.6921784705513314 	-0.892115251622243 	0.5360444416026799 	0.3990063496833267 	0.3021424736493934 	-0.2864915443048739 	-3.594041950685245E-4 	-0.17286757407651132 	-0.7568298352157126 	0.8654169237689986 	-0.33954927940748303 	-0.9272750726472485 	-0.4823587752712759 	0.010525778248007711 	-0.003765964874772987 	0.30318424684722745 	-0.7361904218795641 	0.2119310582140559 	-0.6639175595802986 	0.1862884060324912 	-0.45616284715560185 	-0.3654224523465852 	-0.45871481373080814 	0.7700727670582981 	-0.40097647874152686 	0.10696331898977673 	-0.6766584806448552 	-0.6381270883441539 	0.873561679557409 	
-0.19515950068291632 	0.6811163792703157 	0.9222159895492748 	-0.8898969482807781 	-0.6920507173493344 	0.47233568191958186 	-0.5244251052388205 	0.3848697552485776 	0.5484015012796186 	0.2303230963707361 	-0.9111721524389782 	-0.9229969615591569 	0.4994069273845074 	0.995082120519726 	0.07959319274381182 	-0.5437086880605484 	-0.15438509072744377 	0.1485301930637244 	0.29043866044281685 	-0.17462610287683278 	-0.66857893270339 	0.026895484636416445 	0.5012910861934494 	0.9669703017570155 	-0.9988325727360905 	-0.5710103754235158 	-0.6487981917223187 	-0.9763635006634765 	0.12524231873193292 	-0.9527270913742614 	0.5019505695711368 	0.8770045480558946 	0.2486641186707148 	0.3193313345970914 	-0.8002012252536166 	
-0.4045859029183487 	0.503812563706697 	0.23058873704003013 	0.8780316003720934 	0.5832973786858175 	-0.9034532825283981 	0.19477959634874908 	0.9917557284331189 	-0.3073670934339996 	-0.2949700739470633 	-0.703088773603924 	0.8877488003481568 	0.7462354456097571 	0.42315792910038996 	0.9041482360533626 	-0.8140166400873339 	-0.3253957160878269 	-0.16443475975124944 	0.93325377798928 	-0.11422220820908469 	-0.2174967019708396 	-0.17123636968704536 	-0.09107370126928926 	-0.7916469296837869 	-0.46159934189554375 	-0.17695698636344637 	-0.6444265871852097 	-0.9510958062077906 	0.7193488599019471 	0.25234551051895426 	0.03576712443922414 	-0.16487833915067807 	0.7458381985926787 	0.3243989663102096 	-0.9181713889393093 	
-0.4245726428250418 	0.6056113177828426 	0.36097679392756077 	-0.8373067855314886 	0.9290173656394971 	0.8923780699349595 	0.34822704506522295 	-0.5135905194460249 	0.2411315798889313 	-0.8251758755409095 	-0.2804065789139911 	-0.34067036792777716 	-0.3392007269213102 	0.1632594446136748 	0.848927861582417 	-0.7937479661022873 	-0.30536307373209937 	-0.04429413889251266 	0.24897313544501176 	-0.09852211488227769 	0.8491029929393641 	-0.9778236500763688 	-0.9495282656386606 	0.9689502092323703 	-0.6250571163188852 	-0.4746487686878873 	-0.020264595127171825 	0.6803433183632186 	-0.4486150726461544 	-0.9221892100901303 	-0.2424116707226922 	-0.08682322639022888 	-0.5660234819604657 	-0.8995652342440779 	-0.38982598719558914 	

