-0.3253174346824159,0.8766130543023023,0.44826576060816503,-0.15192171399823384,-0.34230912859457385,-0.5594795295268111,-0.8497455472901854,0.23997034413491325,0.9758338143262593,0.03916393460641854,0.4591468585176177,0.48416954557877756,0.2531884813973,0.7436369003587495,-0.6311997313370863,-0.23773508209057992,-0.1652362817348778,0.04491942105247282,0.22618617982262945,0.6299352399465219,-0.9417641140157946,-0.5954073497392893,0.7606727993639388,0.4288862176370887,-0.5594270170714688,0.9830913094226759,0.2518587036329676,-0.06090041496905507,-0.7023254446462404,0.3551254752646924,0.5034999823843911,0.26950322347038,-0.24539213056258702,-0.8355191102575339,-0.7382249426311982,-0.0910026331619882,0.10597464615139418,-0.12451406984939895,-0.7506645564556433,-0.15389813345879388,0.05039407951655628,0.046010535943699526,0.08229252660783382,-0.2856839449083972,-0.5499569026616875,0.8769407519118235,0.9954950567448912,0.03161234936141977,0.9556463414378598,0.18565154840749343,-0.47784556071471807,0.7763115624113794,-0.91073754023216,-0.5939225532842145,-0.9429225476958907,0.7779166251529377,-0.8083345739234808,-0.2644406758860607,0.5784706762858949,-0.2996897917139836,-0.9819258552954497,0.12872376746158598,0.7114821385322732,
0.7560478987336094,0.7054352240473927,-0.5187705600284362,-0.21264891555889287,-0.28569078387079605,-0.6635820935851644,-0.9487067576563994,-0.41476308802384243,0.2513950919191372,0.38973290976955166,0.9344865138152891,-0.9604949046865299,-0.7585115036110905,-0.006659724522168231,0.23737072369882917,-0.6465525984958795,0.1967250450379845,-0.9134360557422578,0.4881189369074579,-0.3188805699103945,0.7394457012705968,-0.6509154224907745,-0.2226509867612465,0.8221810028074386,0.7258341011185558,-0.9307651022147143,-0.8600290599006779,-0.7796734467861213,-0.5610321148098196,-0.9990252675937823,0.768930160414449,0.9640984508206938,-0.8693576639160905,-0.30162342562595734,-0.20569394393696783,-0.5404232167358349,0.1151515628023132,0.8184055135096513,-0.43369657121112826,0.9776441392473567,-0.39545730753911146,-0.5527703407032605,0.6482526797923136,-0.6257742150712509,0.5236837983652125,0.6322519535298987,0.055812320171009455,0.940109254257216,-0.34518256942725256,0.9915056248670326,-0.3288540761076888,0.5576509019286937,0.6350971166654209,-0.4759900641174155,-0.7840762608294178,-0.8751209449407782,0.566934378239577,0.5591353690223448,-0.3154230672072105,-0.44679225817966284,-0.7001895330676435,0.15998079239118757,-0.2806889230196239,
0.5531771912246548,-0.196464174910721,-0.764781990949539,0.05096303284130088,-0.1066594231696214,0.4767688064486286,0.11581252714788937,-0.16513583706555912,-0.1493799565069156,-0.2790680684442153,0.4174823794707305,-0.521549476839557,-0.833841894231335,-0.3415061219873168,0.6367097871351342,-0.6125614667985091,-0.021107437674289242,-0.5140881288037022,0.11757385013595378,0.9499635587316229,0.929788066665332,-0.37464147555766547,-0.22137463668796076,-0.9668436159835443,0.9128589634675857,-0.4243154086945822,-0.6965215675794858,0.28421046865345123,-0.20517785913071607,-0.8381027814161228,-0.6242544635167822,0.6080718227222879,0.8334207531611086,0.7437621571381854,-0.021602361072975418,0.33646079712441423,0.4951645637488593,0.8679651967188171,-0.22041790364236147,0.8080129181354281,0.9064335796271406,-0.1654021223557134,-0.8086142483473406,-0.6530945021172934,0.26759631486534063,0.6975587695247885,0.8149830649930183,0.9574127909780068,-0.7820030221196177,-0.67020822430589,-0.3249379151210656,0.4444124520657933,0.36036781102183824,0.35810906437224355,-0.1016250916701098,0.12494285683778839,-0.06357180842902665,0.008675973227922018,0.30571137294106454,-0.18651003626000584,0.9911323177849118,0.20306226485180234,0.7635489375630955,
-0.6562401783509941,0.27123328955277093,0.6060926586169804,0.08108398997214628,-0.46772901579205395,0.5745325111431403,0.7505580797732079,0.7403036856770449,-0.8058200257112302,0.2993874910271621,0.8501764467086335,-0.18879076391357108,-0.4106699512080103,0.5397534330801277,-0.5389801795448432,-0.9687431599389942,-0.4934076684212876,-0.7707617403104221,0.7629547078150563,0.21753329278878897,0.08714604973035556,-0.44164705347719213,-0.09353255398207594,0.9321379949901183,0.44242359914126683,0.17234208234976256,-0.3934225772020681,-0.3643045751986178,-0.8599773052262465,-0.49731627679592094,0.9643674472363681,-0.5591242696174075,0.7109677401966195,-0.00645086679710416,0.3579893805495067,-0.9827460434112194,0.4742796708111081,-0.04478184697730492,0.16883088396175605,0.20079118958962283,-0.8201082998605786,-0.6903530670622813,0.09485757142335216,0.4256752878481811,-0.7614731759519577,0.5890893292709323,-0.1480271940799427,0.2232102470181574,0.6372310177544556,0.20687635449257225,-0.8244344054625357,-0.2781021512249724,-0.9681662050784345,-0.759840039751043,-0.7917549277502733,-0.6651925036744979,0.9626866771952478,-0.25236773816276536,0.5960882454274157,0.6347837676323131,-0.3423925360219493,-0.0090673254392033,-0.08544430472150344,
-0.2050061331361619,-0.5339634409442138,-0.16333919261188123,-0.593441644708069,-0.08822911840920278,-0.38900965274746513,0.08661304907019929,-0.5610137678361236,0.02866105441014488,0.6504735450139185,0.51706697083574,0.5703383479540272,-0.2549625687652646,-0.19240828376886232,-0.9963611284852336,0.6709209906468139,0.9195944397491593,0.15868275520807762,0.2664434560211839,0.1484097033671783,0.1684916971713275,-0.4386359704083269,-0.5090123626911027,-0.9946007999858153,-0.39013206553539725,0.15947073278512502,-0.6365654266560343,-0.8081084132044107,0.6208997387023414,0.31943792701920315,0.9045747047491668,0.5145039284207267,0.25053232319817687,-0.06724119853877286,0.8950472227158128,0.2255024434456443,0.37046288204851496,-0.8382728347024473,-0.34494507228346594,-0.6614008192118528,-0.351089622181211,-0.08924678318154844,0.47502130814174004,0.7047761902066498,-0.0038416881997138663,0.5731169406886314,0.08934017518784665,0.9302282878797683,0.25781080449982685,-0.06689558831518871,0.24357210127429463,0.3298459251094239,0.6211546068005498,-0.5039525304611014,-0.37385523311050406,0.2834859297392678,-0.5480264012076346,0.973868299047147,-0.78118259343701,-0.40139266249618477,0.0936149929877057,-0.8286941610088538,0.46587244139974016,
0.7816764123535638,0.5370593614304475,0.0980815305132221,0.5702017324204165,-0.5179252455351324,-0.18979914524072927,-0.22516195555558305,0.6951558578524315,-0.2039296827890167,-0.5635048947471637,0.9057638078828774,0.8842300379049837,0.604741782911292,0.3775880240645815,0.35839435975068046,0.10636244126376138,-0.3314275146585326,-0.4985109685284257,0.22115904153648636,0.9928234530568838,0.8127597362657073,0.8073081056647935,-0.8981799687031027,0.5523785114079101,-0.7888864699842382,-0.6104734178456688,0.28502885553191026,0.4346096466953526,0.5127453730066307,0.439227372669871,-0.615196109381875,-0.8430161487656733,-0.6454223540247508,-0.5433393505177737,0.20780962217058763,0.11946022491266084,-0.3359684915292873,-0.7110234810291098,-0.31410230374583836,-0.7988699594394855,-0.9199212247410791,0.6089081145396573,0.9414469878599552,0.2665878787763929,0.8071724593888736,-0.9853580301654754,-0.18338154323132438,0.005434427910985917,0.26539815081888607,0.058065283273434964,0.5277190879339904,-0.8134847080535814,-0.9884835032931587,-0.8019663682977145,0.4984460241026738,-0.37079763411831324,0.5793953822990408,0.9272550331276883,0.8808619205207593,0.9772288396424988,0.1246585923770962,0.13583949933932016,-0.20947100105719985,
0.7062903130574494,0.057205613429980984,-0.8484825815720249,-0.13769134173595488,0.7048293429886705,-0.7934145878446945,-0.16401932482800352,0.37591086474728796,0.23812235335597287,-0.5109645332422574,-0.3812427814266879,0.9053559060519398,0.1389922694204211,-0.4686749496732927,-0.5855208289888079,0.21408940701122003,0.6641723036922116,-0.7446300375672574,-0.0036396887799852173,0.947569205100121,-0.3864498650808834,-0.9610855730289944,-0.4118490407842488,-0.4322785910802791,0.030224482377313233,-0.25859682852000443,-0.8112089120826425,-0.07125975980026755,0.0825094540562119,-0.3795037970586934,-0.541563580024393,-0.08871448394203152,-0.42527506338304066,0.9635049243874247,-0.12851558139448604,-0.3877916664003518,-0.058185378917325226,-0.8806414347006701,-0.7183186478763901,0.7295154252394207,-0.44646381337791485,-0.459463768874788,-0.9536563775234315,-0.012641362370441112,-0.31282841041320397,0.43072927644642744,-0.5788196187688242,0.7134163646269451,0.6234079254467662,-0.35717419206118306,-0.935842450722294,0.011109743644111658,-0.021756519363924642,0.5831378314309672,0.1762958280886644,0.36167673708619286,0.6044756144791577,-0.94837985648881,0.05924928653981465,-0.05379710412287886,-0.82046923659106,-0.8158433154620648,-0.3160360243662703,
-0.5047118825366819,0.9421002928687832,-0.03818009783183984,-0.7583316995904137,-0.9458946063243654,0.9482484511563674,0.1133356727633772,-0.41209824727492816,-0.30681453917477786,-0.31163829527116693,0.6608148434027812,0.9922395537484721,0.9003410412551223,0.9395131502142671,0.8451407015876644,0.670826115551538,0.1567204590346849,0.3235168256003922,0.7162296530612702,0.2057813346707702,-0.9699402930950674,0.19915176415676217,0.2847101500979474,-0.8550015254782535,0.010780424239206443,0.2377372480229225,0.8053939234487608,-0.1721955697866291,0.27165832924464284,-0.6855548770551043,0.49924094004229347,0.7964068795578594,0.5493652343145652,-0.8065629840403998,0.8193477389243529,0.03000555550117001,-0.5737332115338858,-0.1068815863332857,0.22781726392987656,0.677898564958417,-0.5665655344778224,0.588503905985841,0.3741962085518098,0.9698669131414588,-0.3990899586112746,0.44089142940351045,0.5524939018585542,0.5465748365969585,-0.6511619926195136,0.8407465645534744,0.3626251027299583,-0.4203251620852224,0.9431598041521423,0.2079006469286273,-0.3865528331123209,0.7407615433712778,0.1321418528757876,0.7138699776982589,0.6783899667936684,-0.669730166370778,-0.9649123566899034,-0.9256938651275546,-0.24899451685670781,
-0.3081330482427376,-0.12783816252791835,0.9052915185904293,-0.25340852054292573,0.41484073368827024,0.7043328634576604,0.045395258356474066,0.9573726215723808,0.7664399822601031,0.9950184058533484,0.7161107496505403,-0.0074504666019559185,0.2980750687216984,-0.48990335017586806,-0.5735038927756417,-0.979144417367815,0.6337410885528196,-0.15947638476408987,-0.8764554161196332,-0.11791183489437618,-0.9240215824668592,-0.3381242801464257,0.24801307580872134,-0.7545899236745643,-0.14586169403878713,0.7377143035504636,0.07614123545087015,-0.3339555181582745,0.5916754058591465,-0.37125241704494716,-0.9891032982022097,-0.8716844558359811,0.8836410034049331,0.087342884651193,0.33208434067956594,0.4618134595190351,0.7525044586410357,-0.8029795312704848,0.32286110111155497,-0.12120689439437538,-0.8101161196450666,0.45913887928767383,0.660901320189236,0.804741357015063,0.993718955403244,0.23405914368684977,0.49566028678754304,-0.8396222075994069,-0.3251263613911306,-0.7883467450554089,-0.2711134263812178,-0.6978194703048521,-0.6658924052059612,-0.083898818222651,-0.32626273987107535,-0.0601414422983606,-0.900189233863413,0.6424984299652412,0.4885536819862861,0.5230176575074303,-0.031154142076928126,-0.32212620883597687,0.5645570876092278,
0.8255981535305703,-0.29270082427835553,-0.8232038210233883,-0.6075717031401582,-0.24451193388551395,0.8448916894760348,-0.3581741033295611,0.3409374792573414,-0.22195490314402688,-0.263744087866409,-0.398353839078438,-0.7485060606158898,0.7660887375699201,-0.835762490241694,0.7847862210804635,0.7856885737554102,-0.4247491837462103,-0.9751665231581459,0.8544273812217009,-0.941395659629721,-0.8075972960942297,-0.7396687554858226,-0.4001389634555337,0.24887516285123845,-0.08379593470569446,0.39666777376750284,0.37274502625442496,0.5971733971079627,0.7026466899821231,-0.20702135041367953,0.5113837448786687,-0.5119868055717498,-0.45520467790156527,0.025762988287354682,0.513835622417641,0.15545639300788916,-0.4452449583084974,-0.2929602784297882,-0.1992716066097311,-0.03848646648511078,0.27722327610799535,0.4753275801784336,-0.9487574741680347,0.1667343156931289,-0.31218767258992774,0.9002314566270162,-0.699200014630385,-0.3543149261037537,-0.6843434165511475,0.6058721811766019,0.2565741734132809,0.09571424909545745,0.9786470378406016,0.045349733708485385,0.6170145114459114,-0.05438980548904815,0.7309627982165237,-0.9521169139009469,-0.4258415426288893,0.3914577198780935,-0.203600974541019,0.5122223906422729,-0.8674198844649026,
-0.2297954510119995,-0.5026828902798353,0.43438342460551715,-0.6035955829306867,-0.17284983254350417,-0.5121272638197953,-0.16529359655832065,-0.44410712708064826,-0.6582258323946184,-0.03849632781695833,0.08869452535612465,-0.05231495756176763,-0.9529764181487623,0.926489545007859,0.6680415800149295,-0.7321406756562456,0.8103818153216968,-0.8702783050005962,-0.6372902764464414,-0.21544745321242376,-0.35925492368671375,-0.2423490348390278,-0.3181271111235431,0.22695812608247423,-0.7566643403315505,-0.34529114347154866,0.3209936451680815,0.9200995306801338,0.5655836028684824,-0.5266747175169546,-0.6657453762031593,0.6898536006099443,0.06011256468321036,-0.09400517952707999,0.9660192039319044,0.08027806526785497,0.2366677416343197,-0.05132905075095673,-0.02805172832587588,0.5053733243119718,-0.516971903904127,-0.993903193124634,0.6998545248376198,0.09998911837259938,-0.8943534812639251,-0.42649224564443866,0.20232688223181716,0.23966279019199144,-0.9260334476740006,-0.7845296306912959,0.21761290939567646,-0.03324467971143652,0.04806622837887908,-0.38854995721689445,-0.017801641830732295,0.8903290882923076,-0.07251726602555952,0.5490274346022128,0.5279775646472986,0.5197888220364348,0.3797756460364503,-0.08048722220171989,-0.6311396995430663,
-0.5526136115342031,0.5905884236405265,-0.9929659734773433,0.29611461351917834,-0.6877325930409477,-0.1773280920414968,-0.33899577295349514,0.37869857408250485,0.05881580896784744,-0.7204640705020615,0.3032007281295419,-0.7957144130242964,0.6446312789408817,-0.7599004517343149,-0.8554828164098589,-0.10135736872824919,-0.9414481554436038,-0.536088857080081,-0.527222127909516,-0.47452671191592,-0.7232876380622648,-0.537784092392793,-0.5781689125676619,0.09578959357727657,0.6147080716802951,0.38834865730202695,-0.7565321866788801,0.6053323923608811,0.8265096516861337,0.02163428706293402,0.7775381059708919,-0.7294904512862261,0.2558550346007584,0.6021816218905116,0.5519677782528307,-0.5522220258391901,0.363422081749712,0.11965825498019433,-0.25679495281589504,0.5983454493409412,0.03316161441581844,-0.9326614649621956,-0.9110456215059952,-0.9004758867622502,-0.7962475999314194,0.643419061572359,0.768884327905716,0.7060186242600242,-0.4237861273826986,0.9147994569781086,0.2553233278915854,-0.9711146608947863,0.4162936224771763,0.5542291964404251,-0.8152145611427892,0.5268539895797235,-0.19967725434394135,-0.5800752742869064,-0.5875033124449796,0.1941529928204606,0.04581124643212364,-0.5325361796727672,0.5859207099398702,
-0.6190637763628317,0.523133673174135,0.26696759811823045,0.8096097920413614,-0.0031404232562228795,-0.43776674664835746,0.7442833595852894,0.2725368025537074,-0.2746899157411371,-0.2516495844518838,0.673084808830611,-0.9296096250212753,0.8152431867983527,-0.4566390811047507,-0.08449057319849174,0.8791447936724941,0.5195370113158191,0.8743855920593759,0.44215576867420636,-0.3774568648883667,0.31322472525321476,-0.9010875553158777,-0.24203379132957759,0.824961813261627,-0.3480789707549934,0.5857505678644896,0.5187245888985037,0.9524511434583596,0.22020994385117287,0.043711998657208984,-0.15639942765605452,0.7185758629716619,0.3717155709506925,0.6849971465757365,-0.88762373606591,0.06800734746494919,0.777029805065778,-0.6721629730703684,0.8816929270411147,-0.6503531179976096,-0.82737521089923,-0.3769767057063993,-0.0371399186459731,-0.9476114883807996,0.5433304215477022,-0.26846412699449673,0.6744710341634441,-0.5995433135519126,-0.9270891876811325,-0.014444245767458286,-0.18372746948225593,-0.9084160585615502,-0.23827386394964623,-0.6672715668987377,-0.9935598412950122,-0.4898802397659616,0.7374204079792166,0.6936220609040158,0.6826122868479745,0.858491732625787,-0.025972446761902912,0.7549023751699571,-0.7122588259425426,
-0.1757323121322536,0.3868427028201602,-0.8241759171588849,0.9450198561418437,0.6363946091864894,-0.9151426742923321,-0.2967825433325102,-0.7281502701225697,0.6630200564811166,-0.0604888302364579,-0.7297740544444877,-0.1089857974531021,0.06462849463065035,-0.4320337940192682,0.7966299769129361,-0.33207147275033133,0.44005355940457447,-0.6689382741290435,-0.8863313723761461,0.736038840295052,-0.11074428385898183,0.010561675059858722,-0.7961492515498634,-0.03185450211080054,-0.5344176179308471,-0.5427398948793911,-0.22367608231848402,-0.29036958682017966,0.6015557921169252,0.6909619126255979,-0.9090517492663575,-0.6897296064478295,0.7660624220413723,0.6853105446508683,-0.10069987047100648,-0.7254787565079872,-0.6528542523231908,0.3848871959495117,0.3884096203893195,0.6958620012528505,-0.44656863399549507,0.37895821799736273,0.09311189059980629,0.04898945554454137,0.9885434300708431,0.09570192473452477,-0.11452705558680631,-0.6156410178048954,-0.5233024519799252,-0.617301577454828,-0.6451730178595194,0.5027683790189394,-0.29601502117536227,-0.09608110297854933,-0.8404586799118534,0.783386177486685,0.2886898950052488,-0.08959529859676651,0.2617021738224603,-0.0031718034856880184,0.005310324896882435,-0.36872086231881673,0.34849374240629416,
-0.34441054694952666,0.060781481428616724,-0.21631194244367458,0.19912092682837468,-0.762658057137336,0.5577279481776947,0.5147189791372158,-0.7262970599500542,0.962311299330042,-0.4216006879155956,0.4653004388795421,0.38064539987084123,0.714149014306424,0.6842726931047398,-0.41446205084228027,-0.07842568825185237,-0.8355801143253536,-0.9498673387674827,0.8328946965741113,0.91799517025023,0.19402753514289262,-0.06223205377030672,0.9490789120421053,0.7914177380905998,-0.699396438516406,-0.23674754714598922,-0.8615468027683333,0.6987651491130504,0.8390895594952925,-0.3768946056331739,0.6602333772913622,0.11746476658705651,-0.3365558254526435,-0.18154540854532852,0.09869820005665941,-0.670304703267512,0.020610321704702228,-0.34734539407056464,0.39008477809277364,-0.5271559969635564,0.3935808857409844,-0.42336103179291595,0.5617959559366035,0.9033047510831971,-0.6013952469566706,0.6176151921499071,-0.4209981858555658,-0.23667310593057866,0.812277328966551,0.9505376032068305,-0.30433267303454725,-0.15429766521805188,-0.6625364041695045,-0.541876522135252,0.27149443763274905,0.11865645080655929,0.8127046746686966,-0.8259966344888632,0.1432173748481247,-0.3966131565722213,-0.7720385465167239,-0.38507298029434334,-0.6718549313733364,
0.6892717392457846,0.1302530434886413,0.18177289564838528,-0.9102036259352366,-0.5731514709297174,-0.214050400678512,-0.9545615605580211,-0.7900724260016845,0.856239986966697,-0.18781639513667225,-0.7674847830297096,0.6882047727285581,-0.9912147138521856,-0.10195440046309323,-0.013017597946067161,-0.969773627383556,0.8622096235037251,0.706934149861763,0.9079792582038064,-0.21344536847848006,-0.7652545248351146,-0.9153671437315347,0.8500464463227297,0.06986812641643936,-0.6288039407277595,0.2933902793501286,-0.8789477346871184,-0.5957001598753873,-0.1959901963342372,-0.8495181867310648,-0.8756495637098687,0.45047902084330027,-0.03498709054800986,-0.32956474990253115,0.2655421611143556,0.901748133264962,0.9785251385466998,-0.9066938761800638,0.6805447304259584,0.1614791853005484,0.08416158529905515,-0.9729097824178297,-0.859504303352336,0.2883666246512486,-0.7822973158350273,-0.15943446171806608,-0.6496485058706121,0.13602780844433227,0.4209909311105755,0.4135580522214981,-0.21813447275154774,0.6151941342397558,0.9568926403279328,-0.11517129337205301,-0.8320393021848138,-0.4287694861430671,-0.7270597683552014,-0.8665168616633472,-0.16566183836610926,0.8966721314102997,-0.7126515250251808,-0.6119923019488953,0.15549315494931037,
0.1879224466307703,0.8636775811450768,-0.42226099362773195,-0.4038642171606557,0.5072076440003199,0.7954924040939062,0.8247773882912925,-0.9646558758605364,0.6253384128797104,-0.8600537317818822,-0.1799426747300994,-0.6303959467730409,0.49777940443339963,0.31929582463533657,0.7354917700907706,0.7522186822556265,0.6659838952377986,-0.9480684001512085,-0.2051902968169148,-0.7496013807162418,-0.22209895517351907,-0.12041396035752805,-0.3410901841166465,-0.812327860633592,-0.513981817945909,-0.17503907689008114,0.3772558383346629,-0.011917437459740388,0.6082529550387605,0.544092142193606,-0.18495653033231352,-0.0500318521211256,0.6264631204193267,-0.7696510450750336,-0.8134304870925628,0.050948004065528796,0.34929564697104865,0.48204323021969486,0.6084402630587513,0.6220662120457747,0.8805491628667834,0.36320128275019914,-0.5680442517485431,0.5278730210849092,0.9111770586424435,0.9671302243657047,0.5222128195437494,0.35055195058239685,0.7925121135749356,0.934988131633053,0.6221708974210338,2.802194949969028E-5,-0.14975376097824644,0.5866449825018711,0.4731281740701767,-0.8416778983209641,0.9631520203968347,-0.4112984861669786,0.4587593062491837,0.015242752904786272,-0.44251386973742024,0.4146081767675671,0.19806885906784788,
-0.1361631368079117,0.8574676930496408,0.24440748393278566,-0.2666828284168137,0.2978469653004021,-0.5158223351979268,-0.593300715972634,-0.2578210328452528,-0.010247801950316937,-0.6903212740771012,-0.016993190659017943,0.5490983454760419,-0.6732024292826804,0.8501078492687977,-0.22519908441878234,0.6190067392971137,-0.4562554662579086,0.42094765647279764,0.4760157046085254,0.6872726692540367,0.414903897044135,-0.22036566421822545,0.5989693617933654,-0.28704264939036594,-0.9456598269915555,-0.9548849235658357,-0.5308201648482433,-0.5618494419249289,-0.07803536706203262,-0.6890811901405673,0.43464502289455864,-0.505632780951268,0.7445624555376014,0.5577595072535655,-0.6722660608410893,0.7176856566943459,0.7346279097888626,-0.7763580213573988,0.17291428869780257,0.6175133154697332,0.22620837684709594,0.10389555732984168,0.1511192748953687,-0.21043153251181113,0.6457879149081269,-0.869487526250891,-0.08836440029095471,-0.5281309463793655,0.597567778663809,-0.9803783490751938,-0.5350285939030326,0.4132233824002318,-0.23367017221381214,0.7778819309234875,0.09524242956477869,-0.24307956774164974,-0.6726024528728134,0.6230308910339202,0.998191471439984,-0.2619788891101158,-0.39796389938862076,7.796783864268964E-4,-0.31896445125107853,
-0.34914654338279494,0.8079629347608615,0.06969701663192662,-0.4470874879960871,0.7640200233320795,0.9284662772265977,-0.7223220003535378,0.5897769369919335,0.6434268243399259,-0.04004091671657872,-0.5319521904108027,-0.5248258929762168,0.6895478208029586,0.09662293958155366,0.33030198382382303,0.19839792782194632,0.6033411862229665,0.7721245204774754,-0.05006073232055308,0.7341173239818062,-0.03406317281695603,-0.09778368141572602,0.7137956892081458,0.13263414638595417,0.15041835593881125,0.15835996150750709,0.8917416919805106,-0.8824873180078627,-0.6202750745398211,-0.34865988629390743,0.8425569790710905,0.11739998792362427,-0.0970976993722712,0.015164143202176072,0.9812516160364471,-0.4485661055122363,0.9826349126231457,-0.4446292248782766,0.3970541114612265,0.14271419963397003,0.670194764980985,0.8621998577787866,0.3257412168209848,0.05188921099479349,-0.8103553622450563,-0.9120971029532163,-0.4430636921082187,0.7029904905091822,-0.8386617899258302,0.9488020486360347,-0.7035421913327757,0.31622361574147195,0.8654605338038637,-0.5634663533933868,-0.9942496455315046,-0.6324957598624612,0.2795578615902061,-0.7907589696153747,0.30488617779070704,-0.5378962524093123,-0.2802933158760703,0.6823077593116671,-0.84742345184706,
0.4398490075322732,-0.4268236615477645,0.9495530384685766,-0.7939139841559455,-0.07810145427644422,0.8311426750127708,0.8396365470139728,-0.4841039433902945,0.9641942835173531,-0.0867875670114675,-0.35124947020312614,-0.4755828345731956,-0.9997320525011666,-0.37877799719053806,0.389502941158244,-0.28499802384730577,0.8361579940119479,0.967977230527582,0.7572251400928636,-0.8030351087148362,0.1027717339449239,0.09730361622814931,0.4387651380336357,0.01426703540743568,-0.7238946979473277,0.544979720690753,-0.12484483196191332,0.029978083840403125,0.14331178808238176,-0.31417031130665873,-0.8616286394219492,-0.13441972609185804,0.4226871115872519,-0.6295457610854829,0.1937306558307177,0.5636323554608693,0.13821966781857808,0.47578138178881413,-0.5067016220532126,-0.6057351167128018,-0.6955700748131723,-0.6231769025362943,0.5820084577759459,-0.4595689297732075,0.4948021476648268,-0.8072743501174688,0.1970259844730542,-0.7262095209510346,-0.052809675399906775,0.06840553747369227,0.20220951716227997,-0.32744341947274846,-0.9978425494184988,0.7237651897662347,-0.37663978665740827,0.9345913498356531,-0.12471410979074338,0.03568673381202436,0.03627084734924191,-0.09651601891842909,0.032074272858476416,0.5137042724477201,-0.39158228987265264,
-0.447696211735626,-0.23588457402033103,-0.8115411961387387,0.20646543569822606,0.8591700560558688,-0.04217357235544683,-0.34725694732722934,0.1555836689714094,0.7607351380278977,-0.49791857644980353,-0.22185374438748684,0.4729015678941959,0.6841302216053504,0.2986755229575846,0.9760123929601914,0.6962558906846004,0.5348763351348724,0.4196258290156809,0.7796284669213713,-0.2092854620297493,0.9577154093561626,0.597894127259933,0.9952622298605913,0.039187529449706826,0.18927127833660973,-0.05680627012022654,0.7028721528563691,-0.6902363130046314,0.8859014696399894,-0.4578781764701845,0.9830157427397683,-0.3587588977000904,0.9370549407266482,-0.5680648236366972,0.4046851463929575,-0.30035376927991697,0.4639042767915842,-0.6701329927554813,-0.9704982581502579,-0.6676343722821874,0.9549729466125867,0.4549596502383324,-0.029094313820483997,0.18284137048335758,-0.19506782345074036,0.7969664566770112,-0.6073219722733927,-0.8723893552956306,0.39969513659400646,-0.7330457850630652,0.23933786607613072,-0.8412032413769714,0.3303885555371837,-0.6931844541769066,-0.03834211464149173,-0.7410117514877916,0.32073565123088166,-0.2600211680752862,0.03374736568685144,0.8017696056990233,0.016837409665876102,-0.08681852891267461,-0.8461475199359281,
-0.9400035377420215,-0.08470825668808768,-0.4907495417666108,0.6792286977314479,0.5152353501379101,-0.6049560983317852,0.8034118405042263,0.0661417208559556,-0.164383533583788,-0.9296857783637946,0.5907294548459612,-0.13074240026094297,0.6256763713230835,-0.5035974091077489,0.5298514287566618,0.2003856876775847,-0.6494044996079593,-0.36287815937413015,0.22831987612528204,-0.5452600897821296,0.19856266836134395,-0.5579339442749622,-0.9627205383309261,-0.41641049878787273,0.06882880754145182,-0.6161279828576898,0.22849652922962216,0.22537039287048044,-0.6406622246882858,-0.12991401917883594,0.994179801303799,0.6030342233901027,-0.22334739825080585,-0.928799498251835,-0.459828389497563,-0.7463864804387139,-0.9977781201892624,0.8958795636206498,0.43565652944857236,-0.623314539699394,-0.27713963104942385,-0.40365727148561303,-0.6623874290164551,-0.12838114395828604,-0.7303550758582176,-0.19866640454804219,0.22580788176875544,0.9791936116382214,-0.09174404307777717,0.6510487404575103,0.36422483759278435,0.851383463471008,0.6851221176185909,0.14785881838503379,0.3473703598601334,-0.656203172557005,-0.3424454998706681,0.8386048468402774,0.7950107590113007,-0.14152611476746646,0.32238405818531257,0.5087067194150383,-0.4735539520183829,
-0.8395600244843913,0.1064450650881732,-0.3047259266665576,-0.6244817611012432,0.7496202363914812,-0.10642537773983851,-0.4841380557130308,-0.7998746657672646,-0.4095781127408187,-0.26337317700941054,0.5614682185452187,-0.9049092019993517,0.7844948609857887,-0.8606714623971303,0.41682182198958007,-0.6651823989807508,0.11788372339384345,0.5916310704273198,-0.25203631777568747,-0.8477679341519806,0.3219880297926774,0.403541217087791,0.8365767931764065,0.10310275512402889,-0.6415499730590635,-0.6937578284443962,-0.05752631507208128,-0.5301029752509536,0.07129315866378771,0.7756438261452767,-0.05989710918440161,-0.07308477654662715,0.14533636290542296,-0.4176703915625637,0.30188983422216076,0.5185224256295025,-0.531885696806627,0.6831953421893051,-0.30932018699337527,0.8948738063165467,0.7132345905127224,-0.7560964874606433,0.1755045694215831,-0.29539089924708306,0.24630791807421137,0.31760480231140864,-0.6006534739729017,-0.938430374743666,0.3002893545041714,-0.4957935547345713,-0.09547188951256147,0.08266845876699502,-0.2247279905652695,-0.2242043683306698,-0.7391928820160814,-0.3633757391126484,-0.01152204106558763,0.5776536962061647,0.6432112493762727,-0.3516544854219177,-0.7666055252030914,-0.6993746766437423,-0.9289007267343459,
-0.4286688328738921,0.10270564535298354,0.26943506069014744,-0.3531121670240265,-0.029468321726606073,0.1878740718728269,0.5028718704407507,0.822338192478492,0.5506923529614327,-0.011070413797170886,0.6755896351642048,-0.02775212641056335,-0.5797211341687507,-0.3487747405035204,-0.05239925749615271,0.3698476575104215,-0.10133656694958648,0.49162363021916033,0.6263673817504325,0.03515524041113571,0.7543280217285806,0.1847806946354189,0.9877236136483725,-0.13300790541389595,-0.5955812448335929,-0.049103887716412276,0.005688896197793447,0.9713215981136527,-0.6889355344478529,0.11950306091251695,0.22756255980112816,-0.8369794250021287,0.5774498398947108,-0.9604262669075663,0.5795164898266569,0.24514904097217838,0.5767123033565329,-0.5355811348069872,-0.5007688143972728,0.8592363232532438,-0.6606908166708307,0.2605639254022729,0.4659488988525162,0.45205456385898857,0.37958080761367974,-0.42701291533882135,0.7346457877581425,0.21880417734169555,-0.34018780377069247,0.4248074456129074,-0.12014790906268402,0.7595883267975938,-0.529824948799483,-0.8622854292151205,-0.38402083746785376,-0.3744923215864231,0.14550949430403404,0.9301348144448831,0.2848386760697248,0.9326581242516685,0.7449829989148633,-0.41666874349487015,0.3873686890477501,
-0.21323061803665921,0.08824229818034768,-0.8386614310108282,-0.4145915636737305,0.38817331223947704,-0.12824774906300362,-0.5711627034336582,0.7106925030658799,0.3762461125134662,-0.018406678364137674,0.8317734448688405,0.49206276473672395,-0.7755803641265702,0.5740682691980343,-0.31126503619305024,-0.0517749796246334,-0.6886881550796113,0.013045653333845442,-0.41320237201792653,-0.30779526195587037,0.6704784041305809,0.33304708735742894,0.8837572674133314,0.7549850731285186,0.3607410518859244,0.5396621745523571,0.6893675670953956,-0.04036177546954822,0.9010018567850502,0.7639544098565212,0.7314066374973545,0.3635889166291639,-0.7220955889660481,-0.944902115964269,0.10809804134382306,-0.1645219949820187,0.6616576487675445,-0.5744355267205086,0.08661509065750383,0.4444205801468779,-0.8452100951490644,0.655757955582053,0.8281010318892399,0.013283458851305996,-0.34944536039033647,0.3200702923665868,-0.7971604363893745,0.923932132188672,0.19216181779766273,-0.4860864730341563,0.704915196101854,0.061228523126855894,-0.8990371612676393,0.8413581721726413,0.8839038146530798,-0.35611377050626647,-0.4188306921148903,-0.6344118200799449,0.6818387633591299,-0.385879895554184,0.5106394409165063,-0.5705407438948127,-0.4030997924906883,
0.24435377350222898,-0.3082814975655557,-0.4789726369036751,0.6909780829607273,0.6680778153701863,0.9630741752439498,0.6889900227596892,0.11646350748353296,-0.8467213289652684,-0.7370811136567488,-0.5944365951967858,-0.9416752226357035,0.11068711054965252,-0.014034113054129493,-0.7706052751963819,-0.22927087469599594,-0.9345773429562634,0.790918275304686,-0.8613116176574627,-0.26682676049766285,0.11943891821646724,-0.60775679708222,-0.01519794464406754,0.8592885793255505,0.7935025785051797,-0.190562753390217,0.15914753944698656,0.16219215754186966,0.5612674098823265,0.04894136425074369,-0.7286915460316072,0.3134544177647045,-0.12566784146173715,0.25831685804362037,0.40386598057516165,-0.871538894507448,0.02599940626579822,0.019248419264886296,-0.6604990215947957,0.16914723752265015,0.8127816680016267,0.6353909894415632,-0.9514796946129158,0.37578601713544035,0.6265270175808018,-0.9769674525296319,-0.31996863543412046,0.9227174436017243,0.3463671809274682,0.1269968542942308,0.3175689105341064,0.3386052522302807,0.19851673309263207,0.661163424819835,0.8400550799163207,0.3400136853160671,-0.38671774010364524,0.4124355375080435,0.37155230916190884,0.7977987760725063,0.0324668411940896,0.3489400116251309,-0.9916534989653081,
0.7890113434590769,-0.3933155817334142,-0.662304861865475,-0.22052338588479103,-0.21728630382257186,0.770926201193117,-0.5960626394221014,0.12690379711967004,0.6663127215062019,0.7980492798666612,-0.8462508370632453,0.5840927124346125,0.5397176191803534,-0.3963133794064684,0.2335847815433718,0.7868550822013134,-0.012168087315633569,0.312404261524065,0.5147427347049831,-0.5321169298598292,0.8875930866312771,0.39376124811264424,0.0677880052704638,-0.33352047778973337,0.7139768751550801,0.5382548033470527,-0.06862108153689794,-0.9724306345556706,-0.21991483627950936,0.8669617875603206,-0.8180921533997658,-0.23084556189509908,0.8796408377763354,-0.44498429771045367,0.874817505960563,-0.3350469765007176,0.3959150372824025,-0.5021134297057557,0.05540751757751727,0.21904228492720135,0.09931606042866292,0.2607591583055171,-0.7736005294377353,-0.8980987601261898,-0.42342813897331566,-0.7748674255019989,0.41148185100701307,0.872328950318354,0.5176417882483895,-0.41690634675511884,0.26850873257643304,-0.9727089125947463,-0.06780469798730948,-0.3714566753113877,-0.4170198472750466,-0.4981733883850874,-0.22430032292679747,-0.3440156967781902,0.9118842534179148,0.8837237720810645,-0.5641385117477429,-0.29869437441030766,0.14993551099396552,
-0.18724691320518216,-0.9366313960511208,-0.6546712698983201,-0.6453051115915476,-0.6981772200150056,-0.1734149948280761,-0.15029283191502008,-0.7059868395392406,-0.9524990965070144,-0.17194864975926372,-0.9938999981916081,0.868689197047497,0.1899262375265025,-0.35865123834882184,0.25336812530119457,0.8151902969505855,0.43720735080348727,-0.7899137218072854,-0.14613049009345014,0.907733340909701,0.9869886127964378,0.19647501411769386,-0.7812414171801265,-0.7440203425839758,0.2579396172565436,0.7751557881230822,-0.1664776972642914,-0.7659511939333485,-0.913498083645202,-0.6613503474617743,-0.34118536205492656,0.07850987226166595,-0.25069379481844534,-0.3859956656270407,0.3679772806151844,-0.7425370241191429,0.9392504117065377,0.28591215761762245,0.33146580178814067,0.33977435301927805,0.6533076370596183,-0.6202213038325153,0.8697246372861858,-0.7170150383781944,0.8427107670094056,-0.6210758771938354,0.969885987753468,0.8103619461124345,-0.36876091051060844,-0.6666973592441094,0.39799341604575345,0.8620189567928789,0.9249100638455363,-0.9371716817059881,0.9372803774597309,0.981981398807267,-0.6835427895894659,-0.03340125050388276,0.34436122201256336,-0.05747195584041087,0.3305544439669654,0.9200113545057413,-0.46097876255792913,
0.9090923763499956,0.26082347208651924,0.2749698273722945,0.5296190930895315,-0.9865395915564645,0.11724079494563178,0.07408193717492506,0.6249447839546192,0.32995518069602614,0.5326373734734982,0.247952323884012,-0.4052967716634379,0.9387508091667403,0.8695638533066845,0.7853776075989485,0.6146215880735413,0.012412192953330514,0.22387060768062472,0.6494542603015161,-0.9314924849084592,-0.3237899436276932,0.5389313197907517,-0.4416879057355254,-0.4215868600393584,0.7697131750437434,0.6245161787007798,0.6573904935571018,0.9953872869542075,-0.42338577388103404,0.5168994696321183,0.5808763333565283,-0.49287283120416836,0.09169687155959916,0.3218637768321979,0.4331272008192337,-0.4948310754767338,-0.5416930901815771,0.4498418972019551,0.8166049118125727,0.4030839349071529,0.836641747673921,0.9825148754292932,0.19104878754869103,-0.7915235984463804,0.15262648763280717,0.8027636245838037,0.5693210351380367,-0.6745938348875373,0.9290980507618445,0.07494902231595924,-0.16144106082950094,-0.19981229540712953,0.7154711388558512,0.6800733177385869,-0.15902752600075587,0.022345399144436895,-0.49098607271663974,0.29045501201706103,-0.24317078712396323,0.7538337039789393,-0.9996859585688986,0.9111258547275156,-0.6971295555792107,
-0.7165434907978339,-0.5225320535021665,-0.0797617517713809,-0.2073931252120771,0.48975203172890436,0.7879813990249744,0.9083481535629288,-0.7993553942397935,0.6444336522393204,0.8843203602290248,0.946517878374272,0.031394976670716,0.8998082014742097,0.1685053752789396,0.30576034024266674,0.013226295199756155,0.5774199087704741,0.10309618040797885,0.1054252033836185,-0.5776832202486153,0.6114965706758322,0.3703650057923107,0.8857047920089889,-0.8138273684147932,0.7996028694277704,0.23841194167650115,0.6795166018133154,0.8249775645360684,0.8742337230012593,0.7324271227564434,0.8015961049631042,0.7596436520549195,0.8329087955785448,0.7112590072611737,-0.722286619582635,-0.4513641999233706,0.4506569158003486,0.013900109472086974,-0.39549644749914337,-0.7886540661470174,-0.5523917440139823,0.4674556877319833,0.3604804044794774,0.9539963688468143,0.39573950000967306,0.7376127729904214,-0.9186204543633711,-0.6652463720266795,0.12264510586445687,-0.2454188350340385,-0.23194299220129255,-0.8120614491615785,0.1065368663932531,-0.2380691310125327,-0.587254293615515,0.4729210871854266,0.15550154639814417,-0.08729720942466357,-0.9904482772831289,-0.37850914791031665,0.5253740058854119,0.776623909839107,0.6576496331299473,
-0.07180152297536302,-0.44558778113968334,-0.8757896975364434,0.5707141363638402,0.061365485564390365,0.8792885508680446,0.9179946856982795,0.07370466951600241,0.8681631962919292,0.3457388644073591,0.5680689311000438,0.9981956668289622,0.30536511113460474,-0.16145912311364818,0.19858387622184015,0.2800252938407317,0.548079643035575,-0.5706809151702967,-0.07619638702631626,-0.9818875984780675,0.11197367401001612,0.4770042822691458,0.9467624062660733,-0.22912990223654428,-0.8298000411554656,0.6146010184567745,-0.3294723909807391,0.4467219553441375,0.1544450361515528,0.9172474063030607,0.9515239679018275,-0.2121942091193425,0.2002177658852775,-0.029623233857132947,0.1263272537385265,0.15102720781173384,-0.9702996987608561,-0.9568783498929616,0.5077904067717443,0.05820391684650228,-0.5388118595404681,-0.8790733353466518,-0.32668429932356924,-0.1828806315101983,-0.10765198053043146,0.162665775757584,0.05754208221617185,0.40788313645394125,0.8252255543925802,-0.37861232548825274,-0.8863318202642483,0.784072529524259,0.7841383962717041,-0.9958592988691033,-0.3779140859086123,-0.24429056609653377,0.8232927151052176,0.045157428284168244,-0.39804871073605486,-0.29879720461919046,-0.7708350687441117,-0.0719936767143321,-0.279226073938698,
0.497967146378985,0.9933929744521521,-0.08385277873725827,0.09905840626177231,-0.7334959855328393,0.16512537144392758,-0.2623462992229617,-0.028515821277600883,0.7903125324079578,-0.7125217910001675,-0.8813040177371272,0.7930644678044283,0.8040726514048133,0.7809549133581488,-0.02829615341978653,0.06817685763960601,-0.2648767291364207,0.3573851845531957,-0.08204201504463815,-0.5676881953066226,-0.06166520679785248,0.3311438509404119,0.06068740078738921,0.3308384974376126,0.9820555911849875,-0.9598872602620061,-0.7764234688367533,0.01604029533077611,-0.8771130808757341,-0.502947649440264,-0.769084176191122,-0.47687421917801665,0.7496224117721226,-0.13724757108083852,-0.7705435887520693,-0.21212643446182144,-0.7182362297619733,0.3655349226084921,-0.461642052891591,0.1330226834361321,0.7756038444045108,-0.11261541326714908,-0.9375525226774288,0.9774743980032716,-0.6790545002293031,0.5951866003935604,0.9153337888021993,-0.18817784989124098,-0.7958962454350222,0.7162531846695026,0.572751821492907,0.23568174762858995,0.7679161438596294,-0.1594757846137349,-0.387161884853904,0.16674602869433408,0.9170641080466007,-0.022468900741137166,-0.10113294122372474,-0.7915588891443524,-0.7029127819420338,-0.9955858314101176,-0.07869340598645613,
0.6025149387995505,-0.6819502642585438,-0.8880108824091661,0.9398782814048003,0.19484197144177973,-0.6011031450527993,-0.6109398086033386,-0.4473631127217703,-0.5928193159887609,0.07611627516959651,0.7808803146242353,-0.6320888605399795,-0.6654261825566106,0.9503994058086922,-0.6841368933592404,-0.4337233807666798,0.7775343899359497,-0.16242636247525155,-0.2846469166861285,0.3135585996437775,0.27011381113296573,0.9451560558154146,0.2844649656319467,0.22219207297842924,0.9794015610563778,-0.5865428521524423,-0.6722951456606616,-0.6429063267801405,-0.27104175264650254,0.14023984087643182,-0.7587095787573341,0.6435282555052071,-0.661861762907362,-0.5494802647170036,0.9047891755183579,0.958281067262571,0.9712104797062953,0.8781676272521404,0.02789775753678536,0.6717748837672597,0.25463892033292757,-0.9064434091241418,0.7038885304147784,0.9575995585084092,-0.45216205818583166,0.8415710860671033,-0.4205483835512287,-0.20275114204050904,0.9421704695227373,0.6468758337737315,0.771365551322867,0.2816885356853336,0.3149103619106792,-0.0015803440278063796,0.943630780774765,0.547707282554251,0.07934315331779729,-0.2572732625981762,-0.19559482994919164,-0.5141698927155451,-0.8508677102642546,0.4956075707863512,-0.309717348347057,
0.21790242088325207,-0.9254676712669847,-0.9755014054569651,0.8761597507374264,0.26628026535211946,-0.6900184279476893,-0.24128221854309895,0.7821375264749051,-0.6771082353558757,0.13706233992394878,-0.14749710952526107,-0.6553896111250284,0.5752609642032094,0.8937672384910664,-0.4442248975115255,-0.5231051928562123,-0.34208454651324116,-0.14953388236577148,-0.9598493140960618,0.7654563164638659,0.4714258446744102,0.32491853834607065,0.2828009204411641,0.3309937826848499,-0.6523464146916158,-0.5568679104533647,0.12833783414876598,-0.8706546856498174,0.33861237178910497,-0.6701818123031078,0.2289826738164642,0.8753816674671935,0.7676757567206451,-0.5483485204601022,-0.794148679884007,0.2437572057822055,-0.3943079713321238,-0.6615084474210262,0.07926941375150243,-0.966409071905244,-0.27910437236262475,0.9721781574318751,-0.2163921296924436,-0.42014662305967065,0.6003322733294305,-0.2405344124629476,-0.5877927938169172,-0.1475611366526992,0.7518431027660719,0.19511392349609724,-0.2694613868559177,0.4046044431801237,0.6694817671054756,-0.9268916536874969,0.4508258190124941,-0.3843382764507153,-0.018434283042294997,-0.5815688639874133,-0.22106836080699743,0.5185090216439914,0.19939170214585555,0.18876316712150887,0.8243902314151845,
-0.08920400897938352,-0.6540268267964591,0.23494602807593168,-0.39295523462572657,0.4192153564522094,0.6679860033361757,0.010988632396981668,-0.4011718742958017,0.719618973876738,0.6204362477045824,-0.9111458698167849,0.006801738539289781,0.2113593978787136,-0.6376074980526785,-0.33978178826395533,-0.6663524901609215,0.10246155834946036,0.11345328064540294,-0.10315866146013675,0.14438363115303976,-0.9170695292251911,-0.10555227777134335,0.29315073262948,-0.5768446521329262,0.5467059722505614,-0.5878034451172498,0.9290825373443414,-0.5784716484492944,-0.3315216726387389,0.14698792960726492,-0.0318149636280054,0.47979103346396723,0.5497798401276512,0.06275105102379386,-0.3545597429926879,-0.054649248344343926,0.11947347961117383,-0.21626135042865213,-0.49878891868320663,0.017386045797358474,0.5069604109144359,0.5678578065985875,-0.31782348663743787,0.11449561388010476,-0.7978671966964028,-0.04438450038475916,-0.24292990908591028,0.19216345896694875,0.47430061115391453,0.5849753661794228,0.6844890134242965,0.3294361640081518,0.2430243206270406,0.33624846881834825,-0.6780041552157243,0.8592887187504641,-0.1230102533858044,-0.29252983565635216,0.18018604993982978,0.33473061529990145,0.24276197622109708,-0.8804575572680202,0.002350291410663008,

