-0.17462361292232154,-0.4678731996186183,-0.8463552880198797,-0.9291969824659574,-0.24937543307354892,-0.5970502496436998,-0.7580839288630821,0.4328196782134681,0.6249267873353594,0.9493081297773973,0.26707459603321637,-0.5572753789493072,-0.8235246342021139,0.7804455166626647,0.37806644853195626,-0.44395359945854107,0.3003287522158544,0.3720767198853654,0.5065509269804718,0.014279045423643,-0.6862467919910125,0.9267235747625637,0.5370378814526555,-0.3637737769901832,-0.7364164393844441,-0.13499586335531877,-0.03366920876556745,0.6084930452810078,-0.03855475208281223,0.06756353589187514,-0.9740310914527242,0.16922891418683328,0.5340083517569536,0.6767918634740702,0.6339410374716663,
0.2999293450515148,-0.550728330926352,-0.48057680751347087,-0.002979481462767053,0.323306198358168,-0.7837957577070378,0.025566568606917084,-0.7973501789999962,0.6509403009513111,-0.7461016902805817,-0.10332975337952921,0.7193812732323439,-0.1673671079420238,-0.21228290639027025,0.7143757864780278,0.36745824453562737,-0.4699249879377341,0.05374830099549288,-0.8158300599670982,-0.9738008749040561,-0.9293418260211137,-0.4207972900023391,-0.22780364644358375,-0.8875745202027925,0.8329521408026155,-0.1447754232324201,-0.8794576545249957,0.6942524681261704,-0.12642180569547468,-0.6700900454566663,0.8157680358762613,0.997139152449459,-0.07408884242377689,-0.6768439249086897,0.8374004043479075,
0.014173147084235893,-0.8157561404367559,0.20129342930158756,-0.6724352964382148,-0.04985635535358268,-0.8672456555928882,-0.05171966041510867,-0.8001175445390676,-0.6909666769139433,0.08681534177344252,-0.868431493754112,0.5452156833132926,-0.4228608443107489,0.0848921978397319,-0.8154257172475168,-0.20620910877515453,-0.3408904386620115,-0.6975237609916844,0.9140214731433358,0.1576902849000561,0.49176353429898234,0.2552045212081371,-0.8107535993294048,-0.9953502526640026,-0.40936415468205634,0.7165199941328662,-0.11811314930447425,0.5035567170169719,0.676769857129381,-0.5040701981489486,0.29820263321445006,0.13399406926013735,0.9863585702582525,-0.9928794697344734,0.5826047195974287,
-0.5333705236645618,0.38341169251459695,0.9008957445212853,0.8697981012541698,0.9982027737870092,-0.024294496646392494,-0.053899738939801045,-0.6757296626270768,-0.2356835897957794,-0.4231507226034623,0.8124027072002942,-0.37031211642678974,0.9551883705051627,-0.9376181619437396,0.4420075386691853,0.9770886601217283,0.8239787470692126,0.4353882335021708,-0.7069266871023094,-0.8504115460087112,-0.19574472363075057,-0.752794595612386,-0.10418385386014561,-0.087353638039249,-0.057383974775245594,-0.08863566616217877,0.8829799687453426,-0.40723686484067545,-0.4955601949128299,-0.5960066867378087,0.9395595080531218,0.46381359476557016,-0.07481068172645466,-0.138514307749098,-0.03763629992367834,
0.3590435024330241,0.1566440860399878,0.6663134527587966,0.12821179402291905,0.7880881555008759,0.8968938683439491,0.7544460510389206,-0.45974410331212234,-0.23780060606194353,0.19487623450275104,0.0829122351663345,-0.3448713664317904,0.5171945570653267,0.48469507678469204,-0.5363795351496043,0.7893160362520004,-0.6275297798073314,-0.7680902121616371,0.2996318190240084,-0.33863992108727237,-0.9242494343684862,-0.9365608428991554,0.15265710056101045,-0.8528021387587437,0.15706970786004382,0.5046742674966447,0.5256290543495552,-0.7908521959329062,0.05181350669140272,-0.7381480024802602,-0.2382234145199158,-0.6952439538466659,0.05147690510670544,0.3646898069849207,0.5417087345253029,
0.4899197280914527,-0.4978811717178675,-0.5762620299156098,0.10259195301843738,-0.09859340863879051,-0.905674103936343,0.7588584059968504,0.008583537146160003,-0.662905993810198,0.5748240729687291,-0.7803088541217114,-0.9307380258215971,-0.7520473027496957,0.7587062323026876,-0.8540761879073171,-0.16712677760183925,-0.3859949748088103,-0.6674305195400811,0.10463227750572979,-0.02621061082255105,-0.1028109579548393,0.6126876762139528,0.7939131116582947,0.8486555755798069,-0.4527357737625348,-0.8413309272118332,-0.18351693034162286,0.5132775577230719,0.3825970663531928,-0.058119614971253286,0.9038720166350311,-0.42761823335704574,0.57586778028515,-0.3707561239361954,0.6112907859678283,
-0.6230424064066138,0.9454433384618541,0.46684429428634777,0.505206884044225,-0.711031669756574,-0.21363610546237188,0.23410998334496114,-0.5698844078565835,-0.999201704952992,0.5705939163411624,0.7881592318202078,0.5679455293042193,-0.7731217843393208,-0.4956078818580687,-0.1707657995820755,0.6929928938334571,-0.5224881245101758,-0.8486431451062704,-0.3080311494898893,-0.7227706809791945,-0.9199959809524583,0.11290755937677033,-0.7964306319179568,0.9152836503544599,-0.8702326560137594,-0.8963342702992458,-0.05118938876984802,-0.08465039737329905,0.6341652364217372,0.6674015631022197,0.6430821772395996,0.8417246992091021,-0.24557529604472728,-0.7500836890950402,0.7385446509194173,

