-0.5445250134831785,-0.5379710370067425,0.6440625482360427,-0.8703369626762953,-0.39531823520150144,0.5065319989768993,-0.9225996034881279,0.6593505880718273,-0.8143020739835072,-0.625223792493258,-0.5385215845968532,-0.7794122189670756,-0.8667438957312525,0.4004469340729988,-0.7518314834349713,-0.8038033032103573,-0.4812389827200618,-0.6365319257163924,0.6737696537782236,0.11996393570401387,0.2300451832780004,0.9134332918099586,-0.9217966590246551,-0.7934399603717801,0.0816910710059433,-0.5464733668906849,-0.5718788977959239,-0.6911023998410009,0.04958476380647836,-0.8990401078819588,-0.24190234800806287,-0.4277235401049544,-0.5574938568413002,0.8497210526252665,0.7694717599719119,
0.22067922001898643,0.25520137178525526,-0.6163081444202752,-0.3357109773255105,-0.11090277146315008,0.6915240384038803,0.1229601557106077,-0.5578095276304673,-0.2932187575287313,-0.0971278077940061,-0.9665835020474896,0.3509821508667157,0.9398279946844428,0.3562887809399016,-0.5105081411528445,-0.04298933616227796,0.4175287363967306,-0.07176612565237339,0.05215725116531189,0.3893614675531629,0.19542159911045953,0.8141776701874293,0.40907264657835674,-0.2877139771952042,0.949005251662578,0.6508036133663859,-0.07896120457306766,-0.9068442216170003,0.4455875347698164,0.8667519336809599,0.22866895812388055,0.4586303014174071,-0.8922433839314832,0.20947454084167227,0.19546593888462604,
0.6696186715482964,0.16048075663628913,-0.3600875527638734,0.09825359255726474,-0.10399673165197809,0.14485501825721792,0.3433479411579785,0.4231778946516498,-0.16501433896110296,0.6850317160341841,-0.5260758841181556,0.8852591735209951,-0.3076946926551003,0.31088576215280406,0.43196502666992886,-0.6382585993873697,0.43347199217648313,-0.13251921638548825,-0.032629390851634854,0.31425134775276,0.7125436682804769,0.5834199800113546,-0.7909994945914047,-0.027955087029057024,-0.9011273404047788,0.2236790106804356,-0.16089753694493014,-0.9416156306551302,0.7476320736024438,-0.08146545774225222,0.06348062957266132,-0.8356440966633885,0.49782756619378876,0.23871840791257148,-0.22775935527958313,
0.00920116286529793,0.5318869998677946,-0.1220575935106456,0.34258818208001585,-0.2264955113032734,-0.8061856581983482,-0.09254665152779995,-0.0957013931609596,-0.5486593188248954,0.3382824117699501,0.9832963276521205,-0.42988325330335986,0.7397553793634077,-0.32906909928180084,0.11547634903877246,0.1274845256170627,-0.6312847379816917,-0.05947383596889555,-0.3507726610732782,-0.005362878650280178,-0.028069206903981625,0.5565307188036019,-0.03788955329261445,-0.13675287806035574,0.6087198306434909,-0.7689802855405574,-0.9533186127336737,-0.6185621821895038,0.8693467824286618,-0.41822668838863986,0.6269805759364138,0.47512695307693176,-0.868964004740093,-0.7162353831368784,-0.25188370691713136,
0.4623028798828184,-0.020874153082921287,0.31915195546824426,0.8817266254069729,-0.016023976640537674,0.06759343393034967,0.15127742221950258,0.506121360040928,-0.042811260234510984,-0.23455245282092285,0.23606147571830638,-0.15157949552140249,0.24960773523963797,0.8202508895466412,0.18457614386713717,0.01702262401997845,0.5818631808115962,0.9673005437855824,0.10346887419356365,-0.8937499965890656,-0.7170596281029682,0.9227594248097433,0.16530025784570745,-0.9789641563133133,-0.044431232897146344,-0.47870211781543404,-0.7012512292381605,0.7480314939137733,-0.1473039417016626,0.893570536982421,0.039027319645615455,0.5905297299997039,0.8227729884982753,-0.4738817834419611,0.04174620749695368,
0.48811432870101945,0.05071787032907871,0.806051203191162,0.5388479151726784,0.9579621280362396,-0.49693202668647074,0.2251355835559139,0.10312987810650687,-0.5767603428368135,-0.020032290539852227,-0.19733093300710092,0.48826234011401537,-0.26494830683365533,-0.016717818796935235,-0.5161996855012043,0.024097720214844687,0.5479152194329884,-0.770732759962742,0.279709285640273,-0.9275391105766484,0.8747469852026486,-0.434133771953213,0.7383330860458905,-0.6135026182065151,0.6258697449294439,0.2988446109645029,0.9690868001039443,0.8670503017456388,0.2275564911269572,0.4876158365586565,0.8922951896584179,-0.8275755022856124,0.5191488305794545,-0.3592508454380108,-0.3561847358363661,
-0.08671061211137032,0.04380091887616877,0.4227943773433722,-0.8624027268255474,-0.24763908481067176,-0.42358513318017454,0.47819685887453267,0.6736958134811089,-0.3711047294257839,-0.7266485632983135,-0.7152831830732158,-0.8234911549359623,0.5409153123324277,0.18201340811933453,0.06790917874041758,-0.8422115840159214,-0.15651570724271036,-0.9855847547117296,0.23985856566631503,-0.17876835595331375,-0.1407708914316741,-0.9326309223355427,0.5695071027287,-0.1397725503453886,0.7477083511926832,0.9629316654081876,-0.6514490324387714,-0.5524015357144656,0.04310958958240807,0.4862727025937803,-0.8139760795774382,-0.3240551400013527,0.04515078704375619,-0.785858605104697,0.7463263139214205,

