0.7093345532210971,0.6818539207759715,-0.41977704288319595,0.9085496190289519,-0.2204510887400981,-0.42272846471903147,-0.6646485729737843,0.5766697405373351,-0.19949913584918422,-0.965564721061777,0.7865016379282994,0.7252906224034854,0.8009903989975431,-0.9844566909927959,0.7136297595513097,-0.3306205455273352,-0.553654233559379,-0.28236909050276227,-0.15688363291742946,0.019139435833594343,-0.0012533191853421055,0.20814297243717794,-0.9765396100694608,0.2796487029451167,-0.2698449910664955,-0.7388842058690352,0.024510501499799275,0.1767739374521422,0.8567628735422999,0.03563045675090648,-0.008944410670512548,0.8519973838207522,0.12831888337137465,-0.9942211438039656,0.1773019150488151,-0.3823751107668931,-0.16735168638360154,0.38146119674427603,-0.2530359336420067,0.575170563629936,0.1651346009364818,0.1519117533520622,0.14440317008943726,-0.9264592536281111,0.6648838037995477,0.8389279333056068,0.8254473044252826,-0.2800298487779318,-0.2662537581362001,-0.9356436708815605,0.9822320270422848,0.4554888330454514,0.13132260223972336,-0.8835335420627486,0.3046030368939239,-0.9319712603406289,0.7785351475101778,0.8424221929716027,0.7913255581152889,-0.55989475735798,-0.7957020475287699,-0.600861722327215,-0.8424521069092452,
0.8143383506937718,0.5342725588330541,-0.33761251443557017,-0.5193297255006317,0.4089055299774176,0.04764948357660059,-0.5758974694601671,0.3849728650089108,-0.17365344459939824,-0.9826520183878427,0.9003948202163996,0.28606017715683807,0.8729693433493011,-0.19901885499570016,-0.47211048102851594,-6.176984442411992E-4,0.6424325712027061,-0.035615230557398014,0.5435558297851881,0.3627957812649423,-0.9840889211524573,0.596463079766758,-0.5767113169453453,-0.5686688618366933,0.0925756151435908,0.9135563303269927,-0.10292427107694846,-0.7269633646143137,0.48794921303369976,-0.2465102422131218,0.9636632469079014,0.42797072588918605,-0.07597175224635366,0.6239145820054006,0.09521082909035661,0.6881193572442406,-0.916113439679412,0.596507294658188,-0.34749589324269436,0.01421720786556313,0.31480694266459675,0.5280440171473415,-0.5761278104322181,-0.8738456818653009,0.4378144836939355,0.841322232883295,0.1560355069273145,-0.4131455387470415,-0.34218721977101696,-0.5866467133333222,0.9626864493920824,0.04521277431804904,0.3673531113920323,-0.00479607890572753,-0.4233150319929657,0.711884077341379,0.4983943363870569,-0.9726832168849309,0.5543278430208096,0.11241762213461315,2.3991763310404757E-4,-0.2839062333025677,0.7452299389030506,
0.6954345320661939,0.008165501125123598,0.8019793096066246,-0.3910672722270614,0.9692499477248553,0.3160800164073463,-0.4237668750829129,0.2894338009520483,-0.5014567734247906,-0.12210935950558688,0.39303573508409473,-0.24859001489913757,0.3133836987146237,-0.7639304719544568,-0.8244771536389848,0.7369834722868882,0.0661222239110335,-0.9877501783666398,-0.771201829963706,0.8194593836999289,0.6173613789156163,0.8935052334707667,0.04992655900661469,0.4105414939491485,0.6404217041718887,0.9092961124310186,0.764363740668826,0.22011002971460036,0.3044228698797269,-0.7821068277539054,-0.679769337973021,-0.6272753775756246,0.1293026943718647,0.10741810740816682,-0.3637052345191001,0.1525925268670134,0.7018002654568993,0.46546798371453413,-0.4735270565568954,0.17882185479653412,0.0996317691604236,0.5826195275410544,0.41312412912825414,-0.29464411601774887,0.5917910467125587,-0.17106403973152506,-0.40664706686808527,0.6950641347153184,-0.5338892461628955,-0.5210710587037797,-0.8630015229111643,-0.6649568645371846,0.6809217531973535,-0.24074553858895653,0.3719360372867637,0.7402584120530744,0.4458529188271878,0.05475170792107176,-0.6482283465177765,-0.2647629748890048,0.8075153570937901,0.13225965926888672,0.7029641635287494,
0.8085982895438326,0.8490193080018686,0.22797687733427052,0.812860573425771,-0.397211309328505,-0.7920257272849334,0.8929556069454603,0.4470853447014942,-0.3685358770036997,0.27582664530522427,-0.39734847981035637,-0.4258234963785821,-0.6904577656873772,-0.33790834346226584,0.31027694310105947,-0.5726853913882686,-0.16397544494643213,0.2902401789494562,0.36003479032399155,0.647444046864277,-0.012733239587264134,0.837703660400384,0.4751375535964131,-0.2709609065133276,-0.5415469803563642,-0.8593365410163434,-0.1031554939131023,0.9292202230216557,0.033609585434105194,0.6549948609163156,0.1745780549290441,-0.6971206267115726,-0.4304301291098309,0.09793755813139637,-0.4064914323359301,0.5909262252956875,-0.45311837989438764,0.9907696022381924,-0.22517556479962408,-0.6842801712563145,0.7707250296332517,0.9809626108708867,0.5952337435725801,-0.37279547255971135,-0.3025108795652398,0.5430016689377313,-0.7539299830117856,0.1952204305602785,-0.1822687202110873,0.9402537783216687,-0.011295573438404594,0.7579135184142658,0.5438228524738911,0.17597465360940823,0.9617939868334162,-0.18687757203787658,0.1306627351681593,-0.9302558288151315,-0.7427764208274197,0.37907250405406634,-0.6995820416097336,-0.43367410210278123,-0.5945718062206231,
-0.24733922904982975,0.4473292795365469,-0.08285225272819363,-0.6028911880807291,-0.2419308818624597,-0.4338031348340792,0.47030579040818954,0.4171852977603756,0.1053948206476909,0.3782408597850899,-0.5368063421144433,-0.4218444389783369,-0.8315577344557279,0.5206077337154025,0.4325660899732262,-0.8861395379842691,-0.25722861686840637,0.1208733439643721,-0.3599541208458932,0.730980502369408,0.15955262498268996,-0.4045293145608153,-0.743211672437907,0.11441929779677174,-0.49226916865344417,0.09104840844235329,-0.04078079975163473,-0.055943054868561104,-0.3435468365627441,0.6303448851461493,-0.9415339999834087,0.20418406182848559,0.27167039520714287,0.729240462338749,-0.6806946103174984,0.053255505599999475,0.085272747788389,0.019228285229247577,-0.7798475417250765,0.07043163435671262,0.3020758762230267,-0.7603771500209346,-0.43617895623645575,-0.6932981804129459,0.21942445639223873,-0.14359684526877348,0.06948705586189674,0.24221445867887947,0.8861350769909255,0.519665549759623,0.8594902082308242,0.4877643406415135,-0.05804786199104406,-0.41076057829805634,-0.3996877499205045,0.8672181040995972,-0.34435494874543116,0.03809737012586911,-0.5347261417025311,-0.6210154364494593,0.6193265377445161,0.18576869916441474,0.05719384914344783,
-0.5415328154479222,-0.44147399705968904,0.9190448163518325,0.962459343035704,0.9497617816202162,-0.7179951794831947,-0.6751589024030706,-0.2963427383869133,-0.7563074949348496,-0.0777463134500409,-0.00983980331065415,0.5161212981728771,0.15060586458824066,-0.6929354118063924,0.6166777091495339,-0.4055481927503166,-0.7498280419216237,0.554523897277656,0.0525514544992689,0.23826786339685757,0.6967691672861509,0.7982261762097165,0.361631209228928,-0.32784371162274173,-0.24214280758114337,0.3264603220871003,0.13032651845076337,0.22298309729012122,-0.27592860136956254,0.35857472814216385,-0.1450335079054037,-0.9915626108572722,-0.7464006034939068,0.1836790867962037,-0.04243604295372738,0.32388003693878153,0.6997291422053245,0.4512953125101491,-0.2545249473010802,-0.4897258535471214,-0.4807141837328506,-0.9694776716120896,-0.539476778703426,0.24417471419059011,-0.5289972893728083,-0.9562671365992799,-0.5442659371613836,0.9114608795488897,-0.01329990399126979,-0.5672269005858417,0.4929066343325932,0.009695530904681116,0.834473053133516,0.7300901346809872,-0.8281758630276876,-0.6302994744051285,0.9919187928853213,0.5841640976244806,0.581985532609832,-0.6048605772458218,-0.49123918255897014,-0.9719242972823412,0.41031722750991695,
0.48960176661894583,0.06205630384382599,0.48199313863383386,0.9434030900211319,-0.6261124997091039,-0.10649940175964101,0.04481465602171708,-0.32965244285616646,0.09189155245662062,-0.13282871415926478,-0.24284265677949057,-0.47753333829270184,-0.8383069875564291,-0.5026177501455835,0.2073345580819883,0.1785782350217362,0.5491562709245386,0.970146197264657,0.10391882295826815,0.31974171694531184,0.9245536208042742,-0.5819277492756645,-0.7470609613166417,-0.7651242658259514,-0.991576368189647,-0.992646496703756,0.7547144467211595,0.7587598551769434,0.7210809341825752,-0.24317251101146797,0.17478152546758774,-0.8334951975099567,0.3208977857499018,0.43292024764414716,0.9453216223989769,-0.6463459674600565,0.7496794556948778,0.35061384587107636,0.31795187336382646,0.39865680421956884,-8.397636842387701E-4,-0.5405962563725091,0.8156937939489026,0.4345326137961125,0.47084781736268955,-0.29545783033761897,0.32138806092007477,-0.3508771426997348,-0.9778505312802996,-0.6723091827996008,-0.30822349966347273,-0.8115945484757698,0.6749143203768015,-0.49256587868349144,0.10092539823830626,0.7549256128534609,0.8082307060637026,-0.46106642159351785,-0.8063819905838223,0.7734739501988563,-0.9344802694930592,0.6133304993492723,-0.43120364568234626,
0.13872135507299843,-0.8233302850801207,-0.8186666061004042,-0.8849137177254245,-0.23540163827353533,0.429159600133614,0.8717543015440166,0.28489265874683367,-0.5772151179578089,0.6178217880518773,0.9845861115245873,0.5205044780472561,0.6877536889146361,0.9610986640503505,-0.3104586751356606,0.7351029196606544,0.19839020170882504,0.6923496621453324,-0.7651989708417974,-0.996481412425408,0.9012879947887371,0.8179697146235201,0.70705045677252,0.43203760661688717,0.4583990714197377,0.8797816920750667,-0.8172940117483785,-0.44649168187791144,-0.41820555047167307,-0.5326302134200112,0.4715666232656883,0.533454714814146,0.7008701023204977,0.6967236670475505,0.07795092036201923,0.9748550112468906,-0.9275894595913128,0.9047655056668278,-0.5092917064912459,-0.8263024728266202,0.21150085935307228,0.4050364395125161,0.46232262944596814,0.30437808856419357,-0.6486438211489274,0.3080209827963032,0.5486526702889105,0.20345801422104692,0.5327153652326211,0.13029184321141174,0.8546834511264736,0.17225304753628246,0.8785239362519783,0.19986000361223244,-0.33200957853275725,0.5331778992441782,-0.37279012873002326,-0.28918082443529003,-0.5395544862759956,0.5517237090319465,-0.4220668722061369,0.6885751649340361,-0.39997666502800144,
-0.22460051675723514,0.743768781880312,0.09765551052730359,-0.9616059083704971,0.8429203231686777,0.2138610206111069,0.8572969150086289,0.22631617136376492,0.3813799111785712,0.49316402777822477,-0.3742886726475425,-0.4423280304751682,0.7360971739585587,0.9184631984380269,0.8721345380788688,0.7543164392438155,0.9672798266563953,-0.8580505978292887,0.9764648555040032,-0.22226263074451635,0.799601363776054,0.12869542033957648,0.8795015484603879,-0.9101462003304548,0.02524043926358588,0.6319634678726482,-0.8475031255230161,-0.6158920907960184,0.2378855091977765,-0.3096499065636844,-0.7370618246145415,0.2693320052843917,-0.2853398843833901,0.3333525347550874,-0.7158207951463373,-0.18729647950218253,-0.23512291278511266,0.38701944390454024,-0.6702561044559674,0.3344254230528729,-0.07101564557229256,-0.9610731464850104,-0.4111713259414138,0.39560029816204323,0.0380164630136266,0.6517976865992914,-0.002268721029700105,0.5320933890348389,-0.6666796688537646,0.20766234474056655,-0.6973603111685127,0.9610078390213328,0.5982765022374041,-0.28046475384338976,0.5524149545710857,-0.777275898637134,0.5681896191679938,-0.034839750698363536,-0.09429251899621649,0.5202830428394243,0.7614762906642705,0.9774570169983725,0.04494748248507929,
-0.6207790726721392,-0.6852693245015111,-0.13112287665270883,0.46045469666145467,0.17479216854154256,0.40620098504468216,-0.22804235940973405,0.40111476237747956,0.05984379931227646,-0.5833354362470209,0.9459383238994992,0.383773708204445,0.875434434932099,-0.8963592200306172,0.42938574267275964,0.8117035248182665,0.7376177559121473,0.7543352192571922,0.011346558958757136,-0.5268025763065001,-0.8323609975432513,0.5346612380297304,-0.2513698762832137,-0.5254465694594408,-0.13087844369291757,-0.933861987746379,-0.22560151580236054,-0.49258904190658015,0.5546479846711696,-0.36058219577248285,0.7233201284460549,-0.741393779580859,-0.41453144167012557,-0.5873519221099348,0.7411220973500929,0.24141627025139045,0.6118984137504171,0.4448264687745527,0.7514528747533256,0.36026439626212836,0.8882924157658352,-0.5212384419522884,-0.5794531158077951,-0.8833370204144411,0.48531501893966866,-0.9847966156621051,-0.909740476850917,-0.47762784162207583,0.23355042608344578,-0.5908378971460673,-0.15738051787654928,0.5064574514213536,-0.09367309380701272,0.4713862512371867,0.8141236395989677,-0.11386944153020373,0.8859564731788248,-0.6275753406499909,-0.10442242479662744,0.8169624559798832,-0.6435798083839828,-0.4763507217278182,-0.9666365992452726,
0.04626002595389034,0.9268565304460499,0.5490700425483628,0.4905938776818606,0.2641004883337157,-0.48596066576747243,0.4637248754136285,-0.3683091118498525,-0.6202776992411736,0.2983589220755791,-0.2611181455864864,0.06150359043024278,0.646672532793729,0.6166495336151072,-0.9387560692609243,-0.7198394369065768,-0.7816852034077617,-0.23346788582228584,0.28279842643747855,-0.5925727679851602,0.9360056123620732,0.8707728633941174,-0.6900918890311667,-0.014580531527139451,-0.06455127262217175,-0.8135177812678172,0.49469300537271854,0.3861010814307744,-0.9975592273955116,-0.45718944911130976,0.46870536743139657,-0.06992843786824432,0.517425287446998,0.9521229372573083,-0.7016465280146365,0.46572878826659125,0.298974408443341,0.8634637311471733,0.3434826083542115,0.862969011151397,-0.31047927354969307,-0.9865492916548757,-0.7350245468582512,-0.35683464086265193,0.8223657604163583,-0.6214344822255187,-0.7458132657897509,0.7972427473899155,0.16719364099734402,0.3441364597525567,-0.25352004682177887,0.7362472996741547,0.17202228190836677,-0.12086353448598519,-0.3669124053150872,-0.7261154973316826,0.10272706742612314,0.24224823421231445,-0.7000308586501682,0.5580799867973711,-0.9730239235699585,-0.45652344991633,0.6992944365227798,
0.9486934733176122,0.2976173417049175,-0.653084700107935,-0.9013676697212942,-0.018903666316498535,-0.13873625279909052,0.4241053677045712,0.15487926670824836,-0.23960051024833606,0.25102271319899905,0.7537477017411522,-0.47558593143583305,-0.6013020735388763,0.21802177032584202,0.9123637245255325,-0.6520812848592485,0.4377754980529702,0.6145839912295799,0.11182316105445578,0.637758453736816,0.5922918754820292,0.3626104043745322,-0.6865111898798033,0.8477676275435153,0.6035518997882499,0.12392965981445792,0.08505344664982561,-0.28025994610096405,0.5115356181853539,-0.36492161823635194,-0.8350246048970349,-0.12212338648354559,-0.7670549943019178,-0.42282164953472345,-0.939256340191712,-0.4181041428414911,0.9756023054532648,0.3222809030128331,0.43103582818594943,-0.44853424770794237,-0.27538771641207305,-0.06924959192368063,0.4881559752281761,-0.16093069225052892,0.8032791127841166,0.3699634325939887,-0.7940288911897151,0.35536767948265946,0.3418469987914763,0.08280205072736235,-0.2701089135727175,-0.1594198226039627,-0.620288936521844,0.7551238621484915,-0.9407345916573118,0.8273516464303388,-0.7181756238092947,0.41459372432505104,-0.19110075942910498,0.45503140531812836,-0.8323970117162507,-0.16103453471402562,-0.34478289426786124,
0.8722419095582941,0.13071228449492,0.6601056313646845,-0.06606605275295907,0.40406672994013504,-0.829308193632138,-0.47924686476647915,0.7799180102629906,-0.33785758613603645,-0.0375415623472759,-0.8257869668853237,-0.8137395601181057,-0.6596093519657913,-0.14269814363310696,0.51288549346167,0.4083941204214594,0.5660803679935187,0.8390670693957174,-0.8302667236745533,0.25043130376442124,0.36536382400373424,0.5517958647129428,0.5574954350618908,-0.05528030418008156,0.054381375392580145,-0.02982296891563818,-0.006342513508272418,0.5719424073556576,-0.8185139934204835,0.8017338478579474,-0.09510891194568427,0.2679177676785285,0.023088346443747687,0.2897547307908279,0.012879757938543124,0.8245808802994459,-0.42492082669711495,-0.27144756871737563,0.8741506911735435,0.7164589393144427,-0.5162628905944604,-0.29228686636764056,0.1797350691263111,-0.9297217698934619,-0.5755164289841446,-0.1304226561513373,0.8161827563636934,-0.35582838296072383,0.0638006917435896,-0.20572947558797328,-0.1523397415373915,-0.5057195249606559,-0.0709213872266663,0.5191811978520746,0.2995648268154274,-0.3196243131721528,0.26311532377914637,-0.8451391364719782,0.9072886780684368,-0.9015513913133504,-0.7455583280734699,0.07689959645819844,0.8394730163399855,
-0.6729475655678223,-0.08839990845775336,-0.7465916505764045,0.8132924882575021,0.23550119924977553,0.2889571361239205,-0.5896826042457881,0.9900149107560554,-0.9741369627718548,0.773583335458081,0.9417788083003313,-0.42771564243424676,-0.6329882911273914,0.7071879424150582,0.740538237605451,0.12027803198567821,0.327828201951351,-0.2559523825541987,0.4532203008494431,0.26209117508403135,0.9279736622403172,0.03532262675582665,-0.9419506257335117,-0.30559297331969737,-0.7015185594776225,-0.4178933340173243,0.1176055816249475,-0.8472876703073884,-0.3192547187962931,0.9140096173621155,-0.42320514377021845,0.37602134793951225,-0.20869151638781447,0.6270256597768353,-0.44371133329705037,-7.247625437023508E-4,-0.5588133896540992,0.2538921777395431,-0.7657312980685045,-0.22271360177155763,0.7222852794443453,-0.5579015168810562,-0.3856117504409773,-0.42269976035482193,0.5598016592191302,0.4791557735396894,0.7454416423379486,0.1729505428063458,-0.021672698997728057,0.8316935668757712,-0.21168964508163102,0.030587567540861338,-0.9593022631978647,-0.4455993418771471,0.21833283551487037,-3.39738582258331E-4,0.09246211739983434,0.17678139685303917,0.40632286620261304,0.10203907763858955,0.6811748168303478,0.990152300343986,-0.16095990050056108,
-0.5391336905053892,-0.6814614066665576,-0.4657441749688396,-0.6800060860034329,-0.18227309793791835,0.11475727346212161,-0.4776780720988212,-0.36595986691691484,-0.9423669178847383,0.2382842402403078,-0.5546381965347558,-0.6356922106610627,-0.3054783567043,-0.8595196360028061,0.6609295564436057,0.8175723473308458,0.36566382845091194,0.5335240979821432,0.898542376707566,-0.6557309867453562,0.04159269018446632,-0.7787557995580092,0.803402567539848,-0.2680824460721709,0.8788542526723189,-0.9436270163966196,0.3920166435730368,-0.19419059647554238,0.42609326940535874,-0.4659523388562332,-0.8922381668255226,-0.11161491152490566,-0.7603131936792029,0.8302138452332402,-0.45859804376044777,-0.6511916918263692,-0.12665789099415825,0.4549145521545195,0.821007987937818,0.11682055359866239,-0.3232215981689499,-0.8857247949298519,-0.8223073215486403,-0.2599596450630959,0.8718152967885364,0.8613247526687264,0.25802036811741025,-0.6685540430465446,0.9698939565182831,-0.8353810158948085,0.3809074744163008,0.5838620037686535,0.7532596587950189,0.13496260949236905,0.12628123375725675,0.9208459638054856,-0.23726184600968314,0.8243526312962679,-0.605281551457129,0.8084501638707995,0.5182410171502378,0.24759547880005717,0.39173780779453704,
0.26991208397757327,0.5438381154192315,-0.424122896830639,-0.13262593709553538,0.7254048328594906,-0.3225606471248852,-0.18710563278666226,0.38111410758993736,-0.5784430815823309,-0.8841706472678981,0.1879833797622137,0.36422854162914264,0.9205286768164755,0.17900380079514,0.48700946614887264,0.3159859821297941,-0.6139881204006938,0.8734575918472207,-0.4093896407121407,-0.40281005757796917,0.7335955535496639,0.9922793382397594,0.6007135298473671,0.9739308682801973,-0.8944796528995156,-0.2893911470834658,0.11007617668334935,0.31640027497093604,-0.4150785508482493,-0.5817816818222168,-0.5940757033923125,0.6720656644700964,0.5822385549834237,-0.12331966900279578,0.6975957437176554,-0.6905410029238943,0.9065488020012822,-0.30321094878968724,-0.18057982976424758,-0.7317156009036747,0.17715734951322282,-0.39739528256723844,0.28389695815543425,-0.5464968062510929,0.9358583250449715,-0.018306292102088007,0.04656022712218255,-0.6244909824782194,0.5878566220995389,-0.1831597479529794,-0.10725199287839482,0.2654567684981557,-0.8705803567676529,-0.7472912557786793,0.967821678173528,-0.5157350797438098,0.5129056007028128,-0.22836095787690414,0.6462081674599456,-0.10423916553822354,-0.5451060818316102,0.2359594212978542,0.6709675348422732,
0.18889465069651057,-0.4892792997189792,-0.10009365939795734,-0.7055849204263827,0.01089833495710435,0.31880059641910385,0.9024417264609188,0.011656282277090702,-0.7872787392917366,0.060694458245190264,0.7229630959560402,-0.5972797432091019,-0.48997505300293964,-0.6120390382026402,-0.38489627123921455,-0.41469352724868136,-0.5725250836623825,-0.6655931468316938,-0.8704757871490951,0.8289860302614482,-0.47898110498585056,0.062430970790664064,-0.5052010243605274,0.9930290705712539,0.5622943762436607,-0.31526733317370614,-0.15379476161580108,0.6238559745484504,0.6212624286941029,0.8577358875454166,0.0754245449831672,-0.21556074537181757,-0.2023839144231976,-0.63934355886455,0.41986998751953264,0.9868114029743451,-0.27153316779811787,-0.5457809961457818,0.8185561655899418,-0.03983929648917095,0.9392637248868021,-0.5443917122663475,0.5321310923464253,0.4108268570540068,0.6068545084634129,-0.3286827265148271,-0.44210717345890105,0.4168350677199508,0.36805037564108334,-0.4028675555035717,0.9663168679548295,0.6484361806952839,0.4340093054311931,0.12457616120090842,-0.5561765475733262,0.21744820848912427,0.4602057992101205,-0.6142985059914978,0.04721616662930672,0.6320226250413936,-0.6262912080900884,-0.17678368771115704,0.4584283480354907,
0.06978717435214521,-0.3260586067680924,-0.9095115487937071,-0.12608581898172222,0.9811450961757326,0.6000503204224799,0.4660642684446137,0.07122740831501728,-0.10416135440509366,0.9974654563227485,-0.3900904988984728,-0.8339686104760204,-0.7702873346397543,0.7181833478962301,-0.30633976183845024,0.10598825914740684,0.8749429220403029,0.9537611313312837,0.2047497577142101,0.04367870887668279,0.4058207206266229,-0.9730388221469692,0.054354894148362254,-0.6110940775843765,0.8435150634725357,-0.1425605058097823,-0.9883157560201612,0.5614405852027997,0.0970602386415298,0.5688236263075961,0.9422079526081955,0.24846781165597176,0.43414584253905386,0.5189802628707909,-0.15499259746774907,-0.683301015757686,-0.3658862804220864,0.4122238495635444,-0.7354987033372444,-0.5626849293743661,-0.16310482258104986,-0.9083270935811529,-0.7056175122391941,0.9526109209959899,-0.4745508403945311,-0.8880882549176852,-0.9033217188324316,0.5464138673664487,0.5655905103809513,0.2565702858508303,0.6264244917700019,-0.12394847911768148,-0.22407417275028618,-0.2076138645656227,-0.9174770204201126,-0.5181511965170591,-0.8880576922184964,-0.5592324378149203,-0.5020716430284256,0.010835565609041975,0.22212296491302763,-0.20017162997473936,0.8373906077939466,
-0.9254493941967981,-0.12971021162397633,-0.7356812730958247,0.9885550997570585,0.9065299181705646,0.5172052265105809,0.3678299867395085,0.11230260248301849,-0.6067288010862149,-0.7842111680236048,-0.08889658438210502,-0.03921146324598257,-0.9768310095854491,-0.10186356554949394,0.24222687447999558,0.9767182594152277,0.8311181022197986,-0.8811452866082101,-0.3810436248763014,-0.7450247171825981,-0.48781356264943887,-0.6319455016642355,-0.28964791299261083,-0.22220444008361073,-0.46403897349605594,-0.8213275965525682,-0.015627859673829958,0.727259743683764,0.3138746903010605,-0.5733799826097914,-0.019979580390553364,0.1339540595223001,-0.7449769840329714,0.45858664988470865,-0.7229026342818594,0.6382274429920447,0.8916858259920375,0.9811510066549478,-0.6464432649078404,0.720551707034534,0.16396872760164571,-0.9938156435801626,-0.5400765874115938,-0.5999310718606976,0.42368536878240626,-0.42864374594364696,0.14218095690733845,0.10548866173726235,-0.2491978806242603,-0.5591178864855892,-0.8910084676493655,0.19007629827407624,0.7714720611934336,-0.45952020690470885,0.766061641402844,-0.6074498292957542,-0.6751136672071554,-0.508169241614894,0.9299234408734698,-0.5617142239125157,0.04687590029193811,-0.7143309570375895,-0.01464866986787916,
-0.0696986793662171,0.22139811581152546,0.8689501307302672,-0.9349106291133076,0.6970778451641095,-0.9032528676382048,-0.7796209736767394,0.707515787924335,-0.1556539609348606,0.2715293183710621,0.3499060060087684,-0.11267358775540015,-0.09945199797625182,-0.273851600890628,0.5816253208861972,-0.6837305515167369,-0.34923715351013596,-0.3912519997789934,-0.5341579997801584,0.4754195102435288,0.5214607324008327,-0.01973725726142095,-0.28510206852056275,0.967430111989386,-0.291470101875712,-0.6185685402157641,-0.3313211994516969,-0.5333421129287941,-0.3664013268921573,0.3053300356701998,0.9695491410815638,-0.2029950070440818,0.7687516827461591,-0.5578160527314575,0.3627934413180629,-0.5182213245604455,0.38732003096551204,0.9089240803051839,-0.1625329046018218,-0.5131794779367029,-0.6214999783301605,-0.4158483163192215,-0.3161093035037186,0.817611259635546,0.9061364436635593,-0.860116802073694,0.46784837314409056,0.13300899860065885,0.39708192897811356,-0.6053532282331435,0.4078795615107986,0.6027339789312738,0.11212371328482651,0.20820650743439417,0.19088146053651456,-0.1373364117320035,-0.6174534560486424,0.29639400633961177,-0.12743285105705304,0.11145625645416057,-0.5120217618935241,-0.9347714508992453,0.18315392022267085,
0.14397549312442237,0.10624397993418233,-0.15328835152280607,-0.7050178785078209,-0.5685619084194566,0.28353134989371753,-0.23561541185755064,-0.09240430531210042,0.2351643563025574,0.9532484942953974,0.864939530304055,0.3671410447570649,-0.8197397677267158,0.17453421838694205,-0.8771202549596302,-0.539228769940443,0.7175157729779522,0.4664580339598612,0.45842664262197186,-0.4869308575208353,-0.5337435263116677,-0.11847436549413959,0.004573348633611474,0.4603321898005499,0.5578371639286586,0.7921834999412234,0.5173909313532403,0.6898887026838776,0.7889218018022395,0.7565954084773314,0.04439185262518808,0.6054446213995115,0.6456454510401828,0.28503953203438237,-0.25103653003536386,0.11578734752166908,0.07420745585652244,0.8458559179278939,0.13458262050341752,-0.45699859322168335,-0.7496014191475213,-0.970050483653266,-0.17927019165991132,0.8076785062729472,-0.45998290969312694,-0.5645661880092088,-0.5068789894568071,0.17243390422742744,-0.6559165138619709,-0.4609224742021327,0.6840809483927246,-0.6886329953254331,0.5872146779394327,0.5887949876137852,0.6345832298042395,0.02193464076988949,0.23447299354366669,-0.6185006550761838,0.6476862253435873,-0.49296817309083174,-0.5885416204543814,0.6832150378326487,0.06379749309869864,
-0.17109657205513895,0.454364192779378,-0.9965746363786661,-0.7285990527109625,0.8728389783164892,-0.468828218223063,-0.5467924121579479,-0.9874138504397605,0.9574297880916247,-0.647889299119063,0.4967876848833903,-0.3490791515332736,-0.9105034203263347,0.9269653129609579,0.5487233593786687,-0.9600890299396718,-0.2143760997878117,-0.6712385288599392,-0.42599605196070334,-0.8365034484311455,-0.6314351918207273,-0.012179673715345674,0.1159319173122173,-0.1842658462042739,-0.3043911220123847,-0.8328815538815162,-0.4932694745249524,0.2450195431696396,-0.6126666624712336,0.9593485856204742,0.40839928168596895,0.908908096659039,-0.20101360468889973,-0.601974280759195,0.28641734102753813,-0.7312068592622256,-0.7869212716967025,0.08943924106999601,-0.06352671540336408,-0.10059454846373517,0.030588695430348256,-0.8507974807163354,0.7644771617433448,0.0963004768414355,0.09951381011195637,0.16660607420401696,0.16268966144007457,-0.36479707452548893,0.7433291629750411,0.4219329355758452,0.029881238666699117,-0.6297182875820762,0.538242594494186,-0.35365243799007096,-0.7489891695814792,-0.04586946242107115,-0.5630362649972667,0.24092423629085813,0.781994669887982,-0.8795661392788312,0.4480318510515846,-0.9391682204339973,-0.12228954585607799,
-0.30900041113306265,-0.24642337326001518,-0.3773531682429414,-0.04353671298843742,0.7520446738599513,0.8847131987402261,-0.09278063899430955,0.6117159607505036,-0.7096789767646963,0.37260138155336775,0.8074681673005268,0.3619648273267022,0.9878739884412435,-0.8454729912945118,-0.29006338670262055,0.8722214776011978,0.844927535076277,-0.061808787434521006,0.700892926993504,-0.4143631962120453,0.8335943249582258,-0.28627810391528774,-0.547788966172778,-0.028616063853635465,0.8808111474018283,0.6517500477819422,0.9692225033758739,0.9249937307806542,-0.8628960860800416,-0.26277930517166515,0.072182443897566,-0.7500855715096031,-0.2915106671098675,-0.33756257341932927,-0.2650545262274502,-0.39585392692555965,0.8120237496471783,0.7391670952961635,-0.7810986516213176,0.8133777083350981,-0.33878816615298346,-0.11154055080908343,0.317172321396316,0.03213350143460714,0.2956924854811269,0.1281643900224021,-0.03647198325162582,0.8770125278030259,-0.9596791190325198,0.4019584650773764,0.9624266335973075,0.36118480739305814,-0.6880299290246994,-0.9199810870181491,-0.33895611914399737,0.22688419779241142,-0.9119228095925653,-0.9896864024512424,0.011104987268551803,-0.8972829244501783,0.5091641385321302,-0.3891988772318318,-0.34221201531370515,
0.8051835385818127,-0.1917357546643328,0.1666654312560012,-0.5550814862720221,-0.9411132211687061,-0.956609527811846,0.2330364232782991,-0.959868145302351,-0.07251685359989635,0.9548834649935938,-0.15752385966429694,0.2606283679874788,0.3275048735355144,0.6776808954574334,0.07783856800582556,0.11960372296979971,0.1397645913369998,-0.9907472474683492,-0.5050609753861415,-0.3846126354274668,0.638129051328971,-0.5328495377202527,-0.13420239257310018,-0.15022415573541226,-0.7769715293124764,-0.5341794074837911,-0.2379516111012352,0.18900115219238334,-0.2228554157246998,0.6005369750589209,0.6094354490989284,-0.12977280475963693,-0.6467000950745176,0.24700888973043944,-0.9818563417275954,0.7084202506511224,-0.6403522305734293,0.4684248479482809,-0.5699586077129786,0.3728934044762995,0.924842160358587,0.5673961688200508,0.422739483973003,-0.9202236627991527,-0.2940571422854463,0.5284660860488541,0.3716997977675429,-0.5138827702727322,-0.9556092080548124,0.06755452012241925,-0.40454586164615947,0.07327471667483954,0.08046625015524378,0.037911009624903125,0.5953227761644182,0.3717116843852859,-0.7957794120060977,-0.4621480142641583,-0.4501503924600947,0.006256288096125218,-0.9490501555181565,-0.7762391765498309,0.8355001895779846,
0.730348101388073,-0.8581416788262768,-0.9474663927453415,0.01899480109895224,-0.630259758255201,0.2256358996091532,0.960854943511477,-0.49702028424840883,-0.08941767566450753,0.39425333423613607,-0.16560697705793204,0.8055652128427517,0.8437612613154624,-0.8736435813683292,-0.4717949529273813,0.31558910562295894,-0.6831693266955221,-0.4457815268614791,0.6703475228420006,-0.7107088475703291,0.6468127780725426,-0.5447108355613917,-0.4861106307272176,-0.1595867208026176,0.31160891982671135,-0.26304545664022405,0.19822891153786748,0.7245669729135342,-0.3352903804988274,-0.48679682546232783,0.4388183032916093,-0.16996087925332093,0.30734623144403583,-0.7355303750942961,0.8851027145305226,0.46103414406680754,-0.6958185049467343,0.027005576246432073,-0.830315038634404,-0.2643202906998656,0.24308697757915776,-0.924293086466579,-0.9825719369579085,-0.28004980570830074,-0.4834888765775345,-0.8555969990232006,0.691412960681983,-0.7200086926326481,-0.8586073895436326,0.8701926770120623,-0.4766289534622523,-0.9408433459307146,0.9365281310232172,0.8534896818935047,0.3094134076036277,-0.527604813414045,-0.05924371070758694,0.4930177108269913,0.9475839720802173,0.1594576810335453,-0.41772757820048545,-0.4149251070778388,0.8519641340125521,
0.9497164658446435,-0.7011572255833589,-0.4310363115703162,0.39876253004754747,-0.9347772172575224,-0.9393612708161463,0.2555619474982542,0.9430235317546893,-0.9750466928267472,0.5618658870115092,0.8935879841555905,0.7902943633113688,0.5120252427273748,-0.275684888441206,-0.4918084806592249,0.9157913982235864,-0.6730116679740683,-0.40458377495464326,-0.41092108474488365,-0.8056895119367817,-0.5258704980203437,0.7253280408148115,0.4104618761708676,-0.5626705778123451,0.4140546942782546,-0.3279484049986854,0.5326937145613171,-0.3705472197359079,0.5646395335900125,-0.5894937059861194,-0.6344617328814384,0.41455367819524125,0.24376996896540803,0.11096256685217387,-0.9344075233595253,0.10266955705008352,0.4211208219493241,-0.9958236575440447,0.4954638610228701,0.25191162455165417,-0.11745061588856442,-0.13497419439980773,0.4898796885945744,0.22535230315649857,0.709508505766757,0.02340167167520124,-0.7460145550562007,0.03105631592913305,0.337212046414999,-0.24944242806950423,0.36166645425139987,0.22412552698982235,-0.12088574838899002,-0.6289213776449787,-0.47319474808857387,-0.317169838308879,0.891591494426544,-0.484919969604106,0.08796581267280756,0.6666023344739338,0.30154416391037553,-0.44779891861939936,0.9770727381782047,
-0.2781293123279167,-0.16903596373276542,0.4384122659434473,0.8352333805483863,0.722418524863804,-0.07365968698124736,0.9586065981168495,-0.10607275313402531,0.6141507666046886,0.9371066972628623,0.6623998243923372,-0.7426339378682272,-0.7201425162713067,0.08615835119604487,0.6675165978571784,-0.6980939511739068,0.34776629647623314,-0.3632023466021923,0.9445936196909364,-0.9490285413818174,-0.2616219336495278,-0.41570609758178834,-0.30081713480036765,0.5890279376449412,-0.7227169977554155,-0.8134282342761947,-0.9688078423269255,0.8457198414519118,-0.20264101646454002,-0.302629848838079,-0.8210469263960547,-0.5886329366716805,-0.18804443628705902,-0.22345705576082442,-0.6554413805040196,-0.562407888776083,0.061370735695996936,-0.7740013544731801,0.3490677574034624,-0.8680719690368275,-0.981868763267997,-0.06389295584195653,-0.8193744227118429,-0.12716440825293462,-0.2177110798754751,-0.7737732319795096,-0.12449878059657404,-0.44836467533641056,0.7061506787905345,0.1243367399631432,-0.8884997290023398,0.39044008259136254,0.5585606278686481,-0.44541660236920966,0.3951587852407328,-0.8097505608948139,0.07205804185478049,0.8878812605978654,-0.2114177496064349,0.7309474054747425,-0.6880634220617834,-0.14046397720444892,0.7487431807587261,
-0.12497750416724762,0.46443350545371653,0.4691838169991345,-0.15849361428310882,0.819406018425537,0.36198188244463414,0.1521714100396161,0.844602249857032,0.8949054137208903,0.3466600595508571,-0.7521714228533485,0.0682233340558378,-0.6697161413935953,0.9186773602465372,0.5889122087206844,0.5988705953549034,0.4781193958713599,-0.9750624537131765,0.897830332754477,-0.3884693413433078,0.14215159866344496,0.8134242181962412,0.5990822970085172,0.8972176732524733,0.8509042046582127,0.21235632147636418,0.6436786382746786,0.31736610709997803,-0.8100508950387528,-0.21123543109593657,-0.00986646733896479,-0.9764849727634914,-0.3647443555222769,0.9993426657755158,-0.5020501505389143,-0.02982347132473029,0.7226471186548298,0.167130410399825,-0.8366542846559344,-0.49926535752790446,0.8434647388153573,0.3007892153734324,-0.1367013515522224,-0.39932586940066694,0.4741170820696652,-0.7810668359203923,0.0728128859942605,-0.21060861135108455,-0.7727286062841789,-0.6498179198114247,0.38164202065435027,0.561293210684312,-0.244978466327898,0.05030667943913625,0.0605283809195587,0.7888420230618625,0.23944460213475138,-0.688962214686665,0.41334832845503455,-0.43534053156802455,0.9735375023630604,0.33081626391785535,-0.7996193514503793,
0.5867530531424048,0.36560196635692943,-0.4240378343772191,-0.9707565514540912,0.3803844510154537,-0.40727483953546506,0.6814454989656584,0.2838731256991176,0.40204991431928194,-0.9159190047090626,0.8236437383439976,-0.10175292011672132,-0.6145021827302306,0.03235495589333204,-0.9568256009658571,-0.9196200422611092,0.16666031396790326,0.2116747005053914,-0.595905556539075,-0.04654873636673007,0.6638297526351715,-0.47699524726533205,-0.1535393104944942,-0.9952495129911711,-0.3086361752019904,0.8930438733108674,0.12244963600123127,0.21945381967435673,0.8496559052501933,0.420240245413545,-0.6980632381168455,0.8250748154081209,-0.1389393470552296,0.9916185816538188,0.9916402945859384,-0.3162407671688101,0.4109179957023079,-0.01330903456192467,0.6326353190535281,0.5434229929677057,0.8047715896070731,0.13980164165562536,0.024249851828975544,-0.40494070894990397,0.5673313530460136,-0.8501659716744241,-0.43194466982995294,-0.9176296381420097,0.4856820267946904,0.20628605122011368,0.6338680298220911,0.07120623221202882,-0.4613063826190096,0.24329861023785893,0.9203818295093291,-0.0898783476598557,-0.34345740262895186,-0.561700576335254,0.7162541011934578,-0.6003092237008489,0.3187051910479042,0.2395033764423522,-0.4368287466436047,
-0.7629540720196346,-0.3742616784245181,-0.9634123974860804,0.9806225997253368,0.9134372780701847,0.669615485019404,0.48143924017785933,-0.36718500009718613,-0.08356459123089954,-0.22066030061978914,-0.5790501751426844,0.601363111257591,0.8247294051408307,0.5330067495379507,0.4214105234077816,0.2730940834062445,0.6823002843657762,0.3044473775461787,-0.05586132760581708,0.7605076307984087,0.900077190816408,0.5520278517468011,-0.6254538619196017,0.7431368970430723,0.8570124120005735,0.059143458203962274,0.3119360301770895,-0.8487429579367778,0.3588400139624195,-0.09960885462854319,0.7948942021057244,0.20909300040608048,-0.8383903612752273,0.034361718573827194,0.46721914154220934,-0.987119928747265,-0.12158368944328535,0.11344415444797451,0.08191199179061259,0.039834901375367826,-0.23842553789493603,-0.6470109513080908,0.19582757690832842,0.7672964352038107,-0.9111866377851001,0.11662926085892256,-0.5748363236338607,0.9270010314365194,-0.8191019313012209,-0.7484885950632767,0.21204530923976517,0.8276574016136893,-0.5605905882546975,0.1466432517838394,-0.3049609672500384,-0.3503081605292442,0.21724362831820843,0.9895154686358938,0.9815087287565496,0.6492356155817338,0.8207208698798478,0.7606100211331015,-0.11269526318849721,
0.8041315325388168,-0.5089796546430405,0.1323598588902657,0.039354417158028454,-0.4070627835459222,0.8239865503127779,-0.37142200205000364,-0.8706985260138664,-0.6813913149156765,-0.23881873398199316,0.15232740181967896,-0.938581159853416,-0.32825155805791373,0.021382039920273987,-0.6953444488535767,0.7555988678375578,0.07400700828200257,0.6405574006988379,0.7935716348153123,0.4463015582446188,0.7504292517616737,-0.8503234563757376,-0.32790347529769504,0.46092085846696396,-0.5497600371074927,-0.15646010622535922,-0.8538304602588045,-0.3338939630587143,-0.7312332808926343,0.5801441633840598,-0.7423515476604428,-0.9618455616610182,0.11890085007592965,-0.4010757247501029,-0.125406748463875,0.14366910481915363,0.05870020066750059,0.9575431279708648,0.11047591872508278,0.7092534088475282,0.9024413631711647,-0.6392727996840175,-0.4540866528938121,-0.08590741064567764,-0.6743687429881249,0.3909745008750831,-0.5590281900712679,0.5568506165345481,0.020191143864046524,0.4497904414420304,0.5030460586277796,-0.17161118020989252,-0.6357693530173822,0.07943345086781362,-0.2852315715476188,-0.9356097124187541,0.5415301187573682,0.7589826433447955,0.22835655421532208,-0.4429467563442502,0.0790549357859176,0.754865312921063,-0.6027383523102587,
0.27259369596739935,-0.6334726630425633,0.15481275609858347,0.6429319264745887,0.1513761592546512,0.8802848765026219,0.8255390918743404,-0.9560399635704355,0.5600700968427383,-0.44564240704804736,-0.2917331958796068,0.28683476529714813,0.4203060507343723,-0.9751011055231313,-0.3974491101280635,-0.06802818466251903,-0.4441141226160894,0.31980915306251867,0.3876809377158619,0.8256512981435342,0.8806774370337278,0.9735929551322613,-0.5077304029658407,0.9279418293488668,-0.8080960092085261,-0.4818052808872486,-0.6535370237358777,-0.17135420626547693,-0.46138465120981764,-0.16623930398228448,-0.4624624798980781,-0.21224849778389032,-0.5972932997937574,-0.06102187196856579,0.43847531522135985,0.2638336775785215,0.25992909118314356,0.4588451781382874,-0.8095615177669475,-0.416706355781715,-0.5190865849226407,-0.7715704084160566,0.09389121230608,-0.34471340992595256,0.9873077495230662,0.2743753476115751,-0.30055430383930837,-0.5483648760199071,0.5957069298834892,-0.23837845718229356,0.1883373995516786,0.34798080743519133,-0.43787012795546176,0.40099950147815466,0.993761928990984,-0.6381199944350309,-0.517620077754688,-0.715922121486235,0.038135170699780785,0.8255025691034155,-0.5912998407576995,0.14482853578225763,0.4476649016003649,
-0.9049552240187737,-0.1892852627913575,-0.3566109334384451,0.15445269690484298,0.5259221044226168,-0.1612748677276299,0.4254009270244459,0.40766962134577733,0.13225929244626466,0.24000812102126323,-0.5688945543870227,0.8891810331478673,-0.8988507385091233,0.23384065446070212,0.21158262743384015,-0.13467906622516623,-0.35339482114416665,0.6685547209443432,0.8552215882642247,-0.39465386380394896,-0.4349170965051501,-0.13599614041315178,0.5357137506558549,0.1584283049736397,0.29390454084416184,0.6854004332762385,-0.3364363472099132,0.5048694906166702,-0.7241331884725504,-0.4004384287764975,-0.8436850250167465,-0.9164444013013495,-0.002228868786703142,0.732179192612129,-0.5616071520010626,-0.2535099935912746,-0.8024352490669056,0.27480816913074646,-0.5603338781282361,0.3025779940407327,0.4242371778441698,0.982844895464901,0.08253710014590121,0.986659561243235,0.3865666802219552,0.9608452999102652,-0.4694311019050865,-0.5738809091101387,-0.6587325752775579,-0.5508880828397256,0.8173634653271151,0.976224448544349,-0.8519611062920802,0.9055553895405526,0.38260725765712267,0.65668027444282,0.5584735236858505,-0.6805847256183448,0.5129039872401933,-0.6542944336618357,0.8077309560802222,-0.6014974678098945,-0.2817830901162801,
0.374274804877047,-0.3576587337007462,0.03920471184157748,0.6704472606117449,-0.7880099597649075,0.5444513110926217,0.31857225099363173,-0.5111229427221127,0.5473795527991838,0.10228297390023688,-0.8596164878645258,0.8779086236944749,-0.260754002114429,0.22852428846962858,0.6221629452290516,0.9057367091270652,-0.6479835259375601,-0.7571726286912985,0.3277059943302578,-0.9417094602198604,0.28687368001328495,0.711541240579848,0.5297420543999154,-0.38901189689413984,0.8817764316369419,-0.622740216216062,-0.1700550675228767,-0.6684530595029277,0.2773053355225916,-0.4872818991577328,-0.33142163214696807,0.06029950635218029,0.33159806907479394,0.5980251466353865,-0.4763576321372651,0.8101632249490074,-0.583533912593484,0.3471715738749148,-0.07053581901181749,0.6866204200019597,-0.46188614848430287,-0.2007938544700636,-0.1627441938525691,-0.8512358175533674,-0.6002916787398649,-0.5585726330611975,0.29523865218390455,-0.08432906288144415,0.25937608308297855,-0.8536111274061582,-0.05648760596390234,-0.8319367236755395,0.7360324834802952,0.08147179351807443,-0.6010740428119015,-0.39657137927111075,-0.9232244916457963,-0.31077110250260587,-0.7522164416313348,-0.626535084155484,0.8234063194158421,-0.6613399159165352,0.06929969940556524,
0.9659244879896338,0.30196433818074286,0.31203000450997576,0.6802928363863279,-0.3113671592449554,-0.09200469556114643,-0.5812062667422113,0.6216870983254241,0.5716614522943682,-0.2284029325003163,0.7176479135683465,0.7999690969383784,0.22433626040690458,0.06011673033472942,0.5796789816341894,0.15182439961935623,0.4669671818740275,0.912701059522915,-0.3599678844856975,0.21775765786834156,-0.5971125170565494,0.7997297678479565,-0.9375204189702702,-0.40942310495682754,-0.9954060630599819,0.9614894443829052,-0.019282560810017335,0.34720216989654973,0.2584825721584467,-0.4957254808756357,-0.01782422248771698,0.7773356662249076,-0.5541218365137952,-0.2815710228277446,-0.9354215045518826,0.9901092804995266,0.2337576201484044,-0.768328259863239,-0.3775575923364356,0.30990344209413445,-0.09322796672989875,-0.277624820060864,0.7101595843409783,-0.234891066797839,0.2928737379758082,-0.9087034998454979,0.0802582063290358,-0.5713177050166864,0.7180595143743775,-0.7734125725231598,0.3098918247373328,0.8869225094981312,-0.3285574968965628,0.7957380096868487,-0.29444067437434684,-0.3070243007336806,-0.22993025698569713,-0.1405634154083666,0.6155108227880568,-0.6958481374703422,-0.9163949596779506,-0.4738421740217784,-0.7187509110476198,

