-0.14570798108023958	-0.017146125404964126	0.4869744741176561	-0.6349019528351496	-0.1162484980422624	-0.6543960015635055	-0.23842592447538904	0.3556914378646496	1.9606123260112411	0.40614277429187834	0.17263104240886157	1.1798375314608112	0.5645724614748263	-0.7543793377315826	0.6070624181407156	0.9006973158510359	-0.31738512070052244	0.6160917337311531	1.0769713291660457	-0.8715406072288758	-0.12799682926488232	1.2838434591828187	-0.09737159500886633	-0.4875596832071802	-0.22593233718350353	-1.7699189019095825	-0.12270617931798677	1.4055833491834824	0.751804148897997	-0.9955760189493925	-0.5859796747751607	-1.4463836150395457	-1.004486595584379	-0.9781999347987598	0.26669110325027023	0.17503109778283132	0.5611068536290078	-0.025361382082473936	0.5057833032300019	-0.5888128935412136	-0.4763036708881068	-0.11284023974840274	0.7125660759288299	-0.6319741358582829	0.08625410851292889	0.7970898792046466	0.29955079347501895	-1.377743689117928	-0.29117892816430885	-1.3501288407026826	0.15028054824581855	1.1218163533481273	-0.47393649930386633	-0.16054940772316434	0.01493899578076964	-0.7412432378036087	0.4463661300756068	-0.5347583356598282	-0.2514451384163025	-1.0409886443753655	-0.5311509048207105	-0.534165892607521	-0.8586587588637653	
0.9841618618228831	0.43346348275431523	0.012471124984600665	0.37799080522601125	0.844975556247463	1.007784075932586	-0.6480529729024833	1.2971005834138007	-0.4811476584025637	-1.0890646557568844	-0.045679580923252174	-0.6372822345022733	-0.806881547695286	-0.7642958444969072	-1.324762892009899	0.592895038882371	-1.1022726496111506	-0.42538861658175886	-0.04135079947087288	1.3328624718409214	-0.3037094069759757	-0.7982527224251335	1.040598303232596	-0.4569130902839631	0.5725546330733742	-0.6496654953210219	1.4276817039024996	0.370744727852396	-0.020344150678632416	0.524341765036039	-1.0133518869897555	1.0328579039725168	1.212248970292208	0.5062017696242624	0.8041658942251804	-0.32878350071549045	-0.6893491357853119	-0.10409472263610266	-0.32106376062852415	-0.11895085187168318	0.15105172945113196	1.0231448108940129	0.23877127150558594	0.3145296833434811	0.40657549520998604	0.3283125417295124	-0.7307310726200993	0.509369038841334	0.014774978368884634	-0.32295474193606366	-0.9824600918916067	0.5013373594728026	0.34321623050944905	-0.2631066120670627	0.4593688381637865	0.5286140023914916	0.28013752519501667	-0.0877636590789735	0.2944699956278293	1.8101858050574058	1.1620595216820169	-0.13455667597388266	-0.29123427389877976	
-0.0018367177848308065	0.7547970960544548	-0.33902345629812175	0.15560062101247654	-0.6407271069623468	-0.38256936483917053	1.2631710028001493	1.062091194466653	0.1298271655484122	0.7350653030635477	0.7887248395623765	0.20060080165457997	-0.2574739958397895	-0.07945246613768911	-0.10186286941165376	-0.13478236541554492	-0.7774851393594329	0.5224104999564678	-0.174478264674759	-0.2470540185589162	-1.155807720483961	0.0925110370148669	-0.34997561935771987	-0.3186332667799608	1.2569630702663928	1.446399561049045	-1.2597338377931764	-0.6503538265680755	-0.7546971696235774	-0.10660992578655865	0.778035881445875	0.22269169789039503	0.14615458528370714	-0.45599298985871123	-0.14608957419005672	-0.0209859918449012	1.1750579360801376	0.8088778274312589	-0.35887617934887744	-0.3717131988103301	0.9060081570529022	-1.2472882953467774	-0.37713879880398865	-0.749334085669684	0.49956210812855223	0.803090691034978	-0.7511951797700831	0.935804492858296	-0.7017201888607973	0.04827800038666481	-0.3029603724837567	-0.44034291073382564	-1.0389907640637719	0.6887475426729419	-0.9623291178591376	-0.17569968336683991	1.1711043273542794	0.831386572876792	-0.4170155124424693	-0.7679016793017126	0.06207140922306856	1.1642622323507763	1.4030748664366066	
0.1560289770548844	-0.6792920488484442	-0.6504560728615554	0.463134044300651	-0.7062388013580705	0.21926153662702264	0.4652399070356579	0.06691853646797802	-0.33388649598097625	-1.3883742160060295	0.47108811322585636	-0.4940893748842536	-0.7110330358155259	-1.1859812291067608	-0.2252538164681983	-0.6395456038309495	0.4258570112035109	-0.2581835872640951	-1.4128806356087307	-0.919714876407884	0.5986872156166323	-0.47077395661503885	-0.46875050211876385	-1.085330591232113	0.301191965930303	-0.3322748183553561	0.26404243948843414	-0.9471522086033026	-0.1461414408124811	-0.1878899456630163	-0.6115663070593083	0.21847402545488676	-0.808707982555352	0.18515071622871565	-0.9322048435401908	0.8107638080951747	0.5028937669078215	-0.18314330657419925	-0.05141983944205863	-0.7081449772367354	-1.182521064613833	1.0068852583065524	-0.7492946668311722	0.8580004546281725	-0.09209382296394178	-0.5230586401733814	-0.3166148291326874	-0.5080280027120091	0.176119168960303	0.600912334111436	-0.21615753494617357	-0.7081316886341091	-0.8522547839699832	0.1699109201754691	0.8381033943804312	-0.41532390107738054	-0.6917460644056503	1.029778566778224	-0.2910729956368173	-0.33986682320313594	0.6141958057410228	0.6985719734413411	-0.47512751087392335	
0.8281904631941288	0.3648378420192903	0.8570146418690141	0.2663291757945326	0.3423930668999674	-0.13754683101052523	-0.9697143619990842	0.7561658358875123	0.8489053723193971	-0.45659006404912944	0.6496589286385541	0.253084168266464	-0.9067917343783278	0.8642776855093668	0.510919350456113	0.6234282469117132	8.603533886473988E-4	-0.33609640375901934	-0.18891777348093286	-0.9420424883352678	0.016071473486442413	-0.5746213735994874	-0.11858527053429292	-1.1416670705717964	-0.012195585029967104	-0.3606374073705956	-0.7181800479497451	0.2584861345136945	0.6369763149848204	-0.6780615873506248	-0.11594138018305168	0.25008095909786504	0.5184841128858524	0.17551024360037615	-0.004883170702191567	0.9564918370098459	-0.4560537414443339	-1.344392311507021	0.09163238144479087	0.7234692930771449	-0.24247123783135813	1.055153734740565	0.8098404012419413	0.41781701655170095	-0.1608752510847464	-0.16017141087862094	-0.3475349552198005	-0.615205678348387	1.50362441694588	-0.08820375889347735	1.2365940492484522	-0.10647125353974775	0.37012781597142647	0.3966157121774108	-0.4450373165723272	1.2429559769983647	-0.8025854929912053	0.03975345151333539	0.5236085234846534	0.6240540555428618	0.6589827405734133	-0.6485638020439295	-0.5369153912021232	
-0.9722905995651633	-0.41631108157963054	-0.3945123136394642	-0.24622275737426877	0.652414545944045	0.2419667286695274	0.1701590262785925	-0.9304199230047497	0.5465272759596388	0.060142393758788604	0.9218845346542256	-1.3160011790320076	-0.5572141889435367	-0.06625787926296338	-0.8921763678051623	-0.8594743214073332	0.05848285638320139	0.3061953686540509	-0.284636651393208	0.06877675941536097	-0.006084565563855519	0.35240989920005533	-0.9709103272649836	0.3179992000250112	-0.6806532534358719	1.4858030295033184	1.4992212482937395	-1.599987728038604	-0.9833836201355238	-1.129115738584961	-0.6735045185132132	-0.2688861568023005	-1.0245103124854775	-0.4731710938726033	0.48037300563651014	0.45145295600014484	-0.021681775485429114	-0.05908866610902933	0.6716656000128302	-0.4043839488525199	0.5054158409259295	-0.15121111852339544	0.6294497353728162	-0.8164280477113114	0.5508457265040979	0.5371971709195503	-0.5377732574716517	0.6216442226844535	0.7918531261659226	-1.5935633632832251	-0.026278684974962163	-0.9720322610353987	0.8940501582265165	0.19627134883851158	0.47648497168410336	1.0466941729415848	-0.9879079344638312	-0.731682743876113	0.6107920133404693	-0.11137022031697587	-0.42909532083238516	-0.6524667410842057	0.19820745074010873	
-0.196102114226146	0.5266174461867311	0.32609196876886437	0.30478594126759617	0.6178503099126366	-1.396490324359457	-0.944524693521985	-0.0803375772575003	-1.7656327280436392	-0.7093949020553475	1.5949746356778025	-0.21750410908511839	-0.8005933163605902	0.13129674376562203	-0.3755261919360606	-0.14553620135913672	-0.2549500273952702	0.21019785067153754	-0.45780133835472914	-0.6396347538887895	0.7727706109727767	-0.6961887583870768	-0.01281328162883062	-0.6997454922111562	-0.25440927509410505	0.5247478706060668	-0.4000872984362911	0.353855929202363	-0.887746584584559	0.15409169243189438	0.6202609204973769	-0.865783212076907	-0.332715889570799	1.0534557839490304	1.5509877894981006	-1.1049466091690996	0.15684325530161394	-0.5620952153035376	-0.8925412521921031	1.2257954782330378	0.5746826952980907	0.8486555623152808	-1.368189527986799	-0.3215490673938882	0.9343171478921496	0.2892752857953411	-0.6970056032430884	0.1788173196680827	0.876150614490791	1.0936908162233854	-0.9744795204643416	-0.070223305311731	-0.8886741985105661	-0.2933018681429206	0.7383481285034595	0.506617785399306	-0.03956003215484673	-0.17826858186443503	0.3180180165448381	0.5370953868829557	-0.29456349653673997	0.10612377931744356	-0.2135264416326018	
-0.162741455551063	0.23695952186922925	0.014145002822641401	-0.780416132071223	-0.4335234732800782	0.45371270875312036	0.9084629917481549	0.026481843307216285	-0.33382214292143764	-1.128112260161887	-0.2009255313031179	-0.5824770786946588	0.3938625033963893	0.2941125017911296	-0.44738182190334075	0.3435889680258324	-0.46759149246090603	-0.09793113217474808	-1.2726042406281524	0.9036228129545355	-0.42508013904553954	0.3586436197729018	-0.050593435624128845	-0.550536784170432	0.11009568366152497	-0.10436940190124203	-0.2983537959803162	0.8029458187375319	1.1691579988621355	0.055091360876955535	-0.8218496636032092	-0.6512923166612795	0.13917024463020305	-0.16759246897713764	0.3816950266314352	1.2667317679663381	-0.9266255589997844	-1.2590739623754028	0.002986195980155625	-1.578169403350242	-1.6337977763314506	-0.3820746966455367	-0.6581058983434286	0.49522196224433185	-0.7514006963273835	-1.0201784100605302	-0.9186142979236712	-1.3533919050544183	-0.2891463476325151	0.34602626409687687	0.3551743408334229	-0.5076049221234297	0.35382555252672576	0.19659696882259442	0.41727187603527705	0.7313256048417468	0.2072134190673079	0.22649503980715952	-0.5478691752221981	0.9796079904978726	0.32477497770720987	0.6600178249459331	0.36299535632195146	
-0.6844758936597924	-0.09629874221346146	0.575966974682889	-0.19935177756872557	-0.9940849886151806	-1.3982744344660905	-0.3279272326980419	-0.15661633330010205	0.1415504426822684	0.9945261140737494	0.7425391441854257	-0.3409703942672878	0.1442077532064422	-0.8472580848934557	-0.5037061560197353	0.4719509206288288	0.6176502550819357	-0.15051120100186327	0.1592860329382241	-0.15251663987571246	-0.15715617013282135	-0.13970680034379998	0.08168642782037466	0.5999536824443273	-0.4699034642203821	0.98825242203407	-0.7431397217801785	0.7667055566839702	-0.6677854597258703	-1.010408689019502	0.4027603538302613	0.726359728090215	1.0189496052461047	-0.2545906282537329	-0.6845456931857301	-0.5730705050342231	0.5470611817041622	0.9478725904830603	0.2529090141305315	1.2382002038546789	0.5098660461120952	-0.7861929354992547	-0.10708417175493645	-0.5644566460781404	-0.05110929384756323	1.143048187850362	-0.25012391664131195	1.1445860295377897	-0.30131914839764484	0.5440041811728835	-0.2995282234647596	0.6782395797974874	-0.6602553048486766	0.8721105582746551	-0.007336167159729498	-0.08401623061373883	0.42095389682564877	0.2883500731011718	-0.1519626922304938	0.09377976568166395	0.2893655050698747	-0.08439435187980976	0.002809599295072156	
0.1261949371085634	0.49111405207875025	-1.2313460372530882	-1.1424764988954272	-0.3924483571595143	1.717258470119677	0.13257787078761574	0.8508524047943626	-0.4528238833866164	0.42598868152386915	-0.8403580050050723	1.32487386256663	1.3133639278634692	-0.5554476771271333	-0.2188164267434501	-0.10597261458219608	-0.5034931594612548	-0.5182813111061915	-0.545703949419835	0.4920181219747082	-0.04314515266543129	-0.429480040496411	0.5041077540680972	-0.3467170906922574	0.21659605715412378	-0.7504030499903176	0.48573540819573924	0.08620142838672691	0.5351392303080225	0.06428535671791626	-0.10949351328028857	-1.1941466324589471	-0.6478207614394118	-0.07698562118267226	-0.6140415239100354	-0.4129807705058074	0.23823177079407504	0.2241387239303902	1.317386698674558	-0.4450200597132661	-0.295332831941864	-0.3201804586564957	-0.9148518390664508	-0.17606736724470118	-0.7510779544126414	0.8926007852673281	0.8423683524111647	1.1734575625290267	-0.2342864469403116	0.5024095362678972	-0.2315248221185039	0.5860780934640528	-0.6403655560915091	0.7179745104728873	-0.5194272761303231	-0.3851563877434868	-0.01690271875592338	0.15754915446706158	0.6510546584094594	-0.057759186327662936	-1.1216092535182949	-1.1650604829757045	0.5136329656884189	
-0.7641906353742343	-0.9125470781442298	-1.1154131553474333	-1.0728357567514446	-0.03523649348655137	1.17705798016874	0.6499982921657967	0.7270192989915729	-0.41620260724675967	-0.09060054696744074	0.3543721741006594	0.34935675503358915	0.9505309647298574	0.6759340745182094	0.23885515923541567	-0.49682220025588447	0.7115321943901018	0.21006983920374586	-0.7373664274038252	0.8285501223791678	-0.5390513435640643	0.4125451582104395	0.9830462465826608	-0.9245781564731863	0.46620467542128846	0.03127346553311946	0.542603381738636	0.9475494824024497	-0.9767327860298103	0.7714865621152565	-0.21478673694740893	0.20492311537578325	-0.25491480036055725	1.1645623003143426	0.37975570645174245	-0.13922442738418936	-0.9102157503257899	0.20462644528042648	0.38131126809904475	0.461699414408892	0.39141641178741177	0.36298446799608125	-0.11316536185343823	0.8317743413483951	0.47606850518729077	0.3892560989165083	0.06824752452149213	0.41142378895068626	0.40444501404819094	-0.03620331047048477	0.3964917803665951	0.568370947280207	0.3347727417327931	-0.743566293067184	0.7590352821738915	-0.06181408793487516	-0.9375754605094062	-0.7344537672083391	0.2784050056407388	-0.6990494271476946	0.6338755102169777	0.40659223122635013	0.3747874147402738	
0.023417125158190423	0.0949952695237827	0.627431538577518	0.919747203233344	0.1722344967741793	-0.5188464131090078	1.1153675683336641	0.3175787805305628	-0.005583059986859829	1.1208314435109958	0.11542416138150005	-0.28058848911101225	-0.00876039894201765	0.08858746400783288	0.272368291008563	-0.4070431839365484	0.564350310860143	-0.17766822923353837	-0.6301595149057158	1.207576298383293	-0.26727801992645206	0.8584351394457193	1.0172119487559896	-0.18911516247772642	0.7766370657892918	-0.03902362780411236	0.9711700460626513	-0.13262719306251017	-0.5705931561861292	-0.6140588606059647	0.8498530529669117	1.2497349317188884	5.558563529152295E-4	-0.8913106638821289	-0.4879135493967623	0.2730241016216533	-0.612714658463196	-0.008782553669828132	0.6639190146790719	-0.3006031672875988	0.15898848112781988	-0.8514122200341065	-0.3530926439994247	-0.060363803964226206	0.7522120017302776	0.8771965729771731	-0.8174033640809715	-0.2348636753852792	0.1240582337987805	0.7427642327645393	0.06151499416355762	-0.04190582338132654	1.3436694472598312	1.0840861210699118	-0.6698029487379131	0.6748120432331122	-0.0148149816961353	0.25004342779492933	0.3690716363039895	-0.5004694076520231	-0.6431011078860744	0.42051938738497135	1.0076436263211106	
-1.3605387093099826	-0.05481145510926216	-0.3834592072122123	0.12553517425303704	0.020490619453461402	-0.4784121288723883	0.5777293334133939	-1.2075582076508897	0.7408855662802238	0.07297590273992573	0.6349302513101858	-0.9003115744663535	1.2170057302827988	-0.9567653105797544	-0.2831869152335866	-1.2398741472651233	0.9969974383314346	0.8256664297923835	-0.16558338946726148	0.4014449104389615	0.8340223015507058	-0.6448842700086617	-0.4618129288918152	-0.9411862658584236	0.1795640894568058	-0.6764327512642148	-0.9472771041481327	0.0779274554942928	0.3823296637677656	-0.6999660340332567	-0.953201709592439	-0.1873892756242137	-1.2272306661648409	0.27929430246651316	0.49660115369181085	0.14905734409788274	-0.20865492241163835	-0.7047706934736191	-0.39720126743793777	0.8502004495851798	0.45959142259700886	0.09975275808723229	0.6377224013410281	-0.6983383424238907	0.08427066517016858	0.6849953874387362	-0.7881905442927233	0.3198377884130434	1.0691916588190602	-0.11676250108349333	0.5929948184298084	1.0357748836124048	-0.5244246756268314	-0.36140286386927106	1.0173206597918274	-0.6354328302627683	-0.0736803524435916	-1.2057822281280812	0.8502919796388242	-0.2817365147294359	1.014048783450101	-0.10681905837663021	-1.1727604219800163	
1.0912637874360158	-0.3440902947797596	-0.8394025079178862	0.36191349599287437	1.229760248844364	-0.20642552069197176	-0.8382988573201694	0.8918128626325198	-1.8571242098391014	-1.0232857077695783	0.1464664578403915	-0.5302717685676757	-0.8015507574294712	-1.2134807049631608	-1.2049456563028478	-0.6175489994276716	0.06057454476177503	0.3264358717680492	-0.15217007494277737	-0.021935761201374786	-0.18330515321375454	-0.0678381758034185	-0.2562827231154438	0.2986478499803191	0.8876688295600791	0.8450080034397845	-0.0581904965892941	1.000667039521906	-0.7410534581304509	0.7288250299216611	-0.35412828859414236	0.4365304935391795	0.3657522804329508	0.12160438289578024	-0.04807506900782455	-0.3008285347129629	0.7081060105727661	-0.8610787093922699	-0.33230971630440226	-1.042360573922616	1.0628288967572261	-0.22071686006098998	-0.5257981068775457	0.8896283405335573	-0.5159877191210971	-0.5246888619360642	-0.6479623781148414	1.2856345975639036	0.28974458841030637	-0.09731449237645848	-1.0721566456177003	-1.1194989352566407	0.05505220739441633	-0.4286811155340793	-0.5792528867457325	0.4265588613456367	1.315810525654904	-0.05971461033973604	0.8799116164178477	0.38548046866320285	0.8885641266748812	0.17533138124344558	-0.16062693767905836	
-0.8902403291952613	-0.5221959449228865	1.1866639976659703	1.8007576984686864	0.55428472658024	-1.7938181295214315	0.21001004929789863	0.8985070964522107	-0.4473858136454439	-0.0028314038503263706	1.0456808611970165	-1.2505337151315676	-1.4113494117018417	0.8213231835213018	-0.1590443162927963	0.26458106557317734	-0.8718837573817205	-0.6258397200611162	0.11558313308595522	-0.5195883387803988	0.8495919709970675	-0.10763453129922038	-0.8403353093915137	0.32445153761887063	0.07677907571075446	1.0444763277376647	-0.4810369995650435	0.7193968367552358	0.9677757620652038	0.27008228667563566	0.10419368333416348	0.10270080942513321	0.11805883167523663	-0.1637132895549635	0.19476368873788197	0.5989792319416966	1.124759750007988	0.563478249635298	-0.18109896280941484	-0.30201753269541215	-0.6067781259735677	0.5459165175332376	0.5279167107206597	0.37390407525795494	1.1414638276614102	-0.11790035885233982	-0.5783755495737992	-0.7365918642431796	0.19941902984483367	-0.4296001472186555	0.5866308964026671	-1.0122812726745072	0.2700970310877819	-1.3859819132475282	-0.20588541126410398	0.5097109860718448	0.542337239205063	0.1176170650716325	0.30707906809208735	0.7615498615850519	0.06703975297980781	0.311309623238972	-0.30126969129353304	
-0.5275369706234212	-0.4485921712021433	-0.30384099380080926	1.1375899346373055	-0.9812928604665396	-0.005144264283031794	1.139990482469663	-1.2158975533966312	0.13251565986165986	-0.23263712411346094	-0.7234176701487638	0.5789365382938609	0.12041113965195066	-1.9706949265310776	-1.0907177555963607	-0.2764307110109537	-0.6218687176252042	-0.44777086253971815	0.9841054050198084	-0.8125106042842618	-1.4798069734046995	0.4835842675086162	-0.5178607389263951	-0.06653448672976857	-0.30631557416535055	-0.3382592315736988	-1.5437313654286267	0.3389766356658555	-0.35236591150449176	-0.12123027349621063	-0.36477300394238915	-0.4349807318898418	-0.41620043881576124	-1.6663041227488247	-0.28777568643020773	0.6330270685771333	-0.06033543085269948	-0.17777180194547954	-0.3145786292661598	0.006552382206033886	-0.4941620016336337	-1.2876654939786039	-0.3965177571060076	-0.4739722375394299	-0.025742717890531692	0.2592067825059802	0.34451151687460563	0.6875876919572439	-0.1587148005744638	-0.4471826201370181	-0.870860137769272	-1.1686891808915596	-0.766768616859443	0.14679220478721494	0.2909971466720171	-0.6390617299036919	-0.5727800482054461	-0.683776389324833	0.7921561949494016	0.7242171208069468	-0.3566744363848236	-1.4581275970605234	1.035476630411395	
-0.34779900902673355	0.35851125994495914	0.6285678116669814	0.014648949374875113	-0.19945952676909587	0.5248194700010863	-0.7954421840121427	0.5643872587122142	-0.2301023738353529	-0.4653037172131592	0.4580435452500625	0.5035117930264316	-1.2303938695982273	0.3248236918191582	0.4204853154439673	0.7256456984976102	-0.11877034781336263	-0.38736847195468327	-0.14609541913577603	0.06983588752143102	1.9813015072269662	0.6413030188040827	1.1242428083182612	0.7843122016170415	0.03618460003883407	1.2320655264485467	1.3379526308632796	1.1669383826005466	-0.49082424383675494	-0.37649732338737407	1.1160289796010778	1.4924831489984751	0.9387457278671217	0.52071324835588	1.429354685321364	0.18492159760411495	0.5157827437132778	0.02400662697302867	0.003900500018044511	-0.4220706788699914	-0.6669574804503061	1.2824593166269438	-0.5986798772314039	-0.4444952180298668	0.3679165699779037	0.958576703633924	-0.4004945639846498	0.4905354283663357	0.7614081111215684	0.36383518585028296	-0.6375976225120457	0.7466837944779591	0.11615077331261328	0.7812242298238804	-0.5304632574833035	1.149895031473848	-0.8680413621589905	0.7516598157312228	-0.2232452837934343	-0.6667252272053978	0.10704173881667345	0.9192438306316192	0.0681488905151513	
-1.7019053161167046	-0.7864962174423707	-0.6332794605540318	0.7641115515520812	1.4691300968387802	-0.971678368318201	1.0429449242229911	-0.2990144083195892	-0.588968695422006	0.778229660668673	0.3695450466511552	-1.290555812984261	-0.6722268359138769	0.2861302081874477	0.8117912378780133	-1.2937947054275918	0.274005332226884	0.11935500368536651	-0.3295214393725223	-0.42030168850158245	-1.0555376610554676	-0.3373726536187013	-0.4855498355720633	0.2611630879839707	0.39072609131546365	0.2458772451679596	-0.4265567242188073	-1.3174627846793296	-0.31005517259681936	-0.9294919474019233	0.10218708262046494	0.08015814533472387	0.5504280222431254	0.4226909017692184	-0.9092946743900031	-0.5173538416213371	0.2273805507099772	-0.047745499768123964	0.14096582707700922	0.5001403043685746	-0.5663606133930804	-1.8016165277704086	-0.35242035360121116	-0.11073584478065115	-0.02105587580618665	-0.29770147510465805	-1.0197495168966606	0.6177685163736449	-1.0677136278915331	-0.7627783615060525	-0.5723818056894886	0.46109495324185656	0.7087401663204963	0.009201001655983787	0.10133218949920386	0.8677662703767405	-3.112249311939948E-4	-0.6484564811076744	0.7073279752960394	0.7387318315458591	1.019427506380368	-0.9258775838744459	1.194321130006659	
-0.19981657320180682	0.3379603018644191	-0.3102774913120145	0.33477099863667387	-0.35435230988472144	-1.192579573993312	-0.18799234663681966	1.1018955992915562	-0.9441363949868541	-0.4217552187016865	0.6512055360525385	0.761076790401651	0.3675703062996858	-1.3449968953713822	-1.0007903038968573	0.7878371358182085	-0.043760976271669146	-0.6268863606299054	-0.0440508992746868	0.7424465140670499	-0.2392200496838415	-0.7332042062284114	-0.6974153026246525	-0.6927160702836449	-0.8768786828968053	0.3325209951366895	0.42217903964949227	0.483038169618723	-0.7644141330358503	-0.4669453677356245	0.2139868654105737	0.30021912760337954	-0.670109626139708	0.6408534736700363	1.664494112011466	-0.6653360495877446	-0.5655724209942198	0.7812650628005507	0.31313040850971136	-0.07873152889571212	0.9341097349811737	-0.18170480162067917	-0.5504941987874696	0.9221675496595162	0.3847062561856636	-0.9609689642854834	-0.4476201704168249	0.5624212460897414	0.39280905891395634	0.032618057936023244	-0.7907560512521786	0.4001885590922888	-0.3513628530799432	-1.01043186682342	1.3482501778845568	-1.3289938474052347	0.011040340450200968	1.0538562122352415	0.775615609409482	-0.20469180168781884	-0.7135110161895414	-0.9266229723673921	0.1683043156058668	
-0.7238565397228419	0.5352814788327299	0.43080728202297724	-0.1799470774600211	-1.2052228140727088	0.8048252726561381	-0.6451292196358646	-0.04777345323781797	-0.25971425977721274	-0.8572283445310614	1.1338269912843884	-0.5079580283601729	-0.008494719124319672	0.25613840117718945	-0.5713461957612146	0.30925482577694097	-1.0036403012799828	0.6925559022064934	-0.1625494758342177	-0.4211851676273288	0.5123499681433253	-0.9126283094445812	0.29643881306897946	0.30340672361408816	-0.08025518019955177	-0.6716214340491398	-0.8962657212917121	-0.6302242967986013	0.45923953198014433	0.5666164511290621	0.8697020757675061	0.22418523336164636	-0.18939713018277332	0.8698920102364182	0.24925875454364013	-0.17697834569896587	-0.004852155823701639	0.362525675919087	0.4505661224097727	0.8599222359795097	0.32035487659028705	-0.5634733226960802	0.7518713986431514	-0.060320062575956734	0.1395298411762761	0.1337441678858739	0.6055910171269592	1.037447748654845	-0.0690833547392957	0.3960370555464343	-0.4464796222727334	-0.7808234320365771	-0.3758032159164174	0.11498678062939333	-0.23572479489385156	-0.23373208392488848	0.6781632150511357	0.9336907101929103	-0.86452382546237	-1.4811505783432612	-1.4147351886603943	0.4310854823526714	0.06510721008094786	
-0.8409015040006163	-0.263797296066117	-0.519260150908899	-1.0505617780217895	0.3539758016227058	-0.4733327482370241	-0.3881919782736162	0.3870473603824619	0.37085961805411044	0.6453175514077003	1.143792325542432	0.8356526297676552	-0.15111270166859833	0.8038895840791573	0.7470568273285882	0.10149026640327338	0.8104670248872397	0.2258032005605449	1.0459464488924783	0.761281325240176	0.5632887727675346	0.06292049034450277	0.2345460942202115	-0.3905753356997539	0.7320600947493074	0.8916737115888471	-0.14567643058567917	0.04005221938961075	0.4898223074738445	0.20282743481350737	0.5738366734459686	0.4271636814196662	0.6557132865517628	0.28892028191442654	0.020123492142367548	0.17167926554338034	-0.2141766017499118	0.22812854690204612	-0.362960450673454	1.1618134434308758	0.5320960127832237	0.3855469764413241	-0.7116572215114931	0.36134263625652147	0.04467381780351104	-0.4072069026511956	0.45958486305473284	0.0791723010899607	0.13816799915221709	0.6688306021658295	-0.17102686946710197	0.9912721652316308	-0.5669470102666119	1.2509916895702176	-0.09415633620413821	-0.7616808081023094	-0.8011967721970528	-0.206675276571283	0.34392647177755176	0.2970162727209792	0.19590835885620464	-0.5528494175859754	-0.4769159865838804	
-0.09629026769038075	-0.8764768951784577	0.6514622782969554	-1.1081786124828732	-0.4290736558250917	-0.41492309498750735	-0.7520962332308584	0.09901720198727852	1.402621308030724	0.012903921864643541	-0.46575550757123585	0.25369395082312457	1.4705752743948732	-0.4308609771861224	0.2079806897875991	-0.446193078384666	-0.9709599186904282	0.6773766288412447	0.09863629065564102	0.01802979994189081	0.38148797477787194	0.4037442453233756	1.4698731476195177	0.6307895357706407	-0.5218304637477205	-1.479187058862522	-1.0722404256467843	0.8564113353451642	-0.15563105011399825	-0.3564611448492676	0.6611331254926002	-1.3007915383555075	-1.054349746721825	-0.5178888406757994	1.2284685724590183	1.6853801176244674	0.4405121892141193	-0.5002458200597797	-0.4720909581526702	0.6456886316617082	-1.1098915138228063	1.5422107952937743	0.11107748002650038	-0.8693383218566247	-0.7674312666466735	0.002350275925640195	0.5524627930641764	-1.6599280560307719	1.5339035490319954	-0.45957937286920514	-0.021171622772499666	0.19998129362194678	-0.22052632196457622	0.9764806001340877	0.4021069493532027	0.5700878697044302	0.33859161301699625	0.13906629433803325	1.0501013296386252	-0.24461829022364412	-0.8968324741016721	1.1039674094590097	-2.0750934125749265	
0.2819344153286059	0.4576492732485002	-0.017394377585017346	-0.5462630133402542	-1.8995860029007177	1.9545453789157747	-1.061752121852308	-0.2022618829349228	-0.9885788883301367	-1.2034619656621741	0.585439292254132	-0.14926527715499932	-0.756279773921233	0.12228170882402402	-0.38321384701897937	-1.2986658318046236	0.14520907167309322	0.8251931426504557	0.16345783158401833	0.7015947706811556	0.8561182418264717	-0.39219110302751087	0.13155644731642047	0.9444770459777905	-0.443706806652621	-0.5289346259223981	1.4170018381129332	-0.6330086947825331	-0.2306445883076323	0.5715590095008447	1.1343905603566768	-1.3015123793266787	-0.3814637920541963	2.473832150486517	-0.3863535916019743	-0.40959577624303817	0.6522055908439555	-0.6518886929153627	0.8977368281162426	-1.3690202846675037	1.3586281565014415	0.9985264161270897	-0.640330909304069	-0.18354221031305712	-0.3860077080579633	-0.5998267360358214	-0.013022953546665217	0.058459692110441885	0.5434963505310488	-0.48378809581967325	-1.0598581891850518	-0.5763362431154355	-0.20061513172468143	0.14561402916618993	0.10586745862099146	-0.10858393169319112	-0.3268874210396406	-0.04761788412658244	0.8504501359801777	-1.7347326401373238	-0.8638481287906548	1.219621506611344	-1.4874672617272418	
1.2965440325060384	0.1094499454493261	-0.7945997658992289	-1.5245440583927306	-0.11083380182895844	1.3225822703627992	0.6544622214492407	-0.06258805326396844	-0.844765876148832	0.2594991519215903	-0.7229045582366497	-0.029423485323678576	0.06005636901750069	0.17059190466619692	0.00849072666050714	0.6082429759691498	0.2062177745822292	-0.2198865405567665	0.29216039538687716	1.145669061539601	-1.6799096180398367	-0.2022474962197379	-0.622087536956201	-0.06069799803813169	0.8944809490175701	-0.1855733165936356	0.02406569820377424	-1.3702529451068892	0.3262488138753028	0.9068501449253866	0.2834004504151434	0.2487512445856185	-0.1245156802093029	0.10016206980849557	0.10113580261236632	-0.8295237334855418	0.43325982712497607	-0.627865328027244	0.7151461285180599	-0.2188503535608141	-0.7815883184463005	-0.278448701528976	-0.035631838925359115	0.08206387986092059	-0.9219113406814833	0.4250458001209972	0.11066236250816913	0.8876926541267637	-1.7393603794552857	0.7512712527988882	0.017144575904354555	0.7030780188164861	-0.5147493471802248	0.4993021620299261	0.083431394757874	-0.654861529316871	0.23014940810968862	-0.023921503857696005	0.4543231192507497	1.1200470830919589	-0.757614615127035	-0.1830968748859961	0.33227856327927363	
0.5168400613756315	0.26573026967953645	-0.7264759490901621	-0.5185275700493388	0.22889969028824722	1.8478657433999521	1.3838970889175017	0.3394242611892691	1.371309444960904	-0.797640485108747	-0.5723746177383185	0.47044233567854915	-0.8811496414215524	0.6176756439324288	0.8877215856017654	-0.07457842279746381	0.3413479297302316	0.21054673820222106	-0.7223587736570879	0.25640011407638763	0.05996654735366133	0.5605364911827503	0.04739452144106071	0.5841935134854072	-0.16408748698203227	-0.7294842820922854	0.8601607337461902	-0.7500083340933995	-0.21220407203840355	0.46800541559703884	0.58164009920342	0.444758199133827	0.015763969400476252	0.49858093008828847	-1.0562893048467012	0.3296292738537047	-0.5342151062775681	-0.45539843555238796	0.08686683133467506	-0.03997322078550698	-0.7964966285674077	-1.951892912310943	0.24432982792734229	-0.44806827216276307	-0.5334483802463387	-1.232183195915572	-0.06275492246055023	-0.6013074865401408	-0.07251290833372197	-0.9716083079343215	0.5538282018947237	-1.1653041636085602	0.6687773133561402	-0.6841084167800674	-1.0121826838116605	0.0091522843562275	-1.4069371881878097	-0.47478554511119003	-0.3350881075250796	0.13628750427052835	1.3796580387110027	0.3693333396729313	-0.6465613417465298	
-1.1288001129069654	-0.0400956228655921	-0.4553456270376676	-0.39848962874827304	0.6567013837521964	-0.4685790722777226	0.7958726565239659	-0.41889198117559495	-0.17251757972850393	-0.0793765891362539	-0.9138537106724032	-0.5985441192363297	-0.3012377110771965	-1.5489148652729716	0.9285006735634613	-0.6212978460976302	0.4007573322381304	0.2904692020156547	1.0171916835349233	0.08475102017819686	-1.8051843279303912	-0.45320357947547546	0.48777599338992245	0.26514893363830566	0.07703519855898358	-0.40738145123533637	-1.843575161973529	-0.7995257903863084	-0.6090719104178108	-0.24364943899765432	-0.20443977943275873	-0.2098761705304111	-0.8769504156981205	-0.504558718212136	-0.27303476750796335	0.34580853980421417	-0.4639899728261065	-0.613610036786139	0.847774431366177	0.13667998169502074	0.5282674617868344	-0.5278489699018751	0.9890277885685851	0.27968833196960347	-0.8246493495268921	0.6171812540463624	0.6237133571916773	-0.6703907627765118	-0.8598138378329162	-0.4925899959078101	0.9489382790146115	-0.6895317838447077	-0.7469582087897095	0.19594471253105614	0.6877919248776528	-1.4176441912958744	0.7364251730814442	0.7257617073040614	0.20139515624446866	-0.22952619542664157	0.7048474183168882	-1.0406819382191559	0.29242050323641094	
-0.3495390562364458	0.25496740335369555	-0.6029843868125957	-0.7946032806761625	-1.389057763463473	1.1918559364531323	-1.6837709583025524	-0.23524037221612012	-0.7268421837041217	-0.9157137851480239	-0.5517386820443977	-0.7292061137173169	-0.014899328634605679	1.097960386775203	0.4895534405865521	-0.5157733088131575	-0.5830958209808978	0.20487854674905728	-0.7019788909875577	0.4867560218042632	0.23960775025467565	-0.8424686265128272	0.03985497518642731	0.02165850169942035	0.2135965302532131	0.33575150017138083	1.7668660369314244	-0.6965256618140869	-0.6360646024201355	-0.8006118820620711	0.7159375266324688	0.7976158540316354	0.5390571029380824	1.8499347267534607	-0.6610689276854609	-0.4451072199965191	0.5560962797720741	-1.113575608888878	-0.7724019770796469	1.0601438169703057	1.6825243204355407	0.7678946849289332	0.3666113706207536	0.3137941071872104	-0.6501868876436832	-1.205527331838916	0.5147724131989538	1.4079029209277265	1.7144568153944801	-0.4036825743595209	-0.06485624628320383	-0.8899446534756923	-0.9487538479174913	0.24151993594589685	1.1749429203537587	-0.3486731958443981	0.6219653187737533	0.7553116652210514	-0.47260108669745843	-0.5022356896926268	-0.93372082357597	1.5836202155900287	-0.11542396959913534	
0.4920525446761168	0.2385375038722765	0.45868195961126607	0.010854086331880678	-0.4257104256105458	-0.2825376688557388	0.03919214350984614	-1.2969846881709377	0.021123813723356283	0.5148947466130225	-0.4720613200866178	0.7018091909212045	-1.4356074049044083	1.033864701124421	0.2551473717761347	-0.8961001148491448	-0.10463161067609117	0.1848795380066326	-0.6451426405987561	-0.46428500475339834	0.5229355664010245	0.9160643617047655	0.5466649829625776	0.14315830998081663	0.7871041876160565	0.02005881876260742	-0.5782993952347952	-1.3198587300493703	0.6318037849716069	-0.3183951503511458	0.6773592440230773	0.05347893482993419	0.3511591382032711	-0.050648215882439805	-1.0467040050588694	-0.05949637092863876	0.8451383464530919	-0.31413441716008333	-0.522606258321108	0.3132408477792831	-0.589854112574717	-1.2524538636347602	0.9504514134436841	-0.30518672893883425	0.404470792845058	-0.5281389222087052	-0.6331226340838498	-0.26854492693809695	0.5316821931024891	-0.34884256061715324	0.8912479868771841	-0.4512399961235985	-0.7501365167331817	-0.9459283219307459	-1.504102340038754	0.15253210703179465	-0.7348435371949289	-0.1830397138151666	-0.14129822877618192	-1.2178543576329575	-0.4113733340256293	1.6045197025478704	0.882541948383109	
-1.2212587769521996	-1.2283571082800302	-0.8146714721569442	0.46549300037858704	0.65436901066432	-0.17394379258700424	-0.6895188569445933	-0.6216651214514087	0.4747249451931069	-0.04347124198734721	1.1751873846136025	0.10627968656495014	-1.2555432249830405	1.1919191692788003	0.053876432441917754	-0.8270068991781289	-0.9668989960764037	-0.9608448038470722	-0.49481234413083314	0.43703866216213155	1.0260823069116296	-0.5888311306888224	-0.6179645748874837	0.7291387799650179	-0.685162844656252	-0.17683026947388333	0.8746586820218035	-0.5342234636695344	-0.5641582741720447	-0.9381578376922289	0.49123212072217665	0.08939008080306059	-0.049733692233680904	1.5636794118906892	-1.1427764834479306	0.6162795434589418	0.4109948755901865	0.6635909663077374	0.5792519536062574	1.0954741291766563	-0.017864478052250162	1.0002117719071677	0.7402433216602781	0.09093661968889592	0.44175134989348047	-0.4915601405853011	-0.7864887425923665	1.0953019867146212	-0.1680561140361654	-0.6466671615775518	0.13743606393390592	-0.5465289268132852	-0.34723010960517015	-1.6085472293206435	-0.32737771483609485	1.5636804529682942	-0.46173772411392616	-0.9739204509191203	-0.19737237458611936	0.6156597755259298	0.47216351868149026	0.0398625879369328	-1.498316012890517	
0.959386635766055	1.0266725235884213	-0.01978727756920945	-0.35019726112183197	0.5845585666473834	1.7098951643812592	-0.24297052606251576	0.9258844944971689	-0.3757239369628976	-0.515868739588382	-0.6021329416153822	0.15339358733216663	0.6699076082675792	-0.08914621538489642	0.4173808269454346	0.6087761110435281	-0.5351441756582879	-0.4366748334373373	0.46763629790579536	0.940861719177774	-0.4371451665547655	-0.9472498312035176	1.0417406543303431	-1.1204720704379105	1.070688501417841	-0.8737160825860064	-0.24020031781372628	0.4807858144774601	-1.4532494731827965	-0.2679099738365383	-0.029644684226194172	0.7571604109989609	0.7063797063627644	0.539114939525658	-0.12357225267614314	-0.25441143873989375	0.6752962506312503	-1.142644285743303	0.2171094109164749	-0.8911008576894988	0.7136840669613826	0.7142595548297064	0.4637518228533794	0.26417984959662005	0.3313264044376794	0.4898754017167403	-0.4712173018162816	0.5082962319715616	-0.005598442026224338	0.0164041724841856	0.229828406740344	-0.9275568419255928	0.618062819730141	-0.8752740726580872	-0.3454018966742565	-0.48436482194948854	1.0073033360811838	1.0661740099799435	1.0508843376300592	0.34845261006999634	0.8728150931157319	-1.0321588990785395	0.2728372037998183	
1.2356940625459234	0.5413757599569353	-1.1683413117679986	-0.3888618923014202	1.8830302997931876	-0.07149525701946315	1.7336171569840488	0.25746520351098773	-1.2615972356021652	1.1505447713445836	0.22487467269747635	0.046848208972306196	0.783007353998289	-1.206607286078045	-1.403504978378565	0.6933843370269547	0.2999524417213203	-0.33060992445829207	-0.6296965416018533	0.9080395905655986	-1.1863843889013046	-0.7336309742759849	0.4666984421120596	-0.3849012388650028	0.48057520049925384	0.15512369787861457	-1.232215305594582	0.20613028481847967	-0.5233274479499024	-0.4785574806920634	-1.500504117455767	1.0331641115047703	0.34753918450579113	-0.9814329852803146	0.6784128314954879	-0.19123243102764753	-0.8687808122463804	-1.008906881384153	-0.3872579149582822	-0.10483082032519071	0.8771943854614107	0.10202714704608755	-0.6763439380075732	-0.008281680438924967	-0.6092414232215789	-0.2192364467333306	-0.7380159175198057	0.884177808915302	-0.9670749222623386	1.0087249774943141	-0.9660957978526271	0.08069491688557272	0.9642437025992515	-0.3832274637021408	-0.11647459610691889	0.5029128954812961	0.3544643185971438	0.3707981846367677	0.05698548733004383	0.6418720949330989	2.0141518246215693	-2.686389881329366	1.025706835882193	
-0.1707164417824524	0.2159951199983938	0.7363691435719127	0.9661880901240852	1.1105851787207088	-0.3776863774038725	-0.1046730060797183	0.4419024155194215	-0.8832882597391681	0.3362599600977047	1.3433592748084675	0.6238372232665018	-0.3747141067670922	-0.025019546186007376	-0.8354297729904795	-0.4117880799790962	0.12608379177033344	-0.4284990583731595	-0.04020738795714641	-0.1975046929758826	0.1847673010834264	0.6303031188458846	0.7682598288000025	0.34629761769118034	0.8802964610673231	1.6910058192428927	-0.7683789906148181	-0.3268323940237548	-0.804105764108726	-0.2034395229739143	0.7826544042043322	0.5216949337823849	1.8636822161947033	0.0757860036204201	-0.8686952103620674	-0.9192731418731809	-0.1881472814032645	-0.05276610186897284	-0.10995558135954708	0.1669077070212894	0.31085004794118093	-0.5099213026018828	0.8312865451480296	0.779561102370549	0.5594595684740556	-0.5058744637441396	0.5514489964260311	-0.7385393965200455	0.7598262133629184	-0.22116667570168905	-0.5702232307335944	-0.028239276977925182	-0.28472512507545816	-0.00745484157489803	-1.244218548441052	0.7811850456438242	-0.3312549041462394	1.4770513341351457	-0.6316073114134318	0.9394499469172529	1.2628282838888967	1.1902511340115445	0.02869940478789976	
-0.6011095034985098	-1.030150680339523	0.4154887091950923	0.32798736751545265	-0.1048508980661282	0.4044239255234524	-0.07885872864409428	0.10524821183901219	0.8072478418341973	0.984022234310675	0.016579959057263963	-0.5835122582306063	0.7254459596694117	0.12891908180407322	-0.3116213994581888	-0.9601942315760303	0.3812110850038779	-0.07618711453729039	0.97181082261889	-0.02967715545913914	-0.002763521271151436	-0.38474084787731566	0.26639900250474235	-0.7828474798133975	0.3708299840955134	-0.09307553389041535	1.0098386058419602	-0.9169065500838691	0.24916930684829813	-0.9466579522701393	-0.5575996741395886	0.5256416868267223	0.12310406843569055	0.6700963695537865	-0.3091952147458388	0.5551213914958025	-1.3099965788293064	0.7689137031485271	-0.3682914625996673	-0.04580715934112801	-0.5214367501681982	0.8026761524407708	-0.31825286243944095	-0.4791722438253633	0.5160311248497258	0.08863502817066428	0.8806765629094349	0.6909243766741078	0.0914990066169283	-0.22303306053273925	0.789469265023671	-0.3222321127681952	0.2007688213324509	0.9890290831745338	0.8540145696453079	0.6151923053603118	-0.2250437244350374	-1.4531286750399652	0.46304069427297634	-0.46210976956929894	0.047542758348624016	0.5152086967241016	0.19733218126853874	
1.4894852745876919	0.03105518205882005	0.34036575475153785	0.7170134513017383	-0.2343640113836689	0.5043253692211449	-0.17909372500482929	-0.7175292580370956	0.44027979240794757	-1.1421443551592882	-0.6134042751336275	-1.0070197886917354	-0.5402581549385144	0.18921578521999516	0.08020021802626047	0.6252803513425222	0.3816786745952323	0.9849515697919418	0.40099831194764435	-0.34304665225273095	0.43326553091386	0.3712645747439819	-0.948656952926086	1.0506766198563904	-0.6564986322233559	0.047910433520017365	-0.8719564299936706	0.15181417673458403	0.011061850782562287	0.36171182569995897	1.0457754849884884	-0.03113924201633494	0.21807326904110413	0.1705610609022612	0.7485169148243362	-0.18089234872421645	1.0582065584236993	-0.3204964179757339	-0.4933796481132669	-0.5380326069963663	-1.002205967922178	-0.7140874285791552	-0.8906543473193489	-0.6105751043164726	-0.5826901065843502	0.6723298461019471	-0.9847095339370041	0.041433530107208794	-0.13541168491620775	1.180140176361074	-0.1421963715860538	-0.6125331800547751	-0.055534243112222936	-1.0757561854979585	-0.009182076057631796	-0.4663041349222604	1.1996199088547477	0.9693066511059574	-0.8905223578711332	-0.37222796189021357	-0.3706435929856712	-0.29714633314918404	0.4076147404925925	
0.023585412539432662	0.8647261435542944	-1.5470573379136026	-0.13771903324147075	0.11100580599054359	0.5621897903392323	-1.694666321658178	0.44211859959220184	0.01769196773428702	-0.003944161744605571	-0.13565577148709093	-0.145862311338508	-0.5409529970420212	0.4184494620614863	0.5849293578484861	0.6692922078093052	-0.7680270412991509	-0.43413448089563583	-0.8485761794207409	0.14025905239808226	0.3988904196355642	-1.0028879307164869	-0.5669475003652075	-0.6716072688103386	-0.5659483546507253	-0.9163452385918448	1.0805066508882963	1.1301379649320689	-0.07159143897483995	0.597775751359307	-0.9265982428421099	-1.3626543413960777	-0.23853238146636377	1.7083756446879304	0.9764673171681612	-0.308148204768023	-0.43119818998902787	0.41235585500470845	-0.2795070333439202	-1.3836239396034116	0.775513232104818	0.9635522490663603	-1.3196812023453175	0.15744988855661232	0.011346295191267407	1.041425110158174	-0.661801133165315	-0.2197250342152832	-0.25125747766948686	1.0932034450930384	-0.4646912174722256	0.13833293198351312	0.5479599433216688	1.1471153771972538	0.26138042575762693	0.40443694813431513	0.7581648245404132	-0.05060214559442891	-0.4361628697453785	0.6008006686096755	0.8903113663751706	-0.6929256490565062	-1.3106274729803458	

