1.35599167463904,0.4212259392363633,0.5906148523051279,0.1739206365509832,0.7290138283363933,0.23552121440049137,-0.6917873214289633,0.879223855772996,0.7612716024693119,0.21382276014072504,-0.33063854306899865,-0.4103778865517077,-0.3591311790271289,0.3411279418823008,0.9001103584784295,1.1218332880050634,-0.15943253626596385,0.37629965261198184,0.9054401078946882,-0.5829588247651017,-0.43533764650984963,0.7853866786628353,0.4193372761521371,0.6814834553632251,0.04371689525747288,-0.4844840487835389,-0.17511894239094433,-0.08265074768770332,0.7784889288320368,-0.01992508462817373,-0.5381606491672631,-0.06317062903503633,-0.658877374662935,-1.1163765712467435,-1.1924479374014396,0.900848166243443,0.27645669822537955,-0.9989263971895948,-0.29569558809795227,-0.7947638665415914,-1.6522772572021793,0.32565186133858415,-0.29454992968434535,0.3447625896125651,0.34199389256269397,-0.2579219356215777,-0.7012203518359853,-0.18538580251289347,0.22015888914619647,-0.5689926660039039,0.22699095365950334,-0.3581432445845203,0.01471300551639549,-0.12403450140005821,-0.10011296528589851,0.4103449266268784,-0.08381839866795944,0.9297880655901193,0.24777322657761688,0.33343774733439546,-0.5250675880833865,0.11525504377429298,-0.7941257408237391,
-0.05329590339442415,-0.0771329075377519,0.5441757448008685,-1.0143444770768677,-0.1550778322581011,-1.0374788551256044,-1.663776288996692,0.20681491026469215,-1.0656048780528076,0.09267917749748308,-0.6648357423092758,0.2262042293238388,-1.1082964041891323,-0.955285281587655,-0.6139070663731625,0.06807152608502268,-0.7633560705594223,-0.13099604543453772,-0.6981637972615992,-1.9203615055943557,1.1302831375773366,0.07226956155111078,0.46402605679129444,0.21176507062482106,0.08585317230413247,0.23319585816401947,-0.30439148187814996,0.9154147940294467,-0.7963396158020365,1.4144913458415809,0.6831666219055926,-0.481860746063925,-0.8332557218553843,0.5082939690795861,0.4382473213144504,-0.12916677551477593,0.7877897810646078,1.1181377391097327,-0.3431773033240541,0.013951814425510996,0.2180327356777477,1.4913939853413154,0.6709901942935913,0.958650489030883,0.12241390703340034,0.6006256960089232,1.28038823235117,-0.22774044314193578,-0.04530082559108746,0.47271773354515406,-1.028682264103326,-0.2968733180217022,0.35158600104887255,-0.7211372341518542,0.9730080823260513,0.09349673081448465,0.4504120031182424,1.2954131906565693,0.5076644995581131,-1.3012379161856615,-1.316396345003542,-0.09248220214992414,-0.5934746907394953,
1.4004369091631486,1.166032031918396,-0.3062310995917964,0.18319213138637377,0.44016676540396005,0.2132343583951717,-0.91179283236405,0.18913745508931548,-1.355848936376943,-0.7232682365983693,-0.6382187458950287,-0.47358080727157603,0.692643421016203,0.4739412846092371,-0.6545419487812852,-0.6829054699362834,-0.8860496635635228,-0.48204264545616293,-0.6721351944437245,0.6855495709915932,-0.362203106110227,-0.31963963660566297,0.6930429670991071,0.16160709200809717,0.17820655398367516,-0.17815360262209232,-0.2746048074367208,0.6771724671340725,-0.14916382198209457,0.9619160090286031,-0.39589763616807017,1.6630845334002669,1.1485838426027222,1.0410625410796024,1.3311790245929542,-0.7302211296408535,-0.08763784045273015,0.20841920768600267,-0.8220934511164028,0.22755543316492263,-0.1781699938825326,-0.03317799135944716,0.4579144178191855,-0.03469258705326179,0.49348197498042834,-0.4573514023393732,-0.27635197283562485,-0.21840760736861145,-0.27347357375720727,-0.5740725354455719,0.10866709059633642,0.3860142749067035,0.628589482015467,-0.1250418703902584,-0.9328589218355156,0.8829177647287146,1.4809083829719056,0.5613777337519108,0.3425517130516963,0.5239943998174416,1.2166784457910718,-1.0463676940167708,-0.4780570516143602,
0.9102104741397655,-0.7213195517371306,0.2677124458311485,0.9793400692261894,0.25880387841048136,-0.9426714277621512,-0.05750376937370033,-0.11361312596058568,-0.01744702407277464,0.5122417037622183,0.9162722989804876,-1.130276916409807,1.243085405370246,-0.6021910445846347,0.6966065688515249,-0.31676314913914916,0.6484281026086712,-1.0983164540281813,1.1157453679309257,-0.6844518357264712,-1.0816413277295125,0.42630800622948006,0.06625928955566282,0.17178499982131135,-0.6119217660685524,-0.9439357738703601,-1.4742865127478382,-0.9663216225079708,-0.7393411362122849,-0.7633194533877515,-0.20183994591256893,-1.0081558064256215,-0.950606153526162,-0.3834048366557342,-0.505692975495959,-0.023236869810252997,-0.02248111822795964,0.4555402061223921,0.7769365199477148,-0.7066266878972481,0.5121337705155579,-0.6511479057606785,0.29348064555993836,0.024317996793510793,-0.6951983746762379,-0.6184289880372563,0.3121643628753007,0.14378669105697178,-1.539087924900604,-0.1305253207005277,0.9995390958627389,-0.3133484739260407,-0.27924123150117086,-0.517709544531017,0.9140141248568482,-0.987746574361782,-0.24339343854479645,-0.195272634594773,0.5882208422049601,0.15859713086466803,0.46831313736146996,-0.734016987101411,1.5302520665971682,
-1.4822367540126533,-1.9586009575085475,0.5566940211670472,-0.6799205895052471,-1.1782628228888015,-0.1010399074803275,0.8327041675811655,-0.7727585733440347,0.02127021119553295,-0.3763740669183139,-0.4734136495216678,-0.0227182674340296,0.723877856659662,0.004486093783886468,0.32801014389224564,0.41498741451044924,-0.7601807056136778,-0.4484485180985046,-1.0271618298870782,-0.04110367762623293,-1.1453382417181965,0.13716272287136647,-0.8977395420881589,-0.0725363368325564,-0.7420539360607787,0.0540196907372079,0.849243779598573,-0.5889620959776909,0.6308398284018051,0.22200546082224604,0.030663076542153958,-1.76898636973626,-0.2491057679196725,0.32125916995234,-0.1614629254884057,-0.6093933151021136,0.02095818448626594,-0.524342556001937,0.6024694161838584,0.7852980214680056,-0.003480159685978056,-0.7140634640590844,0.5062963798242188,0.03200623753165385,-0.20660114908388486,0.7403357322572237,1.149852283161969,0.15763603637834364,0.5698326580858317,0.299924968703929,0.0704965442622258,-1.2440898830610851,0.10269098878490267,0.5857571564052609,1.2774397884695643,0.564400109897212,-1.1648397769848247,-0.051521295186233634,-0.5677851775034028,-1.3330716301287417,-0.550658028507603,0.22921156556619707,0.45964922604091907,
-0.24227333914546653,0.06819475806660409,0.777926291783771,0.6266022771823658,-0.6105810180825713,1.2788019814043579,0.1978307823804649,-1.0804762411585833,1.1662622190010183,-0.2603977962305097,0.6944426021335486,-0.06277734362322443,-0.8899859393477336,1.0402507680329869,-0.2359106502712729,0.16595379926933276,0.6599685654224252,-0.3038177623846622,-0.06173578106566664,-1.6365809997895524,-0.34626804715670856,-0.44401629206371873,-0.768855786744902,0.24996890321897927,-0.46121219681825837,0.8225888833562047,-1.1156619028073655,-2.1866659240096613,1.2858353250107588,0.7719701902140852,1.0519050600110906,0.41828614569994327,-0.06465586111856199,-1.1142266672877124,-1.5889272518708926,0.30540984637482455,-0.31267748203024937,-0.05917421086472928,-0.09825793494974618,-0.3221327170799862,-0.36693255617845605,0.1267376644380193,0.6392107365589348,-0.564329851651175,0.07077039170290982,0.9375598832111955,-0.19209089412341027,0.19104436419158008,0.34989004463425144,-0.7554085362791538,-0.6688057822206035,0.594214967891294,-1.1957868964759486,0.3033598415521389,-0.5533448962138676,0.2133043726891394,0.29787231143757936,-0.7497876374879966,0.40439276083111353,-0.20570901575596387,0.20957942512006353,1.6027684906841535,0.4412559129260014,
0.03665815844334976,-0.03407199087313625,0.908659544826442,0.43436461104545154,0.18394032443259273,0.11599244165202696,-1.2474199174429688,-0.7670416594061599,0.24860826189925783,-0.42324579496199854,0.21011955540505706,-0.6785101710220279,0.37193709935165387,0.7768901155886813,0.12414934441635167,-1.0950264248162116,1.0179951826656242,0.5076143234609451,-0.12178352687501248,-0.009657894823747898,0.47987970635051946,-0.37886802841447,-0.15768771681448077,-0.5097627526443802,-1.0568078428893877,-0.6557233906154917,0.05354563935430886,0.028986778172326668,0.047798434149111856,-1.07685608606816,-1.0763901448487965,-0.6366965948969933,-0.6583094791115263,0.6920189009629524,0.06905413829889845,-0.4084729178534643,-0.3997550108336305,0.6383563698327187,-0.7934009893642479,-0.7509598459859942,0.5270016274574636,1.5323178370203039,-0.28830976653877183,-0.2394638666759346,-0.6130271997584419,0.02926597794623171,-1.1218412315700181,0.9547464201063643,0.9554106538720217,0.059002007505773814,-0.5703565873357476,0.6064716998281693,0.1495899369368745,0.4787609384717951,0.8599626766039822,1.2904270972166692,-0.1386205461239229,-0.127944152344018,0.6081466274049454,0.9213330806837264,1.2270630216461407,-0.602740132942237,-0.7963950789192935,
1.4087082680724201,0.7653632845063847,-0.6956446070000317,-0.08119929430720164,-0.7661734443945327,2.1135598121407586,0.9802975060819434,1.2281076151315573,-0.37762991515310357,0.7525848686142613,-0.023591413436587657,1.1058030724230101,-1.0774319941327435,-0.35331422334546775,-0.7495382279170348,-0.07268509015265666,-1.1280320493192515,0.05867347418964416,-0.3846309319845413,1.253793473373523,-0.38709640214423474,-1.0356291665088333,0.35227283642737534,-0.2632313978319109,0.316708499303932,-1.0145246057362938,1.9392546128311872,-0.3429464415397652,-0.7046599232277704,1.59261563367222,-0.1615401080752331,0.6810821945876607,0.3318043789242607,1.3610533901565582,-0.3660644405738995,-0.7868881165966479,-0.27770411442650844,-0.5109020058762745,-0.09580513955013296,-1.1120092262296806,-0.017074551885932505,0.08215847799408542,-0.1580243435052749,0.08016311180843223,-0.3692347717878763,-0.6478696766686178,0.4984656715692577,-0.4111913542223761,-1.3464730787165156,0.15438673846507928,0.10196501975053092,-0.3184018120536684,-0.0797953290278517,0.8111657570294137,-1.2415312165092947,-0.5218810554821054,0.20788214904483532,0.001580488142877812,0.9534614648969169,-0.21934316501859336,0.11270349268381842,0.48487406507955205,0.8420004804038579,
-0.2932235140456832,1.307245336111275,-0.9771465136195093,0.5812604795247275,0.1681204919507669,-1.4465808262854354,0.019822336437181183,0.3977510049619076,-1.3115430089585842,0.5577122333733254,0.18067359070360567,-1.0377614775383452,-0.29187812123270523,-1.6113630213596164,-1.0527387513678723,0.6145111724485156,0.2652335171584525,-0.23297490744233645,0.48075358922708206,0.9324602980821765,-0.2851654059817094,-0.44171481963084386,-0.8765975693148192,0.7205788345507534,-0.3952620302991047,-0.32629598947463617,-0.2463526465237778,0.7789323387719774,-0.20398043329288618,-0.7248411778734941,-1.307074781242873,-0.03065352186133973,0.07711847657946844,0.01811972789752679,0.11085959709724996,-1.016923355163992,-0.30070076816230057,-0.3688966227554252,-1.1006967358229012,1.0420929704240562,1.7168727516706113,-0.2441390943993455,-1.0318285442799697,0.4862652382087333,1.0707443333628708,0.6165112835666627,-0.8923556118219306,-0.13262513493650024,-0.4014590310507821,0.26300323122857766,-1.2511164967985902,-0.8793164688038823,1.051278875441268,0.04990983802253074,0.4503540069146433,-0.681739499541902,0.8593753107592498,1.2279125614406647,0.602385069348936,0.7393519049365093,0.24573679622827965,-1.6843033103490914,1.450615471190768,
0.1682507304259966,0.48204910278384266,0.26647736306643427,-0.807784718921153,1.310194790795873,0.6473900848533513,0.6230003271312282,0.7807785479466652,0.8122710178019855,-0.9423414175037775,-0.33161924308486074,0.050431366149637315,-0.31160031838547103,-0.16432200404997938,0.6332802085503005,-0.7245136560393982,-0.1921565182569585,-0.5487804756889199,-0.45165197193577605,0.46898327628306685,-0.18189964312198748,0.9181166394121633,-0.6491429357588633,-0.8636013588121915,0.5476824127899403,-0.5454885588612349,-0.31610353675926,0.6180618091687194,0.835197620517737,-0.3507264713540284,-0.8069841586815018,-0.67860683351173,0.23596559862351849,0.4086663962872073,0.03128629995591354,-0.39700045565745773,-0.07905596368188636,-0.9047232953034371,0.3850292592010663,0.1641576657735238,-0.4004430193383382,-0.48252671073182346,0.10638652216157546,0.31158918999674573,-0.5903538998393715,-1.3593921342182604,0.9498250435265431,0.3046522187130863,-1.5540215588304693,0.8356144739291961,0.10902561917655906,0.10045119337662653,-0.5739503099008704,-0.5929489539127649,0.2735060073373501,-0.2655513989027847,-0.4842623633027216,-0.7332052560403338,-0.2893404808863211,0.4088455084101435,-0.2181661871520023,-0.9875840546077118,0.6444935995161727,
-1.3403082563718274,0.3687641495318885,-1.1082493653934131,-0.31130514988609015,0.37236417667125465,-0.8131987326829755,0.18254844772674864,-0.694509004125692,-0.6332653192079918,0.6089940887356844,0.9697029866081952,-0.6864679145622041,0.3596934324076949,-0.7724842006044734,0.12340451981664365,0.30751530475834576,1.0105782490329984,0.16854117888667114,0.17413665032069303,0.1291706831783821,0.636159687068327,-0.17019652891784387,-0.8709711517834944,1.17063111254407,-0.3813376574292049,1.0136187979108227,0.4118878238846554,0.7749577213842991,-0.8083977550872778,0.20835875601571913,1.0002340531236487,-0.7495368158165272,1.3555869598933876,0.6127240580314857,1.0121764684132228,0.7213716529227092,-0.2627276179710101,0.7077631981863972,1.0064729828115233,0.0657252230592328,0.6536605403914426,-0.034208083462789626,0.53552856429067,0.5199262819231685,0.7917642178920097,0.49213732072558536,-0.37398702206012946,-0.23350017800770106,-0.46623533054764554,0.16585322179762607,0.38643468520762536,-0.49552589168103073,0.7562434643154412,-0.7863712373674325,-0.09508320416657427,-0.19188832910936426,0.47528958994946435,-0.2285662200597268,-0.48071119272908325,-0.844707823182931,0.294805700439681,0.9379786333082498,0.2242957699782796,
0.5365160179685252,0.08254021633587731,-0.3426178743070511,0.25795748717527767,0.2645154859999786,0.027920718323924437,0.2806334073326222,-0.2993445280739227,-0.8997281375062004,-0.8093711996054015,-0.6369880293187024,-1.162553938151553,-0.49214068773934644,-0.8755752619556275,-0.6533193150919877,0.4375875199762665,0.12328650775712266,-0.8827542637957265,-0.1484227685275211,-1.2435403364086604,1.0160959405509458,-0.3126425082317,0.42588494672268745,0.06573132615027853,-1.2917858450021733,-0.11462965776961397,-1.480603214229412,-0.9358519418259191,0.2696341064008109,0.7366752321871667,0.7635223336016187,-0.7342151751531599,0.04432209093815621,-0.6549231259106797,-0.20395042676669853,-0.7038682823357757,0.7322077542210724,0.3946798209012565,-0.054179685435054976,-0.6850907078055194,-0.27561163780484843,0.21987151926532658,1.0927362791535267,-0.7195438244567199,0.6498932047058937,0.19326394132282823,-0.7933316244624905,-0.8391009266015103,-0.522314617589109,0.4338317984240792,0.9205191069502038,0.47576658824604834,-0.9446204529553829,0.5397202829184308,0.6594247872216957,0.17834371897816217,-0.23059622418483774,0.10870026599143927,0.7678625269652467,0.6735440404250918,-0.32919801837095003,1.0073652559052033,0.7309314248445572,
-0.4960048166123052,0.619312790531167,-1.248786502609574,-0.6110349392413986,-0.16820386476330446,0.45997124440803344,0.09136531769485115,0.09802089554153301,-0.0681413039552721,-0.8904329178857112,-0.7301569572212411,-0.21660762018170043,-1.4089289331344954,0.14172900558625823,-1.213303802965907,-0.8247725194623866,0.11019453638539595,0.4311948837074586,0.41722448530324874,0.24273146304702825,-0.3689809465004015,-0.8570475154257703,-0.9725679839008193,1.0468305545694712,0.5557577867019725,-0.30360869964205295,1.0765806423266093,-0.9563687454518287,-0.4745456447354717,1.375655388207206,1.135581347188812,0.4052164069513601,-0.2449807405669183,0.7176505070021821,-1.6373639265404227,-0.005378228519650916,-0.6803017873663025,-0.9959830818130045,0.04629789604387273,-0.653940009990147,-0.42035989179098354,0.1582105331308966,0.29960387354049245,0.9335101377696654,0.05551908243601754,-0.4555375948491469,-0.690269665998604,1.276377245860819,0.4013474806158096,-0.4231599704977653,-0.8881223059833626,0.4455403080759715,-1.462135770946655,-0.8429627247650461,-0.29007698904607887,-0.923129346099994,0.45538804283699164,0.7193546390566349,0.6678103683227429,-0.37996348700279325,-0.7480863566018,1.1345133009736679,0.7412969299804161,
-1.1898796648663164,0.4261047692811741,0.7268908890044737,1.2877341837605687,0.6553522496417495,-1.4799422435752947,-0.057374747184747915,-1.3265554827262729,0.9152050719421169,0.18924435337191853,0.009010171543166618,-0.5173227055153153,-1.8648709456274764,0.3104489995585103,0.8317371607966549,0.26360141386725894,-0.37170824666466334,-0.4232176330132908,0.2742554498661534,-1.2033083388540777,-0.5025601506599161,-0.8191089937258894,-0.24351941888820647,0.0040621781484401825,0.644932915645465,1.1542259198421279,-0.7739006764651687,-1.4139594716016195,0.4912158891524477,-0.9100513884944671,0.17258419526365887,0.9596936016706544,1.4544771996418817,-1.0839786587990419,-0.658521487678357,0.18814359091878485,0.05559262043365902,0.732087805711065,0.15422810058136788,0.29226856882423785,0.8625947547960459,-0.4408339992094424,0.7126263156004601,-0.41896831024793285,0.49371917007663874,0.3181219440644251,-1.135639772852923,-8.842235837492791E-4,-0.14369419774841474,-0.4174001354597337,-0.23979565721610546,0.9952098286658285,-0.49848486037988554,0.49371041923077036,-0.18155475214929795,0.7488956603401661,-0.8586272039193487,-0.4974245136202437,0.11965029076368365,-0.18062325937338097,1.1479066924939627,0.2656035404209352,1.1981136032297817,
0.1728014695342643,0.3787641879523879,0.5099960450239155,-0.3104593153141508,-1.1103416659756749,0.09155644855408906,-2.1331647332973365,1.2675156383823662,-0.10670576363875942,0.3513231102492956,-0.6060748701629505,0.6370475258808445,0.9706282628326565,-0.09822327093129216,-0.5939589993961653,0.04278348682605839,-0.021558905922811816,0.6308133110907298,0.0940349463223622,0.34064162343104426,-0.15169594582222082,-1.2345287013222304,0.30995141551267175,-0.624081700119652,-1.4799851641401427,0.3764651053550064,0.3882696657948799,0.5477017975206603,-1.0063481993704229,0.5715294671375614,-0.23353596307135724,-0.5595069912180012,-0.5027556464534007,1.4628130282941896,0.41567128423260563,-1.1095087761485714,0.8247080299342521,0.7296405036392738,0.45271632069324447,-0.9160295963181989,0.5134738946825882,0.6748075572759508,0.08919001303743057,0.16299271991397654,-0.8857533428360643,-0.1332048361511862,0.37410467408443276,0.3801811784880506,0.25509853965710017,1.4588733301319892,-0.8283285496885889,-1.5221611349826503,-0.5460591251324166,-1.1157694808393541,0.46012310467553413,-0.4159882859152953,0.6920870167106118,0.3992605058671113,-0.139651165618177,-1.1536645818098585,-0.11321249405915235,0.737983438507911,-2.022552789088191,
-0.07693662021378701,-0.8984302356721998,0.6861034178138485,0.4589657474399676,0.06687729758378266,0.7069058904652941,-0.3496029725359054,-0.09226495229514531,-0.3120254804300762,0.46170104774359805,-0.5489178132812811,0.9713089338553731,0.44500593905033664,-0.07578002207249634,-0.4253738791023611,-0.27109625476966454,0.32791995949480196,-1.0519625412504896,-0.27180683547062917,-0.596617561566712,-0.3126241694874709,-0.9029303553085359,0.3957249155897073,-0.632621174814828,0.40998788533226466,-0.9080801031632586,-0.5708906970841532,-1.300219767965862,-0.9253189449927155,0.8792099165872691,-1.2262648948614443,-0.1890552051594321,0.376363009163138,-0.9155830375119145,0.5360865337374272,-0.011058720366885919,-0.14847259917073527,0.8239699835533394,-0.7125135331679151,0.06425226441434546,0.44402825271158836,-0.37325131938570205,0.82294577032055,-0.033193488186226174,0.014791995431585044,-0.7876683496513128,-0.22462967452726976,-0.8611889379026776,-0.9877452701807363,0.23945854593499535,1.1815242017928769,-0.8515155536711807,-1.0096845204315663,-0.708976056802582,0.5407932204348314,0.13093329959733127,0.3671384776883894,0.25092784140292296,0.7038569723904442,0.24840819660952349,-0.6451727556021707,-0.6720644501617836,0.41134299466197094,
1.3081416009683025,0.6701431238366569,0.613427295666915,-0.6434448653043486,-0.5446636879685424,0.7086905437595036,1.0706317186229708,0.3974100802455768,-0.7883296597705324,1.1647601268960825,-0.9041513230788604,1.2602156701139637,0.08487953303930348,0.2949448298101104,0.8597119744119442,0.27741516824134516,-0.3232208973278441,-0.8264222954672545,0.05252528147850431,-0.340148028424786,-0.9647329867502868,0.26943041213381974,0.5409371945709153,0.3890905544562435,0.8815034495479072,-0.0883068405826703,-0.0458994456221294,-0.6128820443013536,-0.04630145644294997,1.0275328274188034,0.25751347408251724,0.7073419380422458,0.325849736445761,-0.33667309578435217,-0.33774700784080813,0.08767886652397935,0.15457677895379807,0.8003482110205801,0.7037422558327283,-0.40475890423856276,-0.5572034745544225,-1.2646986897374861,0.26783851809038106,-0.03524698957177495,0.42715246539838525,0.22036002536563526,1.1314544719116426,-0.23180089976339213,-0.7285410700538104,-0.7622691907823734,0.5189423430575281,0.4458591487402259,0.44181519211169507,0.16724046558620154,-0.7642645579030592,-0.5374476007249259,0.160585288660816,0.25807023924690076,-0.6765869044339082,-0.690924714550761,-0.32834361321253025,-0.28136425002296583,1.5747614259783667,
0.40719877785448955,0.3109391153266736,-0.5353858530351187,-0.09848420863544463,1.2875120022222035,-0.3437213283737287,1.771487438951011,1.046304812522594,-0.7759413214040064,0.9589046684967969,-0.8943077695929494,-0.23223864117909052,-0.2527774979274896,0.518591956214414,-0.0017444963270149228,0.8381293492709591,0.6580968646786608,-0.8090740640855788,0.14366865883998883,0.9749631778617828,-1.0993807996122953,-0.036339367422074616,0.6791643315690913,-0.23063046303324888,1.2195106770826902,0.7222937710019849,0.05334393747560868,-0.6536779267764453,-0.8067457689120107,-0.6818401170500917,1.1867150877700425,0.4232926312334121,1.219870420312595,-0.12426054649493312,0.4544065871526364,0.8993465757692441,-0.0062459029506974515,0.15842438277652884,0.018041076614582548,0.454411364079088,0.8865918145895483,-1.2037369285078963,-0.5823381125507349,-0.20563535967269056,0.7350888636235425,0.7864727792268426,-1.098421618477697,-0.1828979164453076,-0.2584314372094358,0.6238911889369073,0.3561476832814846,-0.7156785940459832,-0.40933370283663817,-0.10555745950526835,-1.1333446688728028,-0.21645827778051505,-0.06622041867134718,-0.6395371420494128,-0.7920137768588121,1.6921870266769925,0.059154726496004346,-1.181036304596854,1.5525019109434097,
0.5250776811696286,0.4101402262932804,-0.47758163963098443,-1.656619056124153,-1.2618045759725542,-0.0680535551140532,0.5840185251451474,-0.6022862555248928,0.27448837426789086,-0.4018112485378975,-0.6275665019633422,1.016827128058294,0.27937692640287426,-1.2398081835302297,-0.8486332625988532,-0.7980002371778688,0.008714700773218413,0.6897201753718257,-0.021702197510057242,0.6408107619271691,-0.10512199875516515,-0.9724559299300043,-0.0190909733565648,0.2930590479651777,-0.6462682503373608,0.12855849510837622,0.15488475051124842,-0.8284899254777743,-0.4937770526458459,-1.0945162436521274,0.5175808915851502,-0.6502691908161301,-0.2573062715635383,0.053862634230506544,0.1110335522843052,-0.6778912670003531,-0.5320224217007189,0.3563639168094076,-0.2407156962100078,1.1006459688405612,1.105873769335076,-0.6232588210230144,0.7125113552105847,0.5830942856552949,-0.06840040768479183,-0.7455989580774197,-0.32780957819924983,0.7690042499358128,-0.9896792923533827,0.048456628917879434,0.19835084482204993,0.05297509371166357,-0.24195792265984853,0.6655121530563374,-0.0875117787905548,-0.9767285564677005,-0.7076995207513431,0.3152613553419603,-1.1537103920522789,-1.3396389739571664,-0.20544322000437626,0.21518873183792994,0.7619713226876473,
0.9486018256514326,-0.48105278832717874,-1.074855515054137,-0.030454611287620927,-1.266014774103447,-0.697986626500158,0.17986663272743975,-0.137778689400737,-1.2080929008664518,-0.3662666393750944,-0.12302275636026569,-0.08366874255938317,-0.08451392948125402,0.1787722192435819,0.7142250037752345,-0.6392513828349908,-0.6808673305532578,1.1759154265424074,0.8347842371449707,-0.5826566782482885,-1.0501998721633743,-1.1203498150216027,0.3625478815227685,-0.14284419868402948,0.8951404265109124,0.7098491427822413,-1.0943545953808982,-0.3717448399927421,-0.07470886657292025,0.6294570166136497,1.0760419751041854,0.5426101405675958,0.34592928647069,-1.221227353175795,-0.278670225851521,0.276997957703074,1.0323933333020126,0.10567601862230605,0.7177086110081405,0.5892019446346721,0.12665164313353805,-1.4650330663880078,-0.7737581469498958,0.19127358036741537,-0.9382420302158248,0.37094834114230213,0.4402464318883982,-0.5989496214078329,-1.4583667011456656,0.0033395674465127737,-1.1702643610884882,0.482576795091591,0.17837945678580946,0.07487216094124326,-0.7476295257087737,-0.37162379354481906,0.0896051416057366,0.4660440269555697,0.19517403591230792,0.3045492489134195,0.06466999504647045,0.053644390008343895,0.6542821046018259,
0.48180165818326015,0.3112526730465667,1.0710793607881366,0.43417095877626,1.6086663401805388,-0.4084451531162683,0.38286482852478576,0.30321696547741295,1.0046816772071212,-0.5093600117940862,0.6924170730300057,-0.3216950074013787,-0.7378188883553233,1.1274295558943237,1.3022389073695582,0.2949260137559563,-0.3407718294332679,-0.7992874791254454,0.28387420244434103,-1.009330800540181,0.37037061176049224,0.3786865405001728,0.41418271865432077,-0.0704658311497014,-0.7430341647469505,-0.02280872488152987,0.6664478833329013,1.0493350375520898,-0.4532165968184858,0.7023598029737506,-0.414959909043776,0.19096310848312079,0.02198263049143879,-0.025554317066218708,0.8496578276580877,1.4138716442940238,0.05393562928389662,-0.7145507789579952,-0.33467605900329134,0.35358199844090765,0.10507856259705373,0.48834344124941764,0.7426574909645081,-0.3188711149931822,0.013146369092874801,0.3755761493833837,-0.6671735947578256,-1.104373577806657,0.33548974228336303,0.3168016320914655,0.7731834461623985,0.637908823592062,0.0856988914845635,0.801720671407629,-0.07951834497887172,0.02425897660182019,-0.4511402781202173,0.20934545810257796,0.9783320487707068,0.8076715358252093,0.1229470578821123,-0.4913890905024382,0.4392740008286492,
-0.6228682503211936,-0.14637443883063345,0.9254917527526719,-1.1975931599806495,-0.17547646123812127,-0.5925624145916365,-0.5482691932652879,0.15694463693220684,-0.04752482173260005,0.3339739117548442,-1.8454894945485587,0.9977704213950334,1.2613631018436533,-1.0204974568790797,0.18092117983837064,0.7502097478555775,-0.24468607684962623,0.5206376317694846,-0.45786746575533804,0.16400171828526816,0.5545201084986872,0.6143107177435408,0.2011731313396581,-0.4870254989700868,-0.3088304339193629,-0.47913726483327507,-0.3029346536246746,-0.20549685853297292,-0.5871646993272027,0.5354101752334497,-1.7376133533338436,-0.46060501362164846,-1.237136638576743,0.5256076732797006,-0.09710382141299037,1.1186465628234394,-0.6789597818124765,-0.9839849860334412,-0.27637970283441826,0.18730706670679126,-0.9382771273058178,0.8546058107160649,-0.5148178800729094,-0.6873561201830839,-1.4544867726565944,0.19599204383968621,0.9076786207517197,-0.02035337801125373,0.17570919352328604,-1.1779684850746395,1.225521368829365,-0.9778920789480662,0.15559471600676844,0.37538593568929784,0.023252492504696336,-0.47027439410544164,0.04799178097323204,-0.2381506129722302,-0.0019411497782054427,0.7963828318338743,-0.16601250051237582,-0.9819139980354455,-1.0779047183692452,
-0.5737088481330015,-0.27383900114972376,0.054708718124999535,0.8417599384819685,-0.2316916468863517,0.11368170693217165,-1.0122545351055348,-0.7404448212124951,0.19800323455270896,-1.0703642748746671,-0.273201275775712,-0.8142178197132136,0.4340902593472456,-1.0960009329640878,-0.2886721997947743,-0.8195816185436063,0.3572192002770791,-0.6498843544724182,0.1436427643719248,-0.6678122707530524,0.2788142771980865,0.17861602899427625,-0.36748842399868464,-0.810668243142246,-0.023560914817196323,0.341096406366154,-0.3551447372679244,0.34768876737915355,-0.5576552955663889,-1.1872412530098517,0.22222854360406433,-0.5892566144508501,0.31000191050662335,-0.8765584028017741,-0.7603330305774866,0.8230047423460074,-0.07426372890421361,0.06371551409906798,-0.4171580958100077,-0.47311717821366084,-0.7555671615770028,0.28768716071717143,0.11148013453719162,0.4022521086705535,-0.8006651053181477,-0.2825062504897273,-0.7057336152777262,0.3912237717471946,-0.7275371998452644,0.1554139072622502,-0.30385676174701626,-1.445965470430252,-0.7342311011139722,-0.006157005147307883,0.4273986183574635,0.7290459081031655,0.7949589570319205,0.7972886081168855,0.5622608908101749,-0.4003061703107821,0.3689114617962143,0.004432924291218136,-0.8208117442977997,
-1.364535213674965,-1.6498512948429334,-1.0351756844732656,0.3194989654901439,-0.2171233394693341,-2.014617069060857,0.10069836520302435,-0.7437275189923704,0.2386376987879033,0.6693311276828764,-0.05744666785526815,-0.07684032245847158,0.6589649983566452,0.5472191586859532,-0.5620521405764767,-0.641622397736077,0.9113150786501243,0.3590554420323713,-0.5618308160942751,0.7332823405955786,-0.8286209891680022,-0.42658770463654416,-0.1709814968312539,-0.5877827194386267,-1.3622743067204681,0.10288162997734608,0.5377514869378102,-0.9256487505787997,-0.15143059625659738,-0.1840879587437555,-0.5875430175409787,-0.9013795413702994,-0.172628383925161,-0.8508751246990426,-0.9834781185814849,-0.134375585479384,-0.4292615055322291,0.6731606465604332,0.506525156448462,-0.3475566635765637,0.34413926741941564,0.776578960672774,1.0086403222752187,0.5733318886285057,0.8486472904504014,-0.4816462356774657,-0.9781997218567474,-0.1933204765247889,-0.35725712363850226,-0.5047320759036713,-0.67001935279608,-0.7399434117357702,-0.015572031820627445,0.2320450008245593,1.2543599834022994,0.6903997253202439,-0.43157589575448935,0.10326006220696628,0.4055484254215981,0.5688574989430293,0.4781570688622694,0.09106087605846187,-0.843387059584016,
0.5494595326588663,-0.6427482047571238,0.8504426002894883,1.0386113056154684,0.6973530979415077,1.2261879439085144,0.6462940643920738,-0.3976997664581226,-0.6887945302393257,1.301371313495105,0.6359833396495684,0.9226482701565357,-1.6090376388930956,1.4626506220438054,-0.05622374660007144,0.3376830090337271,-0.056211106569010544,0.1372436609842812,0.35322322824589786,0.6367885261861459,1.0927187021624074,0.018900827220079134,-0.22557155885209113,-0.08229669386306804,1.1754442065225457,0.89845940357253,0.08572518086493162,-0.004430531104938101,-0.8242591608246355,0.9695443308247738,0.6248990520271059,0.9540478738657998,0.3515780320637304,-0.07714333283716734,-0.6330463758987761,0.8413308347240684,0.02151302588959435,0.7719387844477008,-0.07747982944100426,1.1969360045386335,0.13657405634917485,-0.510654913840267,-0.6590295830514197,-0.4002302847814842,-0.4966082917679533,-0.5547864712789821,-0.6574713461050143,-0.44451531594550353,0.5105802862473856,1.1348372002089335,0.24496799451169388,0.9844621885853055,-0.2537387543863227,-0.49213169815719043,-0.8009497442790847,0.15726551439361525,0.7566107707601797,1.1038025898503587,0.4484232076603409,0.17294408263943356,1.3114631509692356,-0.12519070793754333,0.6255132130511587,
0.8940570314420844,1.4738297254888755,-1.1274422747404542,1.1592467546666527,0.47348013983597503,-0.5301383215957258,1.0696700175593694,0.0645951826344506,-1.0065329047114115,0.7470505042292066,0.5605024304658444,0.27528317635879673,-0.11191165656884187,-0.6067019827657496,0.11591681015864151,-0.22660323225008192,-0.6472688646760953,0.286109403891847,0.23196635910630511,1.4560037339805483,-1.2319404215975716,-0.49992135988695174,0.2546100551717607,-0.9976123663156722,0.9126631258622977,-1.3991087252514443,-0.13552890462279735,1.0579124756907368,-1.2485752623513964,-0.2684235817647057,-1.6485686485616453,0.7200528867166862,0.1981723536833039,-0.3781593092682388,1.795267077940618,-1.1667194962244252,0.4900029155954214,0.30141202508031295,-1.0583356941806534,-0.11773882604079199,0.08641586677412795,-1.051387667152282,-0.2875686654638513,-0.2907828837281681,0.9193164230195325,-0.30745558900977177,-0.7005573298603163,0.0060837426362788105,-1.3493343420917991,1.3563565620831208,-0.33854095866358,-0.5887193124381165,0.9100927798664535,-0.6924093464224239,-0.24554627916791497,-0.9172050771080447,-0.2558157913326813,-0.1250190636612045,0.3985611422377434,2.144589245744975,1.998003135113132,-1.6715503456865062,1.9616684325195082,
0.767029576287381,1.0573217524449774,-0.6162786807785082,0.6870591422933247,0.08327559917309124,-1.9915794276440861,-0.1221483428343374,1.287591783605143,-0.6772509799358274,0.31452507866647506,0.18871250009485663,0.5195722340495074,-0.1353220986048686,-0.5573098441684863,-0.5990277248763204,-0.2665098249496135,-0.9340279103908177,0.105200607649935,1.5491320824439723,-0.28527482886737204,-1.4138463471793967,0.4423279355778653,0.9187676791142897,-0.6443101555733722,0.3953052776016954,-0.4737133378534383,-0.8533736925941672,0.6967817011401064,-1.1985004157572452,1.3544933933883931,-0.586322291179678,-0.11680459516028496,-0.2343084982797657,-2.4071361307138757,0.11009757043539853,0.3032096386174774,0.3045898226572911,0.869120451185961,1.1186820292059285,0.6292493137034733,0.4248286266753193,-0.07047279041719606,0.47944358930113806,-0.5134788076181308,-0.93058014298326,-0.45312113934425663,-0.2146700461266835,-0.39009536163781056,-1.7838121950899732,0.4784436545377899,0.5220762460287952,-0.490315705332536,-0.6399170942332931,0.23684153279228215,0.8181677922672516,-1.1764527517138164,0.3424249997993804,1.5966872132639027,-0.2635885047543953,-0.8244576975430721,0.05863829707602402,-0.5329525503415103,1.562020608148229,
0.1025188316645769,1.2207787129050367,0.009116736082308114,-1.4532809123728094,-0.28635815954300425,-0.043585922618715814,-1.8496060499982299,0.8927722606811426,-1.243877084832863,-0.08585747077360067,0.2215581552728675,0.7036332834860277,0.6394092844173844,0.23265119490511618,-0.4933239173679191,-0.035042030879529465,-0.88710919811873,0.49758224235707055,-0.14356052889339846,-0.5962140659887731,1.052950671688853,-0.28685433700242946,1.0421109339444872,0.41116833740466147,-0.38244454562310654,-0.31414271140968436,-0.4896474062783957,-0.38610809582455335,0.5653230677051242,0.1466226778446529,0.31731685797603293,-0.0276493046735582,0.4616262862922994,0.41762209028419145,1.0367114518549523,-0.2329808126759724,1.3648667841671276,0.795838208564265,0.36256989414614765,-0.5749606999906958,-0.9571582718048675,0.9927244701518527,0.50136050376389,0.314681821601026,-0.4710248492537659,-0.251464260242251,0.6318202171656825,-1.0753653137860668,1.0564577151123034,-0.026579801878609196,0.10530366487758239,0.6130760766866523,-0.03670063366501583,0.4632495566707981,0.17281522183368817,-0.3671537476384478,0.9234878183230366,0.7022134341496916,1.1065877354904792,-1.4180436354534576,-1.2110415800479897,0.7705596974255937,-1.2504099515095164,
-0.3269059842922325,-0.8767811649946501,-0.8989476805261718,0.9591762552141813,-0.8918148154237503,-0.452717409286169,0.23639265748840851,-0.2622671370323093,0.5652676952979004,-0.20057243147461598,-0.3465886729465266,-0.5375562548212568,1.6651043243458066,-1.6937653950031295,0.5980598776381101,-0.04163145750598095,-0.6865398961805579,0.10217797504848843,1.0236816163426803,-0.09589506165409363,-1.6790086088584681,1.0073590403481592,-0.3505350603740027,-0.5236106755900047,-0.45273829301454194,-0.7591842597002448,-1.368422957317691,-1.2543007411508318,-0.45965608633360544,0.06042151867963663,-0.4762092342441956,-0.5255596142971279,-0.6933949427121571,-0.3803553013833697,-0.20492444877267793,-0.42036081807566983,0.28890733633303034,-0.027489734830005788,-0.04167459313607148,-0.4566465525395976,0.25599007480636227,-1.3126261412841254,-0.4566718203392739,-0.17659748255072652,-0.590549954522932,0.7445660917894011,0.6266488489676748,-0.8107347414410241,-1.0807856969839507,0.28006633683532745,0.4528656473961119,-1.050120159211522,-0.5358877770733996,-1.0059685519957924,-0.09840097125746382,-1.2958410880332636,-0.880026273756153,-0.7374200564512098,0.15268690040416674,0.7853315679451124,0.5758228841326304,0.05818810173364974,0.3312342584008391,
0.3902163209530619,0.062395381550394376,0.40744862218476813,-0.5245220146629549,-0.26550145572235867,-0.14841688922457502,0.24014983013512023,1.2359696651187302,-1.2610790004378378,-1.3753868049983071,0.6569767811371962,-0.7418031870257146,-0.14852106948750837,-0.901403019774102,-0.539194159116525,-0.24195573344806443,-0.4963922059252263,0.3073600439354031,-0.16251158520404782,0.18428447692819183,0.24132946074184874,-1.2906801893045665,0.17910729993573532,-0.9036438284444187,-0.27946597252036987,-0.14158714700506164,0.47349116336335056,0.4827078265852652,-0.9126100705505801,1.0401119851060703,0.9865602484854746,0.7181077473680318,-0.48204335755425715,0.20166484133172205,0.29058547319015104,-1.1336793658703286,-0.2013675860908875,-0.5403691689047766,-0.39908898217576,0.4010849212629349,0.9825581952960262,0.8554502535231473,-1.1732213239494613,0.6638470258543249,-0.14293505908447857,-0.9788983093315334,-0.44789035964596774,-0.42782138636532246,0.6154895640107584,-0.34113502482447267,0.20733778813712725,-0.7160634720400371,-0.3485525973681956,-1.1920482594804014,0.023394998635804156,0.2336470909093477,0.09027797386347029,1.7883538131155754,0.3215358881095877,-0.4482807098816653,0.5573411608142017,0.5118171239591566,0.5764017815617811,
-0.611940973725861,-0.18172119558002411,-0.8879218457357256,-1.0181561701857118,-0.21206605779192642,1.145453037419234,1.8120259751996601,0.1353720234503468,1.4474129593426823,-0.6553346624487986,-0.4328958108815619,1.1584512699580969,0.858118382339069,0.3072731967932989,1.3207136428143487,0.2218947319780837,-0.814506074384816,0.06978641114454277,0.7487970387725782,-0.2700784788602719,-1.5883157472353309,0.8495769379532812,0.21947557038370327,-0.3978621591896897,0.6174213554016392,-0.29272769681486566,0.7683403924699197,-1.4412387704194225,1.0214780061913833,-0.7516012133386454,0.02719298075489418,-0.7362565103754866,-0.5500369581502398,0.2970225971664676,-0.32307159736035174,0.36852663727711876,-0.6042286736924722,0.2735361127162559,-0.29897893667409164,-0.2809497692042654,-1.0923790946879552,-0.8749559631603627,0.10228822187778071,-0.6439550253582849,-0.6320502751645334,-0.8569733832267532,-0.21423397595003366,1.067944744971035,-0.5371854050701941,-0.23098237985319406,1.1326284934024426,-0.5700421511633842,0.8747826501267539,0.1592622015955704,-0.14807435407226258,0.048158337563464444,-0.02650443185985501,-0.432969318682773,-0.6431623134678948,-0.40713846309239465,-0.34464430376267086,-0.3517038265517416,-0.09312446861844799,
0.5083697927235122,-0.6110235511970563,0.25906749595964407,-2.0218775258206345,-0.5881612610229503,2.3277851327058197,1.4339190358260152,0.2505388544475959,0.037324346274669275,0.01827203042785468,-0.0801354565039185,0.7520278798093916,1.0322026227048477,-1.2135680999998508,0.7295620416400543,-0.25574075210379843,-0.08607356609371077,0.25556471550189974,0.19448419358890492,0.7622042946712742,-0.2752284982072717,-1.03827174808961,-0.18645568332065307,-0.4723050498327198,-0.482738833753652,-0.010510499858461204,0.5604996239815954,0.14791545638938539,0.04314616335191534,0.007752255885163283,-0.44108880745549706,-0.21976683772537123,-0.6299462429845757,0.6588063622588505,-0.45354896958521695,-0.7926943928102093,-0.4377680719972066,-0.810191456796107,1.03366563250005,0.4660345498206462,-0.1896590639305132,0.8136380699320314,-0.3176306914053836,-0.27281565264936214,-0.19365895158708538,0.6822416697326965,0.19827821035641421,0.929576236029124,-0.13889350202058515,-0.4502393191364731,-0.11595300017168832,0.04293825016185512,1.0331277605958913,0.2820155881276417,0.7257088657987634,-0.3360145811188773,1.0556125223453428,-1.0545728358471738,-0.5279928400622553,-0.2880294931249503,-0.973874475708012,0.04747742822059745,-0.39256664463659496,
-0.5478489999569754,-0.42953807080729867,0.3409718333123032,0.326637470729097,-0.9577726499356641,-1.2501640821952542,-0.21326629351666498,-0.40332382516803966,1.0652754334146286,0.5135587111660579,-0.5862985909780717,-0.020587106193520444,-0.22323840352450008,-0.5524417079476929,1.5072681257787852,0.2868990101432187,0.5079283604294996,1.1665510758128492,0.09455864656875164,-0.14542471782031718,0.2566071212915383,-0.2445483041175407,0.41568510128094094,-0.9573884554482218,-0.5159998525601959,-0.15692025904357815,-2.4757702407872118,-0.4038361378371601,1.0341968405086248,-0.017572788313353616,-0.3976450884023751,-1.5531885753168517,0.040892028187551346,-1.5720511890092281,0.6661054369139626,0.17878897975972546,0.872539725734233,-0.2547817332287403,0.7896610816622568,0.5906020855357109,-0.3739837714394101,-1.5276741481497866,-0.19067307434149228,-1.2409386819577921,0.20443948386118138,0.7090726255679615,-0.5094796809229841,-0.7936175405754909,0.3244620604865942,-0.9436822958671264,-0.41384194336089586,-0.2514503947666743,-0.7656561942995951,0.32986313093634856,0.8030811292961725,0.07023717712363813,-0.520927554541028,0.8022469929350361,0.14290330471083934,-0.20350291359971745,-1.0933384240104849,-0.8628151270564611,0.9491863520528828,
-1.2702352437041493,0.6933984520249511,0.07783394244036078,0.6412985456498921,-1.1782929504424935,-0.5911944132381658,-1.0112339696832084,0.12398361946237599,0.7287880948386437,0.4418772045992033,1.4096997910055564,-0.8992942272647094,-0.8300467134198525,0.4584962482767506,0.5586451031743113,0.3094527698954668,0.49015341256350764,0.8485096041968384,-0.6872132306073008,0.5649541420693157,-1.0401347095204878,-0.1202714318728889,0.24878395064019396,-0.3337118937341471,-0.2761042615015249,0.6197320808763319,0.6108716605450911,-0.3098044862327678,-0.7833534345751522,-0.30302540330846744,-0.5456876585302873,0.9370384031562318,0.2975337715982924,0.5240892966949803,0.027304383890663267,-0.30410641218926837,0.042127505436400314,0.9515835433847003,-0.4023487440677278,0.4194568933874656,0.9815328678797731,-0.2591560601428482,-0.5729507284604834,-0.8231076964380738,0.08536408667536317,-0.2924585880123939,1.0103616737754573,1.2233090207839066,0.5850342983586413,0.746299557929989,-0.576379991173327,-0.30706862887173336,-0.3316147528975306,-0.030156195861963178,-0.5102191563628989,-0.2897117401835593,-0.1432998098326622,1.0854000865762843,-0.3500269691758373,-1.0565476138855923,-0.11137677042235507,-0.8143841545333584,0.2393791224154305,
-1.2454893516730288,-0.6423113340466657,0.2535984024831541,0.5392462288344274,0.5867922755525343,0.6089464601224613,0.11637506026035284,0.4033409370891017,-1.1252243599401275,-0.7641318769963766,0.8657506088910666,-0.5233975969364675,-0.009706484163470025,0.7692418738346444,-0.7048255995205118,-0.7255492300904197,-0.36425423103523036,-0.7076215511210354,-0.6378939203938038,1.0187538545897212,0.7535022835470798,0.49061014262037983,-0.8854437748676905,0.6907724235619556,0.6347545267109206,0.9799825463872313,-0.36210801134365533,-1.3863627369900227,-0.6172315496212101,-0.7500830520420104,0.37330481991711284,0.90328878924774,1.0986354161601668,0.8198962277264875,-0.9448907482160257,-0.8165414315830958,0.6938919581691582,-0.8307536212842831,0.3170891164149555,0.6541920911353808,-0.08295570363217568,-0.12685739511293867,0.7382998964813351,0.05223163291107108,-0.00792373627622451,-1.3304880800128023,-1.4099467186475707,-0.31323142674994175,-0.5974415141087103,-0.3344873834931187,1.1530720960067233,0.13118882869405896,-1.3262733647654257,0.12942651279059025,-0.7783840029562664,0.8752053795184965,-1.022017821297274,-0.24038045208274617,-0.33687294308610316,1.0901299968663876,0.29472485427292405,0.9806566807156091,-0.8484491579414809,

