-0.9299863198464631,0.29313115970447234,0.4313686816452058,-0.9355777594931383,0.8828166875753125,0.5377118858754617,-0.5922599994293929,-0.015615364063185089,-0.23283818934017408,0.4329826955494116,-0.407170396604865,-0.9386435128020998,0.511606298712735,0.21013729270603787,-0.2196518590072385,-0.9681436287309209,0.6065022448668103,0.7700846128120586,0.16059628233124434,0.11872344486030095,-0.12042580017573057,-0.12687861745957907,0.17275624079926688,-0.23665220965495037,-0.7354750694082279,-0.15169432925950432,0.36035910803137616,0.8212355183430897,0.35751551147158334,0.987631395541092,0.22168827812892977,0.2619859289191513,-0.7691812566989213,0.3076824797137008,0.39258220151856804,-0.28641511460914004,-0.6501013062053076,0.9415222678344686,0.4073029816140272,-0.4477523608530174,-0.6203782089296197,-0.933846476082328,0.7538404719175706,-0.33712782620667525,0.16725811257136436,0.9759607373771366,-0.02677539418141439,0.4814921130775267,-0.7456153928300371,0.680126343532311,0.14812193453755151,-0.5200536704067729,0.896755744124037,0.23208871945983334,-0.7158046568088934,0.8643111068680986,0.7606584291088168,0.8916900761939519,0.8084088396322822,-0.06753204006347047,-0.7837758230703766,-0.8242617999571622,0.6916629404094936,
0.27250884010684695,-0.5373790507644978,-0.12971386880687552,-0.4511508282159169,-0.21749111136578914,0.5970035818776298,0.1580106178227485,0.47761462085374284,0.3535241779269891,-0.8214473552997983,-0.843350878333369,-0.6321682139592393,-0.018499479056024226,-0.15911472903204515,-0.6304671508861461,0.9469711344038894,-0.9398920207315735,0.0705756099400443,0.8168312603772057,0.9222772622924533,0.6553429062750193,0.39647381603922693,0.9462026323336235,0.23885279625799694,-0.3259322727673988,0.9239675077537763,-0.18587823680545723,-0.3065429861392772,0.012487914888017038,0.40028113708058255,0.4842355908790108,-0.0729702584565659,0.006891743740956802,0.8113633816917216,-0.8933254000185828,-0.8353466870679072,0.8078082533807096,0.887864188991039,-0.2776734727296797,0.9798697624335022,-0.339933718365407,-0.16284236709727207,-0.5213433414606756,0.8309725750932759,0.4950652134906095,0.12031910499640408,0.6487376092853283,-0.8499045968003025,-0.27210281452212737,-0.8425815279696365,0.6127288417534975,0.36162452089680874,-0.2992125100471892,0.4714444537679896,-0.20887448998719949,-0.6353369608382584,-0.17435104773242616,0.9706279092592831,0.4116726851323709,-0.2650203389775361,0.1523736788223622,0.8208857979008244,-0.05307917709732757,
-0.8149230886333179,-0.1741861779165026,-0.3254407496226779,0.07697520859644214,-0.33328256015890534,-0.3067689546810708,-0.10142571469856021,-0.8879288568102177,-0.09155030443020817,0.18532302952754942,-0.11539532978408817,0.9521838893570285,-0.8486221137223655,0.5177624424463063,0.5257715654510478,0.865961330483515,0.3796233075054609,-0.7534868708907287,-0.4911341702878176,-0.36115503852181474,-0.562370878318931,-0.7409848533637649,-0.8019661335976864,0.970322865440894,-0.9153388793105368,0.3946598085468971,0.5753192883914775,0.3928371226773808,0.2575629626504936,0.061802582698261554,-0.044592788448838405,-0.5600550042483905,0.5960251050256924,0.4548910749617936,-0.9936300383642918,0.30891315360361826,0.6303314900657129,0.2741124808076689,-0.014833015429156049,-0.15699992390916018,0.9397500906388727,-0.7887065352682641,-0.9638955211555993,-0.6987377992991479,-0.9395629840134059,0.8896138534235318,0.9024134192183566,0.08879572276255066,0.9549273390029931,0.43102270004488097,0.46555749813877023,-0.6120949956220267,0.45098764911737854,0.3740747404446807,0.15383656512714206,-0.5392336185957769,-0.7841895546491646,-0.723768138225396,-0.548697032173876,0.2867345404711461,-0.44776864756384493,-0.9914961593474794,-0.51003761919803,
-0.8474837718788815,0.5868555905215742,-0.51337049990514,0.02268331576912308,0.8310147888534463,-0.7343191424015256,-0.6181717391294417,-0.048807225226966455,0.06472679218257427,0.9810091811329766,0.2154800819039835,0.02298866118533116,0.21215002267177874,0.6241416889653812,-0.8340803186742884,-0.6870476660900766,0.12074105673566882,-0.6084455060961707,0.9018592411800679,-0.3301011934958369,-0.44246292125371767,-0.23204384639684283,0.805781928600479,0.4352535912770368,-0.14136300646493027,0.7678310931700196,-0.9380234557397731,-0.5694996428735957,0.8513129281063945,-0.2622242263775296,-0.7422879688563719,-0.5380057867189847,-0.4423973989312078,-0.19486167550448563,0.38237810205642897,0.40619165220760256,0.7058106479487138,-0.5958257129526698,-0.591752534393589,-0.6847022352233234,-0.34357452341551276,0.2191359530670829,0.9978415474851063,0.9227878692116689,0.9915356818571626,0.3544140065059209,-0.6932880777082895,0.4302110891553199,0.7219090957041145,0.5750546355820032,0.3367757250243968,-0.4788614467776864,0.833474938227617,-0.9433218165256378,-0.15582753810410055,-0.824929456772836,-0.274971989432246,0.24202805752121703,-0.5830618081784951,-0.956429127468192,0.9815517611269238,0.12208167562714611,0.011619900092493252,
0.9028498407997294,-0.1173645634045668,-0.45714002413986377,-0.025717823090539715,-0.9885300872784566,0.06303865297621658,0.9847721030893013,-0.629814216124299,-0.9211984191488467,-0.177465529767749,0.6695383120339535,0.3077460830546048,-0.010690108100834816,0.7247406193756749,0.820434729917193,-0.13379245710678522,0.42970558672927917,0.3297264524691541,0.43480841762256595,0.22279796755562553,0.13044741559165574,0.17276135818734883,-0.9764870563213803,-0.37604471600553335,0.5600357001418319,-0.5683515791407758,0.43011901357763915,-0.043452792653043026,0.5999902218254731,0.11766526750132167,-0.9365428626745551,-0.1511682324797856,0.9803584990952308,-0.919787565335064,0.6602522549046621,0.46723624666336416,-0.9299461687058586,-0.3671528779271984,0.0403143877700638,0.47385860142601066,0.9932756878554778,-0.8115409414170509,-0.7750490403134758,0.9709245283104033,0.9827178991155032,0.9339225269658635,0.7599713628299136,0.6822613987594686,0.38222304694339004,-0.7203624040332028,-0.8821444280514428,0.10817758130337873,0.7759956516545146,0.5869510724972458,-0.3506366871126738,0.938965608380536,-0.6515618468263948,0.5065256997207483,-0.2869371011262316,-0.3764268874002501,-0.23187154176647096,-0.8466945964759576,0.3319610573882872,
-0.33618362460769835,0.6414098918600841,-0.7011993611391851,-0.9903801375795342,-0.059162670992651156,-0.1044820771718471,0.778997993058248,-0.8161510433621451,0.17933421567734675,-0.6718785801454239,0.3962748042126971,-0.7957361560849965,-0.48357652889618796,0.9996083353321583,0.7362784607229704,-0.3092937292458813,0.06581945867581784,0.14640012308140782,-0.4741919558329677,0.662722846770686,0.35434529351126987,-0.1419683262255551,-0.5746860736121628,0.9260041958838743,-0.44338199724054905,0.8876860633222909,0.4797092798512774,-0.14011236294915363,0.565077786286079,-0.34467189862033654,-0.15623486480971271,-0.02926876713836002,0.1063603091576042,0.7545321747924496,-0.14656026268114108,-0.6408312556995699,-0.6486619345172611,-0.9114461630688937,0.03206990550711941,0.5949596701535076,0.7649868195394598,-0.8618518626045666,-0.7995693813560536,0.4013500800327463,0.30355832532042637,0.8030892380193506,0.5022479920886518,-0.9784352515173169,0.4903720659351556,0.7613010232851438,0.8618273856097105,-0.8267476903845383,-0.6121361156805858,-0.6460401749985538,-0.8419618142370286,0.0924103469606592,-0.9676404296847536,-0.3681154308833625,0.22897337357029723,0.32651852470403697,0.5093685307601954,-0.6120177343097293,0.7141813693935981,
-0.34268740579189916,-0.4789792289132717,0.7524700961084243,-0.3035548971105331,-0.1831658848296951,0.03359976769890616,-0.7579517278837415,0.12266134987583666,-0.4939056050768038,0.3919497609006437,-0.9688486673708219,0.06345196083265403,-0.3661059715756765,0.14886647581625012,-0.3471416451246774,0.013716336488957426,-0.3359567858452892,0.7814068495120803,-0.6610044197137077,-0.3585874531904125,-0.5075706104169957,-0.5476185397769322,-0.22658133047276108,0.6594333771277985,-0.6289152329892111,0.024123168221256597,0.1594139997698365,-0.1744797206615818,-0.9453938809593119,-0.35704888362230713,-0.808387233552142,-0.5322616901934556,0.5649851199735143,0.3865791359214157,-0.22523679589039092,0.38811087055288374,0.7541085788776138,-0.29695443959325196,-0.8538388045226459,-0.4854062653266311,0.18889321080034227,0.6685685711485387,0.43549080148839137,0.2516437748851357,-0.20778032233260713,-0.5469395095909553,0.6352811492969075,-0.8777826595887219,0.14353732136253727,0.8058618811062117,0.4571375372050923,-8.892607135999597E-4,0.37621101646240196,0.8605844667609457,-0.38664085842049123,0.9911335521998428,0.20438672064018437,0.1067803355780792,0.6905081553902506,0.8796835765192585,-0.2296452709643757,-0.012516928282047868,-0.029051736902644842,
-0.10612956721820077,-0.2759078834679609,0.2554936497071545,0.31032385358500036,-0.4325867989010468,0.2298704352450749,0.9576135022204251,-0.5065960791976436,0.4381146100941131,0.4405165658334569,0.7148541203508025,-0.6323312660919704,0.4307937630510419,-0.6118814715343279,-0.17201892890064152,0.4934690815215792,0.9071368335597423,-0.7893298318837181,0.6615790184500248,0.05154245336938135,-0.42899719852428553,0.16735367789068256,0.7461508576657327,-0.6868774770472017,-0.31469949963398514,-0.009140149862770786,0.08659452682534319,-0.8951679119967593,-0.6133691194429312,-0.21664986082336557,-0.7232733167660559,-0.6099975601946732,-0.723534380284591,0.8833683562701833,-0.8066471784702147,0.3400153984773946,0.9227132840365486,-0.0857885421672,0.27970980319664474,-0.9162826270483102,-0.5768992797125765,0.569973349257594,-0.27306427971828007,0.6999077518922825,-0.23812442324004968,0.6036776936487482,0.22355037037000236,-0.042642520012429186,-0.6660843691666756,0.9526201258287861,0.3667567494277808,-0.19123402478790208,-0.2845939585491244,0.9692417223809442,0.31570339067446485,-0.2904812143821527,-0.47217324002605476,-0.6784397627116483,0.8156742631970906,-0.5409393351160414,-0.9279325599300323,0.2853879367069907,-0.666497848635776,
0.45215204445815305,0.30206826705832057,-0.12873186618554766,-0.28167150512285843,-0.020769667604269237,0.662460556569842,-0.48773451618622166,-0.4618381587517295,-0.47045002774312583,0.3322611226823633,0.8844489719363877,0.04151441371332343,0.9277292530552359,-0.5032482233100419,-0.15989163674966322,-0.4452750128894356,0.5737840459933419,-0.5877474284431428,0.4044494208091962,0.04940343107523204,0.058681935805428465,0.2335777129443053,-0.6802847176291245,0.6007623347430417,0.9919044649443547,-0.1584613033214557,-0.2836153187395518,0.5064262022207731,-0.9955437547289565,-0.762060973861983,-0.8506982728907428,0.9466407838978292,0.5802150543200808,-0.5319174174075769,0.4572933893142237,-0.7593711033510515,0.6204683769733677,0.48589566180425114,-0.31196394237437564,-0.00982872458452122,0.4609360032068974,-0.10565962563231568,-0.32436645633836547,0.7003157943199412,-0.5624686258180744,-0.9261230805038545,0.7665734127697716,-0.17155091079821072,0.03656659094724635,-0.14569219541879797,-0.3395681410602258,0.6367905658322275,-0.8329394785498172,0.5904178133659672,-0.6351014674525961,0.7096990191763499,0.15726098740915906,0.2693997382507547,-0.13960125448469585,0.5460083338761161,-0.2955528308063913,-0.8918650815511513,0.2277909696094882,
-0.7520620416288215,-0.8034712104627888,-0.009024528075341598,0.7133218689775236,-0.9980481275687636,0.5759145478746195,-0.946246227969163,-0.5117750536597436,0.7832672857967844,-0.7694264564496682,-0.2626783634845826,-0.29394994209654235,-0.4854565997225544,0.2741670516469352,0.7140009798151647,-0.13098393803464004,-0.22939236704249,0.0165814963235158,0.23290584241542311,0.4853810644427716,-0.9550944511959014,-0.5718537927028324,-0.3648275444834619,0.5330276874010209,0.5796887643601927,0.9652727375340955,-0.9422864427677609,0.34016484197692165,-0.1892170542140137,0.252205687504681,0.674191316126382,-0.8477505838215447,-0.41089355045657916,-0.19697196590793342,-0.7855202099404213,-0.12506473674493757,-0.4850621389995664,-0.7799825035272265,-0.04103231895729853,0.26605997703073947,-0.04274041748793156,-0.8810972415240983,0.9216296372434343,-0.8046175650005605,-0.3706683019194257,0.40852229789983574,0.5158721538716409,0.49898758742399973,0.9529794708078676,0.49184146581308896,0.6397387122165068,-0.5740212440997947,-0.13209477286367122,-0.5427638525460203,-0.1778632896906438,-0.2917206659437641,0.22866399875773769,0.3934051322744352,-0.16067309658721873,0.880070412056392,-0.5192300167119699,0.5882261079814768,0.04099433877761083,
-0.36840700826067074,-0.08127059330550468,0.561323194011061,0.5177974514108739,-0.29725276673443934,0.5026232637082304,-0.3679326178584692,0.19737075489035538,0.10512338822819034,-0.05380833946523289,0.039183844615761076,0.973334118765746,-0.693196337798698,0.5881992824270841,0.505094336389591,0.05194017717463306,-0.5775243315698493,0.4201903174215016,0.5775741193900461,-0.15643097517730342,-0.5778972682990093,-0.4324313080205795,-0.9167418744924591,-0.06864185760363561,-0.0954016744822257,-0.492732557038811,-0.4080172673397726,0.9168331292116805,0.0786559959180606,0.3540999401197351,0.9179029488762611,-0.7275169054053856,0.25108815866310086,-0.3407864828122926,-0.6272215965820926,-0.27619745273651963,0.3437316830902346,-0.6621066853224555,-0.26122592017742763,-0.8615997522844661,0.7431797715967499,-0.419706265850907,-0.2574246310704569,-0.5826472742507414,0.1333039411721677,-0.10249809526144604,0.18956956512560974,0.46405938144377523,-0.13126755773784105,-0.18333385948916714,-0.14370035884569043,-0.05156688915794838,-0.0818449880497325,-0.8372493260492075,0.7413487211134733,0.28933951877960884,-0.5604739014001299,0.3508051819847491,-0.6607324582978447,-0.9542250225483313,-0.3550565417921152,0.6614671737865843,-0.7708908702798929,
0.7373528751164389,-0.22882021792489882,-0.9162578225171167,-0.5414104215670412,0.0072445004885910436,0.6925508309016069,-0.01706468392306726,-0.04315457515397059,-0.004199643185307744,0.996004348884681,0.5879360662880284,-0.4767878319958434,-0.18934589026263682,-0.8159812166702431,-0.9091142822519762,-0.18359814448507428,-0.9408082410140028,-0.9208973734561912,-0.9864139475515528,0.20790926908995022,-0.4481557762037678,-0.5256101313799844,-0.5811655903945467,-0.634568515963948,0.4897422103267315,-0.39197135832173147,-0.4688001357825462,-0.0034631372868614285,-0.2821520869747898,-0.8652359873838864,0.38058290055524613,-0.6902260688413409,-0.04524179157005137,0.9263194198446179,-0.8067714178068592,-0.5601372830582891,-0.6970488616977197,-0.7471168316663932,0.4286918212409425,-0.6644348626240115,-0.20167465524227324,0.6812109583028254,0.5975818880893866,0.42328364223435044,0.27546130924501155,0.37055711264016344,0.2937403487242807,0.7363905308244105,0.40511021333676056,0.35585161924413344,0.2358355371596068,0.13974319622762765,-0.5970044280990694,0.8782422505804439,0.5371848729851256,0.7807948772201625,-0.38591084629779204,0.8563246785090686,-0.09105627098734992,-0.03683832828000466,-0.055896925418807974,-0.812913597097837,0.05062840651360068,
-0.734538709935979,0.9400161582398348,0.723793411408832,0.09326876098759418,-0.08230818161630715,0.21403186188167522,-0.501248066058267,0.6343135570201393,0.19937117153908845,-0.1395573012404019,-0.9579197132277826,0.6397407431349666,-0.06188815116239388,0.5324544816532775,-0.5066704751261732,-0.7123480198532757,0.06425856070982539,-0.07389833165973614,-0.38900627466290705,0.688959595058372,-0.38333119291684303,0.5609635361108172,0.755655530628544,0.3446020444202711,0.5966707637556385,0.9524681187723907,-0.5442861106995327,0.18505179073966893,0.6316845800931725,-0.4618493789076157,-0.7396549980368985,0.08670808726741308,0.5369478040740023,0.05030921315669312,-0.7574490259526605,-0.12890510883445883,0.553237168619809,0.4200807340247421,-0.26414718074658694,0.966612890023518,-0.709566404833458,0.7530361782932466,-0.3286120393893306,-0.85107851848758,-0.7787704870873611,-0.566025612387441,0.227876196684212,-0.9251435025645407,-0.05376923680454815,-0.001329934529062049,0.4151202120979016,-0.31388425357730343,-0.6088411976626336,-0.9470894024081575,-0.3175900247770387,0.9827737695501852,-0.401187903370521,-0.7757653145620929,0.6764048710141828,-0.8469849995162446,-0.15710195695436457,0.8993626984432916,-0.13123208164728117,
0.5943026440991981,-0.5821990478017989,0.3303886304705177,0.932032455618861,-0.027471680341992988,-0.3521966359706423,-0.4146203959370256,-0.5371174534637053,-0.8604834447465621,-0.5887670759784267,-0.22589098083530001,-0.06476738613238808,0.46558538053698784,0.789458314169386,0.997225376256881,0.6111952789742321,-0.057307266461065653,-0.6723882541165969,0.5472395772217793,-0.4537726877547106,0.27502739984796687,0.8333692415595695,-0.9677111909140759,0.795450566018356,0.09772907282850585,-0.3579286092109746,0.298715496137542,0.461343403140682,0.45075326618496736,-0.15907751382462987,-0.7039234375198038,-0.6812947407372145,-0.3162778614339441,-0.9280429155439114,0.35827731053761647,0.41099723712066716,-0.921067407520131,0.22291746226692144,0.7671013296316294,0.23286650034280032,-0.3464808925531282,-0.4328618643481119,0.9194869960271475,0.896864202528098,-0.1619007568785047,0.7279868830863483,0.9374784374734224,0.028070701666799813,0.028055422948937814,0.2203642718460288,0.13985782794326362,-0.961455288628497,-0.6350633082906769,0.2612177423932276,0.43704258827279885,0.9042153354898232,0.5292912698630481,0.04297863641159494,-0.5840887226158811,-0.3999595770982338,-0.18743137076073269,-0.2717156797508218,-0.3512022308835736,
0.9449569539200586,0.2845593227689862,0.05129974679122107,-0.40902678494008904,0.7663520003264508,-0.515833210344214,0.6004071702721607,0.3235127376696427,-0.9855126500180995,-0.264864126772242,-0.391015190097983,-0.6464783884451113,-0.2594882400767424,0.9246887122131846,-0.6045509868652306,-0.298725529761118,0.6974005819724103,0.38184831217778714,0.4706870965270966,-0.4161012354950282,0.7313631785555366,0.35355780991171626,-0.22953846181941606,-0.8521880343827102,0.10196338218234868,0.5005309381946061,0.47231954745024174,-0.09279992263277848,0.40240036553160374,0.8210984783525157,0.4209942018556303,-0.18659677712340494,0.8471012102826365,-0.5398576189736612,-0.6867623739941608,0.21015225637301338,0.35197888366549157,-0.028461490031161052,-0.517521109281426,0.32217786109102686,0.053412725767152835,-0.22364388067381236,-0.6243466933214417,0.3797931738585685,0.6952119344517191,-0.20460888415602962,0.6290018208487527,-3.727396168005104E-4,-0.34147477712520957,0.5334375161046763,-0.9734066514646416,0.021766041047275753,-0.6821368120964146,0.25402999726500175,0.5647757516541316,-0.35386427954213207,-0.12289686817057621,0.3072193425611722,0.3477136090138404,0.4160402427855916,-0.12745096482881224,-0.8407314675735316,0.1036250928923439,
0.3643445309146398,0.12582247254741485,0.22198845385822463,-0.26171731904001394,-0.532128448187247,0.08756346673846638,-0.8092430772356021,-0.46820413468019173,-0.5518389065001186,-0.7663762628196531,0.27409610903888537,0.33664677235207097,0.9118140005602855,0.45863693870516165,-0.5659911141246006,-0.5505964144795894,0.8412267340247592,-0.7424447617235825,0.5551043453308024,-0.29451146954149365,-0.47340391664193904,-0.10605743593656336,-0.6781291694694869,0.7858313482531194,0.1726546139527565,-0.2754797815079504,-0.49271881784067895,0.7261922812093631,0.6186737607579784,-0.6173380101471484,-0.6377539306860691,0.18439044671313054,0.8778506790290319,-0.3807604052756197,-0.15574348622958367,0.14762851963978152,0.5322725067183487,-0.7425768800882919,-0.4651138151675629,-0.5484436744134507,0.41223011293740597,0.9387427534276713,-0.730347565638831,-0.26533057816955474,-0.5562686379016213,0.12092253584676982,0.740062358345422,0.2660923414036547,0.06564200983991886,0.1336996259899741,-0.373501233166158,-0.5382514132676475,0.197961041490738,0.007045029259117097,-0.818070910314296,-0.15662669449310807,0.3853142420464304,0.2569059095901265,0.6102479414026227,0.6967769720161567,-0.5551708984549135,0.8467923974935663,0.06939292360591587,
-0.24977783669285425,0.7151316390005584,-0.860766157152451,0.6782005465120513,-0.1792718719748143,-0.16671609511383756,-0.1906651750797559,-0.48270179091066123,0.5655716212316684,-0.14094065047870474,-0.5866382125070913,0.28815484893001186,-0.7717954401380429,0.52103076030834,-0.4115035791295387,0.030743236916837224,-0.41773638689878156,-0.6234754518099168,0.7055941164012856,-0.9009078133804067,-0.8457017528185071,-0.24242786273697425,0.20498801271805767,-0.5446617693141813,-0.7547011803288648,-0.4824315974738278,0.8160849423379737,-0.7332888710786534,0.273057375238672,-0.20157542463841494,-0.6053006536263497,-0.2237812399097172,0.5218489393588097,0.3055811787179792,-0.7922227675379667,-0.5333772006114375,-0.48712770813824124,0.9083251256833225,-0.8466364308344609,0.6486260367567251,-0.10165576318333724,0.7754327452799794,0.6243704406063748,0.7780196746618104,0.03409269919586588,-0.28876087495265845,0.5079062218805039,-0.9571325918747751,-0.8000513051559388,-0.125188751905283,-0.8423710376612883,0.06063077626600277,0.8141889011733923,-0.35501739802619636,-0.9152089066023885,0.8864691802227276,-0.0722646888015559,-0.963417888098657,-0.41565609592776576,0.9577751067802323,-0.2142305417180983,-0.22172863118684738,0.5456760140544505,
-0.9136658539553002,0.3088742681304404,0.9299801565914254,-0.7067395138685031,-0.8416733504050031,0.9727676384528097,0.7480091301933482,-0.539309639966373,0.8137168295606807,-0.24485388612810133,-0.6015528229114648,0.6222842415946301,-0.9495972907987495,0.570109775600564,-0.9253723393585256,-0.3103525209806097,-0.565171639876094,-0.07490724159257933,0.0919276708642256,-0.07372260795578667,-0.6004114613031308,-0.5878230737421142,-0.38670899099926626,0.8415037349064141,0.9698836147715018,0.08511867607805068,-0.19856522125515563,0.19575911339088004,0.18451040398399998,-0.2246264532156319,0.39877667819106843,-0.11762245427662155,-0.536596369019811,0.9648545660047556,-0.9963005044091697,0.5468212070124483,-0.7774300133606038,0.9601147455067698,0.6418457826379025,-0.5375596341268853,0.14858516740477734,-0.19790340696275455,0.6237153506133775,0.40257248704129167,-0.2813475015513751,0.5975451021114015,-0.865084704169985,-0.9680079221188713,-0.2114499573646409,-0.22736694211558883,0.5229909433578706,0.6864235033508712,0.3696205006154194,-0.8736983929752522,0.8248442264182723,-0.6829662866702608,0.07728709807595613,-0.49972869379244655,-0.27867676452645007,0.8475249855799551,0.1574067692125385,-0.6153674044843749,-0.1893532093872603,
-0.7753505533709908,0.48309892324221604,0.8423773064779583,0.859903462758165,-0.9613279103185628,0.46351821478656663,-0.2368138021694972,-0.4760552081810685,0.7485109750167989,-0.5826341233434762,-0.35375933832348827,-0.08643091086228027,-0.7330133746597731,-0.3622366814854936,-0.13622025203839105,-0.6500284250838515,-0.05518381626436453,-0.8885598484142696,0.6715768736893035,0.6600132349363923,-0.16230956646810957,-0.34598432603011475,0.10946344884203252,-0.5530594441198018,0.5489751948775667,0.08448219628245135,0.3744802364245179,-0.08623495419978244,-0.0887180117416142,0.985826380018288,-0.7488097716942381,0.021590351426743926,-0.6966444352657541,-0.4149480451469256,-0.25186077879195623,0.032752747553998596,-0.505571159610394,0.3346973821617194,0.21640491969409714,-0.1812811313723548,0.5664000112654737,0.889267402326197,-0.08437299967379164,-0.29473763838328537,0.6848881713621717,0.34382846314822557,-0.7551355816756833,-0.9174801456085058,0.2734283322153179,0.8383432125736676,-0.3299202081630712,0.5251044670048288,0.4907685962048276,0.9301504122998512,-0.24299782878055076,0.7475329981620091,-0.1805633280283807,-0.5016783994757239,0.6575753585933,-0.6371985677942069,0.044444842891951275,0.3674569104625889,0.9001488152278094,
0.117021221835939,0.9342062000293556,0.32480816242110366,0.39802427009511154,-0.9593925715546514,-0.46856150780198447,0.7534472875023681,-0.7820779323885971,-0.21341304939127959,-0.8799661921892907,-0.28447505072232393,-0.1606138739981422,0.3191744671947887,0.6545770756067644,0.9934932107913821,0.3880977587376697,-0.9291594929887859,-0.27760232353614844,-0.6665062686056205,0.6405237224517635,0.7036758048663001,0.953743717070143,0.9339413573006698,0.4742749768432184,-0.3090677718693242,-0.7961305865775401,-0.9163388324503587,-0.12199259527612605,0.07720047908319416,0.8015305549439002,0.7777646062026136,0.6366477360446614,-0.019238030180076304,0.6915863703071969,-0.8742206417320233,0.37218191683547897,-0.3307696060210512,0.3951074891449702,0.4153747135700989,-0.2528046819986607,0.36967728496347285,-0.6314045325778568,-0.19364657772640093,-0.6721914570451173,-0.6329869218380573,0.5646195345610334,-0.19659184329019253,-0.1453956906473448,-0.6005261349012008,-0.22061802648536522,0.8924692030026631,0.48459519394849604,0.8776425013752782,-0.2815750334926994,0.024298601454715296,-0.05576546996171383,0.033509726176589316,-0.3801047931985677,-0.00968688318813049,-0.5270738240401815,0.7486603135293539,-0.2545132803029504,-0.8405524541571883,
-0.061558646916646476,0.5157466234500174,-0.9176163030411622,0.5311970560414039,0.5701051139031545,-0.24500979493902886,0.1952297480616021,-0.3911936002079843,-0.6174331357234388,0.5375304892012893,-0.6746473169494809,0.20790070129664828,-0.44757706931759955,-0.3399825010231081,0.5551764343572383,-0.010317894458729882,-0.23808720554294438,-0.030076441268373832,0.13895593574769483,-0.755856514445618,-0.16163673276701784,0.8586272546809195,0.9466730102144805,-0.7524211120844615,-0.1049928189003031,-0.08059896369462338,-0.6238651764810788,0.37999923501016286,-0.38174139979705135,0.9100121743785548,0.05901947789859463,-0.8881113882862872,0.3484772001761782,0.3647241171082394,-0.7801831951407661,0.9560655653598373,0.1657086526097573,0.46806435211752007,-0.35768512315035217,-0.4707577392286504,-0.6811583401987176,-0.8671972913513943,0.8564861619277513,-0.020799373701808843,0.02607401156204947,-0.38283827587547115,-0.6206687643628359,0.20733526931698698,0.9265342108337256,-0.5286404664484479,-0.3735609466446317,-0.44736047375256915,0.2773577851793283,0.12116312638614235,0.45672836532209793,-0.09796142057597512,-0.6325290701463535,-0.02379126634292561,-0.7789640450886126,0.5533038496623737,0.5587869760024629,-0.406576511313657,0.6559216874717566,
-0.41939132328243445,0.867474179052381,-0.8690388508895843,-0.0027367173313481707,0.9391150939077559,0.06240701397553883,0.09564234089177259,0.2839161319889041,0.09380858244632329,-0.11513451051425161,-0.7830312483938571,0.9799176696873804,-0.4308737125792754,0.18300105178616732,0.17335744381932217,0.7644182532971875,-0.5102474376593193,0.5065398043601614,0.8513210760260854,-0.3782760094973079,0.919282988682953,0.02164748054594301,-0.16410314541252569,0.2095392573174193,-0.3977129480923549,0.48283381390162794,-0.08929430250089232,-0.10829869520940205,0.5766270187446114,0.43822689606912646,0.4886011344779586,0.7924011026780127,0.04671979862455866,-0.15349944543581984,-0.901054506185293,-0.2379122004037142,-0.10524523242543515,0.8481925846788523,0.32512887509866717,-0.7590411992722228,0.25571089787405055,0.5611030190289641,0.9160252915613711,-0.33586203727368114,0.693343054450001,-0.5410843455091874,0.18765741478716502,0.27335070526534544,0.6881364564833832,0.14413938188419606,-0.7135798260143131,-0.016895487898788364,-0.6154450361948551,0.14091803173752426,-0.5972081534600635,-0.7049101579523696,0.8437394398791944,0.7102118274780012,-0.39546193615569925,0.16271692786201397,0.40913772778143076,-0.3706944343297771,-0.39900561687820146,
-0.8215915882817084,0.21637830261033186,-0.620447834020375,-0.5449109768425091,0.4894702892190985,-0.6349740439327014,-0.7492859705321833,-0.972653162086085,0.4440680542826112,0.818687377104498,0.497216149635229,0.766193808630649,0.12703532406362616,0.7112617627293445,-0.12891984361818598,0.35145830205600115,0.6659488283336286,0.4109602611613339,0.6082593921316957,0.6530444375768143,-0.52889625414108,-0.5699547752665564,-0.7404496653661157,-0.5156686722158821,-0.5812715052218718,0.06707010454185047,-0.3657928542186346,0.7099285431473394,-0.6050197820341081,0.5297268857703441,-0.4361601993504569,-0.5900017336140246,-0.41103456920363635,0.21023781163942323,0.196130526516743,-0.9915691153485633,0.45623408114659814,0.771555218543714,-0.9076460740355008,-0.4602594210631832,0.3698972853247533,-0.24853819272748678,-0.47035818606287494,-0.44037604431554,-0.3652767576174849,-0.4970082722893847,-0.9016146238396918,-0.4032959055588441,-0.23973193895450073,-0.5365787084448339,0.9371209246578702,0.498060325688771,0.6723022431645194,-0.019594510954705324,0.7616985732530976,-0.46127847147384493,0.8874956298642354,-0.7773343376900248,0.22248611833793497,0.7453793878239443,0.5845278441643198,-0.9360394926291522,0.06281427131653206,
-0.47284367490331514,0.9754932460281667,-0.7470975070844466,-0.9461790100670859,-0.5886594025728051,-0.585326019468448,-0.3324923856761677,0.7453073903963185,0.44957899998740314,0.2774561846972994,0.0021968185590117706,-0.30082956497982005,0.6900963656791035,0.800368783976352,0.8462939457696863,0.061429264468529476,0.004088961237123989,0.7939270552200577,-0.21310613453425664,0.08081804407471083,-0.4904837989827979,-0.5768339525777375,0.9053023308816333,0.4963680892489739,-0.14690530134564495,-0.903547905882379,-0.1649220686264703,0.5933576274433625,-0.308624453965441,-0.08863576927936223,-0.5889670974559704,-0.8335404548302399,-0.14563577048549514,0.07714024359242222,0.862380103166235,0.6308707457508906,0.8802212749349552,0.2663844146359242,0.48953957401722636,-0.9133400640823532,-0.12284147085513442,0.9444386467684855,-0.18705312081583236,-0.7314762627529838,0.9987261518923796,-0.6169793556803065,0.2935342428678598,-0.9974054221904576,0.211260593197095,-0.7145639772476673,-0.10161754336781526,-0.9561042258988621,-0.5126544584102184,0.733875038058277,0.02137045813081251,0.9824939741148482,0.07671239842730393,-0.4849928794115339,-0.4325226672520932,0.2833509474156639,-0.9139120876744138,0.7882895676922794,0.37071963522417817,
-0.5356698629290244,0.24207251309160216,0.5321103559480898,0.5395352201918941,-0.08123285023905558,0.4162124676663952,-0.7639124429549271,-0.19024771525963202,-0.04653448280407435,0.25900654927140554,-0.0964486919155696,-0.4658884935325611,-0.760066809619147,0.11966570035411905,0.5864374157061591,-0.4513636289407852,0.06612718576632348,-0.6789767768624861,0.39552461302699693,0.8299749747097636,-0.4720718513316231,-0.185930019071453,-0.7878491948596873,0.5941657288422129,0.11401883437292493,0.25416843898468455,-0.8267534419808886,-0.7138942078651371,-0.9852058820617973,-0.37892371230201927,0.4097277097649068,0.7703308768711632,0.9253828350906379,0.6474897905166788,0.4889910174791765,-0.04245778635532527,-0.885184385061242,0.5258936689783023,0.5454614295302043,0.08764466555204398,-0.9021750897260905,-0.36891588126907626,-0.8211587111902465,0.9388883959312084,0.37271783531081715,0.3258080359714195,-0.14208452509330582,-0.6559649471561051,0.37821423665981246,-0.6904592864021344,0.78847015541053,0.5682956354658708,-0.925903401698541,0.42550256427907107,-0.012915200331030663,-0.6598816460956345,0.3649710708536835,0.35859209852957763,0.6482609289343508,0.6247300068618986,-0.036608181786223604,-0.7630073846526759,0.800554559374282,
0.5916643502408829,0.22805461657151915,-0.20721401678950224,0.7180814852179982,-0.348661448916634,-0.9852820729535896,0.4419872025180056,-0.4130318694293016,-0.07793353045135865,-0.3580363471523462,-0.588010406372035,-0.47797549213710067,-0.96227350174964,0.7008626238673157,0.8744897788719463,0.1871172359062816,0.8176292713905524,-0.3729378481563903,-0.06546022883966818,0.9934258197869958,0.9939582854613962,0.7057678075095,-0.7185493453376552,0.13296664033111805,0.9284860475690109,0.49454286740263953,0.3248513161590205,0.5504735845892725,0.04909451165596401,-0.47419624479123823,-0.2807159847617766,0.36492618905781793,0.5979585190248724,0.590340988875399,0.3232954032603792,-0.7772791906088503,0.20707772404872293,0.9051502696607201,-0.15593861467971104,0.5976818031061126,0.8031715424216253,0.03331029001830754,0.686161184613636,-0.8511862031142134,0.3927791930594011,-0.4494035319352341,0.853194346616396,-0.0951006793157334,-0.6102647298138484,0.1429749254724786,0.14351304901073725,0.2657486355327878,-0.678980534038212,-0.9289280031409266,0.33641926360975516,0.5931121892853246,0.9833070066118057,-0.247831425532121,0.5827557143312132,0.5099688375653597,-0.5786252183299332,-0.4127774472916377,-0.20610396525445251,
-0.06489326716186716,0.4608456657312012,0.09987383094086044,0.46571978520063095,0.350616109439283,-0.04841749058508915,0.9563414652684237,-0.920766331447435,0.8331168779596676,0.364370879849341,0.4995743294712629,0.9870805940257088,0.9752469918617135,-0.06764261919679893,0.05797026699258123,0.5252551340592162,0.9821405586313297,-0.8599602610497148,-0.5215679259064414,-0.018077802654568265,-0.05167230324411087,0.03643148429869347,-0.914519025920415,0.010314121127742437,0.6036914267815952,-0.41464674542852387,0.5826025338940473,-0.9097404010190189,0.6628200720148476,-0.935369567632572,0.28895203525262625,0.7229756087230197,-0.6797031486986924,-0.6126949037747578,0.5439998383381128,0.18633150405749488,0.40517055946423786,-0.8582018810177574,-0.8853491338159318,-0.11712630369634058,-0.7589439137062644,0.1342856625370734,0.003824531931430508,-0.4195241739857194,0.35401503218384556,0.26538261184063017,0.18643526898228768,-0.8244414781540277,-0.17142973836206155,-0.3154471122092175,-0.5118331678932602,-0.998598929759634,-0.6670876846189295,-0.6605043881085304,-0.9256136881714827,0.15914469350839067,0.6175568994758296,-0.7259165131999257,-0.16900258219360187,0.8666655035276225,-0.36258213864433686,-0.6727417519577157,-0.7040147188955344,
0.4005743250456151,0.35546142926534396,-0.7533837376859458,0.7398584095302707,-0.15082331836461682,-0.24318855926859761,0.6542451777065614,0.4951466999533187,0.5993066698464016,-0.3646212224608678,-0.21129946287373214,-0.30043302934948213,-0.7524755488471526,-0.6892098434187499,-0.5041598068035413,0.24442093458573688,-0.543752958627093,0.5915962384124824,-0.44743841158545616,-0.09075567512670668,-0.8320410898315755,0.021439973069409035,0.08131520031230677,0.4156774435002877,-0.4542725529908176,-0.2719283304446265,-0.4504035405943847,0.4479822471198798,0.025826846263664383,-0.9592018767807351,0.6474453668028819,-0.4354172875294209,-0.051648511013718146,0.4501581749688741,0.19731180237437673,0.3644598674107593,-0.6257216401416585,-0.5456813513425138,-0.8255270223998938,-0.725815816211731,-0.09748384689332967,0.3698887977401526,-0.09748339346889456,0.8858231877518545,0.5680566698837028,-0.7194459829114555,-0.46276754822455235,0.902913254038737,0.23242257699940194,0.9551329056569517,0.06358255259127543,0.44113963006579526,0.2701832419441159,0.7873647276232252,-0.7957511951980656,-0.31768023351431296,-0.18961105983060533,-0.4070624902662696,-0.1254159421802492,-0.3052595228965571,0.30935134025225874,0.4449701924420999,0.11762244320272952,
-0.3901495982107879,0.8112772844502094,0.6373653922454239,0.8141307086404959,0.28476356908201184,-0.10416049725184262,0.3361523727838498,0.8865125900713449,-0.9180165323606042,-0.9831526673821447,0.5121428223850262,-0.7982953040534377,-0.5377917909858139,0.70375841321624,0.34392568125683565,0.9270315877945066,-0.2869672258479592,-0.07215066270755788,0.43842952590248885,-0.29568460114148065,-0.6741840939267258,-0.17255674904399876,0.936985090399798,-0.3186368337757073,-0.7150671875134564,-0.058331136027565345,0.8580230460912104,-0.8237157761955904,-0.15191161158184396,0.11980402324496908,0.8732450207169269,0.5489166693108203,0.2733179086313393,0.353335853252712,0.12231023698541499,0.714971501942691,-0.6122439471129315,-0.07955381533301642,0.6417814100491832,-0.3376701036915779,-0.10479208745635793,0.43771028492589936,0.5172783688614029,0.31525826867917983,0.8840088343269508,0.6813745700851226,0.9634899398384638,0.14113307210723458,0.12361275186220322,0.37065713174488346,-0.805101815425382,-0.9944042435204183,0.4278025874615854,-0.5019072185804874,0.17077223900120542,0.9558866773089465,0.6143683656763235,-0.7529767317273113,0.08119166994757898,-0.15156566305614327,-0.5944471402428708,0.05391038445710339,0.7865632048807893,
0.03560504165101275,-0.009483279901125297,-0.046771588349986626,-0.6687031679628639,-0.31215476491767324,-0.08947083691056568,-0.01472921398945748,0.12301136630347664,-0.24872116627055685,-0.5704577129838859,-0.8477171955899139,-0.5981580346259656,0.02714682626557452,-0.38273830282244403,-0.8240879268525738,0.2201252940967806,-0.5916913662534693,0.9987772854306967,-0.8609555536719549,-0.6890578976653978,-0.08065150393866505,0.8142734090704296,-0.012326538710357937,0.9446981480077783,-0.11933788871398354,-0.31571147129333466,0.8235276764636619,-0.8438699467682642,0.2532242161571394,0.7904495949708563,0.9357594987936286,0.5698232610721456,0.019567248161801,0.558558102627015,-0.3999235660747431,-0.5394655508370618,-0.6821711685169276,-0.7296419670080936,-0.18372501226434546,0.6553127162609595,0.969554411464761,-0.9677293867355123,0.36021386440317804,0.4176172081037446,0.0282688392043684,-0.9061687578177295,0.7938429622280361,0.5493322187874088,-0.9753406556752511,0.6355193934889636,0.4069815264948822,0.6047835376388664,-0.30445933040062534,0.8351245567702437,0.45711786442653213,-0.6684362430355402,0.15759998382046447,-0.7262560846262132,-0.47141985200794534,-0.7638241333607321,-0.27675081173423877,0.5569615066547475,0.350007138723343,
-0.48179051089393243,-0.14526090095153044,-0.5962886513326437,0.9891247242158088,0.5249654600274336,-0.885982075346778,0.3947794927384938,-0.013586958440752861,-0.6508512185033477,0.3896459419060978,0.07485458709812409,-0.3056735698889581,-0.7745469655667618,0.16840477454567027,0.16648812730020923,0.8563074850179491,0.9775610749622152,0.16806891850069228,-0.71872074945434,0.2899135272383835,0.9252921139815162,-0.7408650651890838,0.7030529150766389,0.4309525908046816,0.38232696700380786,0.2771316243737332,-0.4302482088691739,0.4506044079270639,-0.841853779503678,0.06346334282586841,0.09521648133847394,-0.324921016989403,-0.676479529851211,-0.12843463096061947,0.34898194141462024,-0.8825553849995718,-0.09290634773585849,-0.8635197882619265,0.5516699183227933,0.07383474958472336,0.1613041629283356,0.5297901306946389,0.8455115582529271,-0.05867921437766399,0.5690917056002662,0.20817060776829233,0.06398712685841779,0.6823174436417345,0.8585404176540539,0.21265663446699667,0.15152213192125652,0.6904636407982283,0.9508128267618889,0.08704230146485625,-0.4263659758078062,0.20550147338202063,-0.012569086859518963,-0.042337625774743204,-0.6901259279608483,-0.12024692661276815,0.36616557663225424,-0.4468673546005928,0.8363656885676953,
-0.38362640552098637,0.06049685658709936,0.941453213336966,0.8816896673793204,0.3796369942230875,-0.5941876854258621,-0.8767915431049769,0.6793235350817819,-0.6799113400048353,0.00621258470265218,0.04342405495041457,-0.05820736262392634,0.2624776299501994,-0.5510030541870157,0.0709705374448455,-0.15385468975155914,-0.6280409281615813,0.1096051918028016,0.5432306195159635,0.9473167833657343,-0.35586370857733307,-0.5120057933857003,-0.41492442938416985,-0.8745998064895575,-0.24291135659204666,-0.7618679645999509,-0.9149754762763491,-0.5752043410041989,0.7786105893946527,0.3354939657260838,-0.5522121205380746,-0.042338340982211564,0.239465613842049,0.6731495865808279,0.5412249651705323,-0.07895341260060529,-0.8364645409233418,0.7852322696706384,0.11707374053781594,-0.7834695693830342,-0.21167472980288426,-0.6327148968403431,0.9086385959870993,0.16316089986828874,-0.08563893868476846,0.7961821186182119,0.5949503332061843,0.35892028767811346,0.08959618781384981,-0.05197557100750849,0.8697407854281036,-0.12708670851262172,0.1650201289647275,-0.729383599218602,0.9649023044516924,-0.36008107940633427,0.15024163298430637,-0.7121718724039392,-0.8480693853836487,-0.8190976676233395,0.7528966788192386,0.4963551524988834,0.9811780427957928,
0.5875365190697701,-0.4966910390158692,-0.038911804527120175,-0.6824284631539086,0.08573540253260958,0.9459095070395047,-0.17648999591886882,0.5927784180081557,0.4326547837823662,0.021499969194049617,-0.5917616469497287,0.11763125362862259,0.903569477967415,0.4695219563092432,-0.3539616190820476,0.7849503931332087,0.6894881355483886,0.847073533357579,0.1273300245226361,0.04173227795074386,0.15332134906234596,-0.40850885086170896,-0.7415805890502798,-0.37900198779216665,0.581870512938558,-0.5541055149231453,0.7133865723716268,-0.8025735183910678,0.8228590713627426,0.5221690249131863,0.6577646593451372,0.8672232744968416,0.5106799348135742,0.2934398946807677,0.06584868761501395,0.15150535140961563,0.46148741016703276,-0.1118323848466356,0.8616759842140236,-0.9161906162788815,-0.7422871074931703,-0.7994237145663652,-0.41557749681890566,-0.13384058498880536,-0.9559603993220853,0.537200849870108,-0.18783727477279655,-0.43554110199378604,-0.8786783726960312,-0.21308032662451448,0.6736442106279423,-0.6372018113308471,-0.9481116510191221,-0.568083940356674,-0.5640689892897273,0.007599224322787146,-0.32087320992391755,-0.8904089800109585,-0.623527565320029,0.246344390781972,0.7161879932868509,0.8905268255633723,-0.06864199396906345,
-0.6980319721498327,-0.6268826384748645,-0.044819979835408086,0.45722177327207114,-0.27718633080893706,-0.13133935360398086,0.9320602969494902,-0.14753746715896598,-0.6906088956574339,0.6124513580785313,-0.19727097710370534,-0.2458504824669836,0.24299357123126852,0.345238939174179,0.9840311803350634,-0.9398139110130086,0.02756485379553064,0.5892684717345171,0.9655501114892397,0.12200819943918395,0.40503310879327614,-0.6121223355419718,-0.2896449125024194,0.11129517710917947,-0.9843433961532568,0.5028286904359769,0.9196878112630562,0.7848765031109186,0.24875621526082203,0.9898466878610181,0.21731358013394542,0.15521865881953345,0.4655342506565112,0.3872881813847626,0.3268396915721765,0.41958099376749347,0.5745115045664706,0.6298180656461014,0.39538334563930455,-0.0908678995396448,-0.19856119157124397,-0.7615748423292332,0.7595473450297039,0.7900210662025475,0.41937024342085905,-0.659940546985065,0.6547423929329796,0.7816016501419218,0.19091146942829273,0.6346291712962597,0.6364706515049259,0.2527099095226577,-0.6765142334769438,-0.4459536593514777,-0.18773466973934516,-0.2849001558045068,-0.15021175588542768,0.5474648095338346,0.37555740745006916,0.9538435472842199,-0.4805735604779777,-0.32119385837799075,0.3878204202013069,
-0.1822936255223364,-0.47592554620006733,0.5371236102275148,0.2729208555973055,0.038210883881746094,-0.3227051816084696,0.8373056979531373,-0.9323190940582982,-0.6456946645058583,0.03151156430723723,0.02807587332994088,-0.8847621040638147,-0.3097429601598285,0.33844521429666585,-0.2738042495522841,0.5928631103318547,0.1675927129357977,0.2456488267500483,-0.13976466508099672,0.03348031929740869,-0.6723875252693965,-0.32938734465902764,0.03422380699116245,-0.16979624291921125,-0.9007945611200296,0.4052324970322758,-0.18905079944929382,0.605791352714792,-0.23259962592280004,0.6772654691735196,-0.6333709427424021,-0.7160107906789133,0.4812851643022611,0.1317248468707075,-0.7168748220117183,0.717320319827339,-0.31436500731029127,-0.506006252311934,-0.8791693353225734,-0.1940514168367471,0.2687892513435439,-0.962234574987024,0.8548096601932309,0.18482792901068934,-0.8099767629257433,0.9047466479504886,-0.741276961068603,0.7614241020206325,0.8828610481926524,0.30938745200662243,0.8855278790544441,0.6538744709592159,-0.17351804416049976,-0.2892691647098644,0.420889464515557,0.40953039600616137,0.33557261958172147,0.14480140486046067,-0.12530034079955898,0.7764033639022316,0.8396839211053098,-0.915217469047044,0.32804773334858783,

