-0.14866447013641415,0.8329583262204714,0.6808317293449244,0.30980212824299524,0.8510725333137035,0.8950572944066655,0.9108510503876814,-0.4435546297170305,0.7885057346251516,0.6845150164515785,0.2260967444598505,0.9337974540087923,-0.5609138570735184,0.22076311607642451,0.3382242416528891,-0.813479302888312,-0.021159706812441614,-0.11838875314462505,-0.4209842433914086,-0.2911197683842577,0.005374689345638783,0.7545987566255314,-0.37207924921748736,0.8153164387826346,0.9891798044687798,-0.2627959732814935,-0.055170605564949904,0.4559508826531158,-0.5287872048718543,0.469956609392538,0.8890960408676187,-0.20982840081659315,-0.9565586901476597,0.8603259996541344,-0.7422148106492985,-0.01347604034861094,0.4322331197265552,0.6915882465698242,0.2905634710327796,0.6347092900876021,-0.14981942570461237,0.6097006144139494,0.06561502623398452,0.23557327797534988,-0.8098489353828571,0.642542165345307,-0.3495885793048925,-0.622456503939067,-0.39394226216850003,0.3297058534630035,-0.626880785765656,-0.5869466605299425,0.5580494288020144,-0.4726430744284045,0.14488250097669386,-0.2839312465253947,-0.504481193614662,-0.9985006085028612,0.8901696559112562,0.9319105403002756,-0.9904650342130668,-0.9656787415333541,0.8318283634061945,
0.023145509634964423,0.5070053986621863,0.4421170204521008,0.6294440937496715,-0.629604453090314,0.24207945623830351,-0.36038598519959586,-0.8159479560271925,0.7044933096402362,0.8860053521399429,-0.315642652705435,-0.7007953575608892,-0.7735093545351102,-0.2751420224220389,0.5961367390655512,-0.6721496159070885,-0.08539543792779258,-0.9547432609629458,0.6702653611033818,-0.5635674885479593,0.7222630165768296,-0.6986033878098246,-0.010148872860771707,0.18206949473272904,0.13899134405805502,-0.7475824176404307,-0.10897336106510669,-0.27436797799936485,-0.5840418868063364,-0.5826575903900322,-0.25356636760678763,0.19298504528806237,0.650577713688107,-0.08448610259338452,-0.8939143636531843,-0.5513844900168334,0.8796441679635387,-0.9563323195456246,0.9710601185093544,-0.1396795522274037,-0.6519499947740934,0.786478542552564,0.7742999661849865,0.5105827703420938,0.20022115859510148,-0.13437836881913867,-0.4958671909434138,-0.2502847903458647,-0.016022469607122725,-0.09690636120435947,0.3299431429319968,0.987806530136967,0.561606732729151,-0.19225868687362757,0.07576238738282992,0.18695603415194695,-0.7094834067023645,-0.4103516584633269,-0.06363133520251285,0.6422372034228592,-0.33408905436568315,-0.5347652690015288,-0.05818305446485561,
-0.6707171033689019,-0.9894904580623256,-0.6633745457653708,0.8501477171340246,-0.6516613910474556,-0.748586689382033,-0.487951245175702,-0.6156485744770084,0.8090830484359866,0.3417923747910705,-0.1202717349287179,0.028492877620028167,-0.1225317534801631,-0.5348463868661266,-0.3440663476513317,0.9592289983182156,0.645285191700111,0.8025223125015559,-0.7014385311993108,-0.8872193716657026,0.9851134106309591,0.3479498245650672,0.21081749683466788,-0.12625243802938213,-0.38223377486867616,0.02533889787808774,0.45527712278215016,0.4209847124369033,-0.7537032179751595,-0.8103450608075538,-0.14319730060827385,0.3770834747849803,-0.19991682316136417,-0.5118298614796124,-0.4065004857265173,-0.9181664868899695,0.5844631184559146,-0.9875340339805683,-0.341903196802557,-0.4536347569975836,0.4458431861358132,-0.3105030576328007,0.4178404691285762,0.9435033583630752,0.9391599253011049,-0.059903026530953474,-0.09080924268637491,0.35118965146093584,0.9240230328007522,0.7758880310309875,0.4743181892145145,0.3896603184079783,0.01782475558468133,-0.28937131153318707,0.8795963455268083,0.37939268414907357,0.8985520144990202,-0.8703822085457149,-0.8480081509531952,0.6956633379822579,0.5769913792327503,0.09084784432686566,-0.972543997185112,
-0.8931121427620841,0.44746965594939025,0.9241795338734748,-0.8738754229779908,0.057741106412944054,0.1782270688197094,0.44988775077455645,0.7523370077945142,-0.9056155841864935,-0.6830288584310726,0.15550707856120738,-0.43681296315484963,0.9279546882350131,0.864114597624094,0.2499835040403624,0.2575228516172019,0.9937979423891574,-0.9943469868421053,-0.8432835312190097,-0.09198530353281131,0.787759047314428,0.6995897816458365,0.7121538915036616,0.59211423360481,0.7471658433208082,-0.1257283779693139,0.10418110495417943,-0.42656958101534714,0.9929758300160838,-0.37605149587092757,0.41462235083874543,-0.5567482162622404,-0.13911978349852294,-0.023673376166684745,0.5227518739554868,-0.6473539560379873,0.8229893333727114,0.558835291038893,0.08178982790317146,-0.25122606913786916,0.13805061116142814,0.8047823183780525,0.29793582185698253,0.8747540124835822,0.36697914138212706,-0.7824747250275501,0.3215720572336003,-0.2993787432302226,0.7518090788419731,-0.34976098157239277,0.2028449291355363,0.9236230173199325,0.3800009828598514,0.5608132401793824,0.5689132004183886,-0.7906991108719434,0.04237036909623626,0.7658672348582918,0.4477280449253609,-0.05949104496697988,-0.258271138159188,0.3448211242359742,-0.006710844026377005,
0.399722526733054,0.9206590878395158,0.034417145256623094,0.25989853770840576,0.5306945206550755,-0.34932904726969616,0.7060371773096932,-0.371987628316258,0.20871957555708764,-0.7386828661614322,0.33261543302422236,0.001869363018586423,0.29446951152700307,0.1866713724247726,-0.7711008470636806,-0.5208490187048924,-0.345433323860004,-0.8320966644294272,-0.7117372461929841,-0.16449053844172523,-0.1972356088302043,-0.6254892164614112,-0.5587661777245176,0.8718747670759275,0.8488075925333043,-0.5069020368088177,-0.3746564860077606,-0.5599676014585115,-0.9622502986846473,-0.6185818653275272,-0.8171346801227362,0.7920401591832857,-0.6792957185892172,0.49672470839465643,0.79246105417648,-0.20836900625056876,0.11871394747601327,0.9813057915051633,-0.2072949251383165,-0.5191726157017147,-0.27537851591647855,0.024402404574138226,-0.9300894667041331,0.5125697918859795,0.6335320842431982,-0.08145878598982037,-0.4403640899504693,-0.9597585470705792,-0.49934247407742305,-0.9103607262198261,-0.1492981536375788,0.797548005131675,0.39603741940956283,-0.6959332667753093,-0.6174979056291174,-0.6927097680443604,-0.44116476620634937,-0.7578180420156406,0.29084548244528863,0.4251454778383983,0.9496094058317672,0.6766810448083393,-0.9154812791486886,
-0.24534851447570194,-0.4428352562083837,0.6054322254543532,-0.9757867166881669,-0.13783559042859062,-0.3627103814123793,0.8622939281155519,-0.6725876703874234,0.6756419371603799,-0.15610906731237884,-0.0342571502120832,0.13728717328008755,0.9686785370747386,0.5587386396644478,0.26396704805996096,0.5706056564494841,-0.5886995700827204,0.6342377073125776,0.7964066998016297,-0.9008920451920064,0.31160350974442275,-0.7656538075640822,0.7155538833140742,-0.979241320260555,-0.12260204569654709,-0.5080376229719124,-0.4008497453001192,0.8417367784349283,-0.4054004815643706,0.2968072928676684,-0.4682497774874994,0.01697856312435797,0.14918672512336695,0.6860312855261756,-0.5540554454603377,0.686541754129977,0.21212034432184423,0.03047644678457684,0.887368644530903,-0.20298863292407798,-0.6382986697132096,0.49273086588202064,0.10394609681778788,-0.688377434017807,-0.5645806339084785,0.07881270484349878,0.15864885664265715,-0.9102727821868295,-0.3165761503972033,-0.9864747496024138,0.6263800782484548,-0.5443151132649484,0.23832697532243263,-0.859771575891811,-0.6405828572873857,0.4792123282239753,-0.37887404828864213,-0.4210264290197867,0.7921785074589334,0.5536776776177514,-0.7293894209309508,-0.027346748530798326,0.3049063034916326,
-0.014220187420948216,-0.5863000285229698,-0.6909806816095454,0.2771858111887182,-4.943084837822909E-4,-0.013269984723380146,-0.47287306223529324,0.6360497435026218,-0.19078812987365046,-0.2272078302872962,0.8999643745625736,0.9397441765978669,0.23112965398884766,0.4378013332954649,0.5307325425485021,0.33706136970382716,-0.32045387127945446,-0.2719501949711107,0.20843995222153522,0.10347135657798368,-0.6666333065104035,-0.2654192630709806,-0.660816495749293,0.8791144646817843,0.7607181424302394,-0.16520482502696843,0.7026873093196544,-0.7799567448226166,-0.6462966984116543,-0.31071828320503947,-0.6206241474446446,-0.37706872593452423,0.5523731173996289,-0.4980609539841381,0.3514602191969849,0.7947941541443437,-0.9735664415360739,0.6440376313689447,0.0022193804670815886,0.6130965454199186,-0.2648411251915721,-0.3020544582354847,-0.9791375932846744,0.9579464953686252,0.10043527698876842,0.9938223611589356,-0.933940812998435,-0.6030929287648907,0.40481290168938755,0.7926614901047109,0.9494317673571535,-0.43571675586205494,0.9658959513143637,0.411641459292426,0.07100070761735577,5.698623209424714E-4,-0.3596443078377254,-0.2071774182262165,-0.628215822791995,0.2040750907162896,-0.22469825557820466,-0.7161938303552091,-0.8355493284961351,
0.6955614959623464,0.8517032745471569,-0.27095153810164607,0.861129530377484,-0.9919248871706019,-0.2459985547499941,-0.6368969512845379,-0.16181386573233514,-0.31203886896519584,-0.14798906679925117,0.45214004577158096,-0.53902776936787,-0.3706069775461478,-0.10434177246528908,-0.8523281544977779,-0.36273536392050376,0.363569451312441,-0.8999390539671346,0.5964906588631429,-0.8236911815011907,0.28506229004736006,0.737901662511262,-0.006596771809100899,-0.29891267910026253,0.2216266103141311,0.058006957494344924,0.9684242774357288,-0.10536496488233138,-0.7598882519239747,-0.5865078827402019,-0.5323295724789294,0.4569281413505397,0.12994088757684152,0.10978698842961987,0.11727278268557217,0.3070750488067937,-0.38304543535516267,0.672310929619141,0.9522054766742254,-0.7137585830139397,-0.9657587063855595,0.9855181049166553,-0.6529949869575127,-0.10005460106264041,0.9129074854881984,-0.9305124771277049,-0.9970659271584887,0.48405996155816267,-0.2454338238221081,0.13718497100484717,0.9262203769131316,0.5870656529245124,-0.8913478526580436,0.014977491879940352,0.4745808877069251,0.3317966579766267,0.0015004541274594718,-0.9890652438693652,-0.24568139649110443,-0.9468708793056881,-0.24954880295901538,-0.12009719103638106,-0.08214254044439517,
0.6037620094856202,-0.7549259767288434,0.6612913522783233,-0.7583405479754126,-0.6215550183179555,0.8889320475439022,-0.14503269795350904,0.2570460588650041,0.32770975599393193,0.5691338263696177,-0.34739962671193325,0.66152361408261,0.01536577966984698,-0.742749516311668,0.7562603563938639,0.2557914365711891,0.11972345660975181,-0.8559980322511456,-0.3069811996506604,-0.2683116534132701,-0.3132887618124054,-0.4285536024646741,0.47375998080461357,0.7789128782925647,-0.08624361936276848,-0.5497675309708034,0.9463606417737227,0.6834292934175585,-0.7234978419300997,-0.66419522492281,0.257849307182789,0.3580496508950022,-0.5938628538503801,-0.113720759873017,-0.5328884080831813,0.5757621970266151,-0.7166838901475998,0.03603366282437204,0.5391577984509679,-0.9310486144878383,-0.9646461492724427,-0.10711239128244299,-0.2960745866512102,-0.8872640565400678,0.9065779524432731,0.1030724297607406,-0.522959705038498,0.22822721356188702,-0.18257126885403308,-0.7729779431780608,-0.48308620965304194,-0.2784100286841811,-0.6639029155317373,-0.46965796171824414,-0.06799343982478945,-0.08263535147050383,0.8571964095225193,-0.48185747739310614,-0.3459569516377874,0.14958851634786385,0.3151645044286373,0.5272504458897693,-0.9425871088582671,
0.8418320747623296,-0.14420210317844528,0.7396417819503103,0.13194959184079025,-0.662656037741425,-0.4524781606099064,-0.9082345675937642,-0.7942704576641306,-0.4669235232036859,0.4347028896857965,-0.2717433596093526,0.4664869931171809,-0.17355788787855708,-0.9814848349777012,0.8848669462949508,-0.6553045163193647,0.4012290038602,0.5965727848094835,0.38426507748332694,-0.801683281129828,-0.5408183639243342,0.8007454935850185,-0.7103077963707405,0.6786735409567817,0.6463315080955101,-0.856722859459651,-0.31471785131136154,0.658855471561268,0.6282402266092582,-0.5854707853834851,0.03818570780314756,0.6705180205747936,0.5358956527600593,-0.6286239453724423,0.1464669507268077,-0.5781083163095353,-0.1659198209892212,0.31348029041436476,-0.7119338728818596,0.15926773279867135,0.05660780345888927,-0.13461939334225903,-0.14004676799262472,-0.6138170647054453,0.8079054961717274,0.5655273569539256,0.5329237331655254,0.7689766495079533,-0.5520082691958499,0.7091042662299181,-0.25368382241404297,0.9343480395170014,0.9579835482442272,0.299677606840405,0.22825978579285744,0.3039946486512892,-0.37415803498125366,-0.06458233126881674,0.15088775654043607,0.11336468750605122,-0.6028569861929829,-0.011159707984618406,0.5162808374173617,
0.3260111626233113,-0.9967599157949836,-0.46528089157901986,-0.5822668238791806,0.28198691901075756,-0.6907382560080244,-0.8609774278200839,-0.06773927171680971,0.6081739293983695,-0.28303335731718593,0.8424333742032659,-0.42589873730151906,-0.8296066155626058,-0.08744418571179513,0.45520951847497915,-0.5247179913712348,-0.3384047982831191,0.7671207677985203,-0.37414846888587694,0.7581604048981976,0.7973799941836812,-0.22251693725080846,0.05424143051501029,-0.07382994890052097,-0.9704413288596923,0.07776074255696286,-0.30937627843884363,0.5228337581072053,0.1904086511701948,-0.24292662230213158,0.7950007084490094,0.7954320811103146,-0.4552615361072898,-0.013622799853579615,0.3272182300921682,0.6485452116342294,-0.6461747697472886,0.28749830349819905,0.29622082719736587,-0.21598666948879774,0.24474389743856362,-0.8299880056110536,-0.5823416060088713,0.5976889683465356,-0.5694412760477241,0.3166921827846243,-0.2877703603623374,0.13968324261425447,-0.8586983919654687,0.5158351023430909,0.5228506779847375,-0.7563645549479949,0.5026147330879058,-0.3811621641483327,-0.16305980336240244,-0.2081358723492055,-0.4616120515566695,0.9439919525389988,0.7708159572935931,-0.9929142674933249,0.9756748194173681,0.7525288912869064,-0.39359947905328885,
0.647714585769706,0.09462396640196791,-0.3094661520026505,0.866136567352046,-0.9674128405980249,0.9931154800162256,-0.5795788125956709,0.5702162530019625,0.9322802605577958,-0.6747540624617165,0.058243773203989324,-0.9590682544239633,0.5380224525318371,0.8247579177738864,0.4881862675321067,-0.5978430648934081,-0.04447538727727385,-0.2610368178172091,0.143170328697523,-0.7323261404097783,-0.030114917802599894,-0.32433767696663485,-0.5794211626311603,-0.9797397754336641,-0.8109480062028545,-0.6949837261197906,0.5446821569475278,0.5541579429855608,0.0971534787645747,0.8602781536778772,-0.6075688372411703,-0.6132548848331751,0.0353357244057364,0.4457478607859895,-0.43314470974373287,0.6409372161407332,-0.32342431874792865,-0.2127363928496664,0.8323867082341014,-0.44195260040622,-0.8277366175519989,-0.7500010157651875,0.9190060674836291,-0.07846340836209054,0.8221784896731497,-0.29971346833192447,0.6571854433307691,-0.9447101322098477,0.8558119014303793,0.1026424451141128,-0.5768179347706652,-0.09424278566471855,-0.2881877501249879,0.6201191505550527,0.9543133703472086,-0.8745007033399079,0.0636655932713468,-0.5744328694902776,0.7364236157663262,-0.9536155322394513,0.7635441356050474,-0.5666606911102186,-0.6291708971170162,
0.9638831284452365,0.8625881609934887,0.7254245383323041,-0.4043918959603545,-0.7503885312923577,0.9147130980069307,-0.42704918989361773,-0.033820770737880146,0.46747826571223694,0.8823629928179331,-0.3565494667768383,-0.4073100114462562,0.8894912118577838,-0.8635420385322077,-0.7637651784098667,-0.2131840392680704,-0.4095155816589806,-0.7208871522213838,0.2026750764653742,-0.01185130624095554,0.6467291031850952,0.8165319105252686,-0.4148543231359385,0.9204286048258874,0.871594594365467,0.07081189816842381,-0.052168154388246624,-0.4295427557451019,0.9921293568922471,-0.8567846019013872,0.8745627404836218,0.28760202105504895,0.2036347677246697,-0.7721971964433971,0.17328065046834285,0.06938341589071961,0.635006830723581,0.12314052603758241,0.953711529125536,-0.07128575993355302,-0.5841737762527377,0.4011312005442025,-0.06574479810510869,0.13093709364631279,-0.24312277694176387,0.3658387047358622,-0.9139340512970631,-0.9561139988983982,0.7389820640840312,0.6715100892818433,-0.9632516795028472,-0.6382251485860471,0.35073826461315627,-0.7321754913077081,0.5330449154986969,-0.45620577501919035,-0.2760491496293309,0.20172627739915394,-0.2986524559962038,0.4508758756969049,0.48625400859464385,-0.27097140725090263,-0.15318515137994715,
-0.6308373010130115,-0.3163801332863414,0.17530221173636473,-0.9036666752890912,-0.12369997517047038,-0.17884480514495582,0.034390961663829156,-0.6824882362975919,0.336741528938745,-0.7712095114571553,-0.09577519281556968,-0.5646476861491236,0.20484225004178724,0.179167717387418,0.033428664738262226,-0.47980585775896434,-0.23041129066775068,0.9682379740109024,0.4885542304951449,0.8349787438324894,-0.5076057555209068,-0.4852181720119175,-0.7494110451587825,-0.593159648817954,-0.33053411161777646,-0.05673140238306318,0.9107253361523868,0.6274754962382303,-0.20717273662172553,0.08517516340232167,-0.9407982697711759,-0.11129792972658947,-0.31083940894313544,0.867086010100744,0.9473535647765412,-0.6759317907477067,-0.7167925267510991,0.14960102178908774,-0.44815753758804733,-0.6456730197332416,0.662548303140351,-0.26072012160457536,-0.21864150710843622,-0.07595555546103316,-0.9868430463031279,-0.9834448602672299,0.23991923475924137,0.06856251219744447,-0.04979437856468971,-0.094250848379128,-0.30278275314191716,-0.23500937350499673,-0.21382696405711665,-0.2409664867750585,0.2152957060330596,0.8978540151417389,0.35838809665631643,-0.8656278126580395,0.742160239645101,0.6094790570176647,-0.8192825821585643,0.4181932174431351,-0.09323722581936211,
0.30714900856818295,0.8891849128999472,0.7767366056146057,0.7361217859704074,-0.8364822663867701,-0.781110844936675,-0.9842707097097962,-0.9358288132886157,0.07372044454828486,0.07966231660893319,0.586241268956283,-0.48674187101193556,0.722075348493461,-0.3095075830956875,0.1952798282364101,0.10303824551165053,0.663221674123726,-0.8121906454737557,-0.7371175041950364,0.7778453297449504,-0.8630060270326052,0.6403127040515604,-0.18682828132213225,0.4424399732594486,-0.28671510429416247,0.983097639841547,-0.7049621258214676,-0.5426303133048245,0.8026018494794387,0.026413474752977173,0.29882027494057106,-0.030997410355033672,-0.4300234602362607,0.39946767784575754,-0.831440887453613,0.9356226745583547,0.8543390489208824,-0.9427344196799647,0.10509390174261202,0.2598046496582178,0.3224212633687733,-0.19144499488427202,0.5134873989334163,-0.9513863788464827,0.27570813244373715,0.21552254419397032,-0.9310422722039271,0.6970029917950975,-0.7190925722936656,0.17096722813215215,0.2587030181924417,0.2261122456050897,-0.8911372904855352,-0.5237464658370381,0.0027077356925471197,-0.8930052425859873,0.3437867305005333,-0.17657360745553619,0.3648220875177084,-0.3383667814297133,-0.5358539834646476,0.727446987454399,-0.6638917024263467,
-0.9430716838300246,-0.8015199232987487,-0.8404129313687612,0.20565312871098862,-0.10632392512159883,0.5238923034629603,0.900597408842083,0.12974549609668418,0.4413747478107193,0.8019024040825034,-0.03765552013825468,-0.8314746611049137,0.6810323263069464,0.23580334646649748,0.81918727331235,-0.7200911439253068,0.4919735050232652,0.08561912824695561,0.6454439392756621,-0.4561981704707352,-0.4450278338880158,0.8912127101427794,-0.7271227462164584,-0.7646862380069712,0.8428641311329206,-0.6689536574597694,-0.8377954354190569,0.27388938249700656,0.9311240882525487,0.2835501220341041,0.32521695874254375,-0.9540227089102475,0.7847161821281776,0.16000742246868205,-0.16082977948193977,0.632058335847332,0.16385899336263798,0.6423187170761566,0.36268846151967105,0.06455987131239738,-0.6598291787622577,0.5859590194904598,0.8924989457570676,-0.5986156583248199,-0.5740081787113807,0.037897201797884916,-0.10710449357980911,0.12048521071644114,-0.7064942860074817,0.07119779737252618,-0.11509509933951301,-0.3758755386673305,0.7966130720070588,-0.5475199613728283,-0.4002893414673989,0.48715101192608223,0.8073361704581363,0.035361626140339775,0.8809639888703269,-0.5081592737352683,0.4398626437932178,-0.7875325233931736,0.6631930589145423,
0.46254323114707385,0.7591649225300718,-0.239462742634875,-0.44140333248840635,0.4465830187133253,0.2574586037749682,0.9776186927874904,-0.14791093312238335,0.8835657844045959,0.43059299123862527,0.13828642257725754,-0.9654604390933945,0.06344399825237357,-0.10220660575183205,-0.0177204125200785,0.3967283765661882,0.39439886282727477,0.6820043150778681,0.20390406238189973,-0.33838050309940426,-0.2152012222361801,0.5044098067661913,0.7239989595692469,0.15012838128975692,0.7891980129700704,0.24553616217215457,-0.09678013189380041,0.5556409995476286,0.0765415830786238,0.0866693316877849,-0.20515588666466922,-0.9548813275505939,0.24944650324720663,-0.7308513321534418,-0.9627431713469801,-0.890298800015977,0.07663181677103226,0.8954256175272923,0.05072984649926182,0.3552990276632002,-0.20372658441007108,0.7446051776881222,0.8300582177102549,-0.7462563984303434,-0.6937374201061894,-0.31348502276083456,0.8140722434691401,0.7676423725996802,0.7780503559292957,0.9521761863213198,-0.9350035095267166,-0.2828361286371921,-0.48603671761877276,0.25487710791448226,-0.6949198642796006,0.7745561456301431,-0.28642147773578785,0.5548797887809962,0.23487562933774186,0.05227964535186769,-0.7770501123542028,0.12211782691093731,0.9969969794871913,
-0.6067858988481873,-0.6888203055328381,0.47507025751444854,0.6511404822259756,0.6764772363875147,0.05203401976422106,-0.23967284519320398,-0.9093945088405757,-0.28002916669682243,0.9840022736402414,-0.8138119655750531,0.9575045883008648,-0.30915227602298767,0.38040485130755974,-0.7650357647241037,-0.1966931184088474,0.3276723225223068,0.6818564865169161,0.5524834215406109,0.9933096920036766,-0.26687565369126154,0.4265951343215304,-0.350377234999105,0.6680887135461238,0.013673967105551021,0.3598898380186162,-0.1504737684591846,0.45192908091957484,0.6227348210580146,-0.6880556164588703,-0.7245118892025422,-0.4623078642985916,-0.09362049347443202,-0.09558407091620746,0.0983142032646871,-0.7204724241215965,0.055779785185456454,-0.8211283378697605,0.748299950979364,0.48929217470821906,-0.5618872990025641,0.8362093471051253,-0.6542076012696205,0.25949017468392777,-0.8922491240292227,-0.06572948290557812,0.2156318416546399,-0.6749966562518801,-0.8078653772911744,-0.38842125228530233,0.024596282481561094,0.7278322821872787,-0.1981995667451919,0.6883382613378191,-0.18269912556955759,-0.1364774347474842,0.13161912355757055,0.8415307309447047,0.024831221330444464,0.8649039900337765,0.5003754957664865,0.45915261144836284,-0.6182802350100398,
0.7182227242060744,-0.7816016635651895,-0.7506630565721046,-0.38929998247097686,0.5087006682466328,-0.6219713771494677,-0.7866923453352084,-0.2789963699517819,0.7570084473706113,-0.07070822672515686,-0.3131827072126263,0.8147922416179718,0.9350923766801837,0.7332176929319258,0.8129220199992253,0.40764437329534453,-0.06075232183016399,0.6778304447761865,-0.9703488156606759,0.44284663525816326,0.5502852078723446,-0.6030920896125174,-0.06066846010681348,-0.5844352558809118,0.7250902104378107,0.6491893712998913,0.2720297407640866,0.3218001565791617,-0.05917410786279542,0.9957876506199972,-0.43622085672963706,0.5083648258023703,-0.24751287669944655,-0.9438598368306534,-0.3590387424041437,0.9239350426577808,0.22646344697970577,0.327911330301766,0.03541392363729523,0.7575736577375927,-0.022777525891269468,0.32383720379038894,0.05054254226204935,0.9999377447831233,-0.8388205748092581,0.6085813647166392,-0.6430870275385276,-0.9262822202219922,-0.02872977688460754,0.21124865187996478,0.716508672644669,0.35368079819680465,-0.07230030566156787,0.8442820564407012,0.7180369827048603,-0.8669798069705836,-0.4252108971776325,0.3770460197395715,-0.7486268178552131,-0.6084586521456672,0.07080027058938554,-0.9075224780057873,-0.14256647433326264,
0.5825411824757898,-0.40293265229317843,-0.6022359942022766,-0.9395278838066976,-0.42093208656301795,0.5147192902095223,-0.13491339498695276,-0.6770005022478236,0.9065744212362763,-0.23826954081240181,0.7460433101775492,-0.6407765841538686,-0.5621913765781839,-0.8900114791532228,0.43344692727573353,-0.7988839408252377,0.8371101743762213,-0.40847609335831914,0.736769080089241,-0.3680850010988155,-0.7848871856364159,-0.3450044428279033,-0.7074193165923699,0.385067695320336,0.69117867934295,-0.5720164033963102,-0.051082807737177216,0.8523334263089581,-0.1402809387166284,-0.16240949468759358,0.542574673325054,0.9529585886699012,-0.48211440454525034,-0.7186933482913169,0.13092133214533996,0.28654585376184327,0.43594134160263276,0.042048971204217134,0.4448872229443701,0.725438632363065,-0.5620474451896837,-0.29426542844804615,-0.9026272954510886,-0.8018518155858991,0.6092669498604519,-0.5332960496925141,0.9113943233060908,-0.4264487250776565,0.05857507957613284,-0.6042378634100387,0.6248656185958068,-0.7237089949694815,-0.6638224174694023,0.49755910436065376,-0.8160127040877128,-0.45298389163500796,0.3464101976644698,0.6984833672968627,0.8548007369435062,0.10679671325401485,-0.6089933411667472,0.7831962759362228,-0.5374648362064545,
-0.6067414468645316,-0.15849333749059946,0.7373881232182056,-0.7890408125675761,0.5066798802262054,-0.13735437693867114,0.9562889367162428,0.7390232165399075,0.5374990007422178,-0.40501002515692175,0.3429212948861775,0.33965931223808865,-0.957616682521961,-0.7460893597126403,0.4470351504039749,-0.40431849984500623,0.09421399104930894,-0.2866853199540105,-0.5148828847444746,0.0803093271762716,-0.4479572881116125,0.31638378697654757,0.3338215226736805,-0.775085712165932,0.9802821576356411,0.891896779723361,0.403621154572154,0.974167502330078,-0.007908283517592318,0.25353974604060303,0.6764314359527424,0.42884466485660044,-0.2998729437637462,-0.1790617010522375,0.13041265944396585,-0.6808765802304415,-0.5714791473941212,0.4249713180964161,0.2771095033740649,0.8562850601766681,0.8731697139865855,0.8462568627212423,0.6005393976945985,0.2783117258177623,0.49310158970669504,0.1845262634814706,-0.6852050712546542,-0.7650523954179942,0.07390308899001918,0.767932695626069,-0.9538220769106385,0.050371590907075214,-0.8751105798042902,-0.01483259901794387,-0.20216326494670556,-0.14329406223340335,-0.9450987965762401,0.1595852276651606,-0.130668772201064,0.6091645014738265,-0.08268265967840382,-0.6166307920169163,-0.7194977182493156,
-0.9262783859692898,-0.0769247261861743,-0.9089075197795022,-0.3115230499901227,-0.9792382359078211,-0.10880729483426532,0.07586283309439978,-0.21140720669646207,0.06324665444747479,-0.6605104430092812,-0.36243489779378457,-0.24552199976064504,-0.15448402947814444,0.013910016081200016,0.6015423338287311,0.39947757256606864,0.6189160359598231,0.313049190653073,0.0573877386063506,0.4310684608387876,-0.366972717669922,0.2851918189203173,-0.1586556068871412,0.4218596826875267,-0.7736583794565861,-0.3416276254781865,0.02214051044477472,0.9352272331914149,-0.9821822146155348,0.7096708525201494,0.9489144613176106,0.6205855608801139,-0.8191798324900448,-0.3118398604123953,0.7812126178250316,0.0327518549547865,0.42352690374332425,0.976624985040446,-0.1551287949407658,0.43181115403701886,-0.9950314734892174,-0.7896249469436794,0.643921009000386,-0.11565508285026715,-0.11656085861436072,0.1671782415361971,0.9074824031728397,-0.3861630349760634,-0.07590228445803926,-0.599457401766367,0.6619463208268985,-0.26247406441953225,-0.01484233715216865,0.30928019051621747,0.9925641562093122,-0.7210755046750141,-0.3428611227973668,0.6194867110639037,-0.10510118995758932,0.6596805252420999,-0.5527641098195679,0.10077623291068138,-0.5845835246494249,
-0.24859324401153993,0.2809336370717568,0.7468124824075766,0.14182661483471026,-0.9924397760614718,-0.6644203710860601,-0.3791192815276694,0.02760737041434691,-0.802595010173385,0.42570109749572094,0.10044859555702246,0.5214788128220214,0.8285445306449304,0.4274319153481656,-0.6496334791809601,0.021418160116565055,-0.5285353804583663,0.5594939161461854,0.5125615991042025,0.7841359874381144,-0.11102139085404983,0.730753798208911,-0.6792174955958563,0.5947624669893257,0.12542249022616825,0.6194565520068234,0.6321549869914509,0.7378206347347329,0.5248982373849533,0.6668127850502887,0.7130120526862123,-0.8906090802320634,0.024818048381569424,-0.2523027212178841,0.024665021945972754,-0.3283000115168171,-0.9895446214503494,-0.07620796766391935,0.7254847315346113,0.8751952326389907,0.5181610176405236,0.38958751032288097,-0.8611334725509019,0.15949361048893995,-0.36064382215311963,0.48923226289817867,0.032353854811180804,-0.8065773440170658,0.6043679302151408,-0.48770024506037823,0.7114004503304359,-0.8743015418884292,0.21462417984655602,0.8691195940136365,0.6519524284957205,0.7916146617181306,-0.9563196724230392,0.20139799651811585,0.6792361360159054,-0.4425560899857224,0.14200130050447335,-0.9985689935213644,0.5458398081619431,
0.28308140922286107,0.85737655725624,-0.6067083446044417,-0.8296194195442097,0.744788940594719,0.8222989464126311,-0.1280495259918828,-0.23124826011332233,-0.21627514343553722,0.1615904114006641,0.0013670014174860246,0.6431473772443688,-0.5677255543379445,0.5380120389041749,0.34016809428699957,-0.5102338060952116,0.31902321040145365,-0.21945174914121246,0.19360703802334478,0.7442975792537854,0.7645427757014258,0.5295078140209792,0.1830747790657299,-0.2950023836108886,0.15398884913095157,0.5845381733527244,-0.9204858976900421,-0.0436347023981527,0.4088371365640928,-0.5438973522907053,0.8646647701202828,-0.03786818504722311,-0.32108757245160446,-0.0020775924305982407,0.5641457081824364,0.6044802423752447,-0.2628064453256034,-0.06266088002181602,0.03895891099839077,-0.08288570303168519,0.9837055509116166,-0.37749316553839773,-0.37292210755704813,0.2929998640151099,0.45113760465575803,-0.6302246396078837,0.2943607774593422,-0.9566955895886371,0.753654771379749,0.4215790411055287,-0.2158924404976097,-0.6577363276845587,-0.46830162705054956,-0.28539978516420983,-0.8528418058022238,-0.6865922066010108,-0.3806011970192871,0.4099278100283137,0.9895064603387365,0.2957818704006674,-0.102447444317042,-0.5486145436413103,-0.20801682046802838,
-0.8255003837590997,-0.4060574127537322,0.2951568649625229,-0.263360253200156,0.06817137237119453,0.6541109706465484,-0.6067113156544293,0.6170419068739026,-0.3635487735183267,-0.2704809523140792,-0.9843952224367241,-0.3852391720963928,-0.19584885173188127,-0.6836404379289933,0.5590186265587027,-0.008072111425674766,-0.2059274533581641,0.6271128953955929,-0.3798160992514876,-0.9202039794238457,0.018909860737817752,0.8882682062452811,0.7968758773504536,-0.6641691498713127,-0.396717239369879,0.9314574282804513,0.4354507547386759,-0.3030695020363394,-0.9098423076558813,-0.8184207672457804,-0.6438189600882174,-0.026046706656936314,0.23162180244749808,-0.5556822823876666,0.9652204781365978,0.6128088042409814,-0.3278241803529218,0.2567882988228878,-0.8985966792436078,-0.2100523514204169,0.8034155258820153,0.9888725102091647,0.46803730818785616,-0.4848381586159398,0.10217482204845907,0.3691302020999043,0.5643016188119072,0.1821867150351273,0.8599059810302823,0.6580069733580924,-0.3421852096528364,0.8376734627188545,0.3692757646450071,-0.6976179839534562,0.5293911126143493,0.33167908217871256,0.3546606747224341,-0.4206705100617525,0.4729564444946768,0.46789859361490094,0.7164252281884476,0.47329617796752643,0.3480471644598593,
0.289443199876809,-0.4954275357961806,-0.1702760098850742,-0.6407288905315771,0.7160455820025864,-0.5544419299032117,-0.3105239818416279,-0.323440469891229,0.8911513581983341,-0.6832375140647025,0.6322517274156783,0.011994632029893149,-0.19756466016782337,0.9963191747146902,0.9435059280715639,-0.16655039813317574,-0.9931429790888384,0.11169933348731265,0.4682133150078456,0.022230169876880757,0.6214500824617999,-0.13134233615689306,0.12614920731936574,-0.5286377419716939,-0.8663823769719365,-0.13715384376727036,0.23718503429615567,0.37312013082628237,0.039783139307666415,0.4596055260905272,0.041425444688825586,-0.24115398491861462,0.8388253078384535,0.6731489375170858,-0.9021588891715684,-0.7689376990969974,0.4868035815168812,-0.6154467729048083,0.6063809051204896,0.7673329215499816,0.06205814591752534,0.2086779667379488,-0.8776257142031882,-0.022718112943341362,0.0948475423274786,-0.6466648914631938,0.6183628390532003,-0.7413687508775024,0.7832645052642448,-0.5902651747611201,-0.6026718486392875,-0.07492694457765525,0.14724856026572453,0.17143667605112434,-0.027387845338017636,0.5682436269358155,0.06509277233308475,0.299738256455363,0.7036524902941665,0.6680214673297362,-0.9080802701838495,0.9366365094601175,-0.28701461570745,
-0.22017744292220054,-0.022820742976263908,0.21220033124736215,0.4087952222942217,-0.49547888914526816,0.8783004218480339,0.0013953573670988373,-0.20138082137461644,-0.11392378950356163,0.41020625787626286,-0.7438936168359984,-0.29635737041329624,-0.11610257814376967,-0.12452066974632925,-0.22869546141808583,0.9693496754832225,-0.8685628284642257,-0.7124563579234202,0.3400103480924457,-0.1828790573746122,-0.6805508868762671,-0.8706929607841689,-0.0900932958361158,-0.4073006639350092,0.2318058828973406,-0.8177144262069911,-0.42484124048094696,0.34127162907313857,-0.28627793841596527,-0.7836896407019434,-0.9797989919581962,0.8752435508165182,0.6666823086134375,-0.15250480589416693,-0.6220447128253723,-0.7003876805283547,-0.4586735646036839,-0.5477793119979584,-0.6268546027280222,0.32116974183152336,-0.26100259708180173,0.667470212253948,-0.9079211234232591,-0.9084028417990455,-0.16538915698242573,-0.2870705970550236,-0.24653170658898582,-0.1791588105125792,0.5979575598760707,-0.46215899553352724,0.45056751135140116,0.9459875147576233,0.41750493938744593,-0.37431753120471534,-0.006897191801969571,-0.7478216748894291,-0.07978605542195472,-0.8176852983559368,-0.3018197464843082,-0.9840532305531116,-0.6671559522030579,0.388326386951128,-0.7374450545408704,
0.9776700899045718,0.44466983606177446,0.4138768472566281,0.6943503733651957,-0.2513287440929106,0.908487009072728,0.9744192933266766,0.690519364562473,-0.8801727474299768,0.05623801687636676,0.34826382360012853,-0.1829585060090677,0.6623694801374915,0.40754121897282336,0.9820176493993058,-0.6179456489480966,-0.0021089243891019294,-0.3861392714996128,0.07751826852908894,-0.012180214412960355,-0.8365970945581958,-0.2919939494758068,0.8839534196674839,-0.5943709219508726,0.6086090290408666,0.2181052855162966,0.811439980452932,-0.36154576111794334,0.5363999908248642,0.9571479814481731,0.9374118379458021,-0.1806446148023042,0.533890568955671,-0.8863533690465208,-0.005255361979114692,0.9393580975585247,0.7401567275512975,-0.3540803782180011,0.5106243725248532,0.30671660739582673,-0.8418448583791056,-0.07804910572142987,-0.5922565269664921,0.11018322567401961,0.1421354061071125,-0.9512647981168343,0.08448793139556221,-0.5078940665889484,0.5781852070238072,-0.6005289890721863,-0.24164459655827897,-0.8671192865342487,0.8243748433718772,0.47391499904694667,0.686923472153038,-0.49351300946349985,-0.9117032147346638,-0.5833320864827993,0.7732651076980916,0.6875392442321044,0.5936241747714626,0.27011106920870165,0.017786264773610228,
0.8734887330504537,0.6236393809676921,-0.6468306479970853,0.2960389198502904,0.6313149876092528,-0.6714873485425399,-0.9659728059050183,-0.9778593112419438,0.2862477031680122,0.04443881725381593,0.6043787055384238,0.40001117727528057,0.8407641694071912,-0.20343193117609903,0.9647451271729945,-0.8302885298920284,0.3453096677406995,0.6439947599683766,-0.6051531881237735,-0.9762462203873299,-0.2621081401941008,-0.4261033014589426,-0.19003038337123335,-0.8016757454705441,0.8279033566661418,0.7632454653186831,0.5937185959152993,0.13694109905746532,0.32022894963984516,-0.7996638863794276,0.3495052572990387,0.579148241894929,-0.44110120199803293,0.8947127385992957,-0.2724321340310343,-0.0555771633421156,0.015249828391426856,0.20289507509272653,0.8612769792349808,-0.5384474584391306,-0.5462372775736826,-0.8413610631758734,0.885931925243779,-0.8636824242739218,-0.8205563276052934,-0.8797087411375228,0.5152070013053469,-0.6446102664684839,0.8038236065449276,-0.4658708033550927,0.7148589945751116,-0.30806071571929006,-0.43764872427524537,0.16140049958675773,0.14026099629030475,-0.6914814516139389,0.37415851476278084,-0.271889413730634,-0.8062190865260885,-0.75463085489979,0.5558803769774419,-0.3695703734593012,-0.6900246727019108,
0.8373781227792509,-0.6155850500297786,0.06492176508934056,0.3910234747803787,0.5204857550672009,-0.45078830246294643,-0.24837454927183278,-0.8082214957129357,-0.6315731091776573,0.9428793512208955,-0.7206557314131126,0.8932668152755479,-0.15673468757631048,-0.7903916385854881,0.02633220172170514,-0.8945810559572411,0.4482578677997495,0.0041054635525619165,-0.4041104464284264,0.10426882849413466,-0.7608345554348706,-0.9905588344266893,0.7552103460162936,-0.7641882199388867,-0.519796628372837,-0.579585468947472,-0.022847481014340865,-0.8918364994510093,-0.8765959881291134,0.8197419088899547,-0.1415711381353979,0.445617059007237,0.24524146004712954,0.15758031480133483,0.9240455926268794,-0.7073530883068944,-0.908053802527496,0.8905981576368449,0.6266437086630587,0.6328619062881451,-0.03498330316580667,0.24501099110457458,0.7107249781940366,0.42736374320265824,0.8210119486142013,-0.961299491755016,0.5355750575947176,-0.42108107709703413,-0.8352124302909327,-0.4692593216732748,-0.5629784712214547,0.3928061233362232,-0.4170834122313207,0.3623563063797335,-0.2430047383609606,0.7321540964636646,-0.9058867820625762,-0.18845689032711777,-0.21881047496164352,-0.744962064924306,-0.6139430875175915,-0.6957184463607515,0.4989410406253927,
0.8725553709626852,-0.036908103379098334,0.40847970849395177,-0.16421523380504266,0.8815566131191275,-0.7531449492294902,0.3824832770776083,0.8079612782951058,-0.8973440818602243,-0.24803623884988868,-0.2418051930213958,-0.09051431577645452,-0.20639478989563642,0.6014731807969449,0.4095458064958071,0.966213653729139,-0.8899367300744361,-0.14810970548089553,0.09027063733658203,-0.32233145334962754,-0.5497525699141232,0.36511094952645373,-0.47936773387285947,-0.8837775571206412,-0.8530921667265006,0.2947230950815465,0.760954046575117,0.5645508606587033,0.6595172022496572,0.6466987437874394,0.8305148895729306,-0.7538898983871238,0.6715223789914115,-0.170425518441496,0.31356793650208115,0.7397139992139006,-0.6880432703150414,0.6267986335310736,-0.9600540436465581,-0.8318855853355329,-0.9023338996098973,0.6040020517327995,-0.1640799493901186,0.6118186701707691,-0.8681459055406109,0.6065259172084103,0.8116817817381983,0.623204999098272,0.5966045502381587,-0.29237961820325253,0.6850206044564391,-0.7976749909671181,-0.358505988910524,0.7353037298007097,0.2364731526447985,0.1446104549354701,-0.6026413206886254,0.335951719666157,0.14942294581919024,0.2820300669608402,0.033733510007757816,-0.574736699301952,-0.790666625328259,
-0.18693065939848008,0.5304355814269945,-0.16767136428999918,-0.8805020187207702,-0.34676455672533457,0.1482152937523431,0.9601019196300724,-0.9636023044166142,-0.46338285498182974,-0.5396470983475348,0.36566070772605186,0.3359559743662466,-0.5396431047258821,0.2465315458577928,0.3062114809660317,0.09268582165552552,0.987722180674093,0.5522696764916766,0.5018781291060799,0.28692810595026286,-0.08821083363953663,-0.21834976518131088,-0.3661096946621245,0.8510800852056406,-0.16941786263433123,0.8180363226976048,0.42686448093368634,0.3239197777842602,-0.7041620900130381,-0.14308344100570558,-0.4435498000672784,0.10283230591965253,-0.6286051979129403,-0.1130240078286271,0.07869145265023914,-0.933051249761722,-0.3264680644795557,0.5699423347848862,0.5950314415073203,0.689911233747001,-0.7355854791516674,-0.35329027352542197,-0.053032650299367434,0.6691800504255816,0.13112728101221438,0.9366953331982399,0.8769386716509397,-0.4304967267508508,-0.5933925540352349,-0.5006617606374897,0.7971131115674901,0.011370756662652859,-0.024883437521936447,-0.40889864776431506,0.5753093899714989,-0.4690208032627945,-0.34628209544467947,-0.32170746265230465,-0.9226231409583283,0.3964366699694013,0.7525555964239568,0.9554717007684577,0.09792813903950459,
0.38563911395009876,0.49055838045046185,-0.42883380819977823,-0.7335994697750732,-0.18554627476839158,0.47951992565330825,0.0770680617699131,-0.4670012328808091,-0.050451847710751396,0.2883356389623817,0.4938411596699033,0.9191508907112578,0.34840616763316845,-0.03949644198320823,-0.1738821274896858,-0.6403130762517362,-0.3602244525051561,-0.7181744387763704,0.861220368668089,0.669027002227877,-0.20900534009548055,-0.4184270793303664,0.6505919660623447,0.9312459937595163,0.004349732890125413,0.8992088748205023,0.199879276918554,-0.056042804858457806,-0.9571838179179442,-0.539912122438664,-0.416942045549231,-0.2614619265372493,0.0062413075149136965,-0.4226191310321783,0.9479485351305179,-0.34570244539465045,-0.6377713639948235,0.3338027382169739,-0.305079066118384,0.9617632392837583,0.3816872610363278,0.6955468786201147,-0.5124589211096848,-0.3896549597424275,0.03721259739104732,-0.9278402239127321,-0.3066356185633028,-0.6817906168689536,-0.10683164934090805,0.7599166704693006,0.35503513837483003,0.9272770257302083,-0.45045766204781423,-0.8074125158280061,-0.1436961183487182,-0.2861652826023493,-0.2026478414428079,0.47230991755525475,0.07452677620528503,0.17533009475675887,-0.19842064984150887,-0.7353838393002539,-0.9993337605636425,
-0.29350386716044374,0.34831472342707626,-0.18451486451986665,-0.440236782772923,0.5330309083170313,-0.5240001138387784,0.5846236337138975,-0.3206943210098603,-0.7113645622677407,-0.3436471276471913,0.7880048480981139,0.5298707150447006,-0.29870892936235327,-0.901229764781142,0.0040230467955162386,-0.6981291078456824,-0.002763949400617527,-0.2773002855503002,-0.0785503612065026,-0.11581149778048472,0.8361786743755977,0.8756810574272598,0.2937057978951536,-0.625065557855397,-0.14113721413751357,0.9704564208546187,-0.7872071431589707,0.48152183880249777,-0.7418205488186582,0.8727539169487686,0.9275516578123832,-0.44330262285976274,-0.8224030082183929,-0.9079483352552553,0.6047492459089936,-0.7308735637333637,0.1957592095909675,-0.389167520067923,0.6678189367775902,-0.27841835255320846,0.6736800823670084,0.5335424867028955,-0.35309018445809937,0.20673686917975198,-0.6789588132014983,-0.35532929924635126,-0.16477305080768834,-0.26997734082372826,-0.01932300752521443,-0.5639318471737158,0.4704750454915885,-0.0690485844048192,0.3354093257056363,-0.8031693147100707,0.6465432426512712,-0.901225546149266,-0.9910268210879052,-0.6452301082716667,0.7093994142858131,0.6052857745883271,0.36285150613130046,-0.5832975792593171,0.5024885714593093,
-0.7329596613882536,-0.8165831691249059,-0.42451110260573865,-0.499240434579435,0.9012085042478735,0.4088542333166709,-0.665041715769892,-0.391228708995192,-0.3462592439126786,0.06291918238847316,0.34955543933658717,0.1971584022106101,0.5554699579974056,0.6426615758116696,-0.9162455547997328,0.8130644661271964,-0.7987681108490905,-0.650174709575768,-0.1330191737386599,-0.07602175575163983,0.4490379946899099,0.7607109734656314,0.4529920291199967,0.04073789138077921,-0.399213463695659,0.7968678286418824,0.28836564583640056,0.6142946063486698,0.6529526128799354,0.18905812646290254,0.352950261831958,0.21215699012912625,0.8951502909833073,-0.9804834862525333,0.6558359522669601,0.6542638670401193,-0.6135880348479925,-0.6173959817402697,-0.7463959700726712,0.024362444401159866,0.6534857377090031,0.7215353120822199,-0.9966794290502188,0.7717971772419203,0.3324021264275061,-0.021064506398342564,-0.8290611635699907,-0.5200587143532023,0.41401622316956166,0.341560356362655,0.486481564440276,0.301332788402237,0.25618377248317414,0.06459350246023021,0.2705749166275908,0.5459036410499931,-0.410317056664971,0.6285106754794092,0.8526104478587999,0.45751967227770485,-0.6280527365650492,-0.6884201202747335,-0.34098607453536167,

