0.5501756774473359,0.33293527583094346,1.4267771653161865,-0.8968259546270712,0.8822606782903145,0.5898086563313099,-0.25881728377171054,-0.13075064190796074,-0.8044019664987402,-0.26395118281362195,-1.0153966163315689,0.03818620500068526,-0.49326445304814226,-0.6820507140820824,-1.6373339653606256,0.053832731900485306,0.9660164955244506,1.6044109386694692,-0.46843022407780266,-1.3592320276507481,-1.4399598302665126,-1.3716096581025181,-0.06067135595114741,0.5321618793178913,0.014007605159579032,-0.02781628433452759,-0.8169202097621427,0.3576774783985399,-0.10927977772958744,-0.19566120817381794,-1.278570718859896,-0.42292829842244967,0.23023849253494624,1.2586736442604383,-0.8386093220433735,
1.7253930391497707,-0.6995050195346421,-0.42587702895152685,-0.02451561114182585,-0.6999223707070944,1.1726945894547343,-1.3313430241026434,-0.41463381000682814,-1.2217281961836137,1.1145349370656208,0.14952804466380235,-1.9083305101499464,-0.27194430772490136,-1.0706754103238663,0.24304462931321097,-1.8279488765393415,0.5379569436674594,0.11760705635890789,-0.26495126884327097,0.45312541028961656,-0.4747482420769509,-0.7906399558794241,-0.22655455114356726,-1.002835432139101,1.249910554136442,-0.049703757721709534,0.7366409589861054,-1.0445433472599723,-0.23777189088063136,-0.33726741401745064,0.12109713521966407,0.5920262907846574,-0.818161812210706,-0.20166787220503912,0.6825743793651727,
-0.48858384168890584,-1.7092886459545382,-0.7129007258155372,-0.5717129672490622,-0.6136235382716001,0.8992643811344018,-1.6483753738917555,-0.7741772114178757,0.5201931076023008,-0.37992851867978455,1.032748554063483,-0.2035750722278177,-0.10556696731733567,0.8262946071147895,-1.5197808174204488,0.5423187713765849,-1.4016087914120452,0.5464978148171052,-1.0729149436368013,0.11756910737479069,0.6152012612219946,0.574028472185578,-0.5681922487706811,-0.7577790309252931,-0.34743414864969746,-1.5650356458840198,-0.23455956365740985,-0.7992457419487843,0.5318157384384196,0.33091518811334447,-0.17145412455446324,0.14263297171239225,1.0416527126803115,0.33054828911093864,1.4217185242204036,
-1.208573339020568,0.399868908808441,0.14753991397706082,-1.0931446932107642,-0.18291163016152345,0.9472164754369672,-0.12788760465280702,-0.3215177071238118,0.7490754434529713,1.0855578197696778,-1.8888401607977248,-0.30363489799664317,-0.1331387985615301,-0.8760237313949157,0.38639568328718615,0.135531698624308,-1.525052104262338,-1.0998005115288647,-1.9164447648255643,-1.2975588296860532,0.30284432910720643,0.7506244559196931,0.36230599134159786,0.6979333224431761,-1.071622165587353,0.6836822569594047,0.17068821234397769,-0.40016036737549465,1.0388601690253583,0.2855047495060221,-1.732073495708584,-0.5384742117107941,-0.40422503296868173,-1.5502030840937813,0.05152449333134799,
-1.1979682999058243,0.5236680187499049,-0.4294303021407601,-1.1753914555489484,0.3762255672752309,-1.52418104151013,0.20284778732583283,-0.33239277563948255,1.061462918195331,-0.9542128004167942,1.1180354888069013,0.7536869265304434,-1.16791900552834,-0.7068406469365882,-0.22119882730440227,-1.5868812021039176,0.72077970901291,0.7399126906857889,-0.6559768226284137,1.1366013887571884,1.145345536777803,0.12312717725611795,-1.3216572141466654,-1.2140339534357707,0.5385946380540039,-0.17169641750065626,-1.6549271966024381,0.5577948002504031,-0.27684649336643485,-0.6046004931238566,-1.6234243655816234,1.0597086790720518,-1.0718793009403376,-0.7769386270626939,-0.9928397508560055,
-0.46549173735710453,-1.6319829351249449,1.0872325576806068,-1.1684167217865258,-0.8733860726633927,-1.2477649145168659,0.2529646497865324,0.5926271211333969,-1.4859336643251913,1.3804357755470122,0.6336548969351485,-0.34423139175682493,-1.1545271493920104,1.1194862922769278,0.2217470289896618,0.23399676028908814,0.03698731991557138,-0.703905461549183,-0.3381671520427798,-0.030635984907609402,-0.9660911067610284,1.3037099624723092,0.16361223804710626,-1.044059278510599,0.7332566144654566,0.6644958778825161,-1.4264928256473188,0.603946320157427,-0.34209062769017423,0.3837491503610493,-0.10111577063640753,-0.36390232918691534,-0.7187054866672508,0.7131077439784831,0.42843140220791487,
-0.7310650978545609,-0.32430932242215177,-1.1545074525835006,0.3379991185629325,-1.0665015109539047,-1.3138856299935728,0.479922239889582,0.9523169250942153,-0.5249357252523281,-0.28245445105132483,0.8201483712273974,-0.1946659529027102,-0.2355597232325979,-1.0715453153303847,-0.6504523221905802,-0.2680471901422257,-0.8995059834668453,-0.5390861069108742,0.740396099241199,-0.5390925921665812,-1.301904400247409,-1.4222750760652796,-1.4253928727033576,1.3958561316349516,0.19680952544954322,-1.5094330708616377,1.0300487334783361,-0.33808015497362753,-0.7391470178836496,-0.06706727793757263,1.1720638280937214,-0.49320219335993615,0.6163623798027504,-1.0366010610306116,-0.8041125560588728,

