-0.5473893411705604,0.42808143713982993,0.5294803804283583,-1.9122246388975987,0.1704564356583825,0.8133294171538625,-0.4245111187813566,0.0856179697478856,0.23444238890418703,0.6395146516779715,-0.5716630901400435,-0.21832378991594503,0.8548376871781664,-0.04701387906893667,-0.13903354794515901,-0.48024802773753994,0.4837872524213924,1.448626634608597,0.47358598051785084,0.12776613859722033,-0.08258036510807917,-0.04626030639750235,0.6606518417926712,0.10371989630999862,-0.46869173438800393,-0.32510999005205565,0.37008767635056705,0.8586686716388181,0.43813382253367394,1.114578954892288,0.4346350666649469,-0.19474417944396702,-0.9011587216688748,-0.07076933302340918,0.4889487872966123,-0.20579680354706256,-0.533230354875657,1.0502304207262767,0.6036798449315062,-0.5866909092017609,-0.9823601648565172,-0.8957274482043189,0.5052118344055834,0.018238833481478037,0.34823592351359267,1.4045852495598148,0.865657014749581,0.44875710572475147,-1.0370169063365742,0.4521127287693919,0.3761355493004689,-0.3135217142781239,1.1032877002526462,0.6862673768288479,-0.1482099039161021,0.27794497300392884,0.7977849033074098,0.6556157039656445,0.709031276023752,-0.8621406457576122,-1.5946079846678167,-0.7221796559508125,0.6495556416181831,
-0.6747603019600988,-1.6126695122801074,0.4148734798477917,-0.39453825777026513,-0.8481773768358593,0.3980538073307364,-0.9903232407720778,0.03190437106227999,0.8919946175313224,-1.081836568705479,-0.45738058599821113,-0.6767113277149855,-0.5723070508037497,0.5053723183940845,0.22424114460778805,0.18502302872282683,-1.0273697252135288,0.49948049300145253,0.046540391930424266,-0.07723164666671906,2.02605397376139,1.2511821115330644,0.1842545266525611,0.45193168272801604,-0.9399371946865104,0.9212002945739263,-0.2585896323150237,-0.5360634908396174,0.8671962103819263,0.2269432406103185,1.1315852082209192,-0.6196152731328072,-0.7842402350845489,0.8760892668867745,-1.0873716764999426,0.019361608426011402,0.6922196534403896,1.247867068842597,0.07725466487600838,1.2118513228364691,-0.6930831215838474,0.5344346416519989,0.5062764629569395,-0.15570789914928523,0.3886647320172742,0.14193994297166085,1.2628837630129655,-1.375965508942399,1.2715197618878593,-1.1153802688374872,0.885527582621319,0.10123530749124135,-0.5596017234527731,0.3390765598110758,-0.20140928471656938,-0.19084445705458808,-0.6292494159908489,0.5416969534844399,0.2171403382334604,-1.4995585859623592,-0.7627053032775443,2.00741522464835,-1.5936650869591984,
-1.161270134055623,-0.32573166468288867,-0.6787855289156418,0.21126482065532615,-0.37796414217406,-0.32414087519013496,-0.21253350251175201,-0.954034758203855,-0.6776986949710967,0.31399373071824926,0.29364852620891985,0.6263105879972973,-0.7405399153386664,0.3531222373980409,0.02508771635442965,0.7143908876455843,0.5554786324731581,-0.8461716412251167,-0.31935119931433026,0.13939679980118194,-0.8585492950577339,-1.2416687024604194,-0.9535365764356171,0.9081645236696626,-0.8040319375700106,0.7870454693261579,1.0624875810395644,0.5184041602208518,-0.2431208864461123,-0.23738253378199897,0.037018477900499024,-0.45109212057460585,0.9348097299671697,0.9828339002910798,-0.8616529097250506,-0.1917706954929899,0.7591342020300657,0.4879449022957529,0.13335295658392213,0.25163405623489976,1.720675083764198,-0.6765230433996875,-1.417394746475327,-0.34664053470768713,-0.8104824069736781,0.8238928718073074,0.7709538479082386,0.8225360921109057,0.7059335460411303,0.4121014224281258,0.48447877575551107,-0.48342429443132046,0.5796583503081398,0.3079438829794356,0.2353648506417032,-0.42595402448934533,-0.8505733211181769,-0.5949404701894893,-0.5301606743345918,0.33303239148389946,-0.16869214137472172,-1.1003760621864804,-0.3651326176889054,
-1.244527015830927,0.34086055444702423,-0.5640388373806347,-0.09071719446217236,1.1994549226438562,-0.48323067347641346,-1.1770078815164466,-0.2740610622974723,0.1524044611958102,0.9655367186283066,-0.05621728114091333,-0.145337884497175,0.5994086589658769,1.0068494081128674,-0.7843946173454526,-0.874309535476181,0.11675511883735054,-1.044483476925339,0.1979261196449468,0.04822741259702512,0.4581743549845315,-0.1823581450679977,0.6185200592143747,-0.484449911015006,-0.7452260883421447,9.816740558535634E-4,-0.36657858599794346,0.1332709856639526,0.9009986294352303,-0.6496644542275063,-0.7767008840763152,-0.2912225375733677,-1.0700341952656631,0.8973380361688383,0.5758804132688391,0.4558773535364591,0.2623238780223266,-0.8304726985287427,-0.7703957506959624,-0.7683010129219745,-0.22147081786288908,1.1150228452535909,1.0590137734203107,0.6359998997950131,0.7879646340062341,-2.052492224247258E-4,-0.9103438647781881,0.5408282701015861,1.6340328965487514,0.3612873231178221,0.5505430374886058,-0.49433390928232324,0.8180024757229478,-1.1098424869077723,-0.03808620225697443,-0.4330534148034143,-0.7401415485781988,-0.2601918790935854,-0.2399290770564486,-0.5201988173268897,1.3381692314679419,-0.2768558245855218,-1.2138608058672409,
0.9895484665958723,-0.18046857963691665,-0.24857666674075674,-0.19461673236654572,-1.7775716932280625,-0.2928511500348066,0.722026104049877,-0.8081411632422737,-1.0018450333923021,-0.508929879976344,0.9422086572471473,0.3007112639616912,-0.185866262601998,0.03081423674818262,0.62789994585017,-0.20023123440133214,0.34470808413509507,0.6803594811836238,0.4885818194755937,-0.4538275167132176,-0.14226695080688817,-0.01977342587970445,-1.0429258336158282,-0.06315567422506255,0.31760501484534315,-0.5798920684760047,-0.25125833771697975,-0.3029445031390831,0.40745543775844745,0.3605727686494366,-0.4494584432357586,-0.6146084219054596,0.6401125624635782,-1.3696638089514526,0.4157262843548826,0.2747014625963224,-0.39225025057861157,-0.016472527912560386,0.789063484304193,0.6747363094122865,0.9207848990084264,-1.0757845189288062,-0.7211169767660668,0.933000466014811,0.7230461861338304,0.8240534560125969,1.0931564109054621,0.36330376229797884,0.3559755281593017,-0.6522225035367455,-0.9502843285479158,-0.22328676890525626,0.44453130144589775,0.4052893643170096,0.006481895280854617,0.4993172437044104,-0.03252116283545686,1.0475563789101532,-0.42353487778735693,-1.3917566356990414,-0.9613260794848062,-0.25328857000496713,0.7339783266540052,
-0.8107485993685913,0.24413905123469157,-0.5553050154558471,-0.1674647042592733,0.3945775563281592,-0.03705905834608873,0.5038683889712908,-1.1135556678244758,0.11141229766695956,-0.8729588372952174,0.5637580326290802,-1.5650613470631074,-0.9743337198876018,1.427662219909181,0.7491925256989626,-0.6875343366943724,-0.05593333063363155,-0.3336890501706951,-0.649474381784697,0.45840564652730537,0.34719599324724754,-0.12905426124959263,-0.9529266810606499,0.6929515749125571,-0.33943342261369297,1.2228783761793565,0.44509705718496356,-0.6213916590112323,0.5779918512620711,-0.3182981486537459,0.10735249331341357,0.48756711645740597,0.7215828265009949,0.8886746689401469,-0.7172668077170391,-0.6279171907235778,-0.6583390563995827,-0.8776465896433706,-0.21046743928857253,0.7060533777145356,0.9292331048621613,-1.1734261810896907,-0.7073278485397746,0.30972026764974786,0.15886758902607584,0.5811043675893962,-0.18492728740425746,-0.893516434034899,0.5625502335113967,0.5432238666632366,1.0799045422317521,-1.0278279475343786,-0.8132163728303793,-0.9244145662838522,-1.5344337871952416,0.592246030701612,-1.1300314397347753,-0.396822785942543,0.3716307761598469,0.7788139736217122,1.1945104765483754,-0.1727942868241067,0.739578554814286,
-0.8550242109699256,-0.6262501812113338,0.8200583338016904,0.8953522897295553,0.6130778125567274,-0.5018383437616846,-0.8455171292168978,-0.15130432862079984,-0.7395902581113435,0.230504829737061,-0.6791704798273078,-1.0431137062842404,-0.36285975964178513,0.5213592787886067,-0.4669759188108367,-0.3860997213560335,-0.37031055555858966,-0.0011268603479120437,-0.844374027608617,-0.45150517152996633,-0.4194793863351914,-0.6674528134630088,-0.6263973883178137,0.004936348784153801,-0.5090490521290397,0.31474687583078925,0.06686164603431188,-0.23664343749280925,-1.0652281546455262,-0.7785054093702216,-0.7284420962674912,-0.046697633448749824,0.945199703835706,0.4241634457564711,-0.2904460148419024,0.2682765968667244,0.8054156397396796,-0.6356462770056562,-1.1271540801706421,-0.45903224985909735,0.5470986111678787,0.6067702189213536,0.44274768925253943,0.19592725786749632,-0.10592108142023074,-0.8101461215585445,0.007489513492426809,-0.6466684206715158,0.35871970689464555,0.6589873640599443,0.6040120542513546,-0.16233419187718934,0.21476608529881758,0.3340736827173803,-0.6394175723031511,1.3953395833796869,-0.12013113790673349,0.4106325019871216,0.8266236059075279,1.6847221185726204,0.6361210562697838,-0.1653591338595744,-0.08815032150598903,
-0.39869476126543113,-0.7218665452656836,0.47250941070729535,-0.6695865044083474,-0.7721978348812029,0.7393073593099921,1.4136045007884404,-0.5181040499356311,1.0039782749090447,0.6185550180137516,0.26433351535216587,0.28437497584063337,0.6486255315244467,-0.6246188048761712,0.4853555363053149,0.39045031039257816,0.8864781089413449,-0.30248547033133066,0.490199467786794,0.30378426865160746,-0.29753820422290134,0.8247281430965903,0.6431320865367434,-0.5609081230779618,-0.5906488924444748,-0.6218385856458826,0.35188560962530674,-1.2964518655105506,0.04400534576303173,-0.5405060095705432,-0.8583060287958078,-0.9249489861035074,-1.3272584984121152,0.9362005884233386,-1.1941694581358688,0.9973898636833016,0.19113545572864202,0.04103818781876024,0.5466073732277146,-0.9428493648127951,-0.9532165216091997,0.18173866326149704,0.1856130086889964,0.22949019865075218,-0.4840398382939116,0.51115574634532,0.5874155495754733,-0.22026258511040123,-0.733322551664048,0.7424149782920744,0.5769618969645,-0.01319557260760926,-0.10655550636883045,1.3006736423116707,0.6889476007695561,-0.6411577069327037,-0.969343624018139,-1.7529574816882665,1.1068933872991322,-0.853592792127144,-1.2464940300872418,0.09206244049101041,-0.7507885622018544,
1.0049169908271713,0.4838019393360244,-0.035640665553475025,-0.4914834679276593,-0.7237989667901833,-0.3578411372233611,-0.846490306456397,-0.13902546449704917,-0.7539247294294688,0.08281328344776775,1.0948462814350342,0.4673171436921597,1.1910531563430962,-1.77710174161334,-0.10105805706108248,-0.4647706000096737,0.36370101130390853,0.25853564572388354,0.13189242532477585,-0.6992275494610142,-0.031986041538024985,0.29241129263291366,-0.6997803047493426,0.7738276511168128,0.12639171627164947,-0.6606465561611011,-1.4803044012895532,1.1277880155906588,-0.9367101750403918,-0.5496616438206151,-0.6097777670803518,0.26081115086825346,0.1558741517834582,-1.4442500137880596,0.8336635210597422,-0.7005375236624868,1.0608179385863714,0.8221805441265974,0.054026613879020684,-0.044575116353504675,0.17215017140399608,0.06764408572371149,-0.226168072104654,0.6354895977340363,-0.5667727637849508,-0.559395944379416,1.2685390694545655,-0.4997015471462611,-0.014736581851070314,0.2164853033810214,-0.7017456398600429,0.387342726597654,-1.0823873177844143,0.7120012482227008,0.35292207514553015,-0.5215732707369701,0.9247273812438207,0.9109785592618119,-0.5456931951542877,-0.5416900443656576,-1.207914566127658,-0.9531384853093229,0.20147453876217133,
-0.6745274795916325,-0.5608361937748236,0.23630664366280202,1.0485671453562788,-0.5919467237622853,0.4239815478342317,-0.9736755686675831,-0.7047112782017444,0.8173365443554212,-1.0062224032135114,-0.49604793916389855,-0.709157869463289,-0.18533779989012633,0.09981215741134847,0.5214591740165582,-0.09730909821948552,-0.465798654909112,-0.3955897188558062,-0.005504492154159647,0.4040257125776815,-0.7753303691696467,-0.764395598501439,-0.33115270466830904,0.1211120178710246,0.3680197002346083,0.7317690486068245,-1.0256002851998771,0.5215935637977513,-0.3817588600125916,0.17685017580233225,0.5349884333024103,-0.9728502288587766,-0.5602215258956214,-0.2447217152382189,-0.6392659223242594,-0.3176065425435194,-0.4479609280997767,-1.179187509737741,-0.2631874005827962,0.03195542547103236,-0.12066939826838119,-0.7016270102703561,0.7294774903420815,-0.6867479166114481,-0.6067292728029531,0.007360872365612343,0.26267123301402506,0.42066894774629016,1.133133211731319,0.2992949001683912,0.8322852778612537,-0.8108171908637418,-0.3688907196275497,-0.9446602539607436,0.11198069637711588,-0.46585513554152197,0.3088899559990105,0.6394665200469918,0.24009867004972824,1.2956803923606501,-0.10131830010083723,0.2842788841269378,-0.1299454273479414,
-0.0021284277749755625,-0.007896019750166287,-0.19499427694736832,-0.7590422946397819,-1.1027851477941186,2.3766065542839927,-1.336692057442706,0.4210008084197055,-0.7294692972647039,-0.3347603686599923,-0.4731620578285452,1.011510271740498,-0.5851886045460586,0.586069706904546,0.032435206664448185,-0.08636332506378865,-0.9564378232619202,0.32493405964407845,0.22516002422309744,0.4049735008410446,0.21276463797672612,-0.9050904377457201,-1.0550453767309587,0.38201430349642956,0.4919238706260391,-0.36120457810835277,1.6790023388938478,0.31539636353387995,-0.3940031338070729,0.6770629082433552,1.442092160174032,-1.0043601039603234,-0.35709174704718477,1.0302927240951965,-0.6106794254309906,-0.7488565824616604,-0.02596569239774467,-0.8815190313434758,-0.5229144049612535,-1.3739161052358466,1.0731903743655464,0.5044720986867369,-0.8280452232929054,-0.2519401737698122,-0.14767763751559732,-0.09057566701884555,0.843052807042884,0.8920314467098307,0.5614328860406519,-0.05766526845710737,-0.2693689498777389,-0.3325189183527076,-0.3627970172444864,-0.8252973483136197,0.7421482188531139,0.21532642441874933,-0.4255596446709992,0.1927858822905421,-0.5746934240431469,-1.6692479476393869,-1.2034823281424671,1.4617000858995999,-2.134011014213383,
0.24824727559061674,-0.8527462256095681,-0.9581542668739265,-0.930332367968524,-0.38014816019707687,0.1380083457155526,0.11203818713002561,-0.5094814529173787,0.4635643291717223,0.8293211656680815,0.41973688121484753,-0.14899353950080152,0.4278966575209171,-1.5791434930559347,-0.7182152826793455,-0.3730600494640738,-1.0323072703822234,-0.6698032366661804,-1.0409401062253039,0.041304993136327586,-0.6355769982983637,-0.33471113180734435,-0.7706274953735344,-0.5811257664967351,-0.3195804432545192,-0.8330060845661218,-0.8841076701239863,-0.07236026873683624,-0.09125308740214666,-1.3843529139676887,-0.6397702241793436,-2.0546412589015097,-1.079580337447316,0.34012284698988293,-0.6295953568951342,-0.36923828348564924,-0.8880267685333092,-0.778991766884013,0.25184961622382407,-0.8311302060004515,-0.36979493305248734,0.363610568465087,0.8636650415104077,0.15718720495405564,0.10727428433164207,0.3371904958856724,0.5463155448416248,0.4930860991657853,0.29287314509052553,-0.035291104670880646,0.6269782610746832,-0.026939986988967,-0.7636876113156683,0.8463794755226652,1.4373843326163558,0.017821482852814038,-0.8750286059834835,0.23088266896778553,-0.13287380808122828,-0.42422177239635195,-0.5184766835434025,-1.3690509914033877,-0.4223925547097377,
0.4993301931970896,1.8432557824502769,0.46802219112368826,-0.6084695253301892,-0.247479541902482,0.8900274270788845,-0.03610416659089023,1.5368420073740372,-0.17927454509819019,0.07212134355986934,-1.2791676258123166,1.2237409486602469,-0.08611621885141392,0.1688066684229219,-0.5258068389889693,-0.16932892227382948,-0.02238252675187742,0.2754950487427795,-0.28418216922123285,0.9096820635268102,-0.7792715670103031,0.5418271722480342,1.2986746282079566,0.24784666096265984,1.1478795841073528,0.48339117458982706,-0.5530607502773146,0.2873812374151712,0.6125482162303862,0.5299271631343913,0.16278177253891488,1.0722622847082026,0.9920011621459538,-0.050662308871696815,-0.8612424290884789,-0.1480414726972826,0.5633297088144936,0.4267228952066151,-0.05908280953530505,0.6426257722829204,-1.021770493749772,0.6258685169226063,-0.6460681355140901,-0.5372627910096633,-0.5643526371308519,-0.02097848350841809,0.5937834448984517,-0.9390278592188931,-0.7480293431600004,0.6028787835629118,-0.18908850599400656,-0.1022056087770336,-0.39716255286236135,-0.4047814786853239,-0.5347326357864268,0.44959938145579703,0.2970152372216032,-0.4054522477363207,0.4296774743971452,-1.007855764112191,-0.555318751829188,1.0333878825876943,0.5751880861932562,
1.1355681303600724,-0.15898242067554852,0.27166896225285664,-0.47621078650369963,-0.2280951016097047,0.4475061413529874,-0.7473136008613815,-0.6332959305236103,-0.7497144556377646,-0.7591826846132399,-1.142432804622828,0.5766560482484546,1.3221689663889082,0.2535497571349601,0.5447875336197818,1.0782236336602076,-0.40644258335629857,-0.598371326628041,0.10318351112164402,0.10734740671424871,1.100283694251815,0.38093139892250616,-0.5006828362280844,0.4314499475712752,-0.7751663031262688,-1.5337682706736782,0.874082947055294,1.2884499798043259,-0.001684576452107855,0.20324253849641566,-0.721752164783193,-1.0041315899083259,-0.8582600370574613,0.31894297079066136,0.3350457435241009,-0.04144060551640952,-1.2001652679869041,-0.1338459252603734,0.5428973372058836,-0.24194574631915045,-0.5314870132368485,0.4084920687643687,0.2883294451296685,1.0665281477233954,-0.7740459426388706,0.23389055646064455,1.1977478805131032,0.021784289243475034,0.6745920090924045,-0.054533913474276594,0.4147560132635456,-1.1318708972632476,-0.8054789169254901,0.20885099289307157,1.4200098511133488,0.19839957961298235,0.7661601180968489,-0.27993095161484505,0.08872731227024776,-0.4738812412453832,-0.38702996467462936,-0.9496748206836612,-1.2441517835317184,
0.7584669608601036,0.1427918587643597,0.07882642763720442,0.0777301580212851,0.34112521417643393,-1.4384217012686331,-1.2709542564307945,0.11672986570687142,-1.323740967577179,-0.39187808238107324,0.3363007929418249,-0.9097636740038177,-0.5180678619023414,0.8272270527509851,-1.0428410996810633,-0.40544660646710484,0.8741056366170237,0.6691739550143101,-0.12602544009485614,-0.8524339402305563,1.8335444480235108,-0.0847323029042067,-0.336259538525404,-0.4378510994425707,-0.35815014037229265,1.051139203084509,0.6151772908567166,0.6599694982209807,-0.03588974728431959,0.7491927158844862,0.5814942769835332,-0.4676394045214318,0.4996437688093167,-0.21773904440568917,0.19046522595148577,-0.2281378564429213,1.0995877456080851,0.5043224212619281,-0.1879553186236622,0.8996843014394105,0.4714099596802428,1.1083159883219187,-0.7589177958839319,0.5720180668837749,0.7180075215343538,-0.22653582612869996,0.5427291820621027,0.11390548404284816,1.0644255025960765,0.6303736543953689,-1.0703427897553286,-0.10524791456158673,-0.8091507677052361,0.08229351260085176,0.7652582573291429,-0.03973573914386035,0.39513353472670576,1.019781817205249,0.0659215407331107,-0.15748498532964192,-0.3001748072403124,-0.5996712707225982,-0.7925957997597026,
0.7536279540180796,0.4209411841271857,0.9370987207787403,-0.040107350858849006,0.01865754448057488,0.09900733038562183,-0.5508515232163699,-0.43611230181040145,0.3139078785275349,-0.7747056236553914,-0.1840928122087328,0.4651088431814963,0.9451560217066898,0.9456037681741164,-0.017014725625186532,-0.2017341850815892,0.6232606242824029,-0.8542055023994118,0.36326701124994465,-0.7508198878627225,0.04794049213919885,0.4429189525628384,-0.3292669400714761,0.5147764876853261,0.3895972129395367,-0.6833260737408876,-0.881908000941506,0.8089058057342163,1.1676501492574576,-0.43855767616014585,-0.7084340681908204,0.26840101870503097,0.5728378843693019,-1.0308960957074376,-0.021720203280325718,0.6966049081391702,0.43127517570446544,-0.9632712785957799,-0.5624168742495739,-0.8633027844446511,-0.4939378657957214,1.0885755131729573,-0.3910079260460434,-0.4839866818371133,-0.7079278099537417,0.06342807531834946,0.6739352883019084,-0.43043888842285943,0.37734966971445744,-0.043845290046888905,-0.19595631712930733,-0.5465807741033896,0.18963168065500996,0.0928803799470998,-0.9823249805316715,-0.031043842890402646,0.4680679159544346,0.10216506075801145,0.8773791508376486,0.97526907973142,-0.37357179102850685,0.8563557582143223,-0.10018023459077367,
-0.6718755109410685,0.6827725935112724,-0.029904707433891477,1.0917759630910415,0.517661273264885,-0.8882128382565259,0.532123385371189,-0.6318559945148896,1.651159759139359,0.3482653531919335,-0.4181593109523869,0.3473805032574284,-0.6984049467616195,1.0333404721576118,0.3086678221472803,0.24700576994348966,-0.23566546970536095,-0.5778418131211897,0.7369215966822967,-1.027408641897334,-0.6614344701349223,0.47774353853983775,0.42125054574470555,-1.038656744485446,-0.2865320538170453,-0.5464462233018555,0.2547075036561369,-0.9836614995613918,0.9932287765155233,-0.6354026104580991,-0.10225950762835112,0.6862201620058476,1.0560582384993051,-0.5511346886862154,-1.0543920537755158,0.18679420066537017,-0.5915922772275365,0.6945523044445919,-0.4994556936745801,0.8245918442769206,-0.5488836938162007,0.09018350663230398,1.0374067554059792,0.4023527333173599,0.5158117969010205,-0.19678040600650265,0.5962570793067549,-1.0972254360304536,-0.9229191089495343,-0.5814780419867234,-0.386081747579885,0.5498367799366016,1.3033949048440017,-0.25555002311451347,-0.8956521494489328,0.9773588710917026,-0.80760255920019,-1.3165040357037736,-0.20050147839671778,1.5724030742633188,0.3942923160917997,-0.6482456442578882,1.3745320147330171,
-1.9285339062832483,-0.4702430375095696,0.9097901225391313,-0.8071840567366674,-1.268434594373267,0.4738549499882904,0.5859459221567741,-0.9287695485500992,0.8356393538825385,-0.12428755629209841,-0.1475275105546657,0.3914583342884553,-0.42794592261116676,0.19427650899848786,-0.7880679097121858,-0.8151943348888181,-0.1721337680565528,-0.2447457083615033,0.4715522751737104,0.08092212362126337,-0.5112033508585053,-0.45051864409580017,-0.8915508049074748,0.5856250235768133,0.637869977950064,0.18063220189063803,-0.06689974820941137,0.0858860653348615,0.3218148336303139,-0.8082048239887131,0.2163316405567067,-0.5675327024967378,-0.8448642640995611,1.3387045025975026,-1.0758864740286125,0.6841256366587881,-0.9488128447480361,1.3495648039961856,1.0573369172477287,0.08764117105037661,0.636688881502664,-0.33075571355008865,1.0334913222432978,-0.014345766009128427,-0.3319566645358398,0.3111851924390509,-0.709216097105872,-0.7523757500045055,0.15022969506352332,-0.34435530871579795,0.6399793099580763,0.8069898331868929,0.4901868304514158,-0.9888828098271193,1.291841544688837,-0.8131900577806307,-0.4329464789106619,-0.9453870169117383,-0.2647883968376406,0.42277264986249735,-0.03518263314717471,-0.8148995121691557,-0.21041740326272487,
-0.1966449538059905,0.8330005411166359,0.6393824486193691,0.8381104211292745,-1.5307927511236237,0.8754017071129663,-0.6793817273538106,-0.14158945663832964,-0.05929858944039507,-0.9484755781210523,-0.17353665449387914,-0.06432846916565027,-1.6966879576064193,-0.6423710451507914,-0.48796245819756495,-0.7716300318391396,-0.4209395106779849,-0.3204790284744476,0.4083086126788374,0.2214514544660869,-0.4335136684009137,-0.6977265321892754,-0.012138157913251676,0.35736600049984485,0.6072792228068965,0.6069637444278866,0.24268326054655395,-0.6248206253487335,-0.44046021790078854,1.5767445031535976,0.357534300887347,0.35582275730186114,0.2041671638646598,-0.47344534084483775,-0.8636603697570056,-0.3189894586051743,-0.08110862775848598,0.331057151407618,0.22498724042405763,-0.41372534381705944,0.6739023694023456,0.6574465357695689,-0.43602944546899663,0.05852646798099014,0.7317136128588864,0.6194578863355635,-0.4821768517157286,-0.810063547835624,0.002309990646484553,1.1728947244803904,-0.6644717200698157,0.15926301222725128,0.12492714142725204,0.7931129392129002,-0.5015541187003931,0.4720834148583865,0.5315395138695251,0.3942873570058674,0.38186017504202724,-1.2723585217776567,-0.45740362912258353,1.3981248670888502,1.2494270872141713,
-0.3145316173909916,0.39375137829008516,0.8133619970351009,-0.6240677044632863,-2.0602130698025047,0.09028368017280824,0.1012826358390827,-1.305036201270929,0.9626954878702858,-0.870127360677573,-0.3668414065614078,0.22732474541878547,0.38373162954658396,1.1583240810287572,1.5453992180034282,0.4893420199048029,-0.9236411727564224,0.022451619809284215,0.3033017783886769,0.08941747293507957,1.6605979364341408,1.5056497242821887,1.035185618467979,0.7261016387614381,-0.710442131660139,-0.9224037125645148,-1.383499334872636,0.2993676399787985,0.6291064862953573,0.6768078203962005,1.12142685989403,-0.29314538358951997,0.294680322030804,1.4757759946085793,-1.7085310444801005,0.9240879240476405,-0.3217305322047564,0.4636721721485613,0.2769287982995085,-0.29314198150741994,-0.2736341519040794,-0.12609855022853703,0.3539389182063794,-1.0488432419376494,-0.6651771466566645,0.6413312922547993,1.1325579812883302,-0.7843866162355357,0.3520754853872961,-0.7478968066470204,1.4197479831643858,0.4944340254602509,0.8874813328869946,-0.1628342194686013,0.2701688931278489,0.40926192693732993,-0.4482192440708595,-1.0127648022886822,-0.08207812960255334,-1.9149495001105221,-0.6850709822820322,0.7730718013494098,-1.9266505577544366,
0.31151619915803425,0.8019705555298953,-0.8789906642795577,-0.16967394100293207,0.5410797986672795,0.16105228085611786,0.9108268888378477,-0.26860256562091284,-0.5133612346874634,0.4918625680567749,-1.318595732131632,0.45341746832449165,0.18601252111801006,-0.6701524019363161,0.577023479637029,0.19449799588437086,-0.5356850152716864,-0.13091027969414012,0.2719467287801566,-0.42990687717540005,-0.6803210148688498,0.8804742999607087,1.1514889005576219,-1.3170215287714289,-0.1289083474200486,-0.9363840685541351,-0.8705872178709764,0.43894217684571285,-0.3598943545171673,0.939538530958439,-0.03211239046238058,-0.9069800391495717,0.1802574643185064,0.3005128441099841,-1.1556809102808567,0.9779126106396265,-0.22775595108486055,0.1104631523725541,-0.3642143804106614,-0.915209852968554,-0.953489196966292,-1.3809260281758546,0.6264033186234288,0.13571828183170906,-0.219090211024927,-0.5411515844677257,-0.5917455989940699,0.18693430113359807,0.1559200401477894,-0.6579793204456246,-0.2442220926475354,-0.49302839489707245,0.23168986403478667,0.16234611923645523,0.9483011244816755,-0.6775799171723855,-0.6582384166668727,-0.335847828300818,-0.3687208479123811,0.8363139628940057,0.6949427852229673,-0.9704124879709344,1.0114222426362367,
-0.7613355248454228,0.5078938856862278,-0.6811877636287111,0.03841489966516574,0.36034140613489246,-0.4240682752916029,0.6671456324053553,-0.11763173108178458,0.3871757317158655,-0.2824893842595561,-0.5238118516842667,0.9666520721322118,-0.5134153974358739,-0.6259809598432229,0.17292794225583716,0.6566670410595177,-0.6020091412349349,0.8442553070901986,1.3199822226884637,-0.8640244398964874,-0.38476554911611677,0.021217978982462037,-0.2718543576501325,0.6068970627879502,0.10495946040780961,0.7261023431819977,-0.975465597582305,-1.2863988829097033,0.5761975171812033,-0.23926835898888923,0.5431714308520892,0.1835862613949367,-0.3366692418100164,-1.52718139759426,-1.51605086663873,-0.23834170196720353,0.21357782579185056,0.9203799920261839,1.20211152470455,-0.7044898837280558,0.19653673792987822,-1.0174200333535035,0.991188960167723,-0.21767467156550382,0.7306562618700903,-0.48613504628591303,0.5373746595792734,0.13858337515142036,-0.5403189111459668,-0.18181531101674217,-0.38762513311338337,-0.1842503616441192,-0.7827999099401892,-0.008800750204664412,-0.19231555364444372,-1.1394782772728091,0.7237014276057068,0.7772058045667725,-0.5260044055486615,-0.42654259802277544,-0.03380877898358054,-0.11220189648816097,0.8744884576822574,
0.20719318277441767,0.8642893992828657,-0.9388475930291404,-0.8080435927810572,0.027233068243747948,-0.44749784470232445,-0.10968112770304032,-0.06445128156401705,-0.8007880482869152,0.43457031699154336,0.3215695905547761,0.8719709419378308,-0.004030183271312335,-0.5617046802730793,-0.20203989608677192,0.08792413247711864,0.30093355384361475,0.7061061098780588,0.5991540513844216,0.397111098478771,-2.0287697763215466,-0.6430748277351099,-1.00398383494506,-0.4634432106604426,-0.5671631647793838,-0.3705986273228832,-1.1029608279306387,0.40455885355570465,-0.6781398345026617,1.1073852704309424,-0.03829777230892621,-0.6272260129316061,-0.5632277727086912,-0.6492859291391231,0.03221838961459844,-1.0646891678171326,0.4011704126002056,0.8024246957466077,-0.4883821788398417,-0.8102636182438547,0.3224344472592581,-1.0351425169332131,-0.5243764529084574,-0.39572367346569315,-0.5750361796302306,-0.32589401991854616,-0.8656560549028764,-0.46986052924730626,-1.7205036755119867,0.39072495770015536,0.009817258512854058,0.11394326557580663,0.2881851830515433,-0.022837896684103774,0.9290223003642668,-1.4555107396407636,1.950393263852511,0.0790472600150612,0.03227008034412636,0.29443428157126017,0.14859381522092624,-0.668276513381211,1.1473254950140173,
-0.6197267393042137,0.8855701323899666,-0.18193230398630045,-0.017990635420906263,-0.5919464588251045,-2.0031349726255656,0.5026592419480143,0.5742239907851,0.6060756511693458,-0.0030914409797791953,0.3008191925803587,-0.6674318487833627,0.9237553257124861,-0.27727460318617325,1.0880544878071872,-0.19491802599826646,-0.14912147103630252,0.8791575777112609,0.036651553798769616,-0.7643128328715515,-1.5731591589708636,-0.33507341054018736,0.6489550404148331,0.16658284757417202,-0.5369930327953031,-1.1472784894307995,-1.9957707659051382,0.18539784229870493,-0.06686391192790038,-0.26140983482977054,-0.4928887808765833,-1.1198034950255473,-0.009910735576801876,-1.5762499330646396,0.404298990803575,0.8726312877884262,1.2030439841666372,0.2984584066874565,0.9822916612648286,-0.8243061212681989,-0.3888023481029367,-0.44923895870860164,0.1820446146253506,-0.7482685669940862,0.9277669574223893,-0.7448985009129955,0.15308359887788392,-1.3907034928419928,-0.7440775733873545,-0.7583101834552285,-0.05787133716028315,-1.2366518515759273,-0.7932020840873378,0.39636746161852443,0.6777675170952281,-0.07361461872955645,0.29941090251767366,0.004254006648670575,-0.43194071542311707,0.1111799736770397,-0.843838686325375,0.514233865502615,1.7635080698773566,
-0.9737818047533223,-0.1364273711696933,0.32350619953267584,1.0929246535128816,0.5039858975712718,0.6482422018522677,-0.8668873861751137,-0.39084346528281916,-0.296437750125036,0.05039270229461748,-0.11235893624826283,-0.9597103362928893,-1.2302307368611547,0.6125955377237006,0.5820684371398869,-0.8974936677187159,-0.05058109511771452,-1.0720005830713653,-0.009137627213194947,0.8791565424329751,-0.4484353155142616,-0.19029899763772484,-1.233979233637551,0.608186721380041,0.005672749729580672,0.5533974273060017,-0.47770468735955834,-1.1096830343475184,-0.9895748606280695,-0.5191652128334265,0.152564294655746,0.9411913685432355,1.1239588742785493,0.9370796100819215,0.24456669214558655,-0.046826764921586224,-1.1386108211951098,0.3232422869201867,-0.03804530350595867,-0.05539465894305961,-0.6602899193587491,-0.4648375208533943,-0.7336221236637542,0.6268188912713274,0.2912330684963946,0.18471121159402237,-0.7523912352403176,-0.5059853428815283,0.4937563385699318,-0.7991494703325986,0.8971603393409943,0.3596817884890596,-1.1345172486752315,0.1572766597392729,-0.607877029242187,-0.14792487772954444,-0.007566348488918803,0.172795816912362,0.6974521872190166,1.2290742520901838,0.5414050198310274,-0.5960694625227471,0.3749369902021826,
0.5643748493676679,0.20107908993654075,-0.2747004102590222,0.34273725234194946,-0.4432773796447618,-0.9896492461060261,0.7871003981058324,-0.29926453836830197,0.19630301342257864,0.06341381537042595,-0.48644458612755886,-0.0570745268072158,-0.706954051298067,0.7729405971805359,0.9821003232182306,0.46751056649492484,0.9802879333144112,-0.013129724505905799,0.09337284517772781,1.3467564496531328,0.9814610522570377,0.8133783518557842,-0.43815601474901655,0.1472188018683437,1.2594650285296913,0.5093442261327852,0.594430540094768,0.614338860898556,0.15670505600225487,-0.6580165414276344,-0.1774323480530426,0.5303504227231832,0.7021710431521417,0.4318827754379601,0.5564066163439304,-0.6696686462625661,0.16758671235904235,1.0331408772266222,-0.031575975878144036,0.7259863849101484,0.8366178300094962,0.013424160397219942,0.5349802283610146,-0.6608492067311689,0.7874905940226113,-0.05500610521020825,1.2468579923022844,0.1971371088710218,-0.8815534636171125,-0.002049244065451302,0.2885372185486468,0.687198798055551,-0.257530371515416,-0.5077918148563552,0.5304106494272531,0.3995691761335142,0.662871925019862,-0.5946912944454249,0.44714978820507567,0.4097647468363356,-0.7131833891788113,-0.6689094300657463,-0.08488878046430834,
0.23931808228342805,0.5309382433555155,0.16696098284738,-0.08114227232563129,0.19978724298485362,0.32803991676778044,1.3279965188711926,-0.8713917801840015,0.9326225580685085,0.20911058042104794,-0.049795348315439525,1.254341821781568,1.2760795285396047,-0.4523676373616456,0.10727399961125123,0.6248316328128155,0.7151548706597187,-0.8750830231090777,-0.519178894370929,0.07189104490330472,-0.5030759500409374,0.08573521691736369,-0.8149425271668157,0.06390826639885389,0.675042308849762,-0.7835741273415232,0.6215903765047718,-1.3101284915548348,0.7121238046335227,-0.7962170961398504,-0.27672849455942833,0.2133248946767672,-1.2485320186756603,-1.0525260576153068,0.5107053557101494,0.23563523667617547,0.11063767985938885,-0.8940034042413908,-0.920697787874771,-0.38704659874094355,-1.063084444506755,-0.3170834329460887,-0.058597123993215185,-0.35902633077449925,-0.08069464998654875,0.06479170149125807,-0.02192023913882897,-1.0168566204112182,-0.7345587737021312,-0.37779794948910933,-0.4494823306133681,-1.1538592291879093,-0.8223479840472202,-0.5816459157158315,-0.7187623859456337,-0.3372921118392301,0.8071082533048207,-1.0499333139340254,0.14331371669908266,0.9555622354440924,-0.2766200138009394,-0.9356228699494132,-0.4524733408327262,
1.3797224235600247,1.0981908759384384,-0.3649530902671506,-0.38792608296004805,-0.7458411511252911,0.38075650293502605,0.008964779359400453,0.7695363512721629,1.0263682986678608,-0.3868141747129845,-0.7791157867353999,0.2187360713331879,-0.3039436214865028,-0.6813854500360363,-0.485274021606794,0.9269864295293235,-0.6041814164178858,0.6033774730242925,-0.10556048370465977,-0.2687765359095915,0.15318831331201277,0.04032575826616047,0.7638806952558943,0.5404724839454391,-0.24295123573661526,-0.6884953429342342,-0.19679994919129573,1.1348141630315498,0.04471263146041614,-0.053602233023153784,0.6544394094211587,-0.9086603064192731,-0.7122379684371238,0.8658284501990228,0.6838415289202826,0.383345652607484,-0.48877951680763587,-0.4684860904244261,-0.5975420540952712,-0.8850392071348967,-0.8211280792858096,1.4883451658377598,-0.11683311381084503,0.918029619973679,0.13727078469310466,-0.9138132162607775,0.0940714941638345,0.21750452718504748,1.1794164746043165,1.1912870514370721,-0.17257159318883702,0.41894667781368056,0.2479902896920277,1.0015904272124019,-0.5496637328148095,-0.3176262079005775,0.6525066000128319,-0.2099564152026388,0.10718679670778365,-0.9614867784551646,-0.4456708484386751,0.6791197915669733,-0.4173278691448784,
-1.0435258166081849,0.1627448703756877,0.34216043921302636,0.7246440678054822,-0.37808924451510867,-0.8187462601665396,-0.15830280901450058,0.6392147461532747,-1.1418072979344056,-0.7912528000870016,1.2715563962016454,-0.8890528849265165,-0.27024362695543164,0.4077685786527803,0.08701557894902373,0.7128530806103677,0.008557863766755974,0.30098024062121637,0.8485733122378145,-0.20020983087597993,-0.7115146853923264,-0.4294668513518139,0.7228065832156592,0.04261331057652544,-0.6133197912032464,0.5855764564928805,0.9402743430067924,-0.8479470998362582,-0.4088217138896589,-0.3856016518284608,0.8490590885674425,0.12175469213805014,0.39930960206978344,0.3812566713289885,0.2560346145036076,0.4580613996348842,-0.2589087477755147,0.5740671893907079,1.0477860855616286,0.3207947053549356,0.5581963893306701,0.4002554879352584,0.3639934888731872,0.4743956149080289,1.1768574663921452,0.9693793978276055,1.1954261327250086,0.7004963265746735,0.1899073827162015,0.22698451014638615,-0.6614291938269248,-0.8025043762252753,0.6197024547567282,-0.31485115560818583,0.6243952433880446,0.7634424528484207,0.4275570890304284,-0.8339954392803488,-0.3104383801144311,-0.8452229933714066,-0.9251647511263441,0.0032634250935434828,0.8339503968433775,
0.620098380084711,0.49559144196307997,-0.23293595682018753,-0.7572824199867427,-0.054909055551969226,0.9939449978848114,-0.21684582434731575,0.3882237140029194,-0.8689040718506993,-0.8271146040818718,-1.225518600248436,-0.775324818305118,-0.45074290712921133,0.15969260029853244,-1.2416825843695127,0.28274939373304103,-0.949917419487722,0.8020351503273142,-1.0367133286305332,-0.4695997173221184,0.16893710436674925,0.39667875155344884,0.05029756092589532,1.4014707498104064,0.4561895520091714,0.06157102309059568,1.623867993972648,-1.1867094564215661,-0.16437044135984596,1.289765895770067,1.3833353811213027,1.0286364875759322,0.5641729687382308,1.3074249132088944,-0.7928587309372386,-0.9570602083540547,-0.7406915824411582,-1.0168814887908344,-0.47321122698853174,0.2886545779087309,1.0678680782475514,-0.7296867592233336,-0.1589499552500731,0.7121005799279312,-0.23953131819990958,-1.0945502986525293,0.5343808120719933,0.7492150477064103,-0.8273212095060911,0.7991625790521166,0.24333834093172496,0.3481266465408988,-0.5611162214986114,0.6578862822417317,-0.0402757295431597,-0.26611967448250246,0.6320920749998726,-0.34232587632254935,-0.18146914903688116,-0.4737793525199094,0.004861883988639769,1.0431177564482639,0.2503810947231356,
-0.33036134980559684,-0.27876198938772634,-0.09595104090504634,0.8103018137798186,0.10489510703863687,-1.2792186704276372,1.0714699180314333,-0.0334819503702892,-0.5055146411193279,-0.1385032309296868,-0.19608131036018495,-0.4123615063551712,-0.7614450959477226,-0.6402498608929381,0.6487547325725256,0.4994824652000637,0.45983856705209725,0.3081675924863343,-0.48752067684413924,-0.620890506429377,-0.18754151413831283,-0.2585984599167754,0.34622789525875597,0.38858756640334513,0.11715822385010598,-0.18669463639717582,-2.023131775622,-0.31509827651381483,-0.3595871742313659,-0.2710715596900938,0.07216846353398325,-0.9910200428384721,-0.8027401577227966,-1.5955894144405927,-0.5320228613735578,-0.40028877972725707,-0.192518092176252,-0.9646349449856212,0.7580262919142748,-0.31221065666347647,-0.4922865953618518,-0.917992086831398,1.3382048284508838,-0.5673383174002551,0.15605204155439734,0.0800611932469809,0.04721186040533276,0.018300020425903788,-0.24386654554016018,0.20318830746308064,0.16099045892517289,0.1623144679624336,0.4226636539261325,-0.15617662184638276,-0.029946508891848477,-0.7085384225360644,0.2809638408164081,0.08137456116656593,-0.5724431783651629,-0.5305056762717826,0.08758392863517074,-0.20023581347189223,1.764601411409245,
-1.0517756620093235,-0.6777443985086267,0.7673572049321075,-0.04966871115347953,-0.5620208370353772,0.43024621764165044,-1.2106868766534427,-0.1546209454914439,-0.26998990410968643,-0.30812138337028244,-0.10058148176772463,0.16083942272734164,-0.17136162698374968,0.15951290437598842,-0.20451376324527681,-0.3023934337395369,-0.7884866085996652,0.34509212087403957,0.6314633499653094,0.8866774286160178,0.04174476241963435,-0.7874900940758346,-0.5634631733721175,-0.7426634137304088,-1.142014634609917,-1.1633123252649311,-0.9745036016953271,-0.5607668723617468,0.503126288704543,0.5098900465773942,0.24591373140620337,-0.2311698517396506,0.6430831436900469,2.3576580955546262,-1.0344859129448205,-0.3544377132907209,-0.8146748535564533,0.7005636546478112,0.09827139572613536,-0.9382301830133594,-0.10198565319773176,-0.6171661988671456,0.7870425829318434,0.12472793429439073,-0.38921782984550607,0.5626952260649462,1.2618886610271607,0.31472107664842747,0.641092946445701,-0.7320317639458694,1.5497969783664909,-0.4414206765855521,-0.14931383910821067,-0.9736255686840275,1.0107919460542694,0.1551354489934082,-0.35833426906134963,-1.2800846961449062,-0.7684707804652614,-1.7157013484944639,-0.13802193524412742,1.4374228735979104,0.072627476096563,
0.3792715130351269,-0.707749938688453,0.44497498956447507,-0.5863431336564314,-0.027142543216450786,0.209976344388556,0.32916846003153616,0.49252563192680476,1.3712939728586069,0.2687949041913525,-0.5291397073737224,0.548699745186665,1.1881258736304228,0.31633927717149385,0.3451420688688112,0.92423310817725,0.9262059758779412,1.1040461241621837,0.669821723229822,-0.3646861946255328,0.16959175938408572,0.29059483708914796,-0.6022978740062385,-0.17004563895182667,0.7548969301949245,-0.5289227226435741,-0.01858126071425545,-1.1787378545170795,1.5219627593137115,0.3422166621968212,0.3547218900979821,0.5396330979159868,0.3515970863013225,-0.7023420598042237,-0.05707862177984091,0.8506090393604794,0.4160971297897716,0.02326856885291361,1.1381333367539275,-0.7838835562173002,-1.3333785754907332,-1.5011374112019806,0.27294909646422594,-0.4287309076040618,-0.7783505848103499,0.7176045580198104,0.18841584782621096,-1.0160554753235986,-0.8729850570420467,-0.32391020737361415,0.7844740913770477,-0.38990687633353566,-0.7008167160218145,-0.31799511172138567,-0.2726288314573693,-0.3450291184193121,-0.6441260908942626,-1.2861408751048107,-0.7933541788019763,-0.017714750519295087,0.3477180717175787,0.6236340750647272,0.5543198630557049,
-0.7707832962986791,-0.7024045503326328,0.07124874996793973,0.7517075318027977,-0.6134615922849582,-0.00124377489356478,-0.5699298591047604,-0.3332641679763685,-0.8175355873485532,0.4177398577289051,0.2262139478325426,-0.4548972379613282,-0.8107835043929607,1.065509890682081,0.7531139115076533,-1.0215500346941564,-0.10105922057284444,0.9323307155448335,0.13264912601842857,-0.37824633368782323,1.3245644870592728,-0.843039604369382,-0.37138103618347884,0.8160048078022315,-0.8919054691566746,1.2218735762737216,1.4193281112893026,0.7440901870438457,0.017838946433408946,1.0888426834591267,0.9123440715056643,0.3151880325908798,0.48174624618541023,0.6210496233478963,0.6180196595495364,0.1886637249400794,1.110971806171148,0.7407457886577724,0.4780241045330852,0.017289235763101197,-0.080619299412384,0.19753367475702596,0.5947175021835303,0.9674155037696026,0.5399865327047872,-0.5365536699922135,0.7583108005126498,0.8334561163195786,1.1765302736755787,0.5149898964601329,0.7561099263410527,0.0579984091730402,-0.8712257338265332,-0.6378945719921447,-0.7065085889125888,0.5358823559430622,0.07990555561810672,1.0901393229619536,0.18608310447602813,0.5446359163432895,-0.6529999817478063,0.7326411783956248,-0.5386528734399193,
-0.329680782091684,-0.8509412391935646,0.5215879800657134,-0.22965989772111128,-0.45238004043176955,0.6553070883789195,1.276451586747831,-1.1336888996682637,-0.4491084432096945,-0.1898855494572756,-0.2032945433742661,-0.7422657370260489,-0.9153825931751313,0.5693397366404954,-0.11117336914220284,0.42544864560793866,-0.05363166479322875,0.3779991548125486,-0.011002844550079325,-0.1731599072135741,-1.3278786203135668,-0.166756464248968,-0.13319065773275496,0.3047332642237837,-0.30819318472451457,0.5158685233730697,-0.05602833439626847,-0.7520481482974364,-0.06996874551272346,0.6767144826503374,-0.2512115500687045,-0.8076127501870148,0.25753131696385884,-0.101857463165119,-1.7079368118997094,0.8799512002374307,-0.49175277497387965,-0.5041227168052175,-0.49665734474682366,-0.41979641775418347,0.0521757218928607,-1.980411384435378,1.0176132766388142,0.02000778649990793,-1.036999292477005,0.9053526548233594,-0.48439209946288403,0.544637836534473,0.22754268918406867,0.10819038243213798,1.0867249486288904,0.43247735719467434,-0.3949151579250258,-0.28303774205024496,-0.05863126309685845,0.628862213713777,0.18383757585945681,-0.24018759107275373,-0.12607908370788667,0.29623785302528954,0.3549977870399705,0.038064610747200696,0.74546384888598,

