0.3349667787610797 	-0.988035147620864 	0.12395862820490611 	-0.12223819653930312 	-0.4943365804966613 	-0.13006723456895553 	0.7211008557488676 	-0.24979209469913988 	-0.592334573556081 	0.150852321051006 	-0.08835300613236852 	-0.23325222935217949 	-0.7711316488073265 	-0.33418681899972347 	0.005866082905727765 	-0.8644687614118682 	-0.04920215549992624 	-0.36277530110363165 	0.08615157839174215 	-0.6494368900593315 	0.6513171338436814 	0.7886499048234412 	-0.20964140496451233 	0.16027678250288235 	-0.8716495161905065 	0.9431105716228347 	-0.8308825217848377 	0.6835248726053436 	0.3900943045329792 	0.8105875857143294 	0.749509452678149 	0.4796886101517597 	0.8716399426090344 	0.6630201760413119 	0.7831920188917061 	-0.8215640647003388 	0.11488608259956701 	0.6751854968736566 	0.06526644956383931 	0.13598570746989225 	-0.9119295303213908 	-0.14758228357326275 	0.6808811324386588 	-0.4914352947486438 	-0.6767945687450851 	0.6712045640750293 	-0.4302307733298869 	-0.8799292021479008 	-0.3858460858287496 	0.8262767011568506 	0.8946212480332989 	-0.45021447291536476 	-0.8549646746789938 	-0.19211592440109704 	0.8573963492222618 	0.9773057671492147 	-0.3918948446143182 	0.425530946428718 	0.8283799174841155 	-0.5043070012490125 	0.12220399227711676 	-0.15048000571736142 	-0.5640027709390267 	
-0.15983231002773057 	-0.422674840839111 	-0.740766635138487 	-0.38890302615842964 	-0.22149772101750576 	-0.5921960061019449 	-0.2328425448435496 	0.4876208583802508 	0.7705968132911609 	-0.26391615517490097 	0.9302353795003653 	0.5322790422428076 	-0.07145210663103141 	-0.6690324403410282 	0.8652101885972177 	-0.6909457776412316 	-0.2051504703049183 	0.8887163249889707 	-0.24780066565048164 	0.8800599613143838 	-0.9948057907380612 	-0.22768896243273185 	-0.6591808604544367 	0.0024828484258985206 	0.5136687542837814 	0.5336437335399302 	-0.03424351137012671 	-0.997960408499291 	0.7319688796127477 	-0.7046391413044544 	-0.46623729020620686 	0.48658577854029694 	0.6705841266093184 	-0.6164678703783528 	-0.03837719802361894 	0.909213076903955 	0.968732798476809 	0.47927312111690834 	-0.3752685547669403 	0.3983777351466673 	0.5611547943640893 	-0.003098666294484964 	-0.48151461910757387 	-0.7566960540260448 	-0.34630134194715945 	-0.6018398717102837 	0.0397794311545705 	0.9561107522874301 	-0.3340332617012045 	-0.2835032187932178 	0.5634721066010473 	-0.07218740390679179 	-0.15188940799333106 	-0.30766474256380105 	-0.6812351848381462 	0.3535479978314344 	0.3901977377928372 	0.609736085839421 	0.46301628643001735 	0.32309338348273764 	-0.9836026921271928 	0.176789925095707 	0.7055923913411568 	
0.7559220731975977 	0.2925622196828608 	-0.3934560504946507 	-0.6480701825538955 	-0.7942276745900825 	0.1746117446263704 	-0.5677861385157668 	-0.7819300649099123 	-0.5321096473771609 	0.6864483298127302 	0.5298865297668001 	-0.4915033700302689 	-0.6071816469980478 	-0.9600311613453394 	-0.6761276136648204 	-0.5448080773938466 	-0.656199919514133 	-0.003940008548713569 	0.2143191848195214 	-0.7166010092854791 	0.3305801365472816 	-0.1857050740406947 	-0.10634775942029617 	0.8996620413132457 	0.010575326800189355 	0.7503763943492952 	-0.592141009862339 	0.5902897295839711 	0.46910134708279494 	0.7342003787194475 	0.5705891151986622 	-0.026532485719887644 	-0.026461406106289553 	-0.40225881315637046 	-0.34750505166977885 	-0.534178058310377 	-0.2579731321125558 	-0.9792113386798449 	-0.8548111064595205 	0.6043180307168603 	0.17547948731267238 	0.22389433632072797 	-0.1613511788004609 	-0.29305022003407233 	0.972412029918595 	-0.6382861638897694 	0.4528554951172159 	-0.4392391100067832 	0.07928305025220617 	-0.44374147188397894 	0.6288979409197515 	0.09331169623108493 	-0.4752520042406827 	0.5583993314645541 	-0.7882622902977996 	-0.6862140887761898 	-0.1555700191638436 	0.13729317246949746 	-0.5537259530872067 	0.202509582156283 	-0.9764849468114347 	-0.5287698336720827 	-0.03969261179914585 	
-0.3172682096299937 	0.6676815550658621 	0.04972844095706641 	-0.7775508969914684 	0.3260957789402201 	-0.5414226249238714 	-0.1044684518763952 	-0.4600185463761224 	0.023306756548986396 	-0.14173833152434834 	0.2764911056168624 	0.6011216795305905 	-0.5059194720171687 	0.4977303063597236 	0.5011458444885899 	0.06810062017507135 	0.21553614827275624 	-0.28215176183054735 	-0.12186392259489098 	-0.20808396791379802 	0.11577262111663922 	-0.6732859224671848 	0.4684210394336956 	0.846576911253931 	-0.7905509092444813 	-0.20431315978773545 	-0.12940549177014615 	0.770106165300614 	0.24476527134669168 	0.8370055865458279 	-0.0465777577430917 	0.1515226706701911 	0.3863169695179045 	0.5891389581613522 	-0.8139475424946825 	-0.9825221075570978 	0.9758803351865344 	0.4817011203692081 	-0.984819969639541 	0.3491733813878788 	-0.5067439248584067 	-0.7400228038297367 	0.5997714494111721 	0.49964077685236297 	0.981882743628405 	0.6198020604523546 	-0.8622130292175698 	0.2834171500088212 	-0.5909926918820905 	0.43674002616562113 	-0.994335748752768 	0.07510301081581883 	0.6977781089223296 	-0.33078297552783775 	-0.01984468816803231 	-0.6197571118088918 	0.4987047076963187 	-0.3265412943481363 	0.9234377802131604 	0.03142128171778702 	-0.8394941440593786 	-0.111208271354025 	0.48624845623755397 	
0.4144203323345166 	-0.1845538145852692 	-0.3649312282688957 	0.6201161262769703 	-0.056261363589641844 	-0.9881599146567537 	0.10967997829921283 	-0.011401522959475718 	0.38372341118775255 	0.9064780633047589 	-0.4201815650311007 	0.7287557027700478 	-0.44897791929964814 	-0.3276885737086159 	0.23636792032865284 	-0.5620777570602007 	-0.5639892267382243 	0.4818067825526793 	-0.7910130507546489 	-0.25283450252868356 	0.8453133868365907 	-0.8060384654183108 	0.8376641456877647 	-0.6083511535463115 	0.2944744621634192 	0.7030495763243394 	0.4542244616584703 	-0.7005553406643097 	0.0693048309937001 	-0.2002568785804515 	-0.3520320307498226 	-0.10582964973822473 	-0.8736290757374026 	0.35033707020340676 	-0.7271731194447817 	0.5431498124841443 	0.8175524246644454 	0.6173780478723496 	-0.700871211897937 	-0.11837096316894269 	-0.699454916512424 	0.625080065887198 	0.021257787297798147 	-0.3950949968371942 	-0.06336016282803514 	-0.38451394270332684 	-0.8967915865141642 	0.2440528637649675 	-0.020938406844208668 	-0.15358690093954208 	-0.5227704261650563 	0.42726632856169044 	0.4196045748361159 	-0.7502035725393179 	0.20645964997498623 	-0.8223473472938438 	-0.011745568231632308 	-0.200872749391259 	0.08065706848215792 	-0.09034601071229398 	-0.010060371093546072 	0.8272549209405267 	-0.06516717661264582 	
0.960092103284053 	-0.08549139005089068 	0.9909047275859606 	0.46379560846322865 	0.7261643657255197 	0.5704825005227638 	-0.9041610139357101 	-0.3486768117100547 	-0.21845513970733754 	-0.1299150680612966 	0.5766676781965989 	-0.15912414695850208 	-0.296925721064379 	0.33250500853076526 	-0.9321064279188682 	0.9454719745850486 	0.7643492934559382 	0.8743022493771595 	-0.7921461682870561 	-0.6724513183987975 	0.13885025984059474 	0.5203150284546876 	-0.415200457746318 	-0.5246672029633002 	0.8040752328673526 	0.2953876888492275 	-0.43556873632492055 	-0.23954814044024708 	0.9494750916570667 	-0.25331593980734657 	0.6307880469291358 	0.28221673857020857 	0.3648136919900338 	0.2983090376060775 	-0.17253495879323655 	0.08721135453527262 	0.021904464225492193 	0.9544121452656011 	-0.09628750243960482 	0.8985280249188952 	-0.1384967896435203 	0.7439007077111399 	-0.149951876699272 	0.8971895667955503 	-0.3415344269384173 	0.739343092412525 	0.6505914590292314 	-0.9309968306829224 	0.7621043395925409 	0.48459607721540054 	0.28440886857518444 	0.16329346072085604 	0.4950112915430793 	-0.7698575586663994 	-0.7242659136583558 	0.40566593694712894 	0.04243586020119605 	-0.497920717361066 	-0.5769918338950033 	0.7651544887777417 	0.7756409294918021 	-0.7798496067829275 	-0.2707384428421542 	
-0.20318957330564036 	-0.8735159111819581 	0.8321677861490215 	-0.9885623671415238 	-0.1360069287811354 	0.366801459884428 	-0.25337710218930654 	0.18383614112821056 	0.8903252308651559 	0.9449985206473097 	-0.27776065694540564 	0.7909330407326693 	0.6994804319767802 	-0.6064191024958221 	-0.18732754487865977 	0.007410984968582168 	0.47167083631167417 	-0.754813685820253 	-0.033484755649686004 	0.028313477944940324 	-0.12109032520176277 	-0.11899334671557993 	0.4472217171954642 	-0.46018728381772167 	-0.9431772939221172 	0.7843175068955051 	-0.13548732983151068 	0.7911606312911346 	-0.2710108465933396 	-0.7168390197099539 	-0.2017174343489061 	-0.3190302493529056 	-0.47950715423981594 	-0.4599458007897317 	0.747978103377946 	0.22604918576644728 	-0.21942978654555145 	-0.7170731731740538 	0.4548727222339215 	0.7985985708874115 	0.07994218938927622 	0.5703156400712532 	-0.4783847796666645 	-0.4023580318999398 	-0.04337762504606468 	-0.25482442813149175 	0.6928822551438119 	0.9631603685113941 	0.4546961470904938 	-0.34450783166075283 	-0.8370811943173553 	0.3464614118449567 	0.5337675412103211 	0.20621009241991928 	-0.1597966949970393 	0.01790083917402696 	0.5224761112652827 	-0.6441798927239111 	-0.3735723238972757 	-0.07684928274575897 	0.44768664567213023 	-0.21772543652461485 	0.45643463325282285 	
0.4917854192378446 	-0.7083406023385033 	0.6167302533493775 	0.09770933706232499 	0.6570363580911758 	0.012710993274755555 	0.8799449617436912 	0.5224740039266533 	0.8631426183816542 	0.5105795985113095 	-0.44501718336697094 	0.04238826969769538 	-0.5831948255061878 	0.6259102026753656 	0.5912113012821902 	-0.6646891788513558 	-0.8181722775720572 	-0.26601932652938287 	-0.4415993953507169 	0.9955307954176498 	0.3211080169658127 	0.5259901533441453 	0.15606508044831857 	-0.6966687862573608 	-0.4422804644595679 	0.1669367406375577 	-0.6679864695518047 	-0.463301241950135 	-0.7430972217170093 	0.1773127097996985 	-0.6245959736888262 	0.33744860024901224 	0.5233628383938231 	-0.8934500155868008 	0.02342675831085672 	0.3959849264418309 	-0.5366510278977414 	-0.6506496263661599 	-0.6429334122548687 	0.03337185122689057 	0.7785685013102959 	-0.6982602101285713 	-0.9397750430752256 	-0.8636579257938466 	-0.06093305161774887 	0.4618874717008328 	-0.5221908276801339 	-0.659676439400334 	0.3247843014938363 	0.051434730639549286 	0.8322251969350636 	0.3575185650178261 	0.9305735020709631 	-0.7337185665523485 	0.9440378480518605 	-0.08847890573606443 	-0.5029510951024034 	-0.6385193161306029 	0.8513909180164072 	-0.13308686968993166 	-0.7402931987431038 	0.43309587006845507 	-0.1658924203624339 	
-0.16826717658830792 	0.9013410336752399 	0.9805772506434434 	0.5222196066775622 	-0.2373394796130639 	0.7478533300122059 	0.11641824850062998 	-0.9949982813888962 	0.9172220766754515 	-0.23486319870788375 	0.6355548762271859 	0.1554166248445259 	-0.12573816661361104 	-0.5052112262534527 	0.0651746925094503 	0.7462029544015212 	-0.716608796355023 	0.7089876087762526 	0.2863052508436461 	0.35766748770743617 	-0.4939292886262949 	0.26994588502681616 	0.35175433134969025 	0.5635703977846054 	-0.6245615224196153 	-0.5530690565649321 	-0.2793220632757578 	0.43032161202260744 	-0.07105125393707379 	0.773921421594256 	0.2882556537454237 	0.9760328265125382 	0.15733994674822216 	0.42354675663986474 	-0.6903454644868487 	0.9097993118141301 	0.5654021924170585 	-0.9719649991809647 	-0.39933242920158585 	0.7079127497152289 	0.654469364536665 	-0.10452819329251062 	0.24311460837813081 	-0.11746477342078787 	0.3135128706887167 	-0.35024781415882056 	0.4312974816535553 	-0.8403077999748774 	0.5451678756427425 	0.46518450937075717 	-0.9334958586357247 	-0.79272978773857 	-0.045024749156193034 	-0.7282158142980308 	-0.760241177985655 	0.5400339116415218 	-0.0034232475994895317 	-0.42512712441786205 	-0.16127972339464414 	-0.7224955818399317 	0.09255255522645078 	-0.13732299374467183 	0.17283076186588575 	
0.5418694936407904 	-0.5599548881371723 	0.9681977364155863 	-0.26847581028601475 	-0.5430759282219622 	-0.43773557524928774 	-0.7932977595517832 	-0.026497452600444893 	0.9453677650101624 	0.48142541596732724 	0.6277644457586202 	0.3907948951921021 	-0.17938576715944676 	-0.23438162647027805 	0.30086217084678313 	0.9995147809678089 	0.030595203438230634 	-0.35843079306011116 	-0.803885618608976 	-0.12006382689259754 	0.3348702918068003 	0.8671977113382086 	-0.0731784034852967 	-0.5782897020239683 	-0.8173184001659681 	-0.8776645816697997 	-0.6119498347008219 	0.5257495627899846 	0.10842066782186732 	0.30291862075503007 	-0.8444211067923064 	0.17250727726660897 	0.572302796101998 	-0.7065760030452213 	-0.5978941804857385 	0.48708557209135117 	-0.1521271295164337 	0.5442683978294607 	-0.9573110276896377 	0.714806603152202 	-0.7057065359657642 	0.09534707183391333 	-0.16102447499641115 	-0.6334144437782843 	-0.8498039192740086 	-0.43616232277172196 	-0.7281497846542895 	0.20164663719403975 	-0.1527976756119458 	-0.9461494306893281 	0.13471221480449147 	0.6858272342716256 	0.7650520724677317 	-0.05254064893801891 	0.004668571024092127 	-0.9030826566235926 	-0.6633980257513497 	0.1010982273163683 	-0.9834903459711568 	0.5441857460908801 	0.4597872279952375 	-0.90173378741436 	-0.3055895106694091 	
0.8274464926394662 	0.2849664519017745 	-0.1010688983142678 	-0.011120061717788676 	0.2817231431249505 	-0.3801013838813334 	-0.5220200703354181 	0.12155789451878452 	-0.46322937942151343 	0.43092848379887116 	0.8595144429803705 	-0.6419612034729618 	-0.5335812923797945 	0.2177855300650393 	0.3307444669851787 	0.408977363248171 	0.5109027937193735 	-0.5992709787011321 	0.5586850218225985 	0.8023117475209223 	0.026052561664467344 	0.28260033331454415 	0.8348152058952745 	0.2745159199716902 	0.3464101711029506 	0.6346719505422693 	-0.2626888164704113 	0.9963727955048238 	0.8450550945846544 	0.5040099656413339 	-0.8725821803723286 	-0.721163743439458 	0.43111343148904746 	-0.5486040576082043 	-0.414022288327893 	-0.7028706747801232 	0.6466347744761693 	-0.8973186831852726 	0.14808783986682772 	-0.6736962564307505 	-0.19227890238366707 	0.632776281091737 	-0.4916910712627971 	0.999064062363767 	-0.5195032617246698 	0.6003026099836968 	-0.2541952213029073 	0.17673736957591957 	-0.009289514897762974 	-0.5877310484953491 	-0.9417583782191983 	0.1668484897222533 	-0.3635354079609432 	0.6219535998692025 	0.9952322932355939 	0.2258379445761245 	0.8067685309363222 	0.24950995768802575 	0.24656066990659808 	0.5530386297902778 	-0.6956818116278594 	-0.6363634957301554 	-0.8326224433664722 	
-0.6878949368845753 	0.8291046612851174 	0.2739814523149562 	0.9120100790442949 	-0.39133329505026704 	0.8001597083581786 	0.8577811743599588 	0.29998178468496195 	0.8080562078424411 	0.47594813399791236 	0.7805584394630014 	0.3522916005090053 	-0.905459624220132 	-0.3203794681875596 	-0.3304640694526866 	0.812955156232712 	0.753559891498848 	0.34354262647913636 	0.6597471981415988 	0.9102634152974456 	0.3010631132708952 	-0.4417786724791255 	-0.8433430117757506 	0.11416755506975584 	0.2890956368829112 	-0.1560500768284725 	0.14542899536710174 	-0.28934823904268514 	0.3843870031854222 	-0.04080186959441234 	-0.07419050539633876 	0.6409089824733556 	0.1467531249366152 	-0.2820235283064796 	-0.23707882507102385 	-0.757412389543545 	0.8267113148208485 	-0.9908933266317719 	-0.3819083146366462 	0.2823306359366804 	0.45678326578951833 	0.49353372310190435 	-0.13983216534944787 	-0.01671903303619371 	-0.4714608990071625 	-0.6984825125681309 	-0.343404474983122 	0.6281808161594813 	-0.37248646218945525 	-0.5402539895779863 	0.6048732660726333 	0.7581456141256488 	0.5407042823244885 	-0.2508855895381492 	-0.9111843771435577 	0.9891462853335824 	0.5564396789485975 	-0.7728821803103378 	0.8303899670320094 	-0.9673138146054325 	-0.05601844283287605 	0.744508764766437 	0.15671980328716484 	
0.6341134324998376 	0.930307163197966 	-0.5559268205330421 	0.6131742371503983 	-0.16853911626704776 	0.8840921117779612 	0.4500821567821325 	0.7272927498692328 	0.1896605395645663 	0.8719942335450308 	-0.2598203063715332 	0.9646215690372186 	0.47943146192873165 	-0.7300828706461244 	0.537169786615483 	-0.7836337640023123 	-0.35290626948606185 	-0.3079909847385969 	0.4663694218392176 	0.5200942938787543 	0.8610136905370196 	0.14273193843607368 	0.1948970865357582 	0.13854755525149298 	0.9223398792687618 	0.002413717696383655 	0.30246956465468955 	-0.3920454564167031 	-0.6078595547739822 	-0.7757269175930561 	-0.27101742543186536 	0.9160595600334782 	-0.5859919098573378 	-0.04901231152534469 	0.3023550831584756 	0.5814140493816773 	-0.5993502088253329 	0.6514508078671994 	-0.42918158392156447 	-0.9206960635660211 	-0.4950671673689868 	0.8334427603857688 	0.44703604615498205 	-0.20398581822052364 	-0.8896887457171694 	0.4055198347598665 	-0.9828576605417334 	-0.5080391889846245 	-0.5474892531750397 	-0.15849774746001333 	-0.7240082694752674 	-0.884451816106 	0.9238016286613833 	-0.5564795559067683 	-0.47938734787865944 	-0.2665629821950686 	-0.386855664711651 	0.20465728959445895 	-0.33293532990900787 	-0.6707615184683284 	0.1999440019013088 	-0.9601975667950782 	-0.1484009954579657 	
0.27147530162926903 	0.44610406595357666 	-0.5165880950675752 	0.3352266040994658 	0.36298127535866054 	0.2205218393274968 	-0.6545549079936817 	0.9515015575178014 	0.5577373374208416 	-0.7578775255967889 	-0.7281698703365809 	-0.8794711796947798 	-0.3325291336132692 	0.5419806017422881 	0.6733843941438069 	0.797911096078356 	0.6791729161355518 	-0.9779681950054442 	0.06719756150729861 	0.635549961355667 	0.6660166204817024 	0.4273297958469011 	-0.482938474908452 	0.10192219388028678 	0.6979874467549736 	-0.44924192116056827 	-0.435390800180248 	-0.6573470301001105 	-0.35513537921484417 	-0.4464425896948525 	-0.18959613339354142 	0.15791240364369363 	0.31302109358780705 	0.9119845437066636 	-0.8657031098116996 	-0.3686355055671027 	-0.031163011737418644 	0.6898699793642804 	0.43695168039158183 	0.6660998009869199 	-0.024648972208232145 	0.5887960974585202 	-0.26049161162613443 	0.966188565415536 	-0.9948994830627509 	-0.45793008592700835 	0.49594275778794805 	-0.15180902195253654 	-0.9090697535590073 	-0.5043821065916625 	-0.9472492835253368 	0.6751675507542538 	-0.3621216658201005 	-0.5416166718897526 	0.33316766739349246 	-0.3235670085631226 	-0.55692533842242 	0.9067603003558582 	0.028210461837427925 	-0.5504974868941628 	0.7569161879100506 	-0.8079496292059967 	0.844407882330295 	
-0.46361954805309336 	0.46761162945028345 	0.7268829339491982 	-0.31183709816881744 	-0.8754542156237788 	-0.3974841955196857 	0.4159909217544613 	0.05926946376219355 	0.1436915138744126 	-0.48649809449895587 	0.04868988742649183 	-0.6188167542415073 	0.8124780437912595 	-0.6500512182553286 	0.18485776414903654 	0.5132248953084184 	0.03526423450439431 	0.7217477929710208 	-0.5568306894802024 	0.26997207073451257 	-0.043017657620467054 	-0.18393780551660388 	0.039790135607179034 	-0.5843250150039225 	-0.5449734599219802 	0.65539999222745 	0.9276889430336763 	0.30660745304722115 	-0.6197719990049919 	-0.32911039979700507 	-0.04882000270035891 	0.12184457678655525 	0.9546919393372253 	-0.6865245432530018 	0.05726094559612038 	-0.5469637258394957 	-0.10752375642565992 	-0.9629209453824714 	-0.20523669062728045 	-0.08367730808236984 	0.5297934014089329 	-0.3384010434279674 	-0.9157119337720827 	0.4046175456001939 	0.5346207460763757 	-0.14004866690864048 	-0.4436508253172897 	-0.38393824893279627 	-0.3886916413156898 	-0.6878191213071119 	0.6321038146758753 	0.5745297103440741 	-0.9760251713118082 	-0.06899977933056456 	-0.03950096523702595 	-0.9993534279137453 	0.7331867299154773 	0.4869433840272763 	-0.17238112312891207 	-0.40314501152661797 	-0.5263813643419937 	0.9476479328647021 	-0.28153126474463175 	
0.5776466469175001 	0.1960950284932197 	0.8946079421882271 	-0.6616132158156252 	-0.8938474094036293 	0.9556181346474206 	-0.5079321572468629 	0.09072568944192705 	0.6908639570692976 	-0.45231153397073287 	0.656556408415198 	0.25940072711336537 	0.05133400091190188 	0.978428758422689 	0.3118869357960701 	-0.04064635581584164 	-0.5207113459304566 	0.1997242503171499 	0.9132783211330293 	0.2949345429745265 	-0.6983473846403612 	0.4487961615274081 	-0.2144191019028212 	-0.8943422015535178 	-0.30542458438794307 	0.0023278834870663623 	0.24441656961222247 	-0.8192599496433379 	-0.19738032987389253 	-0.8115335471796783 	-0.044626053410561806 	-0.11171735539927052 	0.8848526995120851 	-0.9042745044840035 	-0.46477542786878434 	-0.20808673182913306 	-0.9603400768550756 	-0.4239814893689122 	0.010456202551289984 	0.017154671740618133 	-0.0473225173340055 	0.8597544212398507 	0.4222467713874256 	-0.1182578460105419 	-0.9326812592615972 	0.3841310245397622 	0.6033304338252405 	-0.3814367004190806 	-0.4050518607345408 	0.2814645046859232 	0.9510354534472822 	-0.10315155578764723 	-0.1381662906878769 	-0.6174036212054712 	0.8821020251206033 	0.28669151161798245 	0.6325876729321878 	0.5611229498200456 	0.5787160695110478 	0.8139355602011598 	0.2548827967787124 	-0.22260569550450615 	0.6215230331981156 	
0.3169094518182052 	0.7378100911339411 	-0.7230652902116037 	-0.8457860971301159 	0.443455803669385 	-0.7936781293019655 	0.056137370855589896 	0.3356041416146607 	0.816143183668008 	0.5667821216467281 	-0.0712084831295805 	-0.991046082395757 	-0.8544911796298189 	0.6737240299437051 	-0.6897986232231452 	0.7546061615873687 	-0.11436894371196016 	0.805493223336702 	-0.8186386782946089 	-0.209152638442053 	0.4032840934340427 	-0.1634669944598257 	0.6038524597333974 	-0.45077577689692316 	0.5713803979858174 	0.13664571849761487 	0.6268315867357972 	0.1743765578056824 	0.1993598179269085 	0.9326434898116427 	-0.5393159124925619 	-0.3152234140455201 	0.7776367584320996 	0.6353782225347722 	0.38761777029638433 	-0.9204091537993389 	-0.35982924593170407 	-0.534779305809467 	-0.9623242353291024 	0.2882109615092143 	-0.161321595065955 	-0.3983654292396275 	0.3793507890187531 	-0.46717359437880046 	-0.22604239560496886 	0.037571652100081065 	0.05718672366705513 	-0.5892592035661504 	0.9442486963218049 	-0.6630094610773349 	-0.44554524972312404 	0.8019620691367808 	0.04751005037419587 	-0.426119239026139 	0.06719650689054957 	0.5689237088244508 	-0.8860618094445909 	0.8737512873907098 	-0.053371689790267185 	0.9390236689972549 	0.347016634500789 	0.18362191591403287 	-0.8998952589552289 	
-0.5530050697029594 	0.9158300185394326 	0.16413175111136513 	0.836541738807987 	0.3629496644156729 	-0.9316666001336924 	0.4274604294057107 	-0.6995962165869039 	-0.3567318021906356 	0.6247200673279134 	-0.26266755667570907 	0.8590623472463224 	-0.3846695748643618 	0.1619838026814877 	0.24245600180446614 	0.5915352151196691 	0.843416665645226 	0.015224924061723932 	-0.6676765535054436 	0.37232085068668286 	0.9219334320153492 	0.5982028081172137 	-0.7156194222357046 	0.9522437269057327 	-0.6965544488241062 	-0.5149099076036545 	-0.48585131408038706 	0.9089306809841022 	-0.307172651235494 	0.19733746142941588 	0.9449624278288791 	0.372740549688942 	-0.9748294697575137 	0.7040108814192803 	0.7815635127899574 	-0.9703264473227347 	0.5939172111650914 	0.2709161145750676 	0.8018700072313925 	0.06098894725154724 	0.5070128656169357 	-0.516721536086109 	-0.8261825909618135 	0.3999631923873592 	-0.6772970720470208 	0.018699419848966503 	0.7592470652361463 	0.969424206446936 	0.45292473304247527 	0.06156372748632388 	-0.11560496552913668 	0.4093996558388455 	-0.27892557252385086 	0.12702513663796244 	0.6366125123638398 	0.21242083598552042 	0.32225693530530464 	0.5021510130809463 	0.8895277116399558 	0.15472729001512708 	0.3579549737542038 	-0.48624068852064983 	-0.5360634364628198 	
0.44481909626507576 	0.10338123204200045 	-0.6030649352444633 	-0.900712280417914 	-0.89349151845933 	-0.7853940884508364 	-0.3348336009392685 	-0.7592935590287626 	-0.22817593695517124 	0.1938803549028365 	0.5724926444917235 	0.039078281643887935 	0.27982551864566396 	-0.39459511438712314 	-0.48998886233219263 	0.41679376579289906 	0.2605885576668667 	0.7701178314674546 	0.9935422104177172 	0.5693315440159086 	0.22932340815935537 	0.9669103317850218 	0.27620398675818114 	0.852936341068502 	-0.3762061530212619 	0.5289999871784705 	-0.44089636624052364 	0.651227027862 	0.6889059599869702 	0.6480243596128472 	0.275303014673441 	0.5186462913112369 	-0.8544604500310577 	-0.8152568423397093 	0.9866706227404494 	0.6662432241956624 	-0.8236020939894373 	-0.6659329523159563 	0.06018519155701352 	0.6853578422926876 	-0.5801444931202295 	0.6034579591480855 	-0.5202916199110013 	-0.7026457965573183 	0.383484874130384 	-0.7624256541503018 	0.9011985598797443 	0.8726269297475204 	-0.027851327964234285 	-0.041636246297683366 	-0.6262110909460883 	-0.5203149139667476 	0.6712447741486463 	0.6886316965578925 	0.02610866977437154 	-0.6948055842215981 	-0.6661034804464412 	0.7884452314395758 	0.4566765392905845 	0.4284370985735195 	0.49158198407860976 	-0.7424430745194344 	0.5691514221331029 	
-0.8612729463977213 	0.6409005447119931 	0.3433639931353889 	0.15767613222176613 	0.25189637486411454 	0.05487761045879935 	0.04274381329962673 	0.6745048275009486 	-0.7879532573512809 	0.3254113054448107 	0.0974376067727103 	-0.6984433584564165 	0.15733780746090464 	0.06416820963307956 	0.2564794368989378 	0.6994921366434095 	0.583662348761901 	-0.027561368561703548 	0.815498350839504 	0.6223619073354414 	-0.24236285952994452 	-0.16383517203391595 	-0.2584524290033339 	-0.03717089585908728 	0.610415033848295 	-0.08944174841894248 	0.053444371268877244 	-0.26757764217767854 	-0.513596630768155 	-0.37057404505122093 	-0.44856904465743597 	0.9832273491502701 	0.8260509375879559 	-0.39247142844353977 	0.4762960459704533 	0.7418787074865298 	0.6294444438702345 	0.4999959938439249 	-0.7730755944097134 	-0.34633275476218617 	-0.6224669950823396 	0.4410292844585806 	-0.12343080393832206 	-0.7759687489283869 	-0.01962179174781875 	-0.49517809494694776 	-0.09802832272256201 	0.2966516328722222 	-0.7230958223227713 	0.9148343094258087 	0.2757786381023244 	-0.27817312964438745 	0.6282014372232527 	0.5732611020696781 	0.8715385527617727 	-0.9542461986171449 	0.22651536835384412 	0.8907322163879234 	-0.008116238855626623 	-0.5092041219785817 	0.884629425204164 	-0.13300780278206403 	-0.24566552059904256 	
-0.5012281762668414 	0.2754298233680952 	-0.09349394922451149 	-0.9445105708145605 	0.6737520522977754 	-0.14098150272351861 	0.9486419303610829 	0.8831950947138705 	-0.9121978604280134 	0.06481698091217214 	-0.8497148648578989 	0.8576137289251473 	-0.3974325646442658 	0.688684208766499 	-0.42055980929655856 	-0.9440609752067131 	-0.8884560814305591 	0.920147833115293 	-0.8384184486901116 	-0.58816394287228 	0.4223351746282973 	0.9324272021241766 	0.46621600293424503 	0.27951005491154723 	-0.12485196172676871 	0.5480048528433057 	-0.1706763435286356 	0.11363729100760822 	0.733232143950822 	0.13508009805375765 	0.7780467305636534 	-0.35978141987029844 	0.8829221935909937 	0.5953184502040634 	-0.24280076745008716 	0.3797450740054207 	-0.554605212397292 	-0.9291133106616212 	-0.2471267962133723 	0.9328935987644995 	0.5292049141521256 	0.82884273594345 	0.5666205775485273 	-0.9497036969023094 	-0.45788029936948815 	-0.32647257473710356 	0.21439298002145502 	-0.8182410073890569 	0.2327212136486343 	-0.8073168918533771 	0.2076242424972008 	-0.06337058212593072 	0.9467021352132738 	-0.8393976790332056 	0.31954469777834804 	-0.31415474753335415 	0.4597320364609434 	-0.49831202250664974 	-0.1519820835563075 	-0.6024804240967219 	-0.8117753531952228 	0.3603845792768199 	0.3568954488828475 	
-0.2782495326384773 	0.5812901511623525 	-0.971482509791284 	-0.5889133286402548 	0.3266680182203858 	0.06160851847056259 	0.7486572663452682 	-0.08375558716848253 	-0.4634380702458547 	-0.9900849712628752 	0.7422011616267203 	-0.6678284686565257 	-0.5657407093979694 	0.9772400430439647 	-0.7965545803272676 	-0.7502458730383046 	-0.236248257035383 	0.5609993402047315 	-0.5440025565791786 	0.6044324736818794 	-0.7946018241948831 	0.1954851210828592 	-0.01454378703669934 	-0.8550768124442474 	0.8948582748436211 	0.4842590005376233 	-0.35763222183112364 	-0.3158915761771566 	0.41823912326709745 	-0.35859653551015325 	-0.047960458510145854 	0.12971224729994368 	0.9397665906277515 	-0.889460025289655 	-0.8271231022921741 	-0.6744130074294998 	-0.39537965563224664 	-0.50502424053057 	-0.48751821347209945 	0.33013518196850944 	-0.09160033572269799 	-0.44070597391289956 	-0.259166993269651 	0.9165961450243105 	0.3360155832680016 	-0.7478439825419319 	0.3324448394135364 	-0.19937051777619308 	0.2466332777292024 	-0.547964345589893 	-0.7755210326711008 	0.38383059427920774 	-0.28238455169641785 	0.4520615289275107 	-0.7046366923032605 	-0.352483225172348 	0.8592474355413997 	0.07709325296203828 	-0.2514514419269749 	0.23932509450598993 	-0.026648581742721555 	0.7656132000402545 	0.7286123862769418 	
0.7658669778116851 	0.8527258483557052 	0.9509666874614053 	-0.2980011809827434 	0.8378872923188754 	-0.4953254872043451 	-0.359061655669177 	-0.5977417717926818 	-0.48992173949935314 	-0.36928301679234066 	0.2216035961072811 	0.4697320942894636 	0.41590298160164463 	0.3059015774811915 	0.20084890310680614 	-0.691795643962819 	0.11848516554696165 	0.4749686066394627 	-0.1410928055224967 	-0.863880396779166 	-0.01817454787618611 	-0.8810588124530403 	0.5877070326329068 	-0.27245409632456385 	0.212307764225093 	-0.7554518287448828 	-0.9222115043556329 	0.9181393321035116 	-0.3713378205503872 	0.2102119867342669 	0.45099134471632096 	0.5939440226504342 	0.18925394882432833 	0.3261625362957472 	-0.06092592481694514 	-0.41405931151534814 	-0.6612287829765366 	0.1525662551419631 	0.7728754556346309 	-0.33916601381497213 	-0.1679123113150276 	0.4683880168685792 	-0.42641623334823 	0.628648397158547 	-0.14872084787325202 	-0.5049696846062255 	-0.2728680934928762 	0.48027820737508464 	-0.047524452568296516 	-0.3673753452610997 	-0.025310985112532602 	0.4232182436783558 	-0.33756562760245257 	0.7031752714269344 	-0.2333262790016768 	0.7012773919658797 	-0.609576144184603 	0.4935863162660803 	0.8046656319462215 	-0.8358431385729763 	0.729206655241952 	0.2529297339119638 	-0.36495373887670834 	
0.6953524874272494 	0.18961965728103491 	0.7221395716198304 	-0.8398471993807886 	-0.18808142959971752 	-0.05355312846788829 	-0.7393520777012617 	-0.5028184274623104 	-0.9827907071837318 	0.2689868818998524 	0.6833035420030622 	0.7420311315802064 	-0.1822088193807465 	-0.032081602935088105 	-0.46775530680942956 	-0.11527183679579234 	-0.2917011767379998 	-0.5892286722806628 	-0.31777634588363934 	-0.6249679487707895 	0.8830838130290226 	-0.558486528166521 	0.41421069132634414 	-0.34873178689673656 	0.951085397869216 	0.8854662180936141 	0.3909311756660523 	0.32239131138698496 	0.5104287253065236 	-0.7710338547111166 	0.3293197540177202 	0.6327353823969997 	-0.9181643806185646 	-0.46610884591138446 	-0.4112982755293797 	-0.6591413554146317 	-0.3949898492693913 	-0.3196247288383349 	-0.6201586072075829 	-0.7916551270122347 	0.4697399610804427 	-0.3732632479347924 	-0.151175360131391 	-0.07862324156053413 	0.8835321524388073 	0.5338492645263551 	-0.09892953181057274 	-0.5426511934280132 	0.27018026337308765 	0.32188791964512364 	-0.6954038443369701 	-0.3392586200777601 	-0.6512615136775104 	-0.48941443686202923 	0.3479866579397548 	-0.8930703678869396 	-0.4400451295563199 	-0.9601623719707957 	-0.8726513641655582 	-0.7904443526642944 	0.5872964599837753 	0.1756970570666303 	0.3978567732516862 	
-0.033456730171501636 	0.8622744263007278 	-0.42249594063301465 	0.8493285589379753 	-0.25820951370654566 	-0.8511422040929355 	0.13509820514184168 	-0.3484085345482584 	-0.9559748930536827 	0.5693408205555481 	0.2807638365133207 	0.16423531870138075 	-0.6087355983808396 	-0.2358915286326304 	-0.8612368530639034 	0.8166694224037971 	-0.9612285983079127 	-0.7296786057093319 	0.09601327509793012 	0.3382340184776875 	-0.3996456934253645 	0.6596207071411009 	-0.8393315159041608 	0.7544416847422939 	-0.5926919664301067 	-0.5074687311154265 	0.821070409947041 	0.8642543121683939 	0.8262506276069843 	0.7273187348147745 	-0.9742671837679753 	-0.7253719064427417 	-0.3034402326537575 	0.8636362508774316 	0.37573076396313354 	-0.5076123204907688 	-0.4499314108495043 	0.8063718276816807 	0.65406649493988 	0.0598186932821434 	-0.6598680162986765 	-0.7973113159939749 	0.41228852371719515 	0.26919597809596585 	-0.9658712472399538 	-0.16467390908846857 	0.4928425337706688 	0.6027926229628586 	0.6129176714276268 	0.5478086269867204 	0.0863361643652969 	0.7187438239550548 	0.7727184915942304 	-0.8677115785226808 	0.2061030466959073 	0.5394667683160335 	-0.06065781451670693 	-0.3716764820637546 	0.3081548586961542 	-0.2018333553411824 	0.08164805567028544 	0.5609744762511146 	-0.807187951421297 	
0.260286633249075 	-0.7494418067488304 	0.7891776758289819 	-0.704991510595937 	0.7605877763538087 	-0.22808734441071787 	0.8404335968170327 	0.00346805141951001 	0.18287270162786617 	-0.4140969698111203 	-0.12457452956719828 	0.7446529586439457 	-0.44180353639678627 	0.35277337078746185 	0.7562626039189078 	0.22558903332683022 	-0.43126660804100236 	-0.3660680845989932 	0.08461958562795258 	0.45037425471282777 	-0.08170023911708002 	-0.29042988694730454 	0.531122080643158 	0.9083813513350061 	0.2668583973130174 	0.40833795191767597 	-0.7050926120128354 	-0.32213277676578134 	0.7251600307193167 	-0.29842211325998047 	-0.8876341199373567 	0.09690635221136956 	-0.7329956374782161 	-0.24592675862085756 	0.8766478537015996 	0.1242674745095993 	-0.15956820273230687 	-0.37478022985967807 	-0.3654015549825227 	0.5460561182644399 	0.4454852753660903 	0.8789819336025415 	0.495361484585529 	-0.22035056760407046 	0.9950090691740046 	0.9879489770232175 	-0.1850292795379187 	-0.8153484788498506 	0.38628037315283326 	-0.393741040414874 	-0.08617422944750475 	-0.48869759496958287 	0.8850967862107464 	0.5381119773955565 	0.5390278900487713 	0.39997475084468936 	-0.3397281331079065 	-0.45695367359741135 	-0.698871594221582 	0.6910977274649446 	0.10531802507034538 	0.996106064676725 	0.39492166942927986 	
-0.28695111816665486 	-0.5545749390440255 	0.860479485760415 	0.056491516298979416 	0.6862589608395231 	0.051670127068492944 	-0.5678570838014967 	0.4137991809504531 	0.9149771950268759 	-0.12927657625068578 	0.8804964742207313 	0.6556783760998521 	-0.4661517869416689 	0.42714181527450257 	-0.26406859987980336 	-0.22581905148957593 	0.23465429591416864 	0.9666708743497299 	-0.8352775290269561 	0.5277958545459422 	-0.3807195983150662 	0.4828038826758274 	0.12359154819582918 	-0.27185917298695306 	-0.39183802901986087 	-0.39482572721921927 	0.3007415323981797 	-0.5296948996116675 	0.6791788071423057 	-0.37281369134463493 	-0.8728870972193659 	-0.4928997885281996 	-0.37983786417800913 	0.3116177083234617 	0.08106911786930104 	0.6100521703754951 	0.9488835432191531 	-0.4632464341751772 	0.011668784984600666 	0.465048878264944 	-0.8124006449431855 	0.3319425421052864 	-0.7298631170827601 	-0.5818677747054506 	-0.2250740497585464 	0.40029140662644114 	0.0660998860754054 	-0.7829948536801545 	-0.4439748466568181 	-0.16245614040098366 	-0.345397197138934 	-0.21360101343202653 	-0.48721846371148936 	0.43001708546144357 	-0.2881207196185458 	-0.9694721551612864 	0.6788573873712644 	0.6507976021946837 	-0.4277008687887489 	0.6734320778537448 	-0.9697866159723303 	0.27222605243777376 	0.875871084605629 	
-0.7719075375807307 	0.5498862871965178 	-0.6259704747847183 	0.6151303171731899 	-0.6722248482316282 	-0.3634808895170052 	0.4502866125594911 	0.5721958899805832 	0.8581440386883945 	0.559340243056369 	-0.6952604190124856 	-0.29876633031949495 	-0.4037430655575218 	0.7579936996434011 	0.4727965252235362 	0.13851511767038005 	-0.607360632982612 	0.44382361659720493 	0.019893038250757167 	-0.7882845563711429 	0.32520750688311195 	-0.8200796137452884 	0.7397125759102445 	-0.9279535149238414 	-0.2911090050689389 	0.9004390715058024 	0.012091981219099823 	0.38727431617582386 	-0.6376168967581486 	0.1754026110557081 	0.8792666926019679 	0.910623761630744 	-0.8864746029357911 	0.43540716440850513 	0.2604390807249122 	-0.3199747284957217 	-0.8325891342056257 	-0.6586509083078054 	0.6484804583800441 	-0.8958870131612706 	0.6663679711904602 	-0.48250465169442136 	-0.8810938368282875 	0.2558360258275978 	0.5385670602479751 	0.4619249848656617 	0.030090922182223867 	-0.6785026692308582 	-0.4379329019334086 	-0.3934311239156989 	-0.5949799193276091 	-0.6575111528786333 	-0.5362994660905922 	-0.7802188309505957 	-0.3413001577071424 	-0.8610563808765923 	-0.17272953303972383 	-0.8724231856393243 	-0.9283212193704051 	0.6189797672494508 	0.6031143391842517 	-0.9246256895957006 	-0.7910405417369564 	
0.5541628371961844 	-0.9088351205757732 	0.9602844481992596 	-0.6550905924179258 	-0.6587316759088324 	-0.5877823225307943 	0.13469035217470582 	-0.1213937745215301 	-0.7276231251074488 	-0.3128063876467855 	0.5150658979086051 	0.710381559091217 	0.39978981643627365 	-0.5882389587949737 	0.3256838964815947 	-0.40084360216631154 	-0.7907955023286237 	0.8437624485787938 	-0.03493184604399602 	-0.36851230759566045 	0.004042747318491413 	-0.3865332759473217 	0.7037456866596994 	0.10707490763171923 	-0.8442215073460264 	-0.7782522145140329 	0.7050603959025119 	-0.6181964198484531 	0.1895639600949428 	-0.39113258695236364 	-0.7934889684151758 	-0.4917698682333016 	-0.9485930997379433 	-0.44338110151791055 	0.607279816303107 	0.8747411545394368 	-0.15739584215663172 	0.32916540522393656 	-0.3216782771351949 	0.4684479453605812 	-0.19090928724222045 	-0.3370131391685831 	-0.8554128252769739 	-0.12679397264915027 	0.4378157292392173 	0.9839244622083441 	-0.5153465630259224 	0.6629761468943394 	-0.8607895416884503 	0.5593930460517895 	-0.048755430586163495 	-0.5379272446291599 	-0.8157337579632606 	-0.8135924543691915 	-0.4631784542656274 	0.6176731775452993 	0.31669415627853503 	0.9711489246253053 	0.8916276832248069 	-0.8337104723995363 	0.7750893634033875 	-0.22662747864262078 	-0.95272185321464 	
0.574732501893126 	-0.6630205353590974 	-0.03095942704220156 	0.20718494658965492 	0.5974256866052574 	-0.5639142215298745 	0.3271380472116312 	-0.16418823776719305 	0.5157558723515261 	0.4060820433607073 	0.001709561635492518 	-0.18804339567887163 	0.011473834865818544 	-0.5314126882404202 	-0.09226709061749272 	-0.49303666331806983 	-0.025012306145643537 	0.21008288009467102 	-0.9204766124060968 	-0.6930345116964287 	0.6607194467390392 	0.9818959436861203 	0.0029405006439866543 	-0.6810296446274562 	0.7755229213916726 	-0.09065287644359299 	-0.6322525400259313 	0.7837926169263816 	0.3224902882403642 	0.010610256237558735 	-0.7959484583282901 	-0.9354480761378616 	0.3213011688604015 	0.30278703686687947 	-0.05316841923623783 	0.9876498852845037 	-0.11240171786643116 	0.7121528030730502 	-0.38486276967970867 	-0.2161529974974814 	-0.422300493471347 	0.10748097542872381 	-0.002377233914006238 	-0.08973815059821799 	-0.6087136559441602 	-0.1601906562773603 	-0.4963446013941901 	-0.37018158636127674 	0.37353613384003825 	-0.20103838738717372 	-0.8306820696222568 	-0.6171294774677971 	0.36949236522866236 	0.18659389905903767 	-0.7997979738300245 	0.706435664142038 	-0.8427018351837734 	-0.042514309678183926 	0.3879676683736195 	-0.26032637782707035 	-0.07675678979099976 	0.19525120847699706 	-0.24477875868656618 	
-0.8000522442068096 	0.8404049826272155 	-0.4344026296705428 	0.8633448508524855 	-0.8779891734059095 	0.3739912181556597 	-0.5702905418338928 	0.36048513019457995 	-0.37643994569233863 	0.8603206241049597 	0.20229834262910806 	-0.44801026900225893 	0.49360897125753955 	0.8927052863037794 	0.10329559106927722 	-0.956842814364081 	0.4958267322459091 	0.09632720211279788 	0.5791368113937128 	-0.16575595946707722 	-0.06280034385521183 	-0.01447030532540805 	-0.6409739767907596 	-0.35974914975520056 	-0.7269287676261307 	-0.22922817183147348 	0.36352772501895325 	0.6630875457214975 	0.30282137155805766 	0.2188225868006246 	-0.5027149975304539 	0.5612962849359768 	0.8561481591639972 	-0.031400167004902446 	0.7346173096251807 	-0.057411903020129884 	0.7781185852345287 	-0.9336132560471564 	-0.1537972062375601 	-0.6529723628732993 	0.49185789761280896 	-0.09201341651597916 	-0.3829963086555319 	0.3937790445238347 	-0.5490496099239397 	0.26170559583003516 	0.4700472826757649 	-0.4680968798720835 	0.3893273819663443 	0.5948803808210614 	0.03762671147188734 	0.6657753667218771 	0.43462146825883674 	0.5379962260284095 	0.4109400937465204 	0.8182708783568531 	-0.1283308371043037 	0.9942689021720841 	0.5511390029294125 	0.9499421302558171 	-0.37395272932936185 	-0.8611075208354968 	-0.34078928885491777 	
0.06999248795858848 	-0.6167688920707346 	-0.6490178971876879 	-0.8209287317912173 	0.8549266734656777 	-0.3328334600307754 	-0.017429490885353616 	0.5477007559001641 	-0.8666624109974925 	-0.8272502669499304 	-0.20715656985075737 	0.8081035739219848 	-0.19963206173582004 	-0.820086640668406 	0.862128906668594 	0.7653310878846591 	-0.007039201513334259 	-0.02728093186890468 	0.8489821324120359 	0.4927562428756205 	0.6870948635383907 	-0.15493887496929815 	0.5650365358221332 	0.6852437525819917 	0.27077453442642785 	-0.5047121097957541 	-0.9838803689552928 	-0.39218866076604875 	0.10162653526702004 	-0.6047487641429901 	-0.7055397680925748 	0.20283199219608106 	0.5755298986381923 	-0.9350020724095529 	-0.9943583780111458 	0.2957790280414645 	0.8127867364277994 	-0.9074812663913119 	0.2752844328034474 	0.7789703262233867 	-0.28908219691806636 	-0.7913246526541713 	0.8042687705851168 	0.1547195811523352 	0.8182451597897584 	0.76062773237131 	0.9276364014425782 	0.8837571312885932 	0.2500034261465329 	-0.4772121540705234 	0.1811389318778014 	-0.3882652405053404 	-0.3012022968525845 	0.9425286174911303 	0.4907282316871795 	-0.4639172166551515 	-0.5161942185897281 	0.6385803857045731 	-0.22588744594218224 	0.9274406401178639 	-0.4618010107397892 	0.25325010528252756 	-0.5201707787135914 	
-0.8656648189074929 	-0.7481642614197956 	0.6053015246493887 	0.3881147481713163 	0.276734202340847 	0.16635853167639536 	0.49853806986788873 	0.859179908295248 	-0.7264443905908387 	0.662404145032327 	0.5118330093609156 	0.638325249695503 	0.8511664120015179 	0.9837142996523156 	0.6295542430916843 	-0.6863379747817608 	-0.2556426572098005 	0.2105131939411713 	0.6670355175007614 	-0.42896969354801473 	-0.5717655987526549 	0.12459490963120956 	-0.8960531719825395 	-0.49796509269931843 	-0.5910807825642266 	0.30114329836834286 	-0.8408775699954532 	-0.6050523858490044 	-0.6470950088707392 	0.21738415178897186 	0.7236056402111775 	0.6745522068984364 	0.14936727233799574 	-0.3142520830559419 	-0.8856255254990546 	-0.04416239612005368 	-0.6233180690788771 	0.49929936223306703 	0.5194143984649056 	-0.46222895522665586 	-0.4161439229433648 	-0.18023124557602355 	-0.524492209186137 	-0.9127865007693095 	0.2995301296071944 	-0.4564032317832414 	-0.24668729534149514 	-0.25063429319046815 	0.745663427682419 	-0.3510156957039836 	0.6200075596393153 	-0.5300377596151169 	-0.14003183432492072 	-0.6429841018998761 	-0.392020365941278 	0.9257592835963229 	-0.5793905524690759 	-0.16749651383279351 	0.6387404456250814 	-0.8663107260028984 	0.8186429318018598 	0.10527601950724796 	0.6344526529450649 	
0.545384482204516 	0.33811414659519423 	-0.08978225256339445 	0.5951572955901141 	-0.7674008875199692 	-0.31930249314421877 	-0.775563287687776 	0.5279927566817668 	0.630387499340064 	-0.08879541939180191 	0.42252318826925106 	-0.41460037376615455 	-0.7712748169279939 	0.002246216109353716 	-0.824065011439606 	-0.6974900525434495 	-0.4104137402922752 	-0.2792149770066725 	0.4901260942783301 	0.919621386775856 	0.11532005072735863 	0.726267957185057 	0.6031119749282907 	-0.5661398912817175 	0.1054964170303967 	-0.5605176812658228 	-0.1382562809474044 	-0.7551601561995722 	0.8132197587272736 	0.493231409902813 	0.1470412867066453 	-0.9576729173901626 	0.44823682388806185 	0.39037877545936084 	0.937513358209513 	0.929626403194197 	-0.6270057497798849 	-0.6282359132810795 	0.6794714681599969 	0.6846012607480036 	-0.9008719682651749 	-0.5640545686741436 	0.775921452803032 	0.530951410166522 	-0.8843037116144177 	-0.045322275661475064 	0.21069553721809986 	0.8255681221177242 	-0.9332052327012519 	-0.607512168520782 	-0.4079337742975313 	0.6634944425953606 	0.3450214791815813 	0.2656627033482204 	0.23015939840505228 	-0.4397814202245345 	0.7785867960891553 	0.6654172271799557 	0.75506548446326 	-0.9082669788988218 	0.7636921272925645 	-0.5780359588456616 	0.7376221470601874 	
0.6559943168092663 	0.9301287764894062 	-0.6993408047360341 	-0.20757733782759757 	-0.6348778101351613 	0.22687703749990162 	-0.5016490254787342 	-0.2773190026678787 	0.4858794517096192 	-0.8241868573692219 	-0.8524872738632321 	0.4091631321206912 	-0.18332283856489662 	-0.03453981419187335 	-0.46230668225471927 	-0.6495276778195997 	0.9225527119765389 	-0.9569525311083587 	0.32827182267291133 	0.029553644267153345 	0.24527226930322943 	0.911970089425568 	0.15345671706637254 	-0.3886376127676705 	-0.23608918463296447 	-0.046930524950936414 	0.7099223452959236 	-0.13078267832086077 	0.10196769133339578 	0.261983291671521 	-0.33057083221032624 	0.6924398478747098 	0.760276984288607 	-0.26885835353233456 	-0.42677333284919317 	-0.9545433970225254 	0.5006773517392205 	-0.09618625379501378 	-0.7580082359148435 	-0.17137776457760134 	-0.18639364927458524 	-0.5110613865482985 	-0.8254917661054801 	0.7335966732782626 	0.8734901352473543 	0.8493006970832719 	0.9102454965942559 	0.8911894703188983 	0.41900076159244337 	-0.7380609593722265 	0.39544911355709833 	0.8771619931781567 	-0.40904335605332354 	0.29850813544650134 	-0.9806925894612195 	-0.528443595306531 	-0.08115396169466838 	-0.7153649040216572 	-0.8237872944953482 	0.4596981851526316 	0.36765462884187916 	0.47114728194691735 	-0.03791198603341894 	

