-0.3351938577769086,-0.02933723977300364,1.0213474465278198,-0.5322931686409049,0.7049678774512376,0.16625689726236936,-0.622585830150618,-0.7180175288085817,0.03585322729745932,-0.7953614550210929,0.307760378536197,-0.324515253772301,-0.23489042311980404,-0.9563839551601399,0.8844622926243555,-1.56387956375336,-0.8565328743707585,0.13213277838536416,0.761539639148843,-0.583845044739492,-0.979663202000594,0.9681460948105862,0.34825863303389504,1.058276733475457,-1.078578787116397,0.058661518074689306,-1.6095506414401477,-1.1285954003619616,1.8138792402670614,-0.32465192165312756,0.3737852781067462,0.3007428484739338,-1.4202991383970316,1.167736269674217,-0.3841394141587306,
0.49069351219401064,1.325648892854834,-0.16675983404976863,0.3767542042071823,-0.922494098921117,0.3240517560401549,-0.1214733182519861,0.0875079795899679,-1.1406781602861567,-1.0640377211960022,0.7987502871991179,-2.0514493934820903,0.3169884402082338,-0.12756791758685643,0.9727973319921299,0.640673793645694,-0.1442231345761677,-0.6895652071606345,0.4616000122939082,0.9058342511436118,-0.5612621700696028,-1.2947113604298386,-1.921598813459375,-1.0916520866191224,0.4201877816461777,-0.28422616698768804,-1.0620749061562833,1.3259142347142199,-0.28532230201977554,0.9762242214006472,-1.2141313970717067,-0.3401809922375296,-0.7929638072636678,1.0175220713272042,-0.7347203967454368,
0.4869083762226265,0.6398509506427241,-1.182807237280293,0.5435152797420183,-0.3934772853087422,0.6527421493574732,-0.4068896278982964,1.0335097895535352,-0.9835383722168496,-0.8198548008251246,-1.624552828299513,0.7312014323889579,-1.0920116255783785,-0.7565639820663729,-1.0088704089694835,0.3135371071814159,1.5451209683345914,1.5345778534718346,-1.5954232338563124,2.1577597279880396,-1.4715084786545696,-1.0284897547317426,-1.3011427275764882,0.8086735882109184,-0.37827064107242275,0.9452651116114292,-0.5723496608331706,-1.1869876454380166,0.23203116024202114,-1.5913089317627451,-0.2739055294434259,-0.42061703252289795,1.4815323712994724,-0.6643349582365591,0.17308174035631596,
0.3143988602598883,-0.9908946251148595,0.6752983132581784,0.4750644657250318,0.6882252738130451,-1.1622170641246277,-0.11400477685967673,-1.2984951876513429,1.5705206799247844,0.29013333701995675,-1.205981062187164,0.6397422920071016,-0.34678668690786607,0.6027532502409275,1.3468987569873772,5.69212359752058E-4,0.00941450437683001,-0.781754987543618,-1.0873692758105422,-0.5563605809549098,0.925118755600551,-1.4272773051837049,-0.2819249705309029,0.8760269468709478,-1.486086515097982,0.6839820750865452,0.16413362795241265,0.3622132403230967,-0.35457275579237,-1.9013262545416563,-0.9179929750457713,-1.5119475471815909,0.06304987585607973,-0.4892397667307638,-1.4733164866633264,
0.057196055373467336,-1.11179187001823,-0.7925322923837124,-1.693068316789979,-0.11825560915709606,0.0841956928002483,-0.44903284725765263,-1.5425281797818637,-0.7292060766803453,-0.5621065049217134,-1.4759592389722762,-1.3888959046895746,1.1123087231385562,-1.131462453466067,-1.3071510869183163,-0.5222829325151752,1.3030235215036583,-1.3409556531867854,0.4836705722876312,-1.4946120777638594,0.668483372785636,0.6566830633727355,-0.009143063253192217,0.669547018855681,0.7569871053525696,0.7815887352240929,0.6293707959551994,-0.5878048474020657,-0.7083057404846691,0.5087522864710907,0.1716526357473432,-1.002036707840378,0.6447973945938669,-0.24120762333933543,0.7034492442382829,
-0.04796631218437203,-1.5442730331628653,1.6407593464213477,0.6067411182158119,-0.9685178001678411,-0.3271794538125957,-0.4972292619713351,0.7888514196240554,-1.3693489696944519,-0.558721385958394,1.3505808576127636,1.0390903119157484,-0.0681505343254694,0.3437196746949313,-1.3815781855686433,-1.3738582066033886,-0.15338956362686113,1.0754474854805132,-0.660848977790562,-1.5742267583341591,-0.2212658057701483,-1.502510514249519,0.6335981816445918,-0.9466359363765041,-0.2930295759035322,0.17694118775986165,-0.45170929755739736,-0.6674016242107296,0.21689126567009176,0.654540348146323,-1.0955494904979481,0.5413135237117142,-0.5446060887058785,-1.015405410199735,-0.16124760749969774,
1.1526935474100466,-0.5669623643814969,-1.1472745504533373,-1.5810302232659148,0.5844330800119649,-1.7230552719701562,-1.9955063408055909,0.7231492291721006,0.5103590306261742,-1.6588572924709497,1.1467758365314964,0.3173902637063054,0.6922019546139538,0.6045620029246614,-0.6254532536512561,-1.1918188023272491,-0.7456895841169022,-0.2710401237929386,1.147100836807735,0.9884040856675993,0.11885380046863053,0.9221215668759016,0.5975648351924067,-1.318220264248303,-2.011776207924576,0.7178563041771923,0.39936816885565707,0.32838181111263737,0.3179329150726359,-0.7396064503166108,-0.04639358129045553,0.06035621035302593,0.8488969503540981,-0.1279692990693911,0.13076936425234273,

