0.6771111074367067 	1.1090679282534666 	0.2373883309750056 	1.097697719890872 	0.7794353890064295 	0.6196927685051856 	0.5884268359939676 	-0.7851643412730935 	-1.3374943927370075 	0.269171852890328 	0.5338872918846292 	0.8058674111788507 	-0.5230903972693212 	-1.1931965285293449 	-0.34654059404768217 	0.485726430070683 	0.21199123505445608 	-0.1482126438051618 	-1.0293529036677525 	0.7811755611638794 	-1.270912342526821 	0.9211207741080446 	-1.4804436214259271 	0.06149229626031588 	0.7271402036846749 	-0.4670547363533445 	0.6831298286175808 	-1.045722324716542 	-1.9764395773990442 	-1.7932865065101056 	-0.45605451568142175 	-0.47420444075443036 	-0.6619586140604047 	-1.3349230513510266 	0.3555643265954419 	
0.807917135545032 	-1.0916274610519026 	-1.4257500352996348 	0.09422418775952027 	-0.7318518498490149 	0.9728174871791244 	-0.16660654171446057 	-0.23986533641381982 	0.04001015038721881 	-0.7225869496755807 	-0.7049660944896788 	-0.7218206594090762 	-1.2522933155317864 	-1.5494410518462682 	0.2515828667958565 	0.9236705584237902 	0.692089057163139 	0.2616388704464148 	-0.23949534066904907 	0.5787243640815617 	0.08136877785093104 	-1.1454257067520188 	-0.9015192517723504 	-0.5119974863843461 	1.1065355914528903 	-0.4787411161227267 	-1.6684997568467779 	0.12219700256031335 	0.14117918011010627 	-0.0682556460738232 	2.007893399047872 	-1.6635917138945338 	-0.526865199170021 	0.1481626806114769 	0.43730281118964176 	
0.15371286138371365 	0.45041420542137406 	0.32172001078621315 	-0.9036380977412876 	0.15328473008319007 	-1.1195376969481443 	-0.4193532848702892 	0.7906748396716564 	0.7832342516569538 	0.6725596281354178 	-0.13826300142217957 	-0.7117860618101095 	-1.7298696376705376 	-0.9248050075045293 	-0.588294202081762 	-1.1572906685284086 	0.7033017872102547 	-0.407265188204835 	0.6491285261917744 	-1.0510724914661023 	-0.12240622698547518 	0.21123253487263596 	-1.758486509727398 	-0.9601306554537273 	-1.523543411886657 	1.8060238261440786 	-0.23583606169195825 	-0.3561186689916235 	0.6362792797443504 	1.012457777608581 	-1.0246093333456225 	0.7902979748170651 	0.24262405870271697 	-0.5040022629641893 	-1.2266452726953063 	
0.22516642530212097 	0.49551615810662025 	-1.2836354066098536 	0.040916521380928175 	-1.6039040840521037 	-1.101242601427228 	1.8206792809799928 	-1.7493837428052947 	0.5582726509278365 	0.972304241166283 	0.8833162104866489 	-0.546260103884769 	0.6964883970114985 	0.43503929780726014 	-0.7472740000938659 	1.0595509599952304 	-0.6482679385807437 	-0.7762321141244867 	-0.5916028158011147 	0.24239285540425112 	-0.2972679543849815 	-0.15861339471705144 	-0.5746141801960334 	-0.1273451410017295 	-1.104042984747625 	0.08758991753852852 	-0.4636958230499454 	-0.4662892642322582 	-0.4866491565269096 	1.1628833001002614 	-0.7694036849261126 	0.15444710373629575 	-1.6842429670278878 	-0.6550397386252657 	1.310458684302232 	
-0.5436573324300183 	0.5518299171325806 	0.6818094041062178 	-1.1900422578105356 	-1.6411036077903323 	0.8420194131155938 	-0.5780464049110078 	0.7430938284440832 	0.4411966281609074 	0.3290060748007925 	-1.4594450480548131 	-1.1979320927535686 	0.8792537778502879 	1.1263495824929506 	-0.6308805159091937 	-0.5094753993265133 	0.13330054429377564 	-0.025906965847579354 	0.02922643048232621 	0.22527057648014556 	-1.3760977957725846 	0.4558890855091399 	0.33027457779294256 	1.066316517381097 	-1.693948417565899 	-0.8432323064350038 	-1.0084521403000215 	-1.5495851306511839 	-0.2760592626641215 	-1.510942010964404 	1.0465710073062564 	0.9173421308263179 	0.41043258267128707 	0.025959721107160084 	-1.147083294064009 	
-1.1482638586953053 	0.22374470029038837 	-0.23896841880116562 	0.9063263131711723 	0.4967911042092846 	-1.4374911709542801 	0.18164169115624015 	0.9825630429300535 	-1.14352364239783 	-0.7576033022778916 	-1.0869715034703917 	1.0288817987187524 	1.159066462105303 	0.6083955635877419 	1.0664933394592322 	-1.3860225923101415 	-0.876185835677719 	-0.737084755015095 	0.842747397017002 	-0.42159387841811696 	-0.8252201483889515 	-0.22728078545347485 	-0.20009506894524584 	-1.134448118589811 	-0.3544108096564768 	-0.4867202807227973 	-1.3661962562994918 	-1.140817688497274 	0.48780016787204133 	0.23262862978507975 	-0.23513798618166964 	-0.7240697062713999 	0.5549951023621114 	0.021717704405514394 	-1.0346646517059668 	
-1.0319250787893424 	0.3460599370533178 	0.7408492954637825 	-1.2495451009780403 	1.3223176176038383 	0.9548024240551856 	0.22278598998089866 	-1.2779534554882366 	0.49983396676647174 	-1.3598896800608742 	-0.09055370554635207 	-0.21471028758511382 	-0.5108821621854615 	0.2309846712661685 	1.2146220326101187 	-0.770397211812541 	-1.0461513625055634 	-0.19782649854257356 	0.7170676320084216 	-0.5323621549518258 	1.3189654841655178 	-1.8491584266364238 	-0.9494875927424121 	1.5631273483685806 	-0.5826343994375649 	-0.707186138873459 	0.14139683315975693 	0.7210018201884205 	-0.3836578100585361 	-1.2369669772069707 	-0.6285444221632298 	-0.07747953855544791 	-1.456941037984368 	-0.8571785701263854 	-0.351243804771526 	

