-0.8990212693562392,0.37258311682166867,0.6872563665387852,-0.01144691467875118,-0.7248437198088256,-0.46732682979111995,-2.309473677140422,0.12051389806264826,0.565039786681163,-0.1705940733129618,0.7872671251750551,0.3995269561527127,-0.42484134334075907,1.1000277266732608,-0.4974448085334123,-0.9017404786116203,-0.3633589645070301,0.486519781056026,-0.8825703974598431,0.4125494311676574,0.2530168112816178,-0.461652426935655,0.09666740284293357,0.9138707612289596,-1.1046571310726905,1.3429604345212578,0.936484598239411,-0.255819995867974,-0.5685705218425421,3.2492042861150715E-4,1.4019259050964108,0.48726793063220153,-0.044797403958496476,-0.11846939766461859,-0.9539330163693012,0.04275228964166598,-0.020152475792764767,0.09749852472047496,-0.631409713528899,0.13778835830436595,0.3708865453145349,0.7531026584302036,0.2276827745587334,-0.44594307690235013,-0.7232811356867765,0.6339426216934692,0.9765890898403753,0.340469490012156,2.162062591882411,0.0778304274824792,-0.3700244397897017,0.5665535544919622,-1.120495548151441,-0.8733544583968971,-0.8999201073177523,0.973015648154536,-0.880593908914777,-0.23059233878982713,0.8098334813570027,-0.7125544272987308,-0.904981316344915,0.7663825426336377,-0.20795342967164346,
1.719941182490708,1.4740238523842986,-0.36049272945213573,0.39834543775450637,0.1612645810129033,-0.8613432396291261,-0.9023607173023379,-0.17110904148357564,-0.13373631392033142,-0.060554826170649306,0.6431506581097429,-0.9677428586640457,-1.329621460700536,-0.18690653929672046,-0.1740581368769993,-0.37660109721924084,-0.2524303776929166,-0.7628644426944035,-0.03466648429544977,-0.78664282678606,0.3117167546644856,-1.0623442830666192,0.04730051451538003,1.3036740506952638,0.39424223208413045,-0.8923118362896861,-1.51681689863698,-0.49353996178902454,-0.9724609753856054,-0.2756725526081207,0.35161538265397646,0.7336736814554777,-0.8044996100031462,-1.045765999847336,0.16892658975445254,-0.9518520773116205,0.5440549443135568,0.609326855554415,-0.8014380127688722,0.5732608258719082,-0.7042676841801153,-0.4556624375667401,0.23795613242578204,-0.2103905595097117,0.18644352009493134,0.4903163306797902,-0.6261375335199216,0.6301665644069167,-0.7717792028241112,1.236291984616449,-0.5736404358573117,0.10736316598850328,0.18480938072523512,-0.7309731446374107,-0.9496315243508197,-1.0208944867311003,1.5767320845614714,1.4866758775939355,-0.17461975756639705,-0.006051482473697376,-0.21467664800619563,0.1386460475173331,-0.013591511194658774,
0.039031553241916615,-0.6517780523304493,-1.2871570006435014,0.2560311744550025,-0.34977864872866204,0.17458603163115038,-0.11081093051946969,-0.47936356517021805,-0.6392761455144674,-0.4563313488348867,0.7463657496350599,-0.7588814790620809,-0.8166186608586142,-0.7513953024123466,0.2097670602916868,-0.9897426570673103,0.1319174292674972,-0.5755616278036725,0.13530890337175117,1.0706775448981871,0.6532496652356429,-0.8015842024010761,-0.5985558269567609,-0.7567975185818779,0.5878154237644116,-0.15420058946112003,-0.5760764760847453,0.03607802791762913,-0.6321205859741241,-1.0227167591619548,-0.8463777574583146,0.2881171442738989,0.6430464726108299,1.1224586596168262,-0.1976980654601348,-0.0904819297190158,0.6241300240351043,1.0078121695621045,-0.1119878398864573,1.006691651541731,1.5332942163487215,-0.41380345776325045,-0.9052688278582589,-0.614399205988683,0.22053767123268386,0.5916683653290896,0.6898973026446901,1.2539852803671743,-0.7282532762168142,-0.6541478050780495,-0.3409983343488856,0.26714917167512187,0.1831045306311584,0.12201402341852537,0.09021968365638947,0.0500940581769111,-0.20177543261475916,0.059508746363256,0.08131362980428067,-0.37853452714567304,0.8447616933637557,0.10904887403218633,0.7553151289572563,
-0.5932052194244183,0.13014107228196561,0.7416915538382326,0.19002515238649367,-0.36827568109915954,0.5841401978174775,0.5229437350233573,0.5948684574622974,-0.6971361862915632,-0.07699629607314022,0.48435485642960857,-0.3274543839478432,-0.39325721166330074,0.30939998558474413,-0.4078179683808325,-1.1366567598980313,-0.869385826480556,-0.8992687925644788,0.39833721545867073,-0.1326613023377716,0.1180124135088116,-0.3104848423131811,-0.26144615394114956,0.8098239627693719,0.08325548548295734,-0.1876921169370275,-0.737797015972688,-0.5560598503441766,-0.7288150940622872,-0.45224986928979616,0.6882319857168652,-0.8904027208524702,0.3897782399948435,-0.31102374196447047,0.12683817084189394,-0.8515838322472601,0.31692826767335314,-0.21653915572577462,-0.1620323276656152,-0.1750932953562166,-1.1597406981657945,-0.876288185851852,0.22642541162846355,0.29303307854321725,-1.1277940683853778,0.4268956130348387,-0.4693616645781443,-0.1168277803282168,0.6685030105739794,0.061846755319002314,-0.6794048062888828,-0.6544859383253355,-1.3445499921786384,-0.9320966506540135,-0.73059262955662,-0.930336371629564,1.0262209382764056,-0.3828977586122492,0.7578763326224235,0.7514917597786294,-0.22559087076226517,-0.015086633917313276,-0.4164858881486212,
-0.3826202749873759,-0.6651330847895812,0.20372161740600403,0.7554425779034862,0.6451103293688226,-1.8146960835782304,0.3024296694192359,-0.5786121053437331,-0.059665678249756125,0.49002492462460595,0.9147000813375309,-0.04620890767705777,-0.49798859468967976,-0.20247532387016987,-0.7818217739198049,0.3504565659138717,0.949003904912986,-0.08964085508503601,0.20406096545892188,-0.46419557774576775,-0.3837605994953041,-0.2240966158428661,-0.8294767874240262,-0.836442399020776,-0.20206402900563736,0.7737277689919443,-1.5992288914783492,-1.1880522457795861,0.8354390932677725,0.011882814810735418,0.07470117982553785,0.3845349605355631,0.26510231371086324,-1.5597872069955507,1.2348440193282737,0.4400417980111098,0.6080801882066692,-0.5892151057542406,-0.327204251351294,-0.3658985922577947,-0.405613172403049,-0.8192487994659988,0.8794187482603161,0.35784179403050326,-0.06215942504128658,0.4683547058412206,-1.0371057640301466,0.6858466521047991,-0.10458340661367445,0.10536415973035397,0.07131235322875192,0.16939730472011388,0.4607059864112378,-0.7108456488562672,-0.6583117509328699,0.3044752765209358,-0.2696896957154797,1.400780386092965,-0.8662784441427244,0.31554692738426543,1.0766473446583926,-1.244142200224814,1.3602070407928546,
-0.4950499909874489,-0.39140898026239257,0.3952262464060595,1.5211836384412645,-0.6955295941321457,-1.362969809100493,-1.237942357151846,-0.18757018309758464,0.32068998335138926,-0.4775611525076951,2.072525394932945,0.4132333917615865,-0.04429624166008496,1.1275810649286366,0.3083446050926019,-0.2016941788877342,0.14134571224737355,-0.2755192545275869,0.01157322515489294,0.35605572529533064,1.5072986354339897,0.757258351006661,-1.2062365888546145,0.576276266254706,-1.4136327028783535,-0.02963527461603791,-0.27398264638213965,1.0495652753075824,0.4626956183485556,-0.4506861487495851,-0.2683346792111399,-0.9627813783850149,-0.6287917354742155,-0.26884773934130896,0.3760916223587653,0.06941047025456827,0.43679273312983974,-0.19357154447763944,0.21815883640596792,0.06684003876017619,-0.4758711076919823,1.3016199689994388,1.2782267178682638,-0.022423441424792113,1.1941677904788908,-0.9466207607236611,-0.0237479124955206,0.06265506029363843,1.3467665346535471,-0.43783127301014796,1.0236156442175939,-0.7275409658140312,-0.9025397610536084,-1.0642806877063753,0.33471403294081387,0.765244087128465,0.0824352349182197,1.0796045362454594,0.45529516641255524,0.38608701459469014,-0.0735464613769387,0.7661981502912224,-0.9649411990101161,
1.609770426379993,0.8795356953512549,-0.8654903653094818,-0.3332970145466593,0.5583266948135831,-0.7936520866952658,0.8319020304584929,1.031782995347543,-0.5011997647096265,-0.6819956612707047,-0.5904912393302418,0.9429957460714277,0.3533100175791306,-1.3822035430441875,-0.7455476711478665,0.2906662617050253,0.39473366507579866,-0.6468000168348945,0.24432169235430412,0.8982053944120939,-1.6843221005931317,-1.1211124151881107,-0.3352721860904416,-0.4804801459717418,0.27968259955260333,-0.5154693514594213,-1.3714012054646891,-0.15956342400732573,-0.07751738810289098,-0.1488665640090265,-0.5196452977194679,-0.3087029210893508,-0.5357866103064358,-0.009764978432380557,0.09785085324823399,-0.5478185085594344,-0.019825854098656837,-1.0923689348152612,-0.4155619325057782,0.43663789372363526,-0.5340449539410513,-1.058595915775868,-1.212090730270525,0.23490729561617832,-0.4002304648293523,0.42447725343148957,-0.48450513444564786,0.7242427346517931,-0.7728718206533166,0.2002904279511101,-1.493307070734619,-0.15992138438433026,-0.19278764739236762,0.4932567348037631,0.5783246936069651,-0.4841257241112127,1.3861093243143607,-0.16426710444263656,0.16390882014276667,-0.10741521635991418,-0.8975262417274531,-0.9759654615281649,0.8125486729402286,
-0.20245252800954558,0.7766720387707732,-0.5666310429294992,-1.5925650903624393,-1.279345059296492,1.5022807552523223,0.014595311509495897,-0.3824588561482987,-0.7298726765883573,-0.7102299153915591,-0.051667167315463086,1.3390833405950606,1.4813905709359174,0.08612591397690147,0.5776936120206914,0.5448544588316065,-0.24304067941548024,0.3576397401788986,0.4148316749770116,0.5144988514350594,-1.2198622814162094,-0.06829532541021222,0.15873849337798407,-0.8457372626206073,-0.4351306909895352,-0.4984338960864904,1.105941452750145,-0.4005944361872456,0.00421123967766619,-0.5133463693296189,-0.12702189401249064,0.09123481313514153,-0.34653418229315014,-0.5006250729658389,0.5843889724208412,-0.23744153406578739,-1.0135952588515973,-0.10489132646428004,0.01623735179846408,0.2122012162022551,-0.5717384083113096,0.3519350521222068,0.1055796006551046,1.051590973836075,-1.0444662406937855,0.2632027559461156,0.29874772441201586,0.5425714810931767,-0.9022534992703392,0.869216437350436,0.3341552299330461,-0.8189167822056157,0.5445681840317499,0.27699663543331227,0.1595236226422108,-0.1055448300774407,0.3672954787672173,0.23455133300242692,0.8572481585807176,-0.8165658689137213,-1.177684269538743,-1.3928610885141977,-0.6435512658472843,
-0.1628983619452259,0.013940520235141474,1.125002696040863,0.6872909559170941,1.4680867301402478,-0.9374086808684623,0.9829715961944612,1.0532994272207445,1.453882500994205,1.3975112289801324,0.924605569666548,0.2835385596114555,0.45091214650034933,-0.4162648721493278,-0.24193527216911334,-0.527343713591977,1.0312489406795922,-0.057500390661377215,-0.9221242455900105,-0.304790333039388,-1.4901745393450638,-0.006555659539883709,0.6998137795845627,-1.2611364448919464,-0.17342543135451544,0.34267157924643804,-1.3646292738035148,0.1496377710609792,0.923244026465688,-0.3960249123602016,-1.6619010625277966,-0.1469782392167876,0.8026765224386787,-1.2525210776994256,0.7097861119949533,0.7933820801255769,1.010307159306275,-0.5597249958802126,0.621180816397259,0.11859163746148704,-1.1909926209007495,-0.3111598426025,0.9874849697958135,0.5596091905271758,1.3649080666901883,0.6087042585081694,-0.3416415507597111,-1.215513737855078,-0.896264289269302,-0.6974049104070299,-0.36205526102960556,-0.29532664717812634,-0.2633995820792338,0.322050008438535,-0.47739849465087,-0.11566344548703422,-0.9176488388367374,0.5902791096176523,0.11889353816488621,1.5195577827911397,0.8076766629359138,-1.5684944350010572,1.7164330241184178,
0.82267053976174,0.053477616903184935,-0.9903897219124589,-0.32832233761325075,0.38279346873621284,0.9339521851790802,-0.7680296609056707,0.49236178485085685,-0.6207735899149353,-0.002381034884848355,-0.32899058539891607,-0.8583605488624864,0.9811646014371691,-0.3359840588740533,0.43038070628380026,0.8926997073746716,-0.2078403839878659,-1.2325665574836786,0.4369573334456159,-0.24063842616871503,0.10013454610759057,-1.0940742702825421,-0.29312782983633195,-0.1429122189672856,-0.3375146818432104,0.37609793317712176,1.2906903927687536,1.6736051438795778,0.34824117518549874,-0.295074569703842,0.5724854460106445,0.04602954812792895,-0.2539640119659554,1.269670374074626,1.219851096693164,-0.1989491217887631,-0.5302336239912826,-0.4326920553023002,-0.43715752065882435,0.1708878115927587,0.7859807102669887,1.7689474600033797,-1.3476172421879284,0.4095378459201809,-0.1908356440067059,0.6724774302598666,-0.9272170925360703,0.1988967612784361,0.1789341724274591,0.7128422335468583,0.1496041210430091,0.357077302077015,1.2400100908220124,-0.04239326826033386,0.662433342956593,0.44235743714403136,0.6760464095439924,-0.7979382720213941,-0.15363326303851563,1.0205696276379512,0.41797641153835013,-0.03011109343620149,-1.605487045030682,
-0.16703692755055194,-0.6496009601637227,0.33744972734978956,-1.6130254413314242,-0.2722868038852703,0.4998984875260715,1.2798424127118304,-0.6500345114307706,0.2778920265898994,0.11871003280259759,-0.630741098931312,0.5108849773026019,-0.5510643762746252,0.6927971118147607,0.9723397862181002,-0.30624840722506513,0.7579407393918358,-0.9740729184937871,0.02799410132082883,0.08821041767979462,-1.1533261794742904,0.061949171364154586,0.10776515730762537,0.09920401559231881,-0.08813706067031471,-0.8790388282064572,0.48345829995600675,-0.2430193263910702,0.8698818090716531,-0.09756467959830947,-0.8625149895507838,0.5729172566801246,-0.3317258533962277,-0.5174890184287496,0.17920140400080703,0.3845762714710367,-0.21408197484152103,-0.3543347512606175,-0.018784061792348455,-0.007308969543076339,-1.089956017918856,-2.2982152663001107,0.7945052944913378,-0.028012553433113693,-0.9439004510767242,-0.2663626221119177,0.7399411913587732,-0.12367388727336345,-1.9297521400110278,-1.2001044515909198,0.6331877302952527,0.12396168090811918,0.20527258899842754,-0.02166700325195583,-0.08656716741476178,0.4408551332847581,-0.6796473970386974,-0.4745326201887419,0.5774953776641751,0.4423865740387641,-0.1578678198863972,-0.09155496603551644,0.01357200989346377,
-0.7162966105099691,0.3952373640823591,-0.8456333724797802,0.40021949080184827,-0.5865017215611199,-0.5238052170827152,0.6679115923665866,0.11324406043926359,0.3252469864938242,-0.8990432177865821,0.12716928194621302,-0.8898469705750591,0.9753362920405357,-1.166671875444171,-0.7776985199100688,-0.1781650013452934,-1.1170205633423838,-0.6306804529154153,-0.42911279254948476,-0.6566302241843491,-1.5426377156486588,-0.45999979589302586,-0.654976545184714,-0.16614960990319477,0.602779244912153,0.04196286408783105,-1.3923718350934644,-0.020346716883806727,0.9042939481859238,-0.1957705154636653,0.48963895173896754,-1.0600090505284365,-0.13844552721445003,-0.28645851637243924,0.18209589824222125,-0.4744377293394231,0.28916215023386793,-0.0248012419233579,-0.04313931360335549,0.4222178918549102,-0.1463941967514253,-2.0120767103530994,-0.8302545856204631,-0.9809406179461633,-0.9747306359132786,0.4966040861729567,0.6334797752186925,0.5234560737070235,-1.2401294655833783,0.6523516827206162,0.5177711021490666,-1.1496938081792856,0.23771447519264532,0.4073181097383416,-0.43219005717637393,-0.09873777498797202,-0.360908663521173,-0.7728786327439645,-0.44369507643130346,0.2954378951265554,0.1465409991509642,-0.8729412386289017,1.293857338286602,
-0.49694495771102043,0.35260872540030724,0.4340004256935482,0.7217026018021961,-0.5861163908421904,-0.4566477294903872,-0.06036999577117177,0.22602439746267736,-0.16185202392229173,-0.6077424513914326,0.3724210125600918,-0.9846322726178159,0.6788610766276348,-0.5361143204020732,0.1692965567260485,0.6916831504757288,0.1671828248994036,0.871053334608731,0.11080587549456153,-0.8553042892248062,0.3493302802803853,-0.6473004253912824,-0.42949543452626077,0.8915361478149033,-0.6164201097583892,0.35125468307474,0.107961317859208,0.6862159091492825,0.4739970737756763,0.1533589926799855,-0.4256900398381686,0.36724787267314046,0.07149844757940127,0.21645789231950657,-1.0923443066349252,0.3217944773894504,0.6449972325380755,-0.694615152727498,0.5966072503310738,-0.9654490640803963,-1.2497935645666858,-0.5761277867183571,0.22038589180170234,-0.7654975921508154,0.2016697044204566,-0.31748107769609585,0.36315730500670645,-1.025700347742509,-0.8872449521307666,-0.05721797033534257,-0.14095374491436688,-1.2645089255011814,-0.5943667308891895,-0.7307206674126288,-1.069825108402489,-0.7057908447658556,0.9005361474877678,0.5785261837992111,0.7278905570263985,0.8361647745001384,-0.011041164553950536,0.9132050203938027,-0.9987286387872378,
-0.8662231460300257,-0.03913059368081423,-0.798458526205753,0.6615209999985544,0.6998142270967708,-0.6819996350621366,0.5136942485897287,-1.0103121636851604,0.9495636875018124,0.2321634968017249,-0.7185238128802279,-0.08168184259493133,0.38859182538606934,4.635706409422793E-4,0.9166883276680985,-0.44774808604735566,0.4355792703051155,-0.6259097886071127,-0.7512844506740503,1.305711515349031,-0.40835990661892446,0.13062002581501028,-0.911825864846887,-0.29257530069469756,-0.11850758738453761,-0.5381123212832285,0.198536650461729,-0.7879956367854436,0.7216141428720876,-0.15970568749391748,-0.7208141968618796,-0.5150696864198049,0.9660877120585863,0.7594418768372745,-0.5473711359801777,-0.6054204057528249,-1.049932951094162,0.1653658125896417,0.5624553111192647,0.7408581552897592,-0.15829804441543868,-0.26612777424168493,-0.08395637478272204,0.1605413323474332,1.2474498446363445,0.0900908019033075,0.1422324606914319,-0.030243812087155764,-1.1180446908776491,-1.1965900871551054,-0.0658845081593089,0.7954207060571329,-0.0033626941371749115,-0.06794631333712264,-0.5016016532758639,0.7598208035080555,-0.6494571118937861,-0.7969706805717017,0.5644399127913861,0.25224239063413645,0.31019496215308356,-0.69400025657835,0.61260259218127,
1.0182999300317461,1.1361492237633193,-0.537445660073486,-0.5652852165893848,-0.3759015341422375,1.8536174812246762,0.47863163511474144,0.270465478177454,-0.11600639005580629,-0.5494439063788483,-0.3209411740456507,0.497499024695662,0.8117144058490827,0.06062442733383813,-0.7341219224911438,0.15967903213865747,-1.3842847370106,-1.070550704182591,0.44835894886280847,1.5301054975072395,-0.14917794255138989,-0.3818919254191876,1.1871836324327203,0.5925037333983372,-0.44825619768845737,-0.6803583951263339,-0.07587160113297531,1.0886741174105141,0.5194296878464287,0.19576890572388367,0.7584019641929621,0.5007132506798136,-0.06302815097238491,0.13042430100216776,0.5414512562199258,-0.9899645749163758,-0.39968335236670116,-0.6887863322971114,-0.24499209179262232,-1.1559396698368103,0.3472928185360791,0.14011281088275826,-0.17872531993420784,1.1510617550031117,-0.8866964054718735,0.6196567682813722,-0.7538422513219095,0.13790023108644117,0.04821044705035132,1.526438737112332,-0.8802338069401391,-0.2821408836813327,-0.7903796226327408,-0.382377005951854,0.08887694757685113,-0.335189999888848,1.6744746972400348,-0.4090272866161552,0.5620372029385853,0.14982862865744195,-0.30567581147506984,-0.4875353874295627,-0.7887447045876278,
0.16085413667291198,-0.4028778925434465,0.17135761288899543,-1.1089056338992536,-0.9903043529887401,-0.8926214232882503,-1.1100107533553105,-1.0758650265030587,0.7618122362478508,-0.44601839428364987,-0.7782197126014188,0.4541475265403271,-0.026441346775568274,-0.9319866518661091,0.10758905205218602,-1.4706006286019093,0.6607973531598494,0.6635542444456606,0.7195263623093071,-0.33889408598047344,-0.7901266420016226,-0.7947604937332768,0.34921944510426783,-0.5833626079635388,-1.2749538085901206,-0.3839852079885968,-1.2830802520082396,-0.4286477278295391,-0.07538354633598399,-1.6227011354564431,-1.1540093027774692,-0.4389056108930897,-0.999427696114445,-0.5755160089832718,0.33120306372286323,1.0223547832632014,0.7251652069034844,-0.9870764102916557,0.8935729714061889,0.0763833177297426,0.20617993737230506,-1.084541150191085,-0.6821079245509762,0.0819540503697804,-0.9661383769829153,-0.3385621894067403,-0.4131420151218441,0.20125643171449853,0.45290854274717207,0.18455518052318448,0.010868398946752808,0.3569921350927793,0.698690641180955,-0.3686599590598094,0.34284282516348125,-1.276698028088496,-1.0823712393519713,-1.1521807281202672,-0.043323839480523554,0.48234617562613885,-1.0106610780362557,-1.1758495366284105,-0.35110228088028095,
0.1001042447121081,0.8009993644011516,-1.251147028941276,0.16456311488399678,0.8318672375256438,1.44545766840863,0.07215274285993689,-0.6701395497570145,-0.9578952157125115,-1.1499138521197447,0.11735088007899447,-1.2047383132710756,-0.6211346616301484,0.7251544305379215,0.11896911596217445,0.08002403389551929,0.560036902828125,-1.1191702194304383,-0.745408185657619,-0.3378978737124141,-0.4126471197707744,-0.736936614486141,-1.0132848324767614,0.0020906391555080943,-0.18861799726957418,0.9238616690591362,1.4414786789662055,-0.7055900971194858,-0.008269699089818996,0.6629590130075181,0.15186258956095267,0.7262477354822553,1.558095608936397,0.2200170310938142,-1.2486352543612709,-0.5655746500630913,0.26425467375790634,0.4957874142977922,0.20159892120020223,0.6609503812985701,1.8794063450175988,0.32204795671825936,-1.0006537779489166,0.6170966106576435,0.8797263238607732,0.9105395044093177,-0.3519389301667415,1.1654960048050031,0.7858770769058908,1.413417585664836,0.14374144338925993,-0.2898320983883862,-0.4396138813161292,0.2716448769892703,-0.5018876057600528,-0.11663489620300202,1.2040781080689462,0.11317697223605641,0.33143689827730227,0.5857901981992989,0.27286473721956733,0.9501634888876701,0.21542813760866258,
-0.9237462621205553,0.20302112906472394,0.26505799467930113,1.006464582376569,0.7666153265304477,-1.0544924920183496,-0.7210722631991556,-0.5401705505309081,0.12298970692360002,-0.6384089922176931,0.6668311441259537,-0.21349644139802496,-1.4851135495409704,1.5332670376082203,0.079010232536996,0.16568541352954388,-0.18224435620752608,0.06816609433326158,0.7032588836873578,0.25638490699959593,0.26570037830249205,0.08384365273755294,0.14564803602579532,-0.15941059536701704,-0.3222156372610927,-0.012745800809088303,-0.8924943881985871,-1.5373883324894162,0.22617394989373144,-0.6625904972700675,0.8339729065555926,0.4011215654202478,1.701144975772584,0.22379541164965042,-1.4534162509610022,1.0218949736500873,0.913218636946879,-0.5469452325447496,0.16731025133177016,0.9800626656101127,0.4272326675182637,-0.8024297943304372,0.677427420042224,-0.5642726810209587,1.0189751814119836,-0.6294368210746139,-0.6324168212319757,-0.5492054838992663,0.6704630881132433,-1.0406290385699417,-0.4747779044083522,0.4651356642595613,-0.18175789035448212,0.6966576514551653,-0.9882259733647146,0.5425944704015995,-1.149548509904396,0.6004963799745769,0.5360419380726563,0.10457302487773863,0.057126254689163075,0.5768216186053795,0.29546368656459565,
-0.15343001216716612,0.7122072837986897,-0.3089941651620164,-0.6081112552179977,0.24446787704948825,1.7237646671699802,-1.0599152660806248,0.6416345299484394,-0.16271016166283195,-0.5794194273174547,-0.6426302371366388,-0.6901950115031652,0.019605095131158403,-0.01676799457035805,-0.02845783688071481,-0.1971216445197772,0.1573258173690653,0.9420927240785846,-0.2537505050525858,0.5203177425521711,-0.437332071753897,-0.4565435021202472,0.3182761168664173,0.5173948424294151,0.0014901081398521268,0.1691112654770533,0.7855230640997053,-1.4389083288907765,-0.9790348952443226,0.04589165460273072,1.6909008011562086,0.31939207900925043,0.41353639785673685,0.6078767048520974,-0.1807374426301698,-0.8073259262167358,1.0158158041563359,-0.4714905287251301,0.4302787474392169,-0.17561928639070462,0.8850956474263936,0.4133598004447349,0.060344537863415905,0.2471138051380365,-1.1420784335472196,-0.952347992077472,-0.4637723545387914,0.8245282312076179,-1.1485675471157522,1.0940227833395109,-0.8487629260362544,-0.2231548948594031,0.3260820232030135,-0.811372681816483,-1.2463178391791927,-0.6595776356153642,0.6963194173820004,-0.45781415670248365,0.25177392516795266,-1.0297047967326298,-0.6444199773702632,1.5807276839588176,-0.8126725314998082,
0.026787477203413856,-0.6068182063146995,0.9531562724257442,-0.9043371477325967,0.16968581619034281,1.6318477917425918,0.8137198041372297,-0.7084957727408735,1.1230187476671418,0.0038852886172658333,-0.6158324878360107,-0.8641690560085803,-1.131340744822736,0.3022559376415233,0.42193242130701425,-0.38299486919686154,0.7078569537700118,0.44310903170131943,0.5257234833652268,-0.2915390146238205,0.014304725508156193,0.12973309637695893,0.3407682926840695,-0.5844132611101437,-0.26572914390529223,0.425558501237305,0.5280309894785729,-0.4567376770617131,0.17574126823118416,-0.5813149695585483,-0.5300758355463021,0.6865898339924909,0.7818831775610154,-0.12142105518300551,-0.36720788540403904,0.596061835609707,-0.3150330507924929,0.04118982520972809,-0.7320873843386541,-0.807259687730035,-0.5393298539837136,-0.9685129360889361,0.39546404205408403,-0.2759790748332387,0.5224165566778937,-1.0127269266662813,-0.12853438533162936,-0.3509954042509139,-0.3602505797073262,-0.3749601877475357,0.6455752423834941,-0.23677056384401676,-0.9071696937897978,0.5813710598330107,-0.890722547872074,1.4963204873883116,-0.8299730667655308,-0.49956368421642483,0.4606973197687474,0.7543087630941182,0.8096755240957388,0.5383302774536874,-0.4277653721041119,
-0.22652705506271917,0.18172124143273674,-0.289072403605539,0.727566071224905,1.5578222628189813,-0.05350900043691533,-0.174116644872466,0.29240565206250246,1.0031597915478774,-0.4470417279238521,-0.2884100338424541,0.26972637437956115,0.12487251976950259,0.9484956237065838,1.2200350074635105,0.8314799127923749,0.5856256261252595,0.09914505505571956,0.48362453783217285,-0.42022211213394256,1.0536415378634383,0.8419167417632427,1.1304862519683645,-0.20243459352019663,0.351299295923856,-0.04437635104955533,0.49146216208928317,-0.6104545926624168,1.1299240841433074,-0.2652008679951987,1.1430558005134162,0.4024148930473431,1.202004970413447,-0.8114981281687041,0.5163626229645406,-0.05633115477660428,0.4816951609184118,-0.8181580148773215,-0.9475370442167239,-0.6192227356238749,0.6266031585274718,0.5342680299176854,0.21480074314726175,-0.1211721197398511,-0.2591589010380657,0.536438720309591,-1.1552412023892913,-1.2006315858452956,0.49549370756573574,-0.5963513595075343,0.10264344052059877,-0.790326392851002,0.38126540406313125,-0.8387442644310898,-0.7725207801831238,-0.09468473647603515,0.53943959603614,0.040151509396867756,0.29440265958990997,1.5485907064627347,0.7613208560973805,0.04622640365510342,-0.4594384475039395,
-0.9264441299397227,-0.02500178040333836,-0.8390558439569694,1.3522211976195802,1.9874942608392805,-1.036619976740615,2.0737841934338417,0.04540276408467972,0.34655536177918167,-0.5877205786640444,0.1540847586285908,0.12797493327989848,0.9265373669702247,-0.350178242609017,0.6437878030749448,0.5766492519509431,-0.33306547699362177,-0.8571445446649527,0.32858956800539785,0.0851150672429497,-0.5136029898037378,-0.44399756995662476,-0.5864569740575706,-0.7277752683030981,0.005001648018814376,-0.8442448862140471,0.0856460738456905,0.3414863080798711,-0.5267258503700042,-0.2762078462450569,-0.8309897696958238,0.7657719049028652,-0.41534261422059005,-1.4732643383941737,0.03227573338483927,-0.632450106120431,-1.400124451832936,0.6233834081880448,-0.4421135072615374,-0.8496636266496161,-0.4253743699414231,-1.0607669686851806,-0.5740772317835173,-0.23734785608728434,-0.5986854854255289,-0.11314388259777772,-0.8774460614792644,0.8565850498316784,-0.8295358783283023,0.6046836066008588,0.4105899714494117,1.193348663170813,1.0270873173183537,0.4436769496023957,-0.14185316100094666,-0.5073163011877819,-0.8972003787183401,0.11970142720794796,0.7351144141463387,1.5761891836128992,1.497411247001051,-0.9899770122363044,0.016913134515740762,
-1.444325745808236,-0.1483767476492835,-0.22309433855398272,-0.015655163901957682,1.0556820531479387,-0.4024077571337116,-1.2985021295368073,-1.2997600043387363,-0.4666343364907395,-0.39661609320263314,0.7692600729130883,-1.452050090349131,0.7826569011549358,-0.20277649680170487,0.09800355861358194,-0.9033056979263074,0.040953017173311304,0.3292127426659073,-0.6501486712205646,-0.7651040585847881,1.069993436042141,0.08472295371179288,0.5984534942308499,-0.07972282812329977,-0.9589442767250547,-0.4626854395351208,0.1969073818367794,0.04890561136673385,-0.24752510471219866,0.1798074612964594,-0.14424042261069583,-0.20550422656698983,0.1838897482632745,0.3425936700523797,0.43138026610638813,0.1997041622535176,-0.4289742251910601,0.41170705303683286,-0.5022505531437957,0.9733294257504874,1.1369332366410274,-0.005318079501333042,-0.08700148398175124,-0.0711548359619499,0.24240123681494033,-0.036245787534263815,-0.841206579226536,-0.5710439385880783,1.104606970726323,-0.9393666833334144,0.3481012390863649,-0.05057445742620409,-0.3579709067584923,-0.7073911931102801,-0.5202623448287522,0.3533625805985901,-0.404589226762303,0.6638666540297546,0.9407496292492441,0.027143992790945544,-0.2324207213357519,-0.8702290772370149,-1.856045327997175,
-0.2764630891094322,-0.3023594540736545,-0.20425026206579364,-0.98304012685627,-1.2156449308425028,-0.4904431520840937,-0.08440171315196897,0.8916907361055489,0.1503239134027333,-0.312624583807916,0.90094446963647,0.3063116170774406,-0.150337867596432,-1.1978645453141796,-0.1647141835544699,0.15114668763708008,-0.12489171102265874,1.074597352252407,0.6840853605691043,-0.4622920381509912,0.5945739509617579,0.07246576857710134,0.7690226437750433,0.1561751055210935,-1.056008817859235,-0.3955387902801678,-0.6709530866423535,1.2011153123280862,-0.8012504605061358,0.13629465043353142,-0.02011829423201927,-1.8857854835381258,-0.5540894512253352,-1.3118421054947405,0.7620830857258122,0.13283411491385874,0.8849203379662011,0.11118181066709264,0.0799866922145535,0.9487284255362626,-0.6312290907499357,0.31116293533865014,0.6316329987319064,0.3157101087802593,0.21388936979223058,-0.03543350996918992,1.1211695758941032,-0.029733122675069067,-0.22194284859987737,0.772159015177642,-0.4674994786274179,0.45803415678685233,-0.8313791188102152,-0.6065687560347702,0.3726194779574401,-1.1340709992690832,0.6887615103622337,1.05197871950128,-0.3847397552375921,-0.40218277936914715,-0.4768106583498877,-0.3721838544173871,0.021196681967702195,
-0.14153434669515796,0.33461605739245115,-0.879926492397301,-0.44725941371301414,0.4629589060737016,0.5355047568829502,-0.90310357628113,0.9961482581993236,0.19247943538997947,0.23463244434772623,0.9790367228831264,0.521968137020728,-1.329939133879319,1.36782765589118,-0.2488555971029504,-0.012495340704748926,-0.435743635664104,-0.06273021578335143,-0.20740654356412813,-0.050669372556416466,1.1857532749870676,0.3954565264475258,0.9230369063331844,0.8979906958174148,0.4877222771334979,0.9058015476690905,1.2120493673670445,0.38658274636682566,0.9634112958751294,0.9020109585694399,1.2870132823141256,1.073801940596383,0.1802214952049624,0.11982479137175443,-0.007097147180565158,-0.10211255589191594,0.5951614429898403,-0.5607609997308073,-0.11842314960607679,0.6327725950072064,-0.6938600504471438,1.3482583882905141,0.8904158676829862,-0.050708976118389364,-0.13749497452451603,0.35734319036179596,-0.6341351882728224,1.0753767801869125,0.7073420853579585,-0.20072532119701442,0.41955404426472565,0.3142676458386978,-0.6459980385557981,0.9197198070138551,0.17540754094178718,0.5331165936784007,-0.41182152862490995,-0.4938139055653774,0.644660468660282,-0.30954054794861807,0.5223862839669206,-0.01665084933402915,-0.6608744511267818,
0.5902624187879695,0.16242266968410704,-0.7047898144007106,1.2993873011938935,0.9442460408924057,0.7242984383174113,0.22669456056624135,0.5565173579184903,-1.8069851703365762,-0.8589888752916127,-0.3588955325581409,-1.4782730473450842,-0.07855844992781467,-0.39465458434569034,-1.0747622993487964,-0.4453238414800962,-0.7679573936778276,0.32324156395554293,-0.8444436336362017,-0.22597335546960015,-0.010976547823396,-0.9119138212345991,-0.23125091142818147,0.7637846227158508,0.7949266965600529,0.12862335307455583,0.20006431376499376,0.3960949268590874,0.25711038572991984,0.38675116746059124,-0.6403275881828118,0.8561254431572632,0.2964854961702643,0.5758922260021595,0.649637867165152,-1.1756959186599094,0.1673952637552257,0.10876237641997802,-0.6963972477227481,0.3834567166416709,1.2110838973031537,0.8693571280487252,-0.9671090078519952,0.3662074988119547,0.5258508394655191,-1.2024391526089298,-0.9438729944533594,1.03249196198995,0.5044794258009102,0.8555784156424722,-0.4110126508141614,0.2166974905953814,0.07660897145772258,0.41446014122099994,0.42983609168856385,0.47166413615446423,0.2954081459360167,1.240588529031262,0.30849629832778214,1.2102814163017694,0.4926390112639214,0.3048519323091623,-0.540605991203745,
0.723310317328332,-0.7261883251260157,-0.04249670048578285,-0.702956736760826,-0.8802066544772216,0.8119161370590329,-1.3577211124959232,-0.12903825651043455,1.578492664073754,0.5717001885951263,-1.080043357764069,1.015676375093565,0.5398203792608911,0.02991600524222865,0.9259307342529051,0.750747018429144,-0.24275330814114282,0.7407806243077104,0.09649351341119927,-1.4072604806393807,1.9334897257576384,1.08610720082207,0.03167994149832365,-0.7265958193860713,-0.13841107566138366,-0.5127532921797868,-0.8908724806489963,-0.0935069311262118,0.4724311164300082,0.7260630401640935,-0.4156784226471056,-0.8984292939610641,-0.16999090991419835,-0.29781298414862617,0.7800823671620445,0.35729897620880097,0.35236354408098053,-0.4611340348367869,0.4111529471343159,-0.007150037465681756,-0.7832709197802379,1.1925750134025381,-0.08549070628223077,-1.398278154073752,-0.657377428552776,-0.7416449978195989,1.2507373241214774,-0.0060219003365419065,1.5593022978207187,-0.677084529939233,0.5286869157605403,-1.1990580038662453,-0.29415378925883023,-0.33063404932105683,-0.029363350401166423,-0.17648297857515666,-0.2898445801788769,-0.6843318696000587,0.8828979552895131,-0.22286018717386724,-1.666329572570003,0.38364659153440667,-1.340945409888467,
-0.38218909319311856,-1.1327233746596388,-1.0573562929774158,-0.5272897861557452,-0.7699573251542556,-0.24827270815571287,-0.20218829238368444,-0.6423579756281036,-1.482580935354157,-0.10981083483301798,-0.7232455530776861,0.9444339429123756,0.08847319105323176,-0.5186885788148425,-0.016651620662064676,0.6187570679778444,0.611288412203366,-0.6175955922283703,-0.18695698829596305,1.2278075005842457,0.7766836370901237,-0.07354473184556876,-0.9776746461528677,-0.524192559915177,0.049069405411302496,0.9813766398532523,0.07833995426736658,-0.703574299983111,-1.1835178296085769,-0.7446855582763147,-0.3778989932930481,0.15849619935317613,-0.08246721022762578,0.04463218981788097,0.3564872171258192,-1.012556770082463,0.9513338129214869,0.5881985830421188,0.4384851275221435,0.6409109798230357,1.1818984269218487,-0.6331009180251744,0.7116481377965692,-0.5776597385012158,0.8743664002458148,-0.5882704453366961,0.7882682789462476,1.2270094895009949,-0.4671226397432736,-0.4911252488593228,0.22242130566095705,0.9241567717191138,0.9870478787717758,-0.8738840681590206,0.9448578470183518,0.9731721087331887,-0.6394861576997889,-0.020976598924802962,0.19961254368176498,-0.11600285753143172,0.39907910767977384,0.7957339266175313,-0.34305450017006744,
0.6484161116881259,0.07410739440137347,0.39125903458606437,0.8661124206593819,-0.5980830452607987,-0.9370977821805533,-0.13816185140701392,0.4085693611968536,0.5897459573692425,0.5336583044882656,0.19905933639656445,-0.4786529581970368,1.78209850147102,0.1709239240776293,0.8720728724036674,0.5713416771842493,-0.03328786200091719,0.14732148861380248,0.33636065699886697,-0.9239729893069172,0.03045126387279404,0.625626584595469,-0.4849678166248492,-0.8216742598370098,0.22652112999933327,0.2988058964514553,0.3880828748344717,1.3533776028339937,-0.3366905090762884,-0.11276012372734301,-0.16236894076882816,-0.9651048743139753,-0.38372597113450135,-0.1905218873389114,0.9874745761787106,-0.4081358106719899,-0.6348869195730814,0.3301162526072936,0.5030268423257404,0.3573184772892444,0.7942473247732703,1.0636780769849363,0.23102306638443923,-0.83354717750572,0.15051988877800984,0.726696838752276,0.29939413780090174,-0.6702672718192056,1.2366182722932766,-0.18814738641084608,0.10165534789730381,-0.19879136439239173,0.7164920698706186,0.6071340617765927,0.680710303198848,-0.7433557561441126,-0.7984487260111773,0.05382501582972044,-0.12038301532342911,1.1445071769255686,-0.6090778882860316,-0.1996252054876031,-1.0107742924380194,
-0.9794916141243312,-0.7808375723086486,-0.30768519399536165,-0.5091490309433652,0.24263929787160318,0.5441606519418386,0.9619447631470878,-0.6751823373880802,0.5689972685505652,1.1654050910105276,1.174221611952683,0.30801220328363715,1.224927954565381,-0.052413346333286925,0.4605334628022144,-0.09281015419683439,0.8215172759041406,0.3633197734656666,0.26865147066570144,-0.2919541654268548,0.6281761950222441,0.5251381283518448,0.7796683426123848,-0.722359856360922,0.82630208445784,0.334346957898939,0.9376217238954615,0.8543795393467403,1.0290068455606936,0.4324792268917582,0.6574502387280597,0.6084426342590011,0.7070598427713942,0.7071025112348311,-0.4676103903114718,-0.29659107736382295,0.2912394692005963,0.25313688296030085,-0.27405876753503833,-0.544774688138758,-0.3200436863953747,0.4692337298029814,0.4782661633911043,0.8349484352643616,0.6606485863614566,0.9978792548221892,-0.6302625828954836,-0.3959109507601517,0.10233736656293924,-0.1582331418302839,-0.3191286854050559,-0.530976718379972,0.3876215971748088,0.03837299524900496,-0.27835307372815976,0.20215955003510472,-0.14465192970165835,-0.3989837254342581,-1.213727395466935,-0.6250190620848425,0.2786461025854977,0.47477784151264874,0.6414454502607257,
-0.3924620909035473,-1.0258871515523145,-0.8279438474354891,-1.1632578072066997,-0.8753959515239801,3.051963752660923,0.04601048448371298,-0.33092579767193625,1.2755417608368849,0.0441255692197476,-0.39601129671854735,1.209639711044401,0.6145014982163818,0.5906897521743638,0.41897536950666364,0.06238189791284969,-0.043452909280059945,-0.731784546457879,-0.14725783024982278,-0.6237820583916386,1.2721889116803282,0.6973957755539552,0.7291190103382182,-0.03041250187451201,-0.48716200366808476,0.300261079415799,1.3175281497609241,-0.2329330263637576,0.3748365294363763,0.5030104218988852,1.1085068259060051,-1.095708033500457,-0.5298836688041316,1.4200915552782643,-0.6459612334911727,0.3714187010965559,-1.8504100273196833,-1.285648839683158,0.16731069531284595,-0.5302053754282215,-0.8431732520850116,-0.26983331639930125,-0.39621206316676655,-0.24809644151815266,-0.7849362112618522,-0.25497965248932075,0.7933022093729837,0.3934410010373815,1.6955215349348134,-1.0731620498041543,-0.1917820959482874,0.4824592343366256,0.4825251010840716,-1.037833791572103,-0.1879068374113754,0.10437764121999721,0.21583615008990528,-1.1976088747594906,0.30951597463888464,-1.007400137173316,-1.4763147412574715,0.7784957571736685,-2.0571747555734885,
0.586846427887142,1.5074041934589428,0.15475882820719683,1.0368555278465879,0.31624002840407256,0.604196367354669,0.08423774494027292,0.44109057457230777,0.5181525934528945,-0.3815842607249706,-0.6637965716448322,0.424083663689057,-0.13722058940121182,1.821596462675502,0.21893988754161037,0.018387273573041915,0.06581937556599844,-0.12478427817230273,-0.2533388724581081,-0.3207670377434236,0.16717755230861042,0.5783798919017914,0.010897816720825964,0.3416010798710101,1.6223380164556143,-0.24920634343804948,-0.06597183479222667,-0.21968270614363739,-0.6298770399143432,-0.20134311963571255,-0.20382136042344418,1.0079996084578298,1.8031431944182956,0.20038535526261658,-0.6336893080981774,0.03510960649957739,-0.8814558980114167,0.2180698326384144,-0.6425901779912969,0.410689530964711,0.9090949177848582,0.11519206173974425,-0.6905579072887871,0.7319709744453535,-0.40827637139035783,0.44083279173385875,0.37968956438300244,-0.05444535093813772,-0.5672949119012991,1.185618154946611,0.10338685121576476,0.5666192779037588,1.0988536741348294,-0.2536701918372041,-1.7164301811620186,1.2059705401232335,0.952672706808122,0.37811223408280853,0.053462293008752874,0.2224879555201042,0.2581048055485586,-0.5859285469702886,0.4851771855420484,
-0.16214412535543524,-1.53146346182766,-0.6842463179465946,0.9135535152730695,-0.08996385371508697,-0.8451612744592975,-0.5471868597755641,-0.8206543230474969,-0.18060322375410795,0.06601732438281316,1.0193490553325342,-0.5322638060811958,-0.9436717634093429,1.0383839126660965,-0.24374520683424267,-0.8351901853827902,0.7664568610550956,0.18694496157263346,-0.3478695443809479,0.01596707545302194,0.08742911380967625,1.3855477423403186,-0.11700183898411604,0.37045987410824316,0.5452578154812532,-0.5481990562681235,-1.1041099612216951,-1.0623605796239681,0.16934993387850023,-0.2511938525886675,-0.7931481037208369,0.3207170344813513,-0.5633519631916691,-0.8920022108663376,0.39506347516882195,1.3986727537874752,0.8183113665852483,1.1915390969663764,0.05756511570397469,0.9002922200674067,0.20561508763720468,-1.4601209533382071,1.1433016388456319,0.5280998176076493,-0.45230960456450603,0.9262776731025392,-0.3818695034586998,-0.2507963966421659,0.7585071941053089,0.2726060453539397,1.1456353397426933,0.27158958489853274,0.3048114111238707,0.0731748385994867,0.940001341342641,0.4975666103406875,-0.446699623750274,-0.8582187686722565,-0.2793228388905407,-0.8763191933091637,-0.9734221456768714,0.7876097062788584,-0.37703566540198735,
-1.066182515864804,-1.9915226669195172,-1.2247561482554605,1.0243500345440517,-0.12390168559663388,-0.7257364945184758,-0.5465394450083411,-0.18965420385010615,-0.36027509227531196,0.13637640576795093,0.42221363724393846,-0.8747309094839574,0.125103062924972,1.339184187068176,-0.7862043441769805,-0.8360843334352245,0.015659058119309933,-0.1569080385880969,-0.8857533623663544,0.849332288627172,0.40838845315623185,-0.01706090831937383,-0.030178220137831124,0.8577060528536119,-0.7308099567304337,0.1884997239183365,0.6714771535742711,-1.534546169762887,-0.0033670748763424715,-1.1429755988455663,-0.12517864177085902,0.30991982609376856,0.3839679000663424,-0.09366513393427013,-1.0111546923088972,-0.09822224088323571,-0.13689043098596096,-0.3348068146897235,0.3699410689857644,-0.4216774980783451,0.375168280725822,0.7675500205811009,-0.19994203756934156,-0.4686211613525726,0.6246255121157073,-0.434271114772257,-0.5641661713811262,0.14828197764720616,1.0472352500363469,-0.4182482680403602,0.3439008046805433,0.4039185090241433,0.6687958329494804,-1.1456075289390726,0.21200963676354737,0.39626832744316975,-0.7571017118074227,-1.0772271787146555,-0.38576119728622726,0.16749483232095722,0.03536548201715363,0.6388798751565791,0.5076949464404804,
-0.7895466420605199,-1.1600068024298062,0.3184353898653529,-0.28973836535895914,0.5742699141089387,0.8498266225555422,-0.6481950274940784,-0.6355473250653352,0.9724167576108178,0.7447851603841673,-0.8332866872169504,-0.07601004556284773,0.0703787463986528,0.33028249075501515,0.020258814332542077,-1.0079707597929053,0.19156186509538767,0.01940037239717187,-0.46820046962718076,0.2967999409478541,0.27567155329810994,0.2544883248251554,-0.04846753700246469,-0.49336689530692246,0.3136245681072888,-0.2971649915095038,1.7147230736044312,-0.44161350854533377,0.0285189299577588,-0.27783755258655973,-0.07945681644208795,0.48988550358565547,0.6647006590210758,0.8747865000826494,-0.27934512182117166,0.3053913542521429,-0.268634520100526,-0.32647041707361224,-0.9976429550453398,0.10153963660008598,0.61288699062948,1.3379401729678575,0.0069685100253917606,-0.21564434109286082,-0.6798126922197303,-0.12069265335574585,-0.17137060339887503,0.3333386446156793,1.6317930877436093,0.3153513094761875,0.9541130701274936,0.45378507668775814,0.36737323330664695,0.26623472405026505,-0.8430239701759434,1.4912809505389566,-0.8635482083437804,-0.8449995413695379,0.29174280884446235,0.49772928893740376,0.40081393391539355,-0.7731740652436139,-1.1895584597892634,

