0.7072170666173523,0.9121996104399832,-0.6473828456674471,0.42398689180945204,0.7034007791897936,-0.29342330155094265,-0.25594057255557146,0.3888768754663128,0.654937982109953,0.9775587677326869,0.21967709621030007,0.8592804694526675,0.38754253072593414,-0.23702990281089265,-0.9177187083778338,0.9052982630774642,0.8982875846870724,-0.49695099295240075,-0.23232244298905624,0.4452353258735582,0.5359450336065996,-0.9787908528158749,-0.05197384490351098,-0.9243706894761055,0.40091692716952476,-0.2848093590429819,-0.6752053251462238,0.6649218660446723,-0.14553327061279586,0.034346057684516484,0.9707389327052516,0.10780700227210693,0.23203941660707028,-0.14799122278051957,-0.9333233919301265,
0.2017431646271839,0.12303519707518507,-0.5624053349740161,0.9276456317585116,-0.2659309800735439,0.9094810062266807,0.3912912612626467,-0.6756321845597486,0.5576161706549145,0.6486218302476265,-0.8751085444062789,0.27976620050789913,-0.3153353894272486,-0.160468119467835,-0.7444684735678582,-0.24338693118208665,0.2435406757447749,0.1314238026602048,-0.3752020706171735,-0.04878702394832146,0.5191096412339942,0.6114124256411981,-0.4361318310023399,0.26935413364351524,-0.7621315318153907,-0.04793282385876907,0.4960561695750174,-0.5154114499209737,-0.23970204740986212,0.40416616518708737,-0.9986654077233361,0.06523113644294942,-0.09241498670696435,-0.6123574913799281,-0.9368900023582127,
-0.7947061317269388,-0.2232183607961824,0.2637916343074518,0.3757301047333068,-0.29409860909620655,-0.9120834258594186,-0.2356135266429824,-0.6880953030188235,-0.47243921589250193,0.35853301015386263,-0.49157378522614414,-0.5675739302673466,-0.4300119854566842,0.5155748895092898,-0.9451790782703231,-0.7337226879307324,-0.9649799532307597,-0.5684997238267426,0.01939424651128263,0.4974190431507879,0.5894710628614999,-0.6890479301396424,0.9271629751487809,-0.3347492703490065,-0.5313814583895704,-0.1437303871147655,0.6759317382069097,-0.9810568594847822,-0.35266653171170614,0.7045782007160095,0.7548178317782157,-0.738456912984625,0.2546970757866476,0.7561463763910619,0.69140057340236,
0.5779549854864774,0.519274317103452,-0.2968459092922493,-0.4062329161293816,0.5616056095716446,-0.29395757682333445,0.3199677780765038,-0.8911958079578146,0.43780287040772614,-0.25769787583279435,0.8904718772146196,-0.36433477022884175,0.32750154035846557,0.5287249063392736,-0.47504078625477253,0.21341765877391183,0.2033930187972539,-0.7069794954703206,0.05853555431455604,-0.8555436133607046,-0.3390619432913553,-0.23246508332179983,0.7249474033123255,-0.8796552910799826,0.6601656980977735,0.4584184398212916,-0.13580555110310977,-0.6156755309135755,0.9897642390328978,-0.17716935105154685,-0.45075786616512725,0.29481362543472556,0.36319295497032633,-0.21802164194407836,0.20660175436254913,
0.546788348040876,-0.22275281933983182,-0.328390725916641,-0.9425001931838279,0.26302511891127045,0.046711302591965875,0.46791376281308694,0.5208108050332816,0.18475535934631115,-0.7255609198193669,-0.07438580099533754,-0.4041193727359096,0.27136461529548317,-0.5755986144352154,-0.8736505930865073,-0.3171784565767952,0.16134528735259357,-0.8640524308583264,-0.14070875165743035,0.2998122629111104,-0.8482090836227039,-0.549273016680025,0.2422562680948397,-0.2786102408141553,0.621297224429693,-0.7805780771721504,-0.9595942240218316,0.688672869058943,-0.8487855725224402,-0.38635359419539084,-0.7490460209244545,0.03191120916326606,-0.007227897784040538,0.3890673324693448,0.6961333476200131,
-0.7022952571665988,-0.017322888883135157,0.3290083890150888,-0.3970068665739612,-0.7123060426903143,0.5273629826069413,0.6435004677552143,0.44743673248420257,0.7924728583180498,0.8561464819152524,-0.993055245596594,-0.2987701038821373,0.7439304031662324,-0.6138737231748914,-0.6117420433470655,0.5445414429583899,-0.4888208857813441,0.7467365018640801,0.8605731169119029,0.09290547428069695,-0.8703176474395911,-0.22055460056862541,-0.8267290928975441,0.23632227719698973,-0.11985409522297541,-0.34183196605436184,0.027321324517380008,-0.20045675043343314,-0.17680893885708127,-0.8314594826429065,0.715617470115294,-0.593586166315081,0.6477810823826202,0.13928026782914338,-0.9268134882911052,
-0.8325245727032269,-0.49417491710523453,0.03643585611394462,-0.47213332684501585,-0.8911432178351162,0.38233674540882934,0.8114074296476004,-0.5497586412490707,-0.878187772691776,-0.010021594439742154,-0.7638021492686491,0.972325240207371,-0.8639069463193578,0.17877456047219287,0.16443128061332368,-0.0223000525820527,-0.7933338875753595,-0.5837689952157505,0.424255886700903,-0.9384997153096435,-0.7478780423513236,0.02005006754262384,-0.6206764772384852,0.9168552239067391,-0.7055570083154548,-0.48491517955011454,0.5866191419948594,0.8250902621638256,-0.7763699838183267,-0.26187166562376474,-0.5650102658332212,-0.28979815457944036,0.3470138330246628,0.12858748071028758,0.16580087310683522,

