0.9860915407099144,0.20537159975167962,0.034895438910472976,0.2779283232648917,0.6727798269240357,0.18441476428326475,-0.9950946055742973,0.8588358827194078,0.2461594880987119,0.4113098729468472,0.06543240035035014,-0.48884440155747466,-0.3814337145780953,0.2698848592954708,0.5166353191236366,0.96980823993569,0.03982245851006372,0.4946490862495492,0.8927609651386863,-0.04855545514793258,-0.5744872292301346,0.4019116393080442,0.26731222808272515,0.801458019841673,0.021017414367818343,-0.08855585649318232,0.3593344017632867,0.12273465758040714,0.39501388947724636,-0.3951572683050131,-0.556676758102916,0.05514655861927942,-0.3356345333305297,-0.5719274964211418,-0.9952903808348446,0.5173731268886501,0.3230154807691965,-0.9304952044669188,-0.4151702768649017,-0.5722868793743525,-0.9192900569718372,0.5310872411438015,-0.6762570870692763,0.6881276045105005,0.7130749616209637,-0.04088666100786642,-0.6637885280110556,0.5458335157475627,0.08277718839581061,-0.5876127570876155,0.24561104474327822,-0.16065613177838878,0.2122001183225286,-0.08059318303847762,-0.047507385560909166,0.5909304590360431,-0.4287286582360563,0.9125175567186705,0.028970069993988323,0.42506184359291255,-0.41022149943367947,-0.07418383254070404,-0.9929384729463395,
-0.6275518333161103,-0.18828333582940004,0.3049121137407871,-0.7314358131080996,0.7619021081869932,-0.9200897032429471,-0.3995165139819503,0.2459970009815109,-0.8926962505357503,0.6723590636412218,-0.6961090676530406,0.2085975137116196,-0.835464869883513,-0.5925429895508232,-0.3680582136446253,0.03431339159026403,-0.33667217681279493,-0.6065599801371508,-0.820774590371196,-0.9418191261970492,0.6115463944036637,0.3181184142796467,0.4302679222965349,-0.660562641360505,0.5245068525889458,-0.0418452520653354,0.36008278093704127,0.5041663608907669,-0.5504907630734994,0.9328504440281942,0.6505223924953476,0.6972283622950277,-0.7641600984697201,0.635607669883733,0.4111634577897221,0.11668207721376489,0.14307843508230667,0.746936166446101,-0.2827128954568745,0.10585574339195736,0.5856219035876915,0.7660774356203359,0.7638430546250201,0.8426795637106335,0.5789165388669484,0.5940228262123775,0.9831147455058455,0.29284471716512983,-0.7170335611619183,0.35890383186485453,-0.9148683624230443,0.28280656812203486,0.9312658871926192,-0.6045628496381863,0.6537012974154053,0.30060370652333956,-0.6116198839807598,0.5733095508774946,0.6672633617517691,-0.05308297053300515,-0.40302136413108913,-0.9849087550084363,0.11259535965628897,
0.8357458060219745,0.2552012031404798,-0.3475312746108692,0.7207279125962187,0.18353207215151213,0.20781725033181075,0.04029223116620284,-0.22174455575552576,-0.6724834805116906,-0.7602849025362024,-0.6188647537319467,-0.04644297785634599,0.9785628599878615,0.22783786405118556,-0.1912327455266567,-0.873731228170546,-0.8593594524469905,-0.0622410349943896,-0.3628568581500815,0.319678801932481,-0.6813908519141163,0.14366956664898645,0.5022172088648444,0.009543524177745288,-0.11209997863820642,-0.7943716658054762,-0.8929086648888873,0.319151092121466,0.3141453812725383,0.7555011136879033,-0.3732890268515243,0.9092874998234732,0.2877565265871358,0.7230975417015091,0.7365256685604409,-0.2669119263862234,-0.22209294058607942,0.5765885840987013,-0.29976684196163905,0.24958508394091883,-0.48767010484075124,-0.6436324547651535,0.9849304981281857,0.1760911489991075,0.45378965042969566,-0.15090400125339398,0.46769756446041466,-0.5916145953811878,-0.5289544425067412,-0.9212476692360503,0.45584222438680877,0.348997608968896,0.5915728160776339,0.18408118930859407,-0.5362609321009648,0.5577144061551278,0.975263596544589,-0.29308243692511193,-0.027602565088631792,-0.6252411798291317,0.06278230580400379,-0.6665600408579226,-0.7564037662106053,
0.9659227727790041,-0.7707982415945365,0.21048322866236013,0.6686281900266984,0.1002611084312175,-0.2869979695822287,-0.898379368398259,0.10239724463114164,-0.1052175814826144,0.5924646220013841,0.8528032493086786,-0.8331830381633476,0.7469013266303945,0.14594898380874421,0.9049215357467042,-0.3968383028524074,0.7242443855838445,-0.9405079084286667,0.9207340686742662,-0.5887767627581875,-0.20727006156589822,0.6346229731246431,-0.013815864157624258,0.7338308948697145,-0.5623296545334673,-0.5987608388291874,-0.6987946160346861,-0.7715048259905237,-0.5310261693171057,-0.6451555634251467,-0.2073058987205707,-0.9863616548972136,-0.8996501254595279,0.4143995337361803,-0.33759528792128424,0.18507809708490908,-0.24624823985222033,0.6364923539793186,0.5251028594014961,-0.6308655285369673,0.4641168755728675,0.22348571450165666,0.497388977191096,-0.1880674761469059,-0.754205665469162,-0.572245290333536,0.36518230039303856,0.1001764313782516,-0.6691232940009602,0.08107841462719545,0.7879353605350046,-0.23312555568687565,-0.19901831326200536,-0.33229563779519933,0.390224684980671,-0.24380347180091322,-0.19214289878439916,-0.38844329236313957,0.5464437797652322,0.004849963729181894,0.3145108466110924,-0.2374876515615767,0.6819009158377194,
-0.7569385664816854,-0.9126045776560512,0.9436227431013806,-0.00629632920800538,-0.47354295137859026,-0.4684944331849532,0.8606116998284707,-0.3626109106651676,-0.019165259230682796,-0.11592586048103448,-0.3230672567134161,-0.36966236680096753,0.7750271244105544,0.268881098805549,0.12212360485566487,0.9905861457997271,-0.5672446809791465,-0.8379822492917468,-0.8718533284089243,-0.04026584981261827,-0.747421792402762,-0.06872381616521905,-0.3221408107989048,-0.44878503293744076,-0.17425611626883142,0.28516330043653126,0.8017096545005236,0.120282227284922,0.4249532893652155,0.7038650976473131,0.47320855374526727,-0.8303604542650977,0.38275059610526374,0.2233168788566604,0.5306773819691448,-0.8152798541387041,0.48645510214651355,-0.6951381798914431,0.6922302675967769,0.9352005898999896,-0.11274414550137402,-0.053191093708145676,0.23289765898492676,0.3844111607871472,0.05429088172967722,0.6805295707492931,0.9572535075335917,0.11588423236568501,0.9002369255984657,0.6425604495800887,-0.27213893661392796,-0.9836416766238913,0.36313919522217475,0.5255071705210377,0.9993053109114063,0.847136223059,-0.5500872274591422,0.884373271037141,-0.440466834192738,-0.709229024173575,0.030151121244843093,0.011265604856219413,0.9946758039743022,
0.07763393098691274,0.5145800108168959,0.39025587127043404,0.2704805366663343,-0.12300432055407162,0.9606985828263213,0.6055069188801836,-0.7370669469416844,0.7798292346968836,0.11885182758561608,0.49959842037521085,0.07260321958738336,0.40562389935983467,0.46518246210206193,-0.634681940090225,0.5217013990009449,0.9330741359235053,-0.6363869514334615,0.003008406611538561,-0.6402138803117026,-0.3154111645439541,-0.8427875818826425,-0.4131081870133235,-0.606485748305055,-0.7128582269766721,0.21000329243771,-0.5423796707726556,-0.992217909563128,0.8870640351918142,0.7034716477865808,0.19462814493483127,0.36005492197737876,-0.5860439751100346,-0.6622590352215769,-0.3793086907705341,-0.09336144344409947,-0.5310236878730956,-0.0044217122093406225,-0.24757277647838416,-0.1409022358067029,0.055340757724955614,0.8981007914417181,0.1342953934249509,-0.3290191409872605,0.07394535248736545,0.8142568613777537,-0.5200118724333331,0.7194617314100593,0.2746028739319559,-0.518143295377318,-0.9060710231224411,0.973464591707417,-0.8165372726598499,0.5561314827503232,0.15692411224667802,-0.37071062341911487,0.4197604390271661,-0.8774961903122203,0.6338398359796316,0.44670908771466467,0.7701224393629473,0.09345379086987338,0.29750851994587446,
0.8329632675232013,0.4062288686418256,0.6550702476534276,0.16189227179009213,-0.4009748557421928,0.7117159155045636,-0.6629223915153692,-0.5211374861751323,-0.24802707648382172,-0.6732223414962679,0.2508332625243306,-0.6232188908415159,-0.31075093023592126,0.22400370863067143,-0.4270062100502401,-0.7946020355016234,0.7250442264818604,0.8965702669446005,0.448250273478638,-0.2995935298594836,-0.9940042601520445,-0.9300235828810948,0.14273667250008049,0.19232775477928232,-0.43715595797474727,-0.2589007099064964,-0.4995809922093093,-0.7417776496529052,-0.5033571203174814,-0.19658275058910313,-0.46202495679806255,-0.548944433719192,0.1125726440477024,0.03482961380901384,-0.6406220435855847,-0.9596284723200894,0.19135963213446772,0.8045792342235518,-0.5203993395292519,-0.9407412311600478,0.5277562460752612,0.49836241266719083,-0.8824397306550138,0.3764186847061577,-0.6325086539992606,0.36578877327025894,-0.9483743222410423,0.998475448373848,-0.5614477222801499,0.2619317710872,-0.7732863509171697,0.3564951532939584,-0.10038660959739198,0.5847886415024617,0.46020288746943705,0.9420093580449513,0.7178797243160753,0.6030469608244791,0.31459824173050555,0.33166676042971543,0.74056627240193,0.3236326830652525,0.4880798197746661,
0.3759643200850453,0.03868751087822453,0.06609288007013814,0.9197757545987855,-0.8736618012598663,-0.02121506159878228,0.9909448758437371,0.2148003610770004,0.9362215204272624,0.9176724884610692,0.9717007198110292,0.964801486928095,-0.9044939586099392,-0.582765657322893,-0.594644972305004,0.07296583576119353,-0.6558289106143438,0.44076088323751383,-0.17629820517714934,0.2881323982934971,-0.3403274715221358,-0.8807359108969028,0.4979237623412289,-0.189131871810291,-0.1759883659510566,-0.6343358743732128,0.6214769178751018,0.055063512246990465,-0.5497666676157391,0.8666942741146137,-0.8886306290567081,-0.5681926600650433,-0.6155708098662449,-0.20317697590565564,0.5855137031772932,-0.6319948609846178,0.698151324888193,-0.024554290498698395,0.6539086359872506,-0.31959333649288624,-0.15253111356501425,0.12805181190478354,0.3039844309649671,-0.10358677029134178,-0.0012709084303370588,-0.5859739876703343,0.8655248740554127,-0.8537634347596816,-0.9925886292361303,-0.5518049967311776,0.8081567549468021,-0.15331419220688636,0.08529229081893197,0.6701852025169672,-0.5455252174261789,-0.44493866887507916,-0.19753352905249688,0.10510922791557209,0.5844502570403929,-0.9076624630355767,-0.25540305430130017,0.3110523996676182,0.8618472626018643,
-0.6819799764549013,0.882096989146631,-0.37671670654446276,0.030950639379653033,-0.21523473313321184,-0.4932272787248122,-0.31793341085927085,-0.0880134968894366,-0.09094544001718585,0.4527847901410349,-0.32959232400989724,-0.6338052184611469,-0.7350833097008578,-0.7573850372596429,-0.30998628048769206,0.6065917686582925,0.14089721496715923,-0.21494826088737184,0.26820735888518876,0.4980382592411461,0.596175057662685,0.30103765124931403,-0.8845169731050424,0.8203064888348752,-0.09006946054787068,-0.7354520375000155,-0.05715040730613441,-0.1395808961604439,0.5387720375872416,-0.6804998428967395,-0.5999455540527836,0.155609016877013,-0.5197686716503827,0.3700200917625318,-0.9897606214414802,-0.27417088428377845,-0.7139586434336727,-0.6597798590828623,-0.6464698926564783,0.7148178495410782,0.8771122413482804,-0.5390280512730221,-0.3084849323587713,0.0013054827077414455,0.7828260962999647,0.36498493105935914,-0.27347754791080847,-0.9529767862997676,0.4604725736346169,-0.24217012958179907,-0.7459431359882254,-0.9842439120361726,0.946351432208943,-0.018625720654257494,0.0937110236782468,0.02775854190880489,0.24827117069929727,0.3974257429947812,0.8733202808152452,0.3064296341205386,-0.39012429327927656,-0.8067936386609607,0.9930809602167954,
-0.07077707716297965,0.06043416103682331,-0.05339034043065349,-0.5891924989385711,0.9123441321080727,0.509432678773132,-0.9119795552231837,0.7664550835970216,0.43886845115036643,-0.9464906464678529,0.256805018214163,-0.19651123263624326,-0.81751403074084,0.13397678515359512,0.47440774975237887,-0.9533672282427237,-0.11583591572266894,-0.28361941571007043,-0.9576814141202425,0.2599865880572214,0.6065916000207512,0.7592441806142529,-0.8779965079621868,-0.6635521759623002,0.42134869384342255,-0.10264600618947695,0.06521794219564514,0.9588351373427721,0.6763251617198154,-0.5143575496368484,-0.26304713002977853,-0.3749427907341567,0.445986036802289,0.9329286997044957,0.30958863516586077,-0.5558729144553511,0.28466395437780956,-0.3995193259129173,0.3056628090984874,0.48677450100597497,-0.01686621730111182,0.4485647846229297,0.027983894862034564,0.41386120570363016,-0.32869570273690973,-0.9151468029577323,0.9396525677383583,0.6077591892519545,-0.6850604841893799,0.9017608410778999,0.04287925202787579,0.09630196441253935,-0.5780995388649464,-0.41451104871877154,-0.14568455023314697,0.1858753004683369,-0.39652410669514526,-0.5622467075242137,-0.814055643645158,-0.09033521415631074,-0.4710506770202765,-0.3281205111630545,-0.38559600235311664,
-0.8509686949788697,0.7666274758274165,-0.8718491503750865,-0.7420551371165056,0.6004390462407974,0.022132741835997338,0.698997137798971,-0.7209484472369692,-0.3626862544749321,0.36484199280574603,0.1628152640577325,-0.6079134230178058,0.555660803993838,-0.8240695633772805,0.09591723286414489,0.5791422133326587,0.6942279509568139,-0.24344175404308754,0.06530243778360889,0.20361459224718637,0.4844487381796765,-0.1976838158703409,-0.5993442432092324,0.7598421812814289,-0.38764305614238914,0.28012327917374735,0.5021750657135935,0.6084795670722429,-0.8358850420397566,0.6363492389140535,0.8615353757634066,-0.7788956355653698,0.8787523078061461,0.7200113312036602,0.756500080611701,0.6938843659702305,-0.5538363360172232,0.3224738677715937,0.9253922630796332,-0.41104034245293586,0.1653688228397192,-0.18484290501472356,0.4358430751918694,0.523522540842523,0.21748996492381956,0.009339302854871834,-0.5670637081654861,-0.6495936934131044,-0.6901444815826032,0.0672155765400404,0.4850723304651916,-0.7396779876109263,0.5120913683855028,-0.9390470981999641,-0.15842290467771858,-0.3152892947095898,0.7320156817601375,-0.3934385203847246,0.07428502728795161,-0.5104939025926805,0.46860435359393415,0.8919784762079639,0.29602835231359115,
0.6239318181646261,0.23124848606273285,-0.6261600827624729,-0.5678322513255905,0.12478430339957947,0.32897897724189096,0.4349931579859905,-0.13299706996175886,-0.8245183896207708,-0.3897157451280935,-0.6251179530750679,-0.8048956286344913,-0.21951435281527276,-0.8263966612196445,-0.7524859056557558,0.7783113165375648,0.5395342300677397,-0.9294736003455533,0.2667966409558984,-0.6576567096953196,0.9924467848233494,-0.41180909879542527,0.7666087432839794,-0.05732392047549628,-0.9459037212241042,-0.17568775943519044,-0.9669484092258118,-0.7124632086101463,0.17046751583707476,0.9577429257728529,0.7189004030986692,-0.37342582753203923,5.506324551034503E-4,-0.13059468469760582,0.0053569380729787675,-0.8030348728995438,0.6651461725487022,0.5828986441747346,0.19378177914976846,-0.43557941500133657,-0.09751338932507103,0.3710314307714109,0.9901619564230346,-0.8952426793930315,0.8319074426226534,0.31398570970884565,-0.6123510186028711,-0.6575949459549941,-0.5493715054835087,0.5967715243695391,0.7575793810048415,0.8954220427233626,-0.5249649984780749,0.8980832678649902,0.5269688006494624,0.3722946324415255,-0.3133245856618525,-0.15037684251537642,0.6505484907459791,0.7240000657693462,-0.4454784225331241,0.734409964353349,0.9779910758695489,
-0.7244855576339073,0.5788647717880999,-0.6554564260848463,-0.42794957645436216,-0.055848555012356194,-0.46145104027753003,0.2333502889578254,0.05091955184254604,0.9978195742612395,-0.37792824468067754,-0.5262134518748736,0.10818714576549482,-0.8855098614227013,0.2844101406656401,-0.5255695443307062,-0.49364724357996503,0.47487002646203447,0.5952576649244001,0.406346179566456,0.044937769593244914,0.15347753315700818,-0.1693132567906761,-0.6414427080183978,0.2718083413516472,0.16902154187779939,-0.890921005601933,0.46681891920637586,0.03640380337076965,0.21318861389959687,0.9834933130872241,0.9498323361838852,0.3761425798296736,-0.7023552415092842,0.07647068719961547,-0.7610024641640392,0.6823560301154414,-0.6577376793425473,-0.9203978210811865,0.20225358735191334,-0.3903220269798158,-0.9267147531034416,0.7390150522869647,0.8395089490471435,0.7728962831577606,0.50834927797706,-0.19074012158664977,-0.23338266961054122,0.9178515676768955,0.7759767771447916,-0.6180904973251795,-0.6931917791559559,0.9580449812809981,-0.9496310977415454,-0.5184907738385511,0.0729329129560714,-0.963804061266492,-0.021979388379310683,0.3703454524549017,0.5508420781886176,-0.3999310709175823,-0.8691114475829083,0.614828215088072,0.38366237509160794,
-0.6255340394886029,0.7415426148837474,0.64011083467609,-0.19130679953600094,0.06636020023826639,-0.7410625425391477,0.23589906705626773,-0.9869017892947407,0.6577234247465076,0.10914185637355933,-0.7247713794740374,0.05151892727760843,-0.7793205379973016,-0.5464325236079326,0.7693197720849279,0.4081908488150321,-0.6678078030613426,-0.292057994840893,0.30544429394988204,-0.7119038280696375,-0.6294236681389984,-0.8815263824376165,-0.09892998394042274,-0.7138607917887616,0.24369652057006874,-0.21264117988639608,-0.6436260680077941,-0.7897145639851646,0.42879850044072,-0.8020135824061696,0.2985452222074638,0.5240562263543322,0.5964945795510446,-0.48910417554760977,-0.7148735142542773,0.12572620220703,-0.4534969986374129,0.6847492113020435,0.5699697270474489,-0.00397780535999348,0.70032021156167,-0.17771899391998325,0.4342118674903901,-0.37692374201209966,-0.023918503754686737,0.04939205000829672,-0.6539970498035872,0.052838292580207114,-0.48655477462583563,-0.29374350142643313,-0.3634522912494156,0.9151073316674116,-0.5785873573782438,0.6625157020076464,0.8663500108763569,-0.16020736850766282,-0.5104254557274888,-0.8356657220365487,0.6043772442181283,-0.6950298850120795,0.6333532490677476,-0.22070282034454025,0.9541900693586272,
-0.8522481888070828,-0.2636130882239458,0.7258304112840088,0.8349110223575298,-0.27905991489581483,-0.4917184017745162,-0.8429697284568902,0.7612341591138252,0.9928899277589442,0.9935336947080693,-0.1855103745435529,0.6655044357047022,0.7649579601760093,0.44750483573785726,-0.12408719265282131,0.16622589221196082,0.6203678123357954,0.43790799827536175,0.7910135222380001,0.6111840845999839,-0.7797240221465891,-0.7646568945789458,0.4333938208985584,-0.7903033601713609,-0.8727249797997918,0.8239971199382179,-0.00819533026416619,-0.38266474951120855,-0.5364763926270995,0.1937031184533402,-0.3176074076244668,0.44778819787280577,0.4001470967374452,0.9671300649984371,-0.41576116176286826,-0.639636969405273,0.7265043464807599,0.8709531961574297,0.6837021838242763,-0.39204452163499925,0.5623702670121384,-0.9225664469838688,0.5587779535805977,0.2291394548019554,-0.34696333744106056,0.022912787078744445,0.04289026847469857,0.42936141701777397,-0.3732134028674332,0.9523079846632745,-0.3217632042199694,-0.87995055052394,0.09615145932636504,-0.856231278545625,-0.19799071309019656,0.07077695057160294,-0.4511881514063283,-0.4647628591486044,-0.29548492264794657,-0.32155228425954974,0.6009581599157943,0.30473062262976214,-0.5435709863214511,
-0.031201969179453393,-0.6246219245792421,0.8487425920030813,0.7231080631690996,0.11933937203637002,0.5184926072628775,-0.44176179954608563,0.16710325448597718,-0.47080703898535226,0.6850147201187893,-0.19070333618951563,0.8857079474350269,0.2600967414079638,0.19585858948550383,-0.3344673475049227,-0.2614161381412474,0.534191798055903,-0.9856208891401825,-0.06799430269027162,-0.6087913421338564,-0.10197514978161326,-0.8120238237110762,0.4054050322181244,-0.5669055698302066,0.648530763448105,-0.5334498393830653,-0.5671236083680411,-0.9745737718307901,-0.8344124133952557,0.9362485697666005,-0.778066383749511,0.19097588934465826,0.9070640173649831,-0.8036029799565252,0.736477727219149,0.07984781123055185,-0.0038916778257787055,0.8594607003357666,-0.5309767360116417,0.3278166412554411,0.5667552768609507,-0.03166445396729656,0.8968104681038715,-0.03027874940956754,0.3327557680574562,-0.6977782370840437,0.009558876175753905,-0.7214200799391692,-0.7941380842890489,0.48178491890200403,0.9391978288259102,-0.6282018812959551,-0.7863708480564182,-0.7137360444859879,0.42698566258615966,0.459040409550477,0.4531238331886096,0.6596369572124152,0.6310086936373134,0.2020426014992689,-0.6342458124324377,-0.49008947570532846,0.6071288171776359,
0.8148435885138661,0.2297697739726705,0.5950505376733355,-0.31097351816955743,-0.7463815030173762,0.4408028056871618,-0.45897505483344636,-0.051935419305812136,-0.8715012505929209,0.8871534907990557,-0.6481160775370112,0.931275926009131,-0.18453280085811996,0.5253487885724255,0.6487540330382684,-0.04414398075877668,-0.3453801085054662,-0.8771675828526406,-0.6859228221029507,-0.6188794557868804,0.09178912861185662,0.058472470760104756,0.2193780455708505,0.48396515608115664,0.15372562745418117,0.057900869050086845,0.2792970844446665,-0.1685570017899216,-0.25725939781664464,0.7895261563575879,0.20157873973840923,0.3741545914619062,-0.10508839573132245,0.3583912032726768,-0.007842309400232672,-0.12327907484971434,0.3666595115925946,0.9088733709452856,0.5264399828427999,-0.24330908172341048,-0.30229302027763927,-0.21644568979732437,0.3123280016360428,-0.07918919257269774,0.24413125232812716,-0.01558585029500592,0.9474914143582127,-0.2323378704059902,0.5834284702277068,-0.95616726541434,0.712840417689494,0.16825251264319951,0.16420855601466866,-0.16329083310119796,-0.753890880498445,-0.05877785457789497,0.10634373481851744,0.3513387710217504,-0.6960884536926055,-0.8930934530189676,-0.3469033179880181,-0.01448531519135221,0.24758489868928524,
0.03457428221492331,-0.06504320853035073,-0.45435034983142253,0.07758812473903309,0.489737026412149,-0.5743826911361425,0.8005413805808284,0.5931771848057448,-0.45649340122980275,0.7537281097490414,-0.8222669582669448,-0.43146896688723535,0.3235526325584459,0.37976283455507964,-0.010750777199332706,0.7134559226005448,0.6662916423826615,-0.9444583561718167,0.4348144090525352,0.6262489565829976,-0.12748208311277387,-0.045345648294393026,0.554490904898677,-0.05174632762149045,0.9737626497316731,0.8952316733741925,0.28899963506279347,-0.5059045624491343,-0.8157520497843269,-0.8277846804157536,0.8548165883587076,-0.7414641069503343,0.5433792479089208,0.17448137362294047,0.7524650654010314,0.8903402948969279,0.14629804045266015,0.18287346891415002,-0.0997478202926434,0.4755026219992933,0.8150949633845233,-0.4715936453145759,-0.377973056971294,0.2866295238586716,0.5808618582816205,0.6356036021023419,-0.48363641866925167,-0.4677661041020762,0.9268386157418258,0.3841348976717236,0.5959039745466197,-0.9208551527937388,-0.6145102615843199,-0.3073761900355523,-0.4905800999428269,-0.37680805052483857,-0.21257709764300525,-0.7383020958326676,-0.8545159361860677,0.8477761819831187,-0.7723596379816755,-0.9909426347545212,0.46546756181338145,
0.7368921042435397,0.6446920869409458,-0.11245886398761828,-0.9750911214622877,-0.6013806005411697,-0.1991225163873207,0.4978728587113299,-0.6838718774220758,0.5070552500858423,-0.5932788406534497,-0.8090284748778316,0.8012881348108862,-0.21488856443308335,-0.8494748982122344,-0.7995844615335854,-0.696067784322346,-0.17244594479048647,0.4738798547736143,-0.24614875211339982,0.2883562966897204,0.0031160384457897816,-0.9234071288647365,0.08284147949894494,0.4800019935171058,-0.8235339094963481,0.3395728417921293,-0.2161494458745783,-0.7336159324729858,-0.4447282515805655,-0.8782153966178188,0.07876794644063256,-0.6331048852655226,0.09454518423834668,-0.2825304581779031,0.18157338786354194,-0.6288424659350853,-0.4200843496441169,0.15240232570521384,-0.8015481999402672,0.9194218153100666,0.7634249232987507,-0.546964559166613,0.7718671028277131,0.5348368780675314,-0.2601058191843679,-0.9600418071507717,-0.9751909130432073,0.4162484573475904,-0.8711343086005479,-0.022822046427417586,0.26962952016734,-0.13849249840389732,-0.43342551477541313,0.45130712336700984,-0.5834125605353935,-0.5849002353935038,-0.4856416590923258,0.5598188351907216,-0.9495744895308229,-0.6797636401246003,0.4543686058614864,0.25511226288760924,0.7390047679484484,
0.4043718123023463,-0.8296035301338449,-0.87879414214782,0.2962253789932143,-0.861554680325999,-0.998917568727536,-0.44754392977537694,-0.5578338741721778,-0.7160309021595259,-0.29526922662673916,-0.1412237312607525,-0.4134217356203651,0.2784145606645392,0.8894028054897865,0.839409233539872,-0.6924287986643194,-0.691822582726715,0.8389167107542912,0.4473846129221919,-0.4944676917864961,-0.120271730179774,-0.9951655852569545,0.30937046569355053,-0.8169747150881725,0.6233856506289843,0.4364690321873328,-0.9292927860080551,0.3346144033657126,0.050475363191699874,-0.014600164861319431,0.8029888048510283,0.5262662407522625,0.03346834481487626,-0.7520650424394149,0.04163585122171831,0.40218218746767875,0.890017529823979,-0.10158580491666624,0.4134818718087263,0.5776193926380289,0.12564224194650242,-0.6818010001184478,-0.7305265821069895,0.1594602996767791,-0.8738630403714618,0.23964805944433332,0.2551618740220223,-0.5180063576731364,-0.6103912240837879,-0.49866828224666193,-0.668256511395307,0.5535742078399462,0.2493768695341596,-0.0498096978528062,-0.5970178925569685,0.1805305071137937,-0.5372048364882074,0.028294897500127814,0.4084269825319986,0.7678930430671218,0.5273864893769955,-0.3536765135813409,-0.48908325547098075,
0.39221940974514125,0.13450681325332625,0.5728154941605712,-0.1635620154354538,0.8999948531301241,-0.21791633344302208,0.7577248753808488,0.11698578036078033,0.5057908625885947,-0.7581967538747687,0.760741264064823,-0.4578488784713184,-0.35243358794680124,0.3124473618686252,0.7693047130365196,0.14273820835380113,-0.2977991058550291,-0.9100898827388018,0.5681903735104801,-0.8902064760012516,-0.4274501500786003,-0.1542476538328108,0.2619949132521653,-0.40499441937639324,-0.8719816848991571,-0.47002018411895596,0.553807096689299,0.7435133387688915,-0.9861507911514529,0.9000590706327694,-0.05219959227342219,-0.022261288436276505,-0.5599717236842146,0.3270135752639034,0.370436915560056,0.8809374499609801,0.21890875699723011,-0.559229441642658,0.3944257988132709,0.4217397244011374,0.5413638202515416,-0.04924336871637758,0.5015327622904064,-0.2839688065958852,-0.23552390791319744,0.21406948373242551,-0.3652106255307068,-0.9598977858111533,-0.170521553896813,0.4223799126337402,0.6676051656201407,0.38907208151137906,-0.16313785059610275,0.6400475406820709,0.35673768254179805,-0.4828280196798722,-0.2237280585174377,0.3497605314248198,0.8480292487627468,0.10155048720206761,-0.5579889883590448,-0.35166040433335777,0.8682726769614146,
-0.5611593599118898,0.16068180055946968,0.7841725754270787,-0.6364798667963756,-0.08619062139913791,-0.8843086475447621,0.33907533744969,0.5336039625015276,-0.6280153789212286,0.7740534798887087,-0.9687972792835824,0.9645901579478564,0.4832360679633465,-0.795876948176254,-0.14803918475475175,0.8753388808294178,0.20086260388016441,0.9186009028576105,0.048700899398095965,0.37129987090723304,-0.49918215695808743,0.28535035315051616,0.3263022643134774,0.03812268138630026,0.7282830337274755,0.5192707471042115,-0.4354195929442952,-0.7903842897588829,-0.9161250639202294,0.8016748766843029,-0.6652151360582774,0.8090413559094418,0.04935484707253757,0.16932217916046377,-0.45272158524341743,0.789686198230394,-0.11721800170746088,-0.5265393808376624,0.6738188715823918,0.8901000208833298,-0.2943663275526782,-0.07006471245144041,-0.8383091320700298,-0.32865006197187485,-0.8405079434342335,0.5646235240812716,0.8932657631835641,0.6180883091459768,-0.8725239593375727,-0.7958400469094207,0.8433929306641523,-0.5378125108141112,0.5956742841406371,0.5701181548423506,-0.5516434894406523,-0.17285331688253813,0.3724140574251875,0.5055182735490813,-0.376041742615703,0.793429652340206,0.08827859344073308,-0.6042661683454931,0.8566149983649249,
0.04934502656866324,0.667363177726537,0.4415728028994883,0.3401895170559479,-0.08096544811758055,0.29033964941080903,-0.39948698223784396,-0.2574014821917878,0.748586488624124,-0.23752462883150915,-0.26722697800268347,-0.13992748689727375,0.8832464791300996,-0.8451675080434184,-0.22789578842673874,0.1532685631804871,0.7831491141087461,-0.3955496377151413,0.5868926734701256,-0.04173386953190361,0.7019484228873492,0.23939244036229845,0.6053617577254169,-0.9731965041911184,0.7921775335776737,0.3371174585444652,0.24937048190536593,0.9739413321782682,-0.496878884198374,-0.9702881293935546,0.7545053552061569,0.19766676344909206,0.701437619668092,-0.8628998118464979,0.04986643022800852,0.8837811537140223,0.07172110454974545,0.039425957307061,0.029151690466405533,-0.17925843083105275,-0.9563541086260152,0.8923765434683468,-0.23465318630629572,0.9229541575893152,-0.2557099088846042,-0.05569935823072214,0.004530630916561362,0.5973465569097025,-0.7113127863674944,0.23154751407146934,-0.37999036855624824,-0.6131258243870412,0.0986085449291445,0.5085343367212709,0.6161982130290429,0.6859427968280845,0.8790319330730771,0.9116254387230593,0.7423637307627162,-0.2534412136699331,0.3837052519879842,-0.4390132366783168,-0.19044020079006163,
-0.3196536157137819,-0.8343334215368425,-0.9278439625672676,-0.6002266317068936,-0.28960134523500614,-0.8644637075362844,0.7791470121699966,-0.18548550972582367,0.5382581723888415,0.9398488643704381,-0.6365142726302482,0.8307813202258885,0.36515070350309364,0.923645276829989,-0.4613469830911412,0.11553492764608375,0.8429233277083659,0.7560012308835398,-0.5430131529402558,0.9955229358781448,-0.9710325938541986,-0.3258825471512088,0.58617582855086,-0.31250656199070903,-0.7192666235134,-0.25894611857161265,0.9450533909641496,-0.9354568807127588,-0.05072543877124547,0.5141403628123875,-0.2065198808404498,-0.4324515987918822,-0.282416971377655,-0.9144489104136639,-0.8613200466038149,-0.03367042799403075,-0.521689521612613,0.5834833206547978,0.7504743775229952,-0.6665977141372856,-0.24320547876051513,0.9118321392825801,0.7704359921312465,0.8138739688036407,0.8591384729237206,-0.24179132854912044,-0.5449374914282745,-0.44175573507538646,-0.8385782159540631,-0.28539955426650243,-0.8893518744333111,-0.4694256750482084,0.25494570486690815,0.7319264621671655,0.8576100160573121,0.8126900924313498,0.023746914958349796,0.0691925940504956,0.504603005922583,0.49579033110760906,0.15444060140796578,0.39990603752549303,-0.48216341544844554,
0.28403130432061263,-0.9352183890703767,0.8028602319413967,0.8385831694140033,0.5303646909563118,0.7861614070629284,0.9913562047447335,-0.8680516852116813,-0.41689311350141467,0.9465859977506461,0.32437695573828673,0.9425483313806398,-0.957577121624466,0.6745083537646042,-0.10481262328646901,0.1878213837045275,-0.19089101871538094,-0.01978274955640691,0.3072831410940231,0.4372747806240309,0.6537634701144335,-0.029688049466318978,-0.37543318418128346,-0.4939498999197214,0.44263614795592154,0.11212082054720662,-0.5779192467318046,0.033765296234722575,-0.8728480375111118,0.6887500190398081,-0.13441870304686043,-0.07532817251083213,-0.862694117375137,-0.42822382982692075,-0.6873090755680316,0.7927419580375921,-0.08516966760636357,0.4874256021743797,0.055317909596232395,0.8853808662902842,-0.019760757379676752,-0.93658976853528,-0.48751305613979734,-0.6479654727426232,-0.8514448531754075,-0.8825810767113937,-0.5653231444449498,-0.8209555332724707,0.2917304577974169,0.8845906850535161,0.4952145096671303,0.6296768728407813,-0.6085240701307699,-0.8198750579266869,0.02122772221832392,-0.3916672182543359,0.5344127199181299,0.8545113373702149,0.5561124094946248,0.010523747508169423,0.9721675897360667,-0.6773098831322724,0.4474227451845614,
-0.17472432173100239,0.40223459714912746,-0.5652171920068716,0.7185462089662371,-0.4757990000811789,0.22112815284513965,0.5048597852632435,-0.8905215045867483,0.1015590351159843,0.6595576836739809,0.9255404045603346,0.3614663718801787,-0.9777994415527105,0.4300548475912931,0.4700495492720054,-0.42776071875721233,-0.7106276414891224,0.8006893503207881,0.11968166627017629,0.7630048661693836,-0.1380656988650446,-0.14578862077359145,0.05345256866462278,-0.3246653906050059,0.7306210437202847,-0.8998377656174446,0.2980466604913923,0.2555215454913773,-0.8944425232379372,-0.42180203674255856,-0.5400043429914647,0.2859426691065359,0.3723152180838951,0.1240734255604834,0.9483530217688589,-0.8125867571110028,0.7413762237380064,0.5654378081725879,-0.8550436924712428,0.14347318188488534,-0.1540522063873464,-0.727204164426285,0.09069811739170164,-0.6130018670166106,0.935649568633093,-0.28830866822962453,0.43005358802600724,-0.2585183742673869,-0.2313255756171273,0.4253739186041403,0.5924416848154241,-0.6762121329933422,0.8225999593112279,-0.7770883918110891,-0.5121750723341778,-0.3078728816447647,-0.9758923160248327,-0.7440833973511496,0.3552801777154011,0.6624597242112031,0.8404443983179628,0.13775297066001024,0.8271018093794678,
-0.48151294401885525,0.2805378750646439,-0.7077002073360712,0.7573264490854479,0.40484159688750787,-0.8787417205687591,-0.6849546716877146,0.9123962863821149,-0.6799594014062307,0.504393307951873,0.2874909032408204,0.23300667871106318,-0.6847779027691019,0.9424848721977845,-0.2934528497719613,-0.9499886187474207,-0.743366423336159,-0.27324803159724786,0.973807826402449,0.3735871452509376,-0.1757015308214216,0.7479028106822028,0.2352888853164936,-0.8263125202048098,0.29623728271094674,-0.17928191786095438,0.7704253734056139,0.43114342080857715,-0.8929255406529748,0.745864158722733,0.09981984571402136,0.6625974354013748,0.17181394629966396,-0.45252529341383596,-0.48555922342703517,0.6087845137218308,-0.46997879727993674,0.592615273810247,0.8246711120354342,0.82450277925359,0.992600774654167,0.6288260211327421,0.7858117221747651,-0.9800558052745398,-0.8371869761020316,-0.8314866153888634,-0.12265368900473317,0.17688352857176715,-0.5448741209627534,0.1040414150840574,0.8964784854825814,-0.30044747604713806,-0.45004886494787977,-0.04504888084812486,0.17215376249628056,0.1588541521576794,-0.900732284242111,0.7288135097442427,0.1139837135209103,-0.4501006480039149,0.4375873251106379,0.019801585761485718,0.2811913847681069,
-0.593321889068414,0.5546713768545186,-0.3258568176151848,-0.8100988862854972,0.604003125414635,-0.34913936377931365,-0.8808038009137755,0.672797988763717,-0.7743060947544047,0.22283334441689062,0.28296386264492224,0.763386877079453,0.48929675501104986,0.8170588090885018,-0.07655156558200016,-0.20221766450452283,-0.6085360709189866,0.34016841612276427,0.1423173495569674,-0.28983486114070045,0.47444353453703036,0.12991801478346487,0.8749353003194833,0.34374345340802237,-0.0870395810802167,-0.13263037380919895,-0.7711057904954475,-0.9927393056934044,0.9820954194910738,-0.14962786693337304,-0.31425060013695383,0.4777939619987357,0.8905993652636144,0.150375510075754,0.3857507499866628,0.18379153910989876,0.9504060427237853,0.7390651097311822,-0.017066137795202163,-0.6020004141413133,-0.8980641747752884,-0.20174432878216342,0.8880151675590358,-0.07186699324600143,-0.07388861254057577,0.11593859178844412,0.10911314892131307,-0.9861535287656382,0.4478328899696995,-0.276671761786881,0.35539562478585807,0.9217668918771995,0.27199018152547483,0.7422069871788273,-0.4136685643149671,0.07604986181206774,-0.10808343175108281,-0.21117900971929027,0.7693025714506692,-0.5298726531853581,-0.6284834391302294,0.22003275878900497,-0.7490882027766512,
-0.42398432868045877,-0.9738704300504275,-0.9906111099726234,0.8523976327259435,-0.9992433725329133,0.21351779631385592,-0.8947853492022948,-0.4328517909382632,0.7352681371176102,-0.10480388320551381,-0.25019908102754385,-0.4316179200951953,0.9990825799922809,-0.7603506216976215,0.42820080776512737,0.12764340028085663,-0.594844296675948,0.21281030218891672,0.867107926653587,-1.633449486226901E-4,-0.5478690108381887,0.8374999704751316,-0.18126020258717057,-0.15189598055497977,-0.8028522933051165,-0.397639351122167,-0.7583952982995037,-0.6380738622977349,-0.6295151562066656,0.362138601327344,-0.07051824917119265,-0.13559282388793648,0.1640344161365812,0.9950033715149715,-0.3581015325643042,-0.5902198879487315,0.45880323776974086,0.06891703691851458,-0.6461577414844166,-0.36025070145861315,0.35234283516169485,-0.18210332011834374,-0.6306038389768698,-0.002636572942034121,-0.4947876654158294,0.840339301564035,0.7334413403241598,-0.7103090323211547,0.0462809522717984,0.1054087341648462,0.6275232500665975,-0.9543516109424461,-0.4401192288042701,-0.9101890830591324,-0.7495698574071896,-0.3670906614124936,-0.976477315332525,-0.8338882778571599,0.060986639394077446,0.6779008531092254,0.4730924208731466,0.7250811825471914,-0.7999819767397245,
-0.024528533323749713,-0.35685381463188515,0.9383745951822993,-0.5896062784247851,-0.22010654034546095,-0.13687166053175126,0.5541895927323257,0.8385120077200814,0.1364403734126487,-0.913962106748327,0.6673670074008202,-0.27245932474894174,-0.257141981189718,0.08427124693017873,0.01673005596354904,0.202181767923864,-0.27737326326157885,0.5680751898122651,0.036286592567368325,0.09668193071284525,0.6469893798964534,-0.734755974224478,0.6232448013076692,-0.9077379968077051,0.16029853261222526,-0.15360047939489885,0.38462291285634875,0.307093891907779,-0.35668585547046816,0.988395811842677,0.9855609076370624,0.9214052113287139,-0.5083387404216617,-0.16090708031755452,0.14626945406839997,-0.5777551507902536,-0.20826455670543242,-0.32005258763460986,-0.17911855515383568,0.6168971606277407,0.44392117709411694,0.6785706145539674,-0.859702864455858,0.6908838592085365,0.11306762606458531,-0.7183912822770557,-0.18755576290605958,-0.7240526489806065,0.7787437275787956,-0.9809984378095971,0.8472012011222829,-0.2546387737899125,0.11287210088199506,-0.7261192193249153,-0.29043980734516883,0.7683674454932414,-0.5700793392987271,0.9180701449468567,0.3034346166416064,-0.4675071896416443,0.5349079777554016,0.6213551251310405,0.5498444637134403,
-0.018050263474297612,0.4370568824800405,-0.8866089889648847,-0.252960323574529,-0.07771918802750433,0.6020090354085761,0.710322317510792,0.38645203795875904,0.9058581965213359,-0.8169091095603906,0.013889617869046855,0.6471909889518308,0.4398034805273632,0.5022002650036266,0.8490026458700104,0.4031309806097034,-0.7526548544332807,-0.05653966106277353,0.2264614910925813,-0.7495380535212441,-0.93441373623942,0.37786594100880233,0.4007118190153245,-0.20009437091766258,0.7771050275253168,0.25472592535198846,0.9382218784458363,-0.7233724342935974,0.5497670092469458,-0.4242178694937331,0.12027311517103145,-0.6677982182611715,-0.9014211506874321,0.11046551377917146,0.9746589751916532,-0.10318435966736272,0.18536745080137118,0.41582575502304464,-0.23601046682616467,-0.11377275908905382,-0.9634787934867217,0.4922514336021431,-0.1459971080035687,-0.3731805944923492,-0.5140163036407537,-0.7638267795113978,-0.4565123709235277,0.9734193791091221,0.3401422729888104,0.24352330171835335,0.6581228118306248,-0.7316165982749763,0.7132082030151619,-0.02719961332443188,-0.5062535131713224,0.5267727756855027,0.8961377356185947,0.794168635239515,-0.9597345842463776,-0.46872415753729,-0.30090420804387863,0.031097174849108455,-0.6743767772057103,
-0.1181407067834177,-0.8530809928800178,0.7436242441924001,-0.8100540040317479,-0.5310406331735038,0.9089857568364861,0.7074088383012045,-0.1668116613375037,0.32535270210069456,-0.09064427048452317,0.8103104773252705,0.07530585755027497,0.36067319838733725,-0.8100066515123077,0.9183161663152315,-0.5738170367380502,0.09387125081607484,0.28934381016220145,0.15521099762198154,-0.21675208102357213,0.17273848715700146,-0.8495176234144033,-0.5045319679549327,-0.1420890448909522,-0.794050588833743,0.8875112264300573,-0.41258943703986883,0.2776630548739327,0.23190028802709706,-0.38416798254660733,-0.1962222945120502,-0.28112228751598844,0.009952657894519268,-0.00862636605062872,-0.340596585990514,-0.6039402681350321,0.24351787811010994,-0.8941901482549828,0.9407960887155695,0.7664889161858006,-0.16925320488380002,0.9492529830899683,0.15998455109196041,-0.5950902359489227,0.2874163149645579,0.7788638784602842,0.27507432272273324,0.661120977253685,0.5979346011658324,-0.5787287170994087,0.012536397791255816,-0.06597805075052676,0.9242114596835362,-0.2113537706087627,0.5813278948779721,0.1788763701030356,0.8384726901159152,-0.2972680427886112,-0.913476166611993,-0.38974321494476305,-0.9550786480724043,0.4980803618754839,-0.46978463311232344,
-0.5286641233171103,-0.08351963681353936,-0.18479839731935876,-0.06999039982977351,-0.7891053334086982,-0.4033238540199324,-0.5037148456894212,-0.20945657987554167,0.4426203707598917,0.9030536612265241,-0.4393958982498698,-0.06899778167129345,-0.34303059098543964,-0.18266090742557606,0.8636677270086994,0.5017115915510646,0.8140748980930634,0.958896555399636,0.2336403324239944,0.9154503069346378,0.6668806142270645,-0.8881487028875672,0.6304976826887865,-0.6257915880082963,-0.05311310815754289,0.6125822339345905,-0.8121548552865849,-0.31030573348262713,0.390596441738597,0.2031123962959851,-0.1257246508553873,-0.8240279333376319,0.9929519793307284,-0.1827434736183542,0.9505950989817153,-0.46481141901033785,0.8447600498098493,-0.30978977348194037,0.4012065246708545,0.8624276026363964,0.4442989959832593,-0.8314033830493139,-0.9176218855084293,-0.8366928005444305,0.4690116095491845,0.6468111939020347,-0.5429039147317849,0.1080136392440918,0.6513871410252283,-0.833163462971567,-0.5243607762565023,0.13804455529382054,-0.376161244239128,0.3925245236429351,0.41297302871547825,0.49701053157682984,-0.6194121108609427,0.9056731695965459,0.28851314877363743,0.27442431052275973,-0.6497322204508766,-0.9299472309079229,0.8707595380469582,
-0.8685169525973999,0.981163624085156,0.07086418114188997,0.20875782049419778,-0.979571185026656,0.21170820295839898,-0.8390594785576762,0.13429635640116477,0.9141496417738673,0.23205624923932344,0.6313310326355288,-0.756799921214786,-0.6697384976131979,0.5382631747647668,0.5727347882401812,0.49103736870353165,0.2639911065126348,0.43879745792766456,-0.8944205760551283,0.7280067058455091,-0.9632450999610009,-0.10618174680702763,0.43036854944826697,-0.7502746903800013,-0.4775890380243437,-0.14914597717948785,0.7862494738893473,-0.24490667308745695,-0.7692637495092822,0.08622067194729954,-0.7954192344307063,0.9793616273547472,-0.19223997444202845,0.9697196829580801,-0.19439172657390635,-0.2900167271234142,-0.34483569876558917,0.5408624748947435,-0.6898153107181964,-0.10521729414906189,0.5760376286458408,-0.18193299742949876,-0.5752023940856419,-0.8835707183743926,-0.37815143951794683,-0.6420209951590337,0.8069977998022759,0.8341551322410508,0.6455825572271874,0.7402709441777515,-0.5703513774210895,-0.5168895842316132,-0.5414357082574104,-0.12602403217521396,-0.6637552505121462,-0.22629780279549316,-0.056434750902536246,0.8046174556263035,0.015876788661798313,-0.6522836267823435,-0.005624664804848578,-0.9529028604830465,-0.07475295577434027,
-0.6750254017987614,-0.2679056622297875,0.3775085602282706,0.04646893308623823,0.21373259646090315,0.09097777518679329,0.48774550301529374,0.7932110110357209,-0.8400224816622708,-0.42824971697570113,0.9399776519912426,0.06407534459293962,0.575237358622845,0.7278762885411858,-0.546229683244357,-0.20907319414200431,-0.19053367932271836,-0.21964211820394275,-0.28317376821517115,0.9412191793063269,0.7250246344785582,0.6492060588965636,-0.36896773891927603,0.607191430560835,0.7797242973497494,0.6448107718773584,-0.8113042284690528,-0.4488641902334234,-0.4586356333450552,-0.9199870290721233,0.01955950491309899,0.37476760317054025,0.43313389370861555,0.14376003505222723,0.05738616578129929,-0.6579455153069409,0.9487128771970728,-0.48019614791564647,0.7456072434056962,0.808691286446573,-0.42214549583605065,0.4389796098016676,0.7347342044493241,0.19773482520697616,0.24768627153345846,-0.8788197941456797,-0.880067331152462,-0.4902596106456627,-0.7880807714853977,-0.10677891785468674,0.9253636303682002,0.4670709887147797,-0.9903912047447223,0.6613669508687492,-0.23740116533100108,0.5658772528449925,-0.6329368361324685,-0.12762989718642803,-0.6263796206450354,0.5455752960232627,-0.2690512029715164,0.6144497141635059,-0.8853812957280294,

