0.20246638870905187,-1.3759716512257356,-0.32868185839467423,-0.5294330685558162,0.7232508476651652,-0.9116869082246636,-0.12845160561580934,-1.095315807629079,1.1629892814866096,0.335619382519759,0.4645397506106691,0.9108944382486879,1.2848080974794642,1.4842190021636132,0.9360749835717812,-0.2579294164418332,-0.30838281156365066,-0.8166812191769162,0.3360603443277229,-0.08765912066246846,0.18514614695931855,-0.0017520597613189018,-0.6627601961612326,-0.21933012661008425,0.8518090866344064,-0.20214246316186055,0.02546722553112698,-0.8663234491497731,1.4034082073760494,-0.6782538790628013,0.30721880126094603,0.02933212636201324,-0.7284460991189511,0.9059431552538959,-0.4027860084222661,0.7504495798490637,-0.4665667495073743,-0.016656689640898226,0.6460289968199284,-0.4371303189320124,0.009757499808186583,0.08296807349897396,-0.2573743276477921,0.5257200672760703,0.7139891784803163,0.574317385545307,0.3126201092504064,-0.1117987978342203,-0.5726271142037775,-1.2259174062937122,-0.42374578461319246,1.2759139460540807,0.8193166736303767,0.827503327276164,-0.7915062512644226,-0.03688116965273905,-1.447023249551491,-0.06351667156914653,0.9045216369448488,0.8350285540218718,0.0012955808991137357,-0.30536193466506034,-0.6784561251803698,
0.5751821448725865,0.3965751743118864,-0.10532432518265289,-1.0950212360273155,0.7300736447601152,-0.12911798815072523,0.9326169290713043,-0.3244751722489079,0.7042790763556906,-1.077513839661107,-0.9644363295205343,-0.33905216405986094,0.821679093049344,0.9768237832751038,-0.08336386677252067,1.0008058467640009,-1.167391506770679,0.22951285238900337,-0.4251925477504934,-0.66424336408275,0.4119188505297887,-0.2393290820206133,0.5466486883735332,-1.304747083109198,0.18486850437916577,0.017524103351713984,0.14936005492701934,-0.4063082401728183,-0.03742676147260807,0.08835025037738233,0.0896802167688069,-0.15280294304711756,0.39919860885405756,0.5735273466598163,-0.7716088534779052,0.5752023210872184,0.5565970587601431,-0.7921976560633597,0.04468428994791247,-0.9120423495108823,0.11414841454538895,-0.17887529350521883,0.6114876784983099,-0.18491267011762816,-0.9817755978032717,-1.1911613969113946,0.621275428173281,0.22592967692302107,1.1596527834940118,0.4473989911594044,0.7575138272154215,-0.8288200618083478,-0.35938884072743504,0.2772854879085558,0.884414513384285,0.6198864141191159,-0.2822039095456179,0.15114959368183603,-0.03332837735258978,1.2360060713809524,0.63703397695582,-1.0795112737205672,0.42705389629446744,
0.8253392750726046,-0.39672438949646216,-0.9310058624703742,0.36909154329526306,-0.9577937718311701,-0.19548168002043387,-0.1661363337733277,-0.25969178538641635,-1.343172468024648,0.22424512193898735,0.18860551989662028,0.35090095827473977,0.5213436449597347,-0.10975016632537168,0.22441130660969708,-0.13552123899464377,0.13290254988667682,-0.6221111420475455,0.6650257925254549,0.9704772869416013,-2.029604537673693,-0.8863612120895891,0.0013089387215942832,-0.2144536857918278,0.21887782239212922,0.08140379827660979,0.24838776844061677,-1.2555821201763855,-0.7712524404711468,0.8441611519575157,0.6949659251028611,0.06721906105619549,0.2380499976028821,-0.606865184611234,-1.3102817191812217,-1.3468958550262096,-0.9236118825250764,-0.1503846051828452,-0.17959939641263625,-0.09508579443354961,-0.13195340967930336,-1.083857213867822,-0.28919378797955336,0.963080831431096,0.0170807135218167,0.8069574826884297,0.5823425308490447,-0.3002645403426524,-0.9180624175620086,0.2018581412155136,-0.4084416093607286,0.41142254648214716,0.3070039075333917,-0.44003401714613843,-0.5787105229575903,-1.2526823465001027,0.33501870341951223,-0.37431298651681755,0.8218616535163862,0.09368091843773113,-1.110028101243883,-0.023124001957355318,1.3915526565603937,
0.22543274529429216,-0.8332146551910228,0.10053281978033676,1.0254954547521478,1.8569013171246218,-1.0235203007465403,1.1541796778533822,0.7994769672182779,-0.7015140407761192,0.304936539058078,-1.0414917732997977,0.7190708330150412,0.18991843019295238,-0.5937970892757246,-0.8771216853090879,0.22910570851867026,0.3620853616904322,0.1303387329260852,0.44123541812514694,1.3844925490704565,-0.6943560778313193,-0.515241679482959,0.677501348339321,-0.014449490888082802,1.1146753748293396,-0.9765349622611174,0.11838988896694191,-0.4002959742217797,0.6447682057787959,0.43765362459103846,-1.0091952030125573,0.1790277550928304,0.0213062471636879,0.00206905988190538,-0.6706208261291956,0.4530060539708011,0.08657337391810532,-0.873227852082744,0.2829490269762967,-0.7439140487545001,-0.20733920901802597,-1.7061984860261106,0.08288830821518642,-0.12229901380853703,-0.2565902214756573,0.03069746092256639,-1.1664343865431483,1.194733588867702,-0.3173702377309759,-0.5056930986870715,-0.5242839138218746,1.0663895338713503,0.779330511810732,-0.5871304996288743,-0.541238716330502,-0.6796025249996206,-0.9447135846146321,0.42888500868799045,0.1422822950448656,1.5218511968441994,1.6284122720553826,-2.0467603012463766,1.0520015746319666,
1.0274495904984415,-0.036224597130905214,-0.5431769079738543,-1.5289972812380057,0.5461854902955059,0.5619421988787466,1.0819893328909949,1.0157683684591374,-0.42697923571677876,-0.2798536043890142,0.06625390759731553,0.6106300308162507,-0.7707125710478442,0.005231553221682651,-1.0512343942550042,0.8117768860786263,-1.2706590710784735,0.5368749298106217,-0.5443746942917671,1.3689700220129888,-0.4592386569254061,-0.5897696042392424,0.6012867881515238,-0.5887005105352159,1.2913746057106374,-0.8096788278551255,1.5675829409443112,-1.032550531737388,-0.18822974854213673,1.0686834939727643,-0.3390807489375749,0.2920275501446957,0.29863591063110484,0.7080867259028452,-1.7087955077743606,-0.1168545112101062,-0.2774802428980875,0.06647458154767166,0.16377828744814385,-0.5237020244500852,-0.6017485661202377,-0.4381266773191237,-0.09130039501488463,-0.1923523213420569,-0.8638918909609952,0.2729210720079259,0.6763018400295426,1.1556706522120854,-0.0953994190336781,0.5688727716315727,-0.9556488205916067,0.1825382570606395,0.1955617345775302,-0.32706964033937025,-1.0647589801470057,-0.8299007035775792,0.2456541993180418,0.02037446207021185,0.8089127398477372,0.8584259042204927,-0.4050712729201922,-0.24766139275771812,0.5589978403031246,
0.0877125640236054,-0.4513591410740208,1.1331875228975474,-0.2440704085659675,0.2906776594241827,-0.04100788164256598,0.49727344767058607,-0.5952231729539645,0.2660695919913694,0.7251958594730896,0.0714519361805198,0.5557481959796984,-2.340036110123831,0.16025597994690566,0.1855542120645215,-0.6351453224044863,0.18487485523129904,-0.237291409601192,0.15204055435341807,-0.803347442800953,0.7366704572101015,-0.6642921851418897,-0.8312373497152488,0.890146234212551,1.0880285130789344,0.13356483896380944,-0.49705586213446257,-1.089874468751408,0.5242627849020228,-0.01345481381821146,0.34005807386827963,-0.1681797402665799,1.374916474296752,-0.48645177110148036,-1.5722787275160246,0.36402901651538183,0.4021672825023663,-0.380459413959839,-0.790786563349392,-0.360314606216573,-0.8917168837835479,-1.4416562703028775,1.033619486819287,-0.3699365882911296,0.22361419339644317,-0.7285330090414139,0.27022985253045256,-0.3369467110724123,0.6627171342905711,-0.8798441809662085,0.8459934472256065,-0.9521942958252587,-0.44644329001826816,0.3425906900355345,-0.5770620493474816,0.6661276722922,0.6333271513848562,-0.026207869540770142,0.47039506443012574,-1.046220808654204,-0.41585803147403316,1.064098437789438,0.503797463089407,
0.41229607291391734,-0.6136981538410711,0.5599797681046843,-0.3264465157135693,-0.22595201072547177,-0.6737116595354724,1.7033618688751748,0.5715320245789437,1.3409313096844302,-0.06775785998982346,-0.04321386740256259,0.9110780310463344,1.198555478299011,0.2963077930510696,0.1651842420180576,-0.31433095135048683,-0.30305193918645623,0.3555122415590013,0.4540703804645406,-0.2983404097249016,-0.8304154028881627,0.41860750888639664,0.8859481012323891,-0.8112421848726505,-0.38371712438685546,-0.20280123301525416,-0.7342720567849985,-0.48876582076183617,0.4450594878964943,0.7429356068621502,-0.700718494004839,-0.5621605178497531,-1.0106291474030367,-0.8632710342365699,-0.757048035069162,1.4526706440431971,-0.5430894562928805,0.4632989386974855,-0.4008952983137818,-0.12378286209431517,-1.6238829871013274,-0.07750735423208215,0.29772503892961966,-0.5730509414174092,-0.024261751632298992,0.7329456495175561,1.142039620699662,-0.9863057550845269,-1.3928015182255087,-1.1154617442952472,0.6832923113328309,-0.07428702233221375,0.9818627164417841,0.5117735562033651,0.7640967254778783,0.42388962305768185,0.7931678605157124,0.2285452604588945,-0.10428656267602908,0.5754606804536522,-0.047227307432276065,0.6598963900905743,1.0972390754053523,
0.8746064758525591,0.0550210338113837,0.14812742936435644,0.7660694675677904,-0.8884565760688485,-0.9669862995593161,0.4877388770096467,-0.8598309720146609,1.2409250394232838,0.47971000594643165,-0.930183670247468,-0.4706047667813297,-0.1721902981867496,-1.4298652779337224,1.0315046852906842,0.7834198293159442,0.7697790386711698,0.06147368551597545,0.8435334539421249,0.1967255706897358,-0.7337620448348081,0.39238969675338586,0.21376933176136168,-0.8661243095302098,0.3685618678909234,-0.38120300791478057,-1.92227796910907,-0.34925291129497815,1.0755096755193592,-0.39244139828203695,-0.7088736803153266,-0.9937845874318618,-0.22849640079332192,-1.7119745421339985,-0.13488223046502315,0.6629727427458183,0.5345347786922073,-0.7621721681047731,0.9823518161093774,-0.9684859709590292,0.36195659892544585,-1.192898823594566,1.0089284663480411,0.6199494407046395,-0.7180917202173438,0.4931976299182447,1.0394856939773292,-1.1338021301121437,-1.0581687082185807,0.7139744527750638,-0.03155533869767207,0.7962598947307382,0.8254221428489841,-0.13709501289086126,1.136314531696564,-0.08939903081491564,0.6005851240077196,0.6752502655614647,0.20372689251758566,-1.0583756816641936,0.11546829711532712,0.07420802446487702,0.1772246419105191,
-0.31228932674378634,-0.0666939289114422,-0.08071891912259131,1.1676021138784447,-0.29121395094126556,-0.37729433095966275,-0.8976301126474473,0.33262791407661785,-0.04531061520168098,-0.13623863066045433,-1.4539870391678005,-1.4992880780823892,-0.2526442096601534,0.26932174482539234,0.6509193765328578,0.32678262025031635,0.15899531248233487,-0.8677209420938092,-0.3783248097973851,-1.340458887618106,-0.8283556656064157,-0.017621332503749323,-0.43667771578230696,0.33292975082185694,-0.5980595464676212,-0.8950769634576403,0.42589126368631197,0.5358213729359114,-0.5701467081150069,0.45052999184142883,-0.8866330908413032,0.6037749435767803,-0.711766005575712,-0.5140659966320817,-0.9158156358888017,-0.6834423349481986,0.8855230999679531,0.2586312615005051,-0.0538967914967818,0.16094837862044034,0.2612901956718313,-0.6067485472698368,0.7475957050377386,0.9259813092524718,-1.1466003659198385,-0.8230743058345562,0.20774111682458266,0.17902873658358756,-0.830679064472835,0.4925442126545154,0.701163650701315,-1.341610504848329,0.3386301172063357,0.127241595998192,0.2174569454931322,-0.8883108471920289,-0.03954751353752114,0.11967747531309868,-0.09891967860697483,-0.2094813792322007,-0.4580638214402836,0.2580494557821272,-0.7630010943854464,
-0.6447326358398788,-1.2353986224144267,0.31550126781910726,0.17339353279602526,0.5117656690745802,-0.5112668854003654,-0.8839508077896693,0.07878094193554347,0.3017382872882125,-0.37571691419873476,0.9286954434211927,-0.001957468444323017,0.5427856002492895,-1.3203511818036202,0.9132307737154557,-0.2246018854920692,0.30704019480242295,0.596807232343894,0.6356533039394974,-0.10383142840589088,-0.2997215864357773,-0.2081305994479959,-0.8635402546103561,0.16808513274261344,-0.5797729268071213,-0.8503003621015772,-0.9162015538435151,-0.5572582151882406,-0.6373450436276231,-0.1875866635916989,-0.9069159217809439,-1.4696564888122583,-0.6537370456457587,0.1911941411992939,0.12867561777195013,-0.9791050669940404,0.9725989572667013,0.5035052493489875,0.007156933188080492,-0.8124140667562803,0.7117238231934604,-0.6503938709906891,0.8612925865947536,-0.8336425979507212,0.15475779022546737,-0.6031050720728146,-0.7369353770685663,-0.05262193077385698,0.7034556486217272,-0.1494987273183417,0.940133562180588,-0.2671611184794787,-0.4228706459320283,0.5287390037978008,0.384634017544024,-0.9850969322077361,-0.956692655946328,-0.6341376521396116,0.36254344153571805,-0.6512802769514487,0.33805717803865354,-1.4088440788876708,-1.0717288205123654,
-0.023132811476832965,0.2913212501549509,0.5910416889078512,1.1494643039518573,0.5803407942196698,-0.9583821316291511,0.62766989049491,-1.0606692855134214,0.7984209619408943,0.6670781799279165,0.2520650201178935,-0.08785799241167874,0.0028658197592636874,0.38473624877794077,0.21650665055508245,0.13797204446542155,-0.0729235660759179,-0.06691659564074284,0.5761108122509405,0.19886656094154198,-0.1166595064937084,0.9003932410558039,0.5392840484843727,-0.3371106172159182,-0.8066115862400868,-0.482236780978856,-1.8742662627348587,1.2374324204910172,0.8820786593180391,0.8521528441597493,-0.5696130692372229,0.7517842168829777,0.8561403417634387,-0.8794364771920659,0.9069353056215691,0.03612563521335416,-0.4761700824607865,0.04547529066646309,0.655845288638318,-0.103606334699097,0.012462387330897308,-0.6705317620486161,0.3601993247479367,0.6741836689484676,0.3979242917900824,-0.298167499923099,-0.4791080696700575,0.28412244465477876,0.3836701764210887,-0.27934321022407316,-0.9262760351971698,-0.4343387454026397,0.6778496567063236,-0.7064817606738286,-0.600491961437264,0.34171700419477835,0.8598300050007505,-0.1095441181229567,1.1390617927077482,1.2088020467724117,-0.16325324973755295,-0.04660215485996913,0.06032892914595884,
-0.8794827398560953,-1.0524788465571298,0.7383581304504515,-0.8935307139090941,0.9097332646465833,0.9315834373441031,-0.30729055509203607,-1.2490735879919286,0.7228720868901979,0.3340981194099477,-0.11524889140535897,-0.5613350295155176,-0.29543646297588266,0.41004466377846194,-0.318906454242155,-0.661809021664329,-0.5322618426339806,-0.0933390771651209,-0.22176884871239835,0.6222645651366588,1.5121012519929433,-0.20814992950950575,-0.976223430922058,-0.5868446465774743,-0.20975328492856074,0.4276590977618827,1.908256011430434,0.596894118070528,0.6519885496453061,-0.369586291376225,0.4637690822906333,-0.09135483236145193,0.2043162711628647,0.46662462263299387,-0.3289952139957343,-0.5160458714544366,-1.3942596182432139,-0.6685247272906428,-0.5873555590922906,0.361789629452698,0.1289218771141822,0.40674739174040897,0.32331636129148045,-0.5105860151959495,0.591760755791006,0.6529087933259655,-0.6112116808631941,0.7645061065415256,0.7296597279920652,-1.410913568264728,0.18030164449577948,0.26811375725406417,0.21821210826011647,0.49498166102204477,-1.175676643670538,1.3947667853523371,-0.1540536521807616,-0.12996272369990222,0.0972193581215383,0.7392786724517332,0.1575292566297121,-0.4286401574512937,-0.9486895581943344,
1.7070030253942867,1.0758384834244938,0.6465776444046126,-1.031249125058979,0.3618519152564087,0.57334285324226,-0.7417922280918273,0.30589203614361904,-0.2499444437608322,0.6445038146886061,-1.098857459268687,0.4324469778571153,1.1566485817374361,0.47610914876827237,0.0661939215166235,0.6931640571333791,0.5793749165528325,1.046145016758976,-0.3199098915673715,-0.6816121788080313,0.29628460840739373,-0.9313165260149204,0.3529039851007082,-0.6624432648899622,-0.25640667567597153,-0.259721163235054,0.0822365656312311,1.448490683233564,0.870429589497539,1.3322205042256263,-0.30590431379300675,-0.8027744006844718,0.49281716533932984,-0.5407197965646867,0.42475566784568897,-0.7803447322110081,-0.07846900638022998,-0.03445334144738731,0.2871560298891537,-0.5366345417985133,0.047588907454891784,0.7534126173024314,0.23838471997094546,0.9622674236800745,-1.3021781811475377,0.6685159563963162,-0.10240866189374824,-0.5782818606167651,0.5920246115949791,0.05074206410689088,-0.9239032498914811,-0.08706501626546666,0.7346383375204734,0.5700340833787166,-0.13174983252718458,-0.8543292319237757,0.34674023276954646,0.4846155934626616,-0.5243012900243219,-1.0079045464639695,-0.6659233690636807,0.4521249118537375,-1.33608361554919,
-1.359618352313683,-0.1383012555131418,-0.49134696385121435,-0.0736865569601873,-0.18800570037262412,0.207315416655879,0.30067446315530516,0.3756435289825191,0.06173906574144978,0.09814662690264465,0.9770226511129743,0.09851188255552795,0.5236316133137022,0.6607633482322142,0.8420604055709024,1.1268498397753934,0.4834657011010554,-0.07933792800619771,-0.2596724958076561,-0.4084354138964688,1.3056915869314696,0.9745791007383904,-0.12808727983023013,0.544575317418269,0.4708077077294978,0.6055981099542431,0.5637024972657574,-0.27279185712802884,-0.082180893881626,-0.748919669019442,-0.030848885021493504,0.9788440056348051,-0.7571073584607566,-0.853756975117848,-1.0328457557855466,0.6377994833508862,-0.7962272946736928,0.05613718890596205,-0.0374905431141021,0.7153357234156552,0.03739959714380891,0.13314572284988094,0.9215444423348451,-0.516673918919097,-0.22528389370039545,0.18725881370771927,1.133287735064598,-0.2806454328606167,0.9243811247585998,-1.0186356309955638,0.8387731146728568,1.2594701345721095,-0.13896461032222548,0.7017517158826194,0.4769458618780515,0.9822738918868064,-0.687511689901285,-0.49352626667264426,-0.4653131170781555,0.25807537189876545,-0.06234386828086163,-0.3939107747594475,-0.19265397386610714,
1.1395209095543943,-0.6946356835287911,1.0378819308305245,-0.785703859577718,0.07197141728308618,-0.443178316553821,1.0428644519656063,0.7966621305912859,2.0916433677452,-0.14526105927292296,-0.5756489975501192,0.8037815707520054,0.40646354155352016,-0.12436585437131831,-0.050603794077568855,-0.12109426706507925,0.8443998951091304,-0.786767202169035,0.2481221828221595,-0.8596650431344685,-0.9102176263310834,1.1903108206492041,0.02468775010825814,-0.08280129449217136,-0.33184790314257195,-1.121444542594164,-1.314482410029804,-0.1674410805416784,0.5121978992699169,-0.5945450038753127,-1.3095600013667779,-0.6931293785619322,-0.9708331334687893,-0.7363530251466082,-0.40803474714937893,-0.19823880618209586,0.3599074278909904,-0.7418015862124029,0.04877631963854851,-0.09157320602970426,-1.6432243062224978,-0.22409760391936998,0.6839536550961779,0.640509365653238,0.6339823216526689,0.7530112189198447,0.08462043238902042,-1.1031660993952193,0.18460609776774844,0.45986885917607034,0.8153681969567831,1.0654601223823905,0.80247268355988,0.9626421539423723,0.8029371284647521,-0.9892851491463804,-0.07591015083087402,0.4014351915185894,-0.4028612884895547,-0.7045554854722597,-0.28068711074017283,-1.0586478852445513,0.22172494686693364,
-0.6778273666343105,1.2352559875995748,-0.942873833643559,1.2794500162860776,0.23994131549958078,-0.10367823078462639,0.13915354601811394,0.31147818528963,-1.990499026457803,-1.3250021486731984,-0.027550963709575934,-0.22794834712680187,0.018756529008778337,0.29747064673969204,-0.6063692601664462,-0.09130870265593323,-1.1062448115140675,-0.4912299318434129,-0.957113430341299,0.4497768996495165,-0.522834555804637,-1.1997543420534504,0.27773126878570764,0.04420503234297747,0.3389876510473745,0.6292450185002111,0.7068455881700543,0.4010796430873209,-0.44228560376917014,-0.06633800224739105,0.213094617421529,0.5243966639211315,0.5704958344733313,0.5079064724821957,0.3644304233482524,-0.5324315334890336,0.3264172423674211,-0.0035729919184905616,-0.7240912733459314,-0.006246754321632715,1.434610205256156,0.35567771013586846,0.19072996413902127,0.35048799786621276,0.4873841310367133,-0.1611176489756939,-1.1102402051563727,-0.12579797256410355,0.8893792248942299,0.8441559292682316,0.5045989708965591,-1.2498700618012586,0.23504843975218873,-1.0543841615589693,-0.7311540967370563,-0.36466532504249227,1.2037044313667355,1.3290856547402112,-0.32524575520297305,0.7597091543687676,0.5356095400962196,-0.5046484992853265,-0.049858990807953335,
0.4263797270009489,1.0693360590489502,-0.08920933515815556,-0.4734366053365377,0.8147267575774257,0.4466161052436048,-0.4572687057790324,-0.03634011672045751,0.35480342153840144,-0.09289977465260123,-0.7669858714809421,-1.1032025611599818,0.4763713309650475,0.4315788310894993,-0.5881124046419843,-0.32222714487961174,0.02136157705234928,-0.6565630074904365,-0.8002348259474603,-0.20557105726187913,-0.35008551127257154,1.1569969914208478,-0.44554062725487137,-0.732869659923129,-0.38838035327274906,-0.1039079407617516,0.7134397417816074,0.8126586541925083,-0.28884474807846167,0.03127102999777392,-0.2808598583116631,-0.4555624305200561,-0.1455177085436099,-0.41330391256353755,8.525857401055035E-4,-0.11434681135894438,0.2198681593866721,0.01506481563344802,-1.1189362013115687,-0.8430482810106257,-1.0355956780253746,-0.11958222855965318,0.8105610812177475,0.015627714670445096,-0.3380060523343931,0.11676021863240367,-0.7658958035079271,-0.025104190011489527,0.9671504491088365,-0.46741737557878243,0.26845916240938544,0.7739788618978005,0.21008810464801086,0.7002466345585101,-0.08266014728972655,0.3058719277913267,-0.5427126909045552,-0.2188937045471761,-0.3795391965944997,1.5107124826449356,1.4312390545446576,-0.446164817591784,0.5802690127569281,
0.18247057717230988,0.3941317617648163,0.014872969477806778,0.6011122355128519,1.2306847150140097,0.695316557364983,-0.009945664705175505,0.6401877796408207,0.11226589970299047,-0.7020206187916106,0.4991415801795213,0.21791785355747653,-1.1850511443528677,1.074748858905809,0.06352343336095848,0.7150836901287471,-1.2421934165266928,0.5170541352084119,-0.6801398668588684,0.24284331646789312,-1.0221807122589561,-0.5821084693761512,0.24400919552061653,-0.12567833640316842,0.1758712901886754,-0.8051902334859596,0.623073565747206,0.10376826530232951,-0.184595895303477,1.1879952931579332,-0.47770980847891936,0.6540744814618996,1.1400038294308783,-1.2401961484257995,-0.8369408668777688,0.5260811497969772,0.02821705810345455,0.16235447199803274,0.0581484691577845,-0.7946962134041199,-0.24472819521050396,0.34716525162694384,-0.15715746604794542,-0.4976764589967374,-0.1133208318127964,0.7040239086802763,0.6314280373346751,-0.06049756553393819,0.23561510653807613,0.44296035295759545,-0.38602622500765754,0.3913197732790101,0.10345831813717751,0.4703496382570949,-1.6451594982976327,1.109799957502887,-0.275731725815142,-0.6781614993973332,-0.2597691658925247,-0.4294571204372751,0.5444097165718016,1.1644284898600763,-0.11249897081891812,
0.11344433348877356,-0.1050894004240403,-0.8166975459040275,0.40944363397601574,-0.8590622740630476,-0.5288105447632354,1.3307040613301466,-0.9559932750343176,-0.6641275280081875,0.49783911708025647,0.6736063519589759,0.013160846407649036,-0.813202322309142,-0.3692368242310357,-0.33769701292654924,0.829268387650026,-0.16311807728819294,0.36044840873191136,-0.024968289777065326,-0.6362764167052228,-0.09058524300093143,-0.475450084378321,-1.0410899034670702,-0.6592714307790587,0.25641781031016414,0.6108736879725554,-0.05128808235771684,-1.359491305623111,-0.8971595905038254,-0.4987126888429136,0.624872702297663,-0.6504228942550472,-0.4988045232081153,-0.7103557360796275,-1.852211282365455,0.3578082737449693,-0.8433448869665778,-0.6307208894205609,-0.37727648167528,-0.38578251715495177,0.8365175122832769,-1.6671820326650373,1.1560267444759398,0.05607734547868315,-0.5677191951918481,-0.34073246191921175,-0.4135001964378949,0.5206249320604692,-0.6701836146179555,0.26591014722850764,0.8344364005489784,0.20573430731199438,-0.17117824923500335,0.6176824487156456,0.22501455239060664,-0.5455073519684713,-0.8030817647030357,-0.7150389514276556,0.1664311708192064,-0.04753141802294075,0.3270215202953735,0.9728407947393638,0.735566382919798,
0.06500696859261312,0.4733099317379536,-0.3609512880934079,0.6883315832730205,0.828522748813339,0.23635450880934483,-0.9495432701991172,-0.9333809421904018,-0.3251304410972035,-0.6012134861027775,0.6402922759293103,-0.5224730310469022,-1.0190032607385144,0.6713425159545577,0.44899133772082095,0.29714330239812986,-0.7766447976832708,-0.04281335643180747,-0.4520166221658953,-0.37385334140234366,-0.5029087957421693,0.54072250969425,-0.0894921144301649,-0.8551574215696608,-1.0387527951452968,-0.38459766160478065,-0.9508391595459375,-0.8925477828665996,0.7293451241326089,0.9875235965236259,-0.1656137680021605,-0.873901705071198,0.6838361763125288,-0.24072257927852989,0.7692787677036902,0.14470800785549984,0.831254250358585,-0.04095440564204144,0.1359421267488557,0.7698057965000115,0.3614670291847549,-0.10832238300533786,-0.2803681752444073,-0.5712761670899561,-1.3305256188210683,0.6506473283509527,-0.3001286209128971,-0.08114701112203539,-0.4259025273103672,-0.2694365932717136,0.7923922709239523,0.41663235363748735,-1.1220935526351639,0.01987312217525857,-0.04474024227568014,-0.7563751517205656,1.051794051593841,0.5293313134939535,0.9255753843050716,-0.7539129198180244,-0.3294026112706761,-0.13762418364195364,0.24694339424375272,
-0.6213439948556982,-1.6955862651568163,-0.3630020241727185,-0.7205901522532004,-1.366754870386273,1.541914306633936,-1.5590869333927337,-1.290806241043632,0.5206484754763036,-0.22256644794462388,-0.19582353931551516,-0.8859047515724855,-0.9921116404064917,0.8376735790114419,-0.6484352137417474,-1.4121664594065328,0.5999353961858157,-0.3586702781397378,0.04465024217594031,-0.3393778269178211,0.08037670334572582,-0.7266198379314376,-1.272837727367881,1.2110975982469019,-0.6691479562708406,-0.305591599193806,-0.0925045702609253,-0.3244362614250624,-0.495765380998572,0.037071819010564694,0.43198723544083434,-0.3644239673992022,-1.0669648788832715,1.4663202789775633,-1.1993431708478273,0.30598879987496225,0.2839447776397604,-0.03465661703945738,-0.1988328549219105,-0.49050900834396755,-0.5059212654720707,0.6392972398119873,0.872725498431893,-0.7775585549529819,-1.060756135978642,-0.22242451756465598,1.384112766149995,0.5082378948350635,0.7309268228249661,0.42926470912381637,1.3072340998614145,-0.7945380960067724,-0.17887429130613863,-0.18686221341248188,0.13555851739230063,-0.520763385994473,0.39193909281623346,-0.9303031943463519,0.017687457434566706,-0.8336207021108377,-1.5948919878779633,0.7415521421175953,-1.7696729983330488,
0.10810082113867699,0.24156944035832156,1.079735579784886,0.6109800230618676,0.0285731376886042,-0.7422362186910911,-0.7544642860313793,-0.3824349597136029,-1.3322966479094933,-0.6520628750549711,1.165688996276345,-0.8336536459534978,-1.8756465954794732,1.5149023455348865,-0.28235569520914383,0.6626283460851925,-0.013778964233083632,-0.11689552424301912,-0.4947469072528317,-0.2444395578504333,0.24786490151834373,-0.7667782189598147,-0.6005814120930062,-0.13608169677878967,0.10075939552946729,1.1526928209403164,0.5302530008147468,-0.23680859124887593,-0.6908488001612543,0.8550581555269219,0.6822844156627592,1.2475318955878631,1.4186551661264766,0.5761711215377878,0.45305128573328696,0.17906517411117434,0.5154325113614568,-0.13382116824864015,-0.8037434312602134,0.07207605820811831,0.7683131349802139,-0.9092249817446112,-0.033022662166945806,0.306187800243627,1.1008722205462764,-0.2335778674313222,0.33918815470836633,-0.34947416005327353,0.4084025276819003,1.3137093461284157,-0.6654462212029182,-0.8451555637694854,0.6229127314890273,0.09257924002242456,-0.24840277499617047,1.1219128417013666,-0.0843627040353518,0.22554350732516715,-0.49022499057717545,-0.3715123968817216,1.3386443075215444,0.35241860009939613,1.0612553767834034,
0.736541055124908,0.7533900599728974,-0.22271393668343636,-0.7536728736624306,0.396756800288466,1.647410516979253,-0.00437528429029228,1.4651831012251995,-1.319429120829036,-0.4067683976709328,-1.7882952410032624,-0.3671878237069606,0.056300858791790344,0.5348130271855243,-1.2770831170844796,1.1215667906487643,-0.06376441570168163,0.23132585927224608,-0.4570635765320849,0.39756182366755205,-1.4387426268406278,-0.4469343217309209,1.2379151379324034,0.7272214467792519,0.9038077513492893,-1.1118748859616925,1.854884681854844,-0.9096360745623084,-0.8564010312615267,1.4230031871706408,0.2505531081065067,0.8923771518206942,0.8186089142115376,0.7660598101582392,-1.6576184814103776,0.5598404889501327,-0.3580419021540861,0.35844122711843657,-0.17785342285661876,-0.8961611386732271,0.5527898453435256,-0.35739245984450746,-0.3499108227775262,0.02676880519694327,0.2053519120548732,0.14272007964808164,-0.5814491391615373,0.7072788597074544,-0.30031797422860745,-0.2977938118997853,-0.6613524314752606,0.8516091652830304,-0.7331277270535699,0.4804784794311621,-0.7795967813596847,-0.02060818814467866,0.855509347279636,-0.2920901045925057,-0.08821255968307991,0.027565297454680882,0.6408887272581913,0.3931161615264878,-0.5344174031379156,
-0.16364237193709588,0.11806339859576374,0.3000299329558676,0.7120620471256955,-0.8741293221361501,-0.5236297385823514,-0.7726472377673768,0.019714807161519545,-0.1784424874992378,-1.1521849072297619,-0.2418533893670239,-0.7814287711895673,-0.26890708657113865,-1.1369979458389345,0.8023838093547124,-0.4346824773683737,0.2034784755208984,-0.4385341802238319,0.08016239898978104,-0.20858204442469735,-0.38805578752587744,0.5469763849356382,0.12407157712375137,-0.18122758626955981,-0.3638941340566887,-0.4344794313726357,-0.4909382523265052,0.03635288176381693,-0.2674850179216492,0.847541846784754,-0.23735456774707878,0.3243596521367905,0.42499547852019237,-0.8877593407223241,-0.0023910872108106676,0.17625433302353996,0.10572130081075314,-0.8346738299828858,-0.6185138522081786,-1.1825694193345118,0.7127230968971086,-0.58072062620141,-0.95055979765327,0.6187972294057544,-1.0267574449123649,-1.015051208244114,-1.0194276738295809,-0.9319229338117765,0.546091542861805,0.8779259408852436,0.6623666482273509,0.07501943842139695,-0.6913427384312415,-0.6903492755796394,0.6137404971530154,-0.8037056038136803,0.7928901445978569,-0.29535150427078444,0.4111614331404337,-0.09871132498126932,-0.07895155125723223,-0.25499945439763855,-0.5888057003066391,
1.12944063405832,1.3649497111455848,-0.5719404518808261,-0.6909977858823595,-0.6200558981604659,0.7815259272130725,-0.6764777561071401,0.9434700050907027,0.2518453067698265,-0.46558378927585786,-0.4313061223600657,0.011166712738154182,1.4921602298679262,0.06291862060846445,-0.20362755567936408,-0.18339877550916306,-0.1104823379148887,0.48875868424409585,-0.9851896094045999,0.15404418855193966,-0.3572448363281411,-1.2416308562592042,1.190634692347261,-0.12246663226962076,-0.545221884555273,-0.6687207287942555,1.2895114327927915,1.0575563374785626,-0.06601119893185262,1.2183018508916839,-0.09148365299432798,-1.0865063059501279,-0.35520027533944853,1.2739906670888141,0.1864046010592874,-0.8253416293094634,-0.47063574605429137,0.735949007482059,-0.23170119439101833,-1.3713623501213843,0.5909127738705472,2.2681402152179504,-0.20038304716407374,-0.2891092053567237,-1.5905858377593334,0.1745362508957689,0.7375318845235396,0.5553037024255777,-0.020764287883437153,0.7100913196106605,-0.5947862715542038,-0.43371138376686136,0.41194436083992514,-0.33471820759889714,0.592972883571654,-0.2734095637382479,0.7058455971136827,-0.6086762813613698,0.5827944736951384,-0.7742587471190207,-0.8527462128071114,-0.6110982050635904,-1.7591280981651378,
0.2883491548086588,-1.2473074061822498,0.21473713574834605,-1.9968638259326394,-0.7702600574595699,1.9097720490629975,-1.1393011671882345,-0.8742822275425755,1.6910766485630369,-0.6848957108586586,-0.21921230024864172,0.4403666686839364,0.21482371127681912,1.3654835500099285,0.4024359941446038,0.04223418162756004,0.3561601583750625,0.11080679554507533,0.9203144067967943,-0.31780118604307567,1.8920185456311525,1.4459595069576365,0.7949468924228724,0.8873333928411846,-0.46418596777353976,-1.0822976529001807,0.5063443334212929,-1.2153248886268577,1.001599385562289,-0.12363386882047617,1.5471534960507758,-0.32235415607344436,-0.7065385353483193,0.7906324058385066,-0.20230608348269172,0.8408906629000501,-1.367005023562859,0.46804048397298864,-0.8832537932389213,-0.0016609766078037847,-0.7491956493728096,0.910229941366193,0.542557193779154,0.3699922625981404,-0.6919863761006599,0.483346064012811,2.307165169937163,-1.2427727304352238,1.4221413632869413,-0.46375397183336103,1.2294136158259295,-0.8073059736953865,-0.039219128336742556,-0.22774695975397577,0.2066626555583728,0.7922409855349173,-0.21522820453512945,-0.38586146445259734,-0.2915693421305609,-0.3563262648435201,-1.0019181397821333,1.3745417315640105,-0.43751396866574405,
-0.878904977803028,-0.9050126233216969,-0.7113251914591354,-1.261740576934715,-1.869279517712055,1.4240601779730897,-1.7568295337262623,0.20442137011188619,0.30404253722280733,-1.0178372241384712,-0.16625022352691096,-0.3229053430231575,-0.879436485410473,0.6361270414495135,-0.45361629064187076,-0.954610337067922,0.25576315088092744,-0.07293277959742696,-0.052900553097473525,0.4282145153066342,1.868940006643734,-0.8994628826296971,-0.010253848329542096,0.18054240747092823,-0.6475578146753287,-0.8670958971011054,0.538352908654729,-0.8951576743210437,0.6872195006749215,-0.32047000271895504,0.4040263973112837,-1.1635835684557636,-0.12703827753644606,0.3187892148990606,-1.100444784950296,-0.7357475019638511,-0.9356187779173013,-0.8192569284879925,0.079642051493677,0.685086976790074,0.7289071267988958,0.09553880903125099,0.5503224327677461,0.06608472665510974,-0.33398862140111235,-1.1143490458299354,0.5982490570448473,-0.2759009856364411,0.9272625912176367,-0.9418966986454285,0.035544286786272195,-0.6591635386629053,-1.038454473531501,-0.026790765271873924,0.26167501785968367,0.7251877005838459,-1.0414364684431228,-0.8719489950275447,0.10381677004652197,-1.2963593180297994,-0.7546314534279379,1.7458582915457799,-1.1305828960177846,
1.5667227503421433,0.5260242486621889,0.29170586677807603,-0.4203663550988996,-0.17294094532064613,-0.6040631093710954,0.5315156118958388,0.6871575192838939,-2.002135725566736,-0.16161725246465497,0.16356789046753,-0.2929329705137717,0.22792733248159103,-1.0573445164492148,-0.04758661657400457,0.4830318635340684,0.280341693348053,0.1255829960737101,0.560011167266726,0.8531912948235209,-1.9860344892495598,-0.6485526530702665,-0.0138481579890364,-0.2207522521060286,-0.14262254049448753,-0.12401687756040171,-1.5088245562321936,-0.8682699817369567,-1.0941959486254185,0.7123161053862109,-1.256993557340741,0.5533521892336594,-0.6552576526793464,-0.9039384179682165,-0.3364520307156626,-0.6713168936500203,0.008614400753742738,-0.36111411810841826,0.21079072437228197,-1.1445715210568206,0.8653502555081655,-0.11594264749216616,-0.18429303939494351,0.786212919347478,-0.1502006535250105,0.42396884073366486,-0.3042973817034194,0.14210948185396327,-1.064470901983482,0.28008591328477206,-0.9287825135932443,0.09374738223577829,-0.19965286019712952,-1.0270955433762066,0.9360642957466144,-1.3067563814151535,0.001447873567122279,1.097310255798386,-0.7757698316981968,-0.5805066278092185,0.553232547770138,-0.6829313820456828,0.578109547673948,
-0.08580355808126719,0.5748851317993984,0.9875469146638363,-0.07595660868710111,0.949948066079455,-0.8832649087501929,0.1571533352413173,-0.7852223152604019,1.5468825367377246,0.3780042142020972,-0.6085405249264515,1.045693923327884,-0.08985247853234049,1.4806377076514878,-0.2987952784247927,-0.6485401794369183,-0.1411247122440637,0.4264182066460237,-0.46950638031820824,0.6145729860655904,1.8290739014855077,0.3422727208730334,0.42334242483051987,0.041059319936507306,-0.41872028968303787,-0.5719440425002915,-0.8138751461672209,0.18941022285635556,0.8233668973171195,-1.134181110058948,-0.21274246634355776,0.3356518932344609,-0.08448635816567912,-0.46462864333596215,1.2724928799960251,1.1220962913923556,-0.4363150014997089,-0.2609886466815048,-1.0857084731387188,0.8851336580272162,-0.3657676095123239,1.569843486019896,0.025730187121747128,0.28002269970929383,0.33298564004638187,0.7865248951944435,-0.1438653928924386,0.20890511165459041,0.8426353144622687,-0.8302588649232681,-0.541035130519893,-0.07549413458131138,0.10147826110017294,0.21891890957473398,-0.7612081558776411,-0.3274434196956626,-1.1907474598539114,0.4110540112787925,0.00809772085982919,0.14287060480102315,0.4221603492880034,-0.6008149478959055,-1.3181594430350474,
0.046255855169067675,0.4621850691174393,0.23980058281679723,0.014025124046095936,0.1364343896158644,1.353714138463534,0.4848863987814924,1.4917397089941438,0.16569160270788763,0.5866634916082647,-0.7462778902246701,-0.048507358728120537,-1.3949824309929522,0.9055192775744567,0.7096152120439323,0.9297094082969009,0.32419920198343266,-0.507122005005417,0.3355785409409652,0.3008859539769285,0.3267654211071994,-0.5610694822735882,0.3930309363951957,-0.1278380363207116,0.8167403199056773,0.4207670747141318,1.2470639829619614,0.5953206044991097,0.31883930104922154,1.0686321780945707,0.9741184341621234,0.890041665829403,1.4555040303119018,0.16270110087096334,0.5430067677937694,0.32973772920478595,0.552044938729116,-1.286492532200843,0.07156101263294568,0.49888821091178465,0.48231452411437625,0.6698148546593259,0.3534423419074437,-0.37674158176917527,0.22178890682479047,0.06477218268230951,-0.9722627110586266,0.655787545539043,0.07298396417203326,-0.7226257549933595,-0.49519755195732773,-0.37242497564901333,0.8559425286294315,0.2889725933810474,-1.2685379512887272,0.6151721157352635,-0.16177104805921505,1.3394229037271725,-0.4637742028655336,-0.09712146026202564,0.6915135828984982,0.07279126014873558,0.8609553979225328,
-0.5976815196202239,0.38027372393295455,0.1120029584088829,0.4877236486888703,0.4623150344837632,-0.08801993101050531,-0.9418696717344572,1.2450145660627074,-0.6493088473593175,0.9702539393437781,0.3640775918740854,0.3973098348684353,1.0298915665581783,-0.4584707638490372,-0.8920156454833275,1.142338794504773,0.902054386027187,0.029766810283713085,-0.4673726073935557,0.691478294766652,0.7905540993327707,-0.6869088253334157,-0.60028769207382,-0.9649598616230906,-0.8910759789016713,-0.34014205543687337,0.895637671407044,1.0614089671102016,-0.32075963350669545,-0.39988643323508766,-0.2987610239867497,-0.771501784275588,-0.9049618751755559,0.5908018677426636,0.6643944394524949,-1.349542367229293,-0.49504940575394807,-0.5673422518618791,0.2529871324405709,0.4844155401077584,1.4358320086229903,1.0837863364731644,-0.5312962088687049,0.07781599812328416,0.44768946394220177,-0.4157637173027702,0.6470476499420152,0.34144559748171305,-0.8821691697063005,0.9892760507480616,-0.4793554703986036,-0.5745316295168834,0.9986536295886486,0.1739184528071765,0.9515720121222271,-0.8704658669114389,0.2996890396015366,0.28289866901649036,0.43592114374750707,-0.3186528850528678,-0.11528354785809039,-1.150761414009357,-1.2067118079453694,
0.1675924208307059,0.4272663010194844,1.330695052888651,0.5494098969707456,-0.27208614718019863,-0.46371455285833907,0.13739866185652827,-0.2843637885742938,0.3772538629886215,-1.3428052161580426,-0.2422287180331031,-1.1613201504903532,-1.4281368446287173,0.4784476741039837,0.8991216782643937,0.09556934290664787,-0.6154164337202631,-0.8147154631348844,0.3277853813299759,-0.635019358296567,-0.16975342724255899,0.30642006868165383,0.05382418426101108,-0.4536057008443027,0.5447898738452571,0.17674917893662268,-1.269401916590598,0.42904158100045076,0.3186532044438548,0.6498791318752187,0.13171552377952586,-0.8249833174403779,0.84971676637998,-1.2613906926404994,-0.30821758797199206,-0.015087833463004657,1.4114938335691771,0.2354929500703386,-0.16404751466055978,-0.1145154721720297,0.12661254864961102,-0.5189755955840686,0.4338225794495244,0.2556550180558946,0.289179220808092,-0.3739985493253567,-0.057613574261424695,0.16396942595270397,1.1183099490130235,0.8173825867131089,0.5103194545889702,0.046140975496421426,-0.3085714274887744,-0.6880052349200213,0.4380904060203099,0.1864705341966285,0.12726052294322318,-0.13213215515557242,-0.12166764403671596,-0.3415555334711171,-0.8032598714205187,0.1546166779534996,-0.11373474373497708,
0.18889937285529013,-1.1516904428192338,-0.09189075348474016,-0.4185239593293366,1.2524737108425397,-0.2542639482044262,0.996612261177688,-0.840068395226931,0.1661835745001916,0.9307997209937018,-0.21873599209692102,-0.12500735994788953,0.28694301821989154,0.5702352716241992,-0.13983931971331998,-0.7315936312356193,0.5335121519658027,-0.4058694287094675,0.25785184249598697,1.249729458910161,-1.137223940724418,0.23927980668324328,0.45749349434705766,-0.9596821802255899,1.210575191274889,-0.6050419617136928,0.2332971021566541,-1.5467818362328476,0.3424798613511433,-0.4870175627279498,-0.5565673600190981,0.8403762929381331,0.624018037336299,-1.0292615254280595,-0.5635287483663768,0.11419620504624889,-1.3944019571056285,-0.8981206822881993,-0.4204510082364302,-0.44607555042984126,0.4958998660478706,-0.6490827388579264,0.6131590226442285,-0.3928270417057579,0.03338534278326758,-0.3687274823144031,-0.4379145125558527,-0.9049290158206829,-1.7698046072020202,-0.8721279044938435,0.33275850879690594,0.7711163860263375,0.1281208031948051,0.47332552404349537,-0.03453457768243519,1.13456000649666,-0.5030787588866452,-0.7607434140850713,-0.38982338486811186,-0.1053540904382742,1.5105326038128528,-0.722736059564087,1.0453679416053592,
0.03150993572955413,0.4954230137381419,-0.4832474364246697,2.061320578261876,1.002602930502564,-1.2143543707683442,-0.06010195582546546,-0.9472347610888406,-1.094406448053159,0.597936282165935,-0.4541838250757835,-0.9731159713820295,0.48820148796218565,-0.1708864266673209,0.8637216224174612,-0.6601510343098131,-0.06312962469901665,-0.8827422393020771,-0.20494627456426578,-0.5988167617254784,-0.4069454343735066,-0.4181121164896374,-0.06047019338392509,0.5177942584464486,-0.9481841377562311,0.04186527405630856,-0.17219079660167558,0.8870689721721586,0.11976770551680307,-0.23672710717228435,-0.31565393660053764,-0.3142372381068773,0.19377070419591175,0.1554088809383182,-0.4500793897447276,-0.22235574036758665,1.0435151188477958,0.36394155457878896,-0.45985299833212445,0.5616053030128828,0.8214957463903034,0.27617071043472896,-0.4963376192261512,0.45828404965995084,0.27955992356996684,-0.8149050668009036,-0.8462226632606128,0.2442591134617647,-0.11058128583605106,0.4975199453237716,1.0506315433544886,-0.3863153547186804,0.43604422401522713,-0.9918063619313858,-0.5444022246503614,0.6379627577601172,-0.29310690567887016,0.1713361833348771,0.036712280898181085,0.07510534123913565,0.7246393378735185,-0.5844599129308522,-1.3147868608117297,
-0.22732500522116592,0.6443752283266349,-0.6214654711614334,-0.1766303245177571,-1.6980930668109055,-0.2231598391596987,-0.5769075871180185,0.7988660162020491,-0.49785291460972303,0.20667293517297017,0.8340193784494028,0.8988585471460855,-0.6471950934379163,-0.34467083588373165,0.3312477447123216,0.4650123634032572,0.30719537025733806,0.4829320127970223,0.7459639030250671,0.029971962972605688,0.040429869024236016,-0.4482163965848483,-0.22555836181134767,0.8512104579948361,-0.7925721254702662,0.466543236282869,-0.8126717987535417,0.6121249444594556,0.3877666575700566,0.2087934861971192,0.37035665255054784,-0.9378934305592002,-0.5623107288731686,-0.24949324075592147,0.34231144389447227,-0.26451021793472035,1.2013501836618736,0.13931785204920608,1.525136205059087,0.3335907283916428,0.5529593612724288,-0.9969348001084377,0.7132332014402454,0.5710099134746434,-0.32611280552626504,-0.4043915767382687,0.4521444885675165,-1.0358325623873066,-0.400682797790695,0.29839059788157934,0.5336429887798635,0.15390446687172601,-0.4261842515055014,0.059881272307160095,0.777560210889563,-1.0614431812064575,0.1441839701458342,-0.6169501900485919,-0.7904984267919772,-0.3303716178116367,-0.6522413453614423,1.3142817855678974,0.5322902902201433,

