-0.6242797719659002,0.6524920747485633,-0.5433037860807034,0.31394511864099145,0.29095878701312794,-0.06247704739808233,-0.8615567485444273,-1.5012759840189396,1.081017245710294,-1.3438328341266375,1.7278442317978924,-0.2623635446815093,-0.1485102921378915,0.643090095702941,-0.2167260580934548,-0.8015232674247526,-0.07575037575735417,-0.3196269642467215,0.6198011509888277,0.21085558741016083,-1.42951664758588,-1.6877825352363287,-0.2479603648815888,0.9577875739136791,0.6197375008677237,-0.9947438146827744,0.08521293038365968,-0.755725362866946,-0.21836061387155142,0.8483652543046414,-1.3723717684447732,0.029817656963284467,0.5179312009993585,0.8468640360490367,0.39878006340322597,
-0.25124338231895155,0.44060314511331616,1.105653209803542,-1.9452238433337445,-0.014169020482486345,1.0498570995992669,0.2799131206319289,-0.13797613520327093,-1.2317519388340925,-0.7434615645088068,-0.3712257703647124,-0.23703733092711676,-0.47750892231861625,-0.30000052269009814,0.7196608092904894,-1.1292613461626209,-0.6782585683396303,-0.4815647461181726,0.44705626257222797,-1.0945115888828645,1.0038950650413716,-0.4139399474789986,-0.32805511468357507,-1.3911020225296447,1.44611832061402,-0.5307736732791565,-1.5872093904469773,0.9330224063485508,-1.6796653483523953,0.4995325156750876,-0.4821790379159921,-0.21345010189005517,-1.6075768965607136,0.07389155456847785,0.6983135920078302,
0.39365823465076866,-0.848034644416824,-1.6954667818379106,0.4173583233524624,0.4204712627439994,-0.021976796559646267,0.6137288287925825,-1.416714738137316,-1.4253311321097917,0.733354151791529,0.4564217179300699,-0.7756637545550995,-1.0601974063365578,0.8155501658621072,-1.3678630101329445,0.7718102898284308,-0.5407846416451193,0.10935665215813364,-0.263791966288808,-1.4126570251709172,1.3150460193716602,0.2919170537098855,-0.26666434874229233,0.9145858754708123,0.22416387623265752,-0.737593777240974,-1.0420859394803217,-1.3812734946228955,-0.16458335394536797,-1.5340436976250162,0.731466204048344,-0.612464656986485,1.0302768338182808,0.06917737992037107,-0.25901346595309216,
0.12059719615140882,0.894226578527481,0.5823991523826179,0.9616066892809002,-0.9333515567373951,-1.5057854707992053,0.6648488024555874,-1.3482485647326816,1.0408547417197547,-0.5372793241794582,0.6271139759976666,-0.6678228301683605,-1.713628472587721,-1.4017504974151964,0.8382483643905656,-0.5842699833708842,-0.002839522473874116,0.8238348631620128,-1.3696837581043917,-1.2180606248192096,0.5269461058999808,0.446265472263052,-0.28769854861878713,-0.8870942086290869,-1.1476862794547866,1.1062508524948818,1.4577413266831156,-0.14475289323703433,-0.3785739791645484,-0.10449740340352116,-0.8803860008474809,-0.5092132183429646,0.6701582785332296,0.24935027010551658,-1.4381654926705483,
-0.041305952621435695,-0.9467139833347724,0.8180169841557822,0.6215886248673265,-1.626707464190633,-0.43050666834769563,-1.2611706889603178,0.6532471039395904,0.016135891238514555,0.08996942242253637,-0.5877533632341746,-0.8989212302795669,0.1001891552656997,1.2303101716072526,-1.6445851568947814,-1.1578050914845857,1.09302780313793,1.3545483271359982,-0.1363684560701913,0.7856257020511257,0.4553443363248843,-0.9959491270872372,-1.0587255700674378,-1.2125342843797051,1.240747895674298,0.899313824691565,0.902385409249624,-1.4521519301494559,0.1681332913875625,-0.06323152576178637,0.402046688108409,-0.08261949495584127,-0.3203993989979804,0.3283953235760344,-0.2471162624073819,
-1.1692167876144397,-1.3459936569284403,-0.34556226464649886,-0.7102646827110267,0.4111316148904596,-1.8458021963942923,0.559097230876702,0.715431831923675,1.2296045859464615,0.7515496988809822,0.6435882150830994,-1.5081974534353066,0.1530767919686395,-0.8687272215012459,-0.5661354296087283,0.40575969679567886,0.5387981797376342,0.7806424880219089,0.6483103391368114,-1.2878413452591775,-1.2276167536269609,-0.10265031127306763,-0.5110767350350792,0.13781450526868075,-0.9353911870968539,0.5752034842673215,-1.1509570529012814,-0.5299843082442065,0.3475055144193858,0.7695200011986836,0.4023384847439906,1.171475551497558,-1.8846957166701597,0.23015740058462827,0.869393161370094,
0.227910430578921,0.8580536144481039,-1.0473935572791389,-0.31924756970082097,0.16291810094425058,0.7947754597875138,-1.4731265702020415,0.422089292569711,-0.3481187677629667,-0.27613256050897445,-1.0265991802745986,-0.25692974485934067,-0.4894490697694044,-1.2271088906737115,0.19143069500495624,-0.3776302486415261,1.2913737113039512,-0.6220159648197034,1.1544421126541964,1.0485899366038642,-1.0069282598004685,0.3642678415884523,-0.903557771702562,-0.9405813797531941,0.10219723906362044,-1.2478953822666148,0.2285173517931246,0.5931470880325516,-0.11540255238726682,-1.0885943816757504,1.0550480720516229,1.4490957648764928,0.7161994489304707,-1.3992826433211816,-1.9653170906938584,

