-0.4249659180101921	-0.9723024564126452	0.4547475271366417	-0.990876504099752	-0.5845625193830812	0.1147253505595196	0.6965405544264915	-0.856426977125573	0.7754708633557774	-0.401243246356358	0.5773903492291768	0.18996452899452376	0.6534566228013443	0.7664613266078211	0.3164996653819525	0.2354345769127566	0.7146329745475362	-0.4872268407542071	-0.7206639115084188	0.8780945232124941	0.4304461050736914	0.42923437002594134	0.28790381267749776	-0.024259133651463705	-0.7330911533847022	0.6546772882480383	0.5634861791030035	-0.06999381746870603	0.8217449614064762	-0.7599850150784961	-0.23103852763474886	0.33291577085346225	0.772929218849477	-0.1175734961196786	-0.513065429654868	
-0.9374189433332725	-0.22337643221109071	-0.1997625290504863	-0.34843248389113857	0.9870263657778646	0.040400481273287214	-0.7516870287939286	-0.053866566456407305	0.31991120927380634	0.19803553593892254	0.7147957751848004	-0.015042330016240113	-0.6308242902960679	-0.6749590672695349	0.19353767415057388	-0.7824478509039117	0.9294032672238419	-0.540496364235886	-0.9074128529282024	-0.07561236432983032	-0.10904141812876245	0.8306815419884104	0.3176141687899996	0.41789190792827147	-0.22627311551810125	-0.8517983940619109	-0.13983420424911475	0.6188988842796086	-0.15945648197415818	-0.23240495809820216	-0.17583637972549626	0.5479184479828674	0.20517076424492275	-0.6767048202769366	0.24007000820863578	
-0.04776620384269892	-0.07805692981663315	-0.49188590530923904	-0.7553362489069877	0.2839756028097482	0.42896798974228556	0.07860414070172639	0.24538404838268035	0.5509632148836805	-0.0859645846601047	0.8786029097216663	0.5417147828727127	0.18124181033344366	-0.8178459393211968	-0.3013517561890937	0.5420984297789901	0.9738877924163789	0.4258989554990271	0.12684321575735558	0.19338423946164185	0.45279236317391724	0.9345193708208066	-0.8028606621193184	-0.4691700437619102	0.49677662572955894	0.22502331717101276	0.6038982389079708	-0.6398065598323495	-0.011470078873877299	-0.6617812362539002	-0.4730174898296813	-5.348914931599946E-4	0.4065053218512009	-0.8850414135726119	-0.3004836219892142	
0.7363080724427786	0.7780456946451442	0.1526013774733468	0.2508482463779689	0.1982886629906253	-0.7813443941527842	0.8389657257310339	-0.9298624120797712	0.18649535996193434	0.401473417611077	-0.6291779708162732	0.9613785905282819	0.6891598835462045	-0.2673601247483035	0.9862300533285682	0.6985649223957378	-0.22958982931857252	-0.2476004535994223	0.774797812686397	-0.759910597477004	0.8202994988934071	0.33841217474224217	-0.6227987172320384	-0.1756366619021985	-0.744226778423815	-0.3431086881990799	-0.3549282590141085	-0.5559684065494666	-0.8217508938486453	-0.5111709905391641	0.9046215115899601	0.28404867331582717	-0.2779972439342828	0.5527052710319431	-0.1478539215771295	
-0.8907265188568556	0.8685663173855218	0.7517216942966236	-0.6931954177495998	0.30012921586256813	-0.6441367766433059	-0.10726041916402362	0.05584801431021447	0.2602671311764675	0.9768175429910542	0.355743463815982	0.8497286066533574	-0.7419377477818863	0.0406930062644546	0.4367911934884907	-0.7607099307838603	-0.5858392487057547	0.06143096883943655	-0.3559469151402952	-0.6054952951768215	0.5101882358755954	-0.15922642064810377	-0.9043180731535425	0.30398745368265057	0.5691201087611886	0.029972828007988506	-0.650101579989887	0.8267841216243681	-0.2542953161504595	0.9824030231165772	0.49181465499065236	0.9526955900948757	-0.03427903587907588	-0.7495913849515559	-0.8918386587787845	
-0.6753337494832554	0.9657431992582564	-0.5667640666622282	-0.09977701056640242	-0.41347050405104246	-0.08952431542288597	0.24891235851525573	0.11692754612284495	0.44167024979546854	0.6026109093773084	0.6814524277968932	0.7341764872109191	0.4429281349259162	-0.5494443420543482	-0.15421387874947845	-0.636857129992999	0.48133261639059155	0.8222597915812777	0.8163190494422452	0.23940414488020867	0.7010256873388989	0.1887729833204086	0.08105253122178935	0.3264193628852572	0.13999320896063416	-0.4509539442606241	0.5117033294383637	-0.439001680946707	0.7809930698786471	0.02788307430159609	0.7812825273107995	-0.42494696245015273	0.8943321300583191	-0.7481581217096325	0.014105241304579241	
0.8470619367941294	-0.4360889249206832	0.13327115919089927	-0.8807791006679999	-0.8316837846994141	-0.8897795491587093	-0.9694377026876926	-0.2632322284809372	0.5531616580488694	0.7587386839468921	0.9030853719848908	0.017772358021862944	-0.7209134906193144	-0.6505536016555944	-0.9578303914839708	-0.43857110098016894	0.611648706050901	-0.8570615264847044	-0.7651219672371103	-0.25008965825119667	-0.049124373896635376	0.8508804805247416	0.8052179075651191	0.4492778497289016	-0.37008948039427003	-0.09667847461697265	-0.12218122012374755	-0.4139288384257218	-0.5966803190143957	-0.33735869679363906	-0.5780000452614658	0.46267790362991534	0.7816159713786297	0.8036749937918062	0.15954113763409983	

