-0.46747463993951716,-1.1879943230398513,0.7726782701625684,-1.1336466509813747,-1.0810855874615688,0.7355026382653186,-1.5938012760029063,0.5592000301801037,-0.5890143515510697,-0.007403483984502039,-0.6882603686700038,-0.8737499878363536,-1.4706743418151702,0.43702580789541345,-1.3810643112046768,-0.45220896497273627,-1.0442069047762348,-0.7831899394279357,0.8648879834667752,0.2549700564933676,0.32476344079061376,1.7960865627581757,-1.2516867968941368,-0.682011291819889,-0.3352801839260339,-1.0569820991258598,-0.24079197827957316,-0.47743577045426505,-0.05994331829077832,-0.8492767433561356,-0.34709781263755296,-0.0963008063498843,-0.82325097302691,1.4144818081023893,1.3248836521203537,
0.010224194360746506,0.26850842587805634,-1.3131365945934121,-0.8150156950691912,-0.2161993210579211,0.603810929658181,-0.7179999826942157,-1.432821069634669,-0.7771749995771362,-1.0750608593991688,-0.8394832430523831,0.6595792182494854,1.06103793472763,0.18681635319272497,-1.4609904551063637,0.18695665129446926,0.4881637540038006,0.3541486041151881,-0.7340733820881363,-0.010890485016547314,0.06343824011918271,1.114439991831779,0.865541819663176,-0.6373361657271934,0.78330519266466,0.9200548740351615,-0.21871267244289283,-1.8384846779185497,0.7138189742249677,1.377487807482757,-0.22743513290408457,0.2528552665740912,-1.1761133003892155,0.07480321103024784,-0.2625534868452179,
1.310892748544931,0.046146318945276356,-1.0247994749296172,0.17595677830999065,-0.6202498321876023,0.13226166263807293,0.6717653757975781,0.6749312769866624,-0.6170780692044896,0.5680254704074826,-0.2597821720064048,0.8704672622551792,-1.0326523953527205,0.5572761132313468,0.6888040401342592,-1.6883683779209782,0.36962899863245957,-0.10312856088944429,0.03340944296378313,-0.1879147525047951,0.6293066366447327,-0.13182809121499048,-1.3309859341680206,-0.5598974676378654,-2.0230151990775185,0.5592606238687198,-0.11679922139031229,-2.0998239132332657,0.8514565028526799,-0.31532452965633395,-0.6977016073951097,-1.0547004258797383,0.9017882775328906,-0.20584308338656376,-0.6979136057890651,
-0.3109062547311089,0.2338863976586877,-0.6210646784081447,0.35076945426730527,-0.7469709298255862,-1.617865765876484,0.18244377885297633,0.3551689059893293,-0.6800044990069187,0.9289457018247034,1.0807208412045337,-0.5456355981839366,1.0013894386140236,-0.4611325454701974,0.8534551387873673,0.25064307045348416,-0.6537706034186099,-0.7181494310300391,-1.1082761819029414,-0.2733962652730002,-1.0491969666655632,0.12705186209399316,-0.8516692312099853,-0.4275329427700392,0.953596273142939,-1.4379779969351225,-1.7172104407532927,-0.3848660189433148,1.157215964387956,-0.8113292941105015,1.3791043465817239,0.2733290699956789,-1.2221609587100655,-0.8730840686155741,-0.46076485952672386,
0.20375218632214875,-0.1813479715054183,0.7928078151088083,1.4737403050738918,0.4776982158674736,0.09677092127145782,0.29421604458252887,0.533110167483225,-0.6300225854917219,-1.429701540466241,0.6166559060278357,-0.7924271603150856,-0.014978708849640008,0.6771149031364652,-0.4700735534381961,0.12012844410166981,0.4812542275073722,1.4385277624369694,0.3069561053443778,-1.3451743049519689,-1.774035066386762,0.8207542522983594,0.5592773853348117,-1.4638379775556685,-1.3237739073746584,-1.2637906622627988,-1.5676447374868394,0.6888001803823455,-0.978945221354554,1.2690010890648362,-0.7317599774362188,0.33355402123559574,1.0932548305155694,-0.7465884298872475,-0.28291563765412464,
0.4754781275349757,-0.0849095266193523,0.7367657509407108,0.8328576214549988,1.0256006716291872,-1.3754403680157712,-0.5606032298871165,-0.7511135107270851,-0.7651377408377412,0.08295586620643151,-0.8106578021511196,0.7372487898868892,-0.9222622310479033,-0.1619863119753201,-1.2183410886206487,-0.10917918406893672,0.2975632797196913,-1.1922461871097585,0.07269922492625863,-1.3445607151573193,0.705954547993297,-0.7217942599612697,0.9048844266229658,-1.077879799271604,0.6836722835191357,-0.5067893858242251,0.9747021574473662,0.7104640280598694,-0.2222954618614213,0.25848817616345515,1.3884961499677633,-1.8360189925282633,1.0060506971496754,-0.502331573816949,-0.8069725235922205,
-0.22971645866051799,-0.19676779272647182,0.9475193971229804,-1.3062323979830919,0.326431631056639,-0.25590187398325126,1.1839011264820265,0.5346549279062268,-0.36484864657512794,-0.9766133381719133,-1.3325527780841,-1.4684306621452388,1.231444875833062,0.22008152943781942,0.8254154850747202,-1.5635742879965946,-0.3937016124024396,-0.691879702458527,0.40652590498955277,-0.23549878694461904,0.22679581646074962,-1.5942243304936818,0.7270314759451932,-0.19365584011562756,1.4269537615913401,1.5541417793946748,-0.5935875946000124,-0.2520881431074484,-0.5063973515385083,0.09129299238412991,-1.015936722516533,-0.6872097907828972,-0.300295489322954,-1.6429418990142,1.1859339176399086,

