0.2772008954014944,-0.7130563931535974,0.528601476370711,-0.10036481080875914,-0.21679750574761214,-0.25660334317581324,-0.41558046760335166,-0.6311273948841389,-0.3235909206371843,-0.08120166816180663,-0.5180451655529286,-0.6051797759744995,-0.40362672963676394,-0.1978227233154095,0.4692599577165184,-0.9219367697220975,0.282820818968168,0.10579806845520179,0.19874710243257354,0.08660949349048819,-0.6754427443169033,0.47644228024087076,-0.8342605769120446,-0.22940175096819937,0.23384667921691094,0.0892441658959584,-0.3438812348463425,0.01823746038432561,-0.10631385161691598,0.00988480164788963,-0.6313421561434776,0.1459984793003739,-0.6976455991009001,0.7910259260344978,0.2858283299911186,0.977427112240213,-0.020935815990388074,0.9114425248881317,-0.662420272122259,-0.8112441664233747,-0.6034971547946792,-0.12860760366428003,-0.06421325557070379,-0.014167269342495237,-0.6295025259776379,0.025337746955643503,0.5527655922915979,0.2257081538065766,-0.5360051123401068,-0.43678670868686975,0.17546407270885211,-0.7924498020915884,-0.8480011179832416,-0.5559875642971712,0.6876317257789093,0.5313878194032677,-0.2539379251160918,-0.4594582622425445,-0.9845193416436167,-0.3404929463762758,-0.10861974351510417,-0.2282282885392184,-0.78194921988219,
0.11415662804266868,0.8264930008777931,0.5792910397757289,0.6116951558262931,0.6065448198347692,-0.4649549614876445,-0.2530526289472388,0.48880583132083366,-0.18406110990128166,-0.5789820369898777,-0.7321613195900185,-0.9758974628033203,-0.9759934328657858,-0.7967065940084372,0.7303948386080024,-0.4424899485558551,-0.6416338546609257,-0.6476370578128618,0.525369025718234,-0.39914624319990866,0.010641569680678309,-0.4185471315590097,-0.9318646146871181,0.6363047058551918,0.46814510001207554,0.6562847372328,-0.8142317091863627,0.05771028403903089,-0.46536011230068364,-0.8978536899019103,-0.16404351903400394,0.4516481683933071,0.714461969429089,0.26390016384337667,0.4048832486456151,-0.17675444020390718,-0.604390544639771,-0.3859895301189402,-0.02621753779912317,-0.6574918821334388,0.19123537551570347,0.2056217590940077,-0.8510426844753409,0.7201061545549383,0.7853079017392581,-0.26782333782775813,-0.6823714260420037,-0.5827304959887325,-0.32296962651166683,-0.21798785809797194,-0.4779447591451027,0.5526446389385105,-0.670058183146526,0.5658274571751458,0.5369501071337892,-0.41032903210191574,-0.5945540193528882,0.6468702601860266,-0.8097099500227589,-0.32876244427169743,0.9968459735979716,-0.9818598735799038,-0.5148003259128155,
-0.1859179484086264,0.07878909436602566,0.24786124299175483,0.6606640189301975,-0.9163998982602728,0.7483548152449317,0.35393115331579295,-0.028594686493149668,-0.6595665202855914,0.2578468593467831,-0.42999722460052325,-0.32766360874200084,-0.8165895235162712,0.3256788236396968,0.23031283783919188,-0.5394189790929891,0.30911387590721406,0.7605701775022682,-0.3726794957545876,-0.5418694455537101,0.6665562659489073,0.045598450283840686,0.8856753266855202,0.7107833350281916,0.5061439302309276,-0.797519028120955,-0.3520152184757366,0.13409268576044475,-0.2946846136993835,-0.007212236496012769,0.6823063943718577,0.8546255913119134,-0.40105777012834465,0.3116154658510848,0.39824147702288815,0.9749148681888262,-0.04921564183733729,0.49058032998358825,0.6979612784359774,-0.06693722762888177,-0.32700615629648233,0.15081601448837345,0.5904491223486292,-0.16696512001885222,0.4338655869118764,0.2329904524318862,0.5616952965552273,-0.6107406138107907,-0.6102650061046566,0.880184360280184,0.8205349539895941,0.4592253455598625,0.9351273882266595,0.9608013130917998,0.2292716232329508,-0.46964707055953947,-0.41403409650148704,-0.8074917012262923,-0.019817241679684683,0.9824843767889446,0.8938480319884317,0.0645332789714066,0.8934568197667832,
-0.535074827050418,0.6351046018574427,0.05447446239505149,-0.4109359419900258,-0.6929591754883475,0.42655720105036776,0.9971043804367572,0.7245164802451534,-0.47600577098545216,0.39059403009995064,-0.11352021084141573,-0.007573756898812123,-0.31571395417577564,0.5253868085246041,-0.12100397466439672,-0.36377642761482964,0.6733391160698339,0.0317747070083545,-0.18614577938113208,0.8693495587455733,-0.7825550059272874,0.006544048561664573,-0.8212644420415858,-0.22730794052435632,-0.07502945962661012,-0.36746379350062397,0.12230694245141294,0.9969853458700362,-0.4432009116171316,-0.7207810926046512,-0.14849075345308416,0.91134824812796,-0.7444407921368588,-0.22694096353855198,-0.449591422093955,0.7160882961261776,-0.456726613411778,-0.4947612138905877,-0.18128261683767466,0.47735207556954373,0.03963462590712652,0.014959857253111997,-0.4480774733123669,-0.9568445398765184,-0.9417997349534712,0.21978271521901993,-0.8287159485566056,0.3647813325255813,-0.4946329060989447,-0.4398470441855502,0.1607967419208749,-0.1255164664977051,0.8370727997619827,0.9834675592035689,0.979534959699975,-0.7401088900704538,0.22074526129210592,-0.08626059132204067,0.5916297487014988,0.22745839664363876,-0.4949004692372776,-0.8638811152010486,-0.9075456995520308,
-0.3382392348463734,0.11796146024442744,-0.12876247961693266,0.20842259922193285,-0.03561202936412844,-0.40762650877335194,0.2225388166800506,0.8091346447789873,-0.7043588718667309,-0.93618228693419,-0.3495334184717016,-0.005570966845805714,0.9441917543476284,0.7864683306944869,0.16058356924269956,0.8052314734205073,-0.8856853843940304,0.4839647259191129,-0.5116040316566286,-0.8440823606582197,0.04725946123272928,-0.8197266739216453,0.7218629334124143,-0.8027650925327774,0.5827800350653671,-0.951213752602724,0.5232732820441335,-0.007343157929323496,-0.981209294893834,-0.22711963687550107,0.3953744518926152,-0.8726281053317324,-0.5584241655644555,-0.07125828556688951,0.28234261107944536,0.6679364930701017,0.5759290326853705,-0.01866497523483135,-0.7956155127261606,-0.24805006096395554,-0.35594724049728055,-0.3730208978133043,-0.4045333407635865,0.010937771681620356,0.7240022074323911,0.4210646156985631,0.5468690803294325,-0.984043371960857,-0.33709016097799305,0.8970310344920358,0.25496440385837094,0.9842645932019491,-0.2728185982587521,-0.28720457645542186,-0.3701733013889055,-0.9032743273839487,-0.1386948785275659,0.7534062354185687,-0.7580229414334789,-0.0505516678537794,0.6788719321629944,0.5737713753630425,0.5677757279662858,
-0.10051636023366628,0.12385441282563181,-0.9171109939998459,-0.1603249670802276,-0.636761163080388,-0.8828519393976977,0.9510875670739019,0.7157487623873813,0.4875883164734014,-0.5571700391579726,-0.1356406717722236,0.4536180822583893,0.03749391517313039,-0.3694562637811234,0.4549500944091456,-0.6929032018656789,0.8302726313958062,-0.3451279180597753,-0.4950541219727662,0.45958132526482665,-0.40451971876737214,-0.1004871112477117,0.8496752606045777,-0.03358474656980426,0.750705415807891,0.023525750659196598,-0.699675525187754,0.8991595460047908,0.2573977127431568,-0.8811289861069225,-0.13975950156793937,-0.8320953336482286,-0.5428176509185572,-0.1370848671421805,-0.4730252589274293,0.34346229406912276,-0.41206024935554875,0.24653024580840133,0.05219976885595212,-0.7905215458496082,-0.45974069103766446,0.8978679485609244,-0.825792843139147,0.7452125125039302,0.33870258531151487,0.023841549892552827,-0.9572245390100254,0.7729301246892677,-0.18135967545560372,-0.44419698187458057,-0.17622706008890954,0.599560566399632,0.018255567284229723,-0.7871446483178874,-0.19906039965827826,0.6404728149709036,-0.08336673883468326,-0.11430746509104517,0.6848699346302394,-0.766072838214436,-0.6773149996788725,-0.004186048116000984,0.29429700096865186,
0.6379631749116494,-0.04401481819289832,0.29941231380655675,0.29235582310875374,0.5471865359624926,-0.9405759259440511,-0.017812405200858805,0.2405822893642613,0.3751223074243495,-0.7550900073147666,-0.1692077706100461,0.8759824821415145,-0.9814968145977396,-0.30281819901380524,0.7685671675610102,-0.7784156851332007,0.8530664535183321,0.3471213755914939,0.10767918404418819,-0.09153697707764019,-0.6938653402636714,0.17478254847358765,-0.5032741405922669,0.9173089356360595,0.5094597311463602,-0.5863173837031843,-0.2676746288207983,-0.15981572057877425,-0.7434877872525187,-0.8982704479737091,0.35516220706405544,0.7181945741591222,-0.22839884542821398,0.16048664450349492,0.2654142186144728,-0.4716224214918643,0.6439126584503174,-0.016695448114229405,-0.5305630700423107,0.47319112899923144,0.6877591519563682,-0.6258217030155115,-0.49096326748909047,-0.6314403511377868,0.46103335728525296,0.6030158216010553,-0.8733834673107279,0.6315162344173246,0.7070652864013485,0.3293315680561604,0.2839300458027869,0.636056963665953,0.08078295035475547,-0.8047922114042767,-0.22086441325784567,0.5359004827605263,0.1782803832410873,0.9996941421442669,-0.6037083485368417,0.045425240012476165,0.1096007949066582,0.5406436660441856,0.7733907433570495,
0.12513454326467444,-0.3622552460793067,0.4463119576883834,-0.01051889034563458,-0.9644228334914149,-0.7473833687914919,-0.3821252420014083,-0.7516218339596552,0.8037305223220914,-0.5431739380163481,-0.7346540667682129,0.9759218895332096,-0.21156957527194975,0.010964134372370982,0.9432080806003447,-0.850311924618961,-0.26348999287664965,0.919176446995088,0.4783937390524511,-0.25548383705746436,0.48888894188749643,0.5315599259775339,0.232085320567617,0.8041677221160717,0.32593136124166366,0.29811151315350526,-0.2518710611027408,0.8388844507995659,0.833969544707448,0.4296611179052363,-0.48531470466649873,5.660787876646811E-4,0.12996890778374093,0.004424422643209747,0.30207001264606625,-0.19825671786055454,-0.7011133908958092,0.9045133953665507,-0.6614375259098122,0.021472355693978207,-0.021643714446317963,-0.625053476711469,0.4472916291711999,-0.11926721847450295,0.16790724820404423,-0.03159718415433099,0.1911343648637327,0.571860990726772,0.5450066287549127,0.17216800388178055,0.05889105274805417,-0.20899275952348395,0.8377895290175699,0.1094231372246195,-0.22517010525886327,0.04955565093105152,-0.8655782784337238,0.3652302600658064,0.9250215903463761,-0.7700995454878417,0.401616066550216,0.2082715388872889,-0.7322886053407984,
0.10292455265367706,-0.060096610935100214,0.2626029724047625,0.3313064548962159,-0.6610205969926117,-0.9791641715863697,0.029385130214057753,0.20238268840591367,-0.07888022777362846,-0.46862124570869357,-0.4332416903191483,-0.23255577829875906,-0.19120264689753608,0.09332630499904582,0.10673091654982847,0.09599606115659642,0.20217322657913184,-0.1693475409833829,0.421154618300728,-0.8611799869473917,0.8216603373884619,-0.27471116642650895,0.34456145314398334,-0.5358299739497074,-0.7557389132413543,-0.668102030254365,0.019842293971378044,-0.6340665458943575,0.5277183101322289,0.5147890078428055,-0.8465512173607563,-0.6483690527493193,0.10545024252087898,-0.17479918680408435,0.8500038836047878,0.7544569241249042,-0.7503055301752282,-0.8452441892915952,-0.5580906216537134,-0.9876092788809461,0.2772381488387552,0.38096605650170723,-0.8622580966272464,-0.9812642428924911,0.1115643955436787,-0.1367493581974446,0.283932286549742,-0.12772688799233944,-0.18280037220938894,0.8530024144468749,0.5674255715049534,-0.6584563076271412,0.28649790376829265,0.14881953480239107,-0.4172770036326754,0.40660107841139226,0.3860522695947348,-0.3419043284952836,0.8449098374435158,-0.6470943685399975,-0.4406235198677053,-0.08125899729386155,-0.44902415864466194,
-0.934141822275564,0.13445330590109683,-0.9101160649007634,-0.8250607380471355,0.41080021215924223,-0.6008019844393231,-0.5620181625036971,-0.672012940949049,0.8821353571597526,-0.11515934291197993,-0.07515287525627512,-0.7769514646261675,-0.9334453416494484,0.23668171617692635,0.1466732576697991,-0.4460787618613222,-0.11082284214884619,0.553630147506391,-0.42177698024389154,0.6322727995684312,-0.902255240797863,-0.8576139361831885,0.8439201919957748,0.22154356255352448,-0.01116146461228662,0.2590819331458698,0.5676629407591789,0.6649800822849083,0.991412123477317,0.6006517279591148,0.2457563164985288,-0.3742695519022181,-0.603234495763582,0.06014803135756552,0.5424388363221977,0.04013801111168447,0.26041118997402224,-0.42531785800306743,-0.5749435441654602,0.7310707275641892,0.30011192688987975,-0.22838577937494176,-0.3639851351468535,-0.46367185607007944,0.4756988103973465,0.5580743152121319,0.14122026246202934,-0.22212923029600917,-0.13989516436884242,-0.1991520533015092,-0.6002044439774954,0.43081923366711994,-0.6026213080256451,0.8081125188707885,-0.43256176657088874,0.44687451084087493,-0.8077290495207909,-0.548534422410581,0.07586332890343983,0.3450129281742884,-0.9126870054290639,0.45613683665690585,0.42335372485921074,
-0.5969872171528823,-0.5428630250778799,0.6392308970608835,-0.5334821763616766,0.5665740127906038,-0.6138858704208703,0.6902997394028758,0.02093269451205959,-0.46150736683914073,0.6942155730424131,0.465497389348849,-0.8415706679218646,-0.5814422125527199,0.637328802014971,-0.2939774895787828,0.23135407253972984,-0.2644595009798072,-0.46790930257365604,0.5935073223365612,0.3592191865360248,0.7458467007757414,0.04162682155464492,0.619464845308819,0.880733071961298,0.46911098957543773,0.40741326249066234,-0.12714045883196023,0.1042790791772028,-0.9107906155852437,0.5238074839082125,0.03931907999919604,-0.4175100335534261,-0.9301259795318109,-0.5743790034684872,-0.8425412439951618,-0.9083573370752427,-0.38270586452416033,-0.5045642348633637,0.4922425944514046,-0.48582280172455095,0.9677927548930902,0.4961942568904971,-0.2377412127447509,0.9027207954559535,-0.613130501376747,-0.6040791826130134,0.3972400394662181,-0.853423564907535,-0.26339503837953115,-0.12473950584683591,-0.4958877907466144,0.866714090092997,-0.9983757807546687,0.3948495301921944,-0.2156914385108195,0.4328792578870255,-0.7404800391262762,-0.25164026907976833,0.7720391090370529,-0.6734857307267257,0.23983968110946075,0.13838718387423699,0.45265816462946007,
0.4657626368828527,-0.16355588873369342,-0.013816184427384304,-0.4277730309318335,0.5639077012809828,-0.2787534513655274,-0.07744160866920513,-0.23618052421671365,0.11017328009846517,0.5530472024072837,-0.29389810892362545,0.9930748822829505,-0.8581071605574158,-0.8166214367399938,-0.823779987982439,-0.23504797933363242,-0.38036833146443083,0.7319817080025213,0.7722841388940684,-0.9644060555970988,-0.07807545786335601,-0.5622639663895315,0.6365392791097237,-0.16233476805940583,-0.256130330957953,-0.2134315289454647,-0.13276285298052337,-0.7455234300422484,0.5138978123843503,-0.4239287612237521,-0.9002109826301012,-0.4323356415337336,-0.6643865820250563,-0.7027398349595568,0.26756241085920385,-0.84485254388007,-0.5833170034018751,-0.5028914026658067,-0.8697270308113851,-0.9694657431756295,0.9643240703091105,-0.3688040314393972,0.9567513904839293,-0.2078915807388897,-0.3929744674024167,0.3240116277149203,-0.38980652114634196,0.18897342785524307,0.5447095527295449,-0.07484065131965512,-0.7921710243004652,0.5138896048129273,-0.16537784764019792,-0.2170902537459487,-0.48672611803787347,-0.40320936139178754,-0.5121813810479394,0.7522516901028076,-0.7313420073006789,-0.7000805109424508,0.3811867339212833,0.11279691363379207,-0.2150515092185712,
-0.8950233138363493,0.382531135571869,-0.7074056640524713,0.28271772133464146,-0.3653730666105963,0.5413174545788317,0.577115161150787,0.7119323585603086,-0.2348358347373274,-0.28474420762342056,-0.6716286250585428,-0.9218318820079974,-0.6359136165295973,-0.4170213962804925,-0.8526652160007611,0.6639834006717424,0.6257869468397228,-0.3643513263151199,0.8835257258958773,-0.04198715277558307,-0.519479974837074,-0.5545910988580336,0.42884439691801224,0.5906694579201426,0.6162527807362506,-0.7238351765794411,0.8284210479909988,0.12417357708427401,-0.7200311609709049,-0.0677308125389684,-0.6005369582779476,-0.8440471648087675,0.21444101281278138,0.6332549142797863,0.26978216185216164,-0.1317122080606723,0.8384449794726121,-0.34215814600155214,-0.9691133967063132,-0.1065956803682615,0.09283768234816847,0.5180205693116255,-0.9537739817989115,-0.8379574967867378,0.2518780610616198,0.5040944466179917,0.36338169212962,0.2648602397173858,0.43862110753042294,0.5841395969035095,0.14969600337425848,0.7798571698148766,-0.414831938769076,-0.15357981656308572,0.10403881788551117,-0.9946662501675192,-0.8569897005662859,-0.05912529760719143,-0.6068876513512615,0.5867270315056181,-0.024343069836285203,-0.6941323728432032,-0.6811023307127588,
0.6369939464230479,-0.4448117754988292,-0.6410226007677742,0.14455061310367712,0.1240407481147896,0.8363321683940901,-0.7143279417692974,-0.7107429747946692,0.5350247305037013,0.9961128370733601,0.5772998335639581,-0.5517390377456866,-0.8738162882350651,0.604073404948076,-0.950098688849659,-0.8975182006627651,0.428175755981522,-0.2724714274656699,0.7179277501476344,0.3528409125412857,0.10074016505750572,0.9782564435585022,0.6020281283318127,0.047619460171909544,0.7168190028036869,0.5714902540396141,0.31764554025879455,-0.2331260490122984,-0.39489344963624107,-0.9049742647343793,-0.8787581316105431,0.38613861180344133,0.49132183917716366,-0.12428779229378817,-0.016452342514639007,-0.33765391084084984,-0.647671864613776,0.5825480611076124,-0.7856878253806674,0.5681023497971651,0.6335506036055376,-0.9799446412071884,-0.8193925834553273,-0.0538462110807616,0.7789722789088382,0.9425608717067901,0.7408164719063786,-0.5359117014934534,-0.11568369885181817,0.15946413517478808,-0.8409833287130088,-0.17998523222713203,-0.7921500502325807,-0.796473675980222,0.46954453862671386,0.6831685847941913,0.25957535686207156,0.3986663529735981,0.5291083555835248,0.949094748760805,0.23839849042954397,0.2907048345865131,0.32389239428815486,
0.5472615502471254,0.6981973933604815,-0.9060518658374805,0.4916745637010169,0.25966275048252707,-0.5024620912322486,-0.9415403485176594,-0.5259423681066799,-0.20783164746841742,0.32411334797789926,-0.5226833713229926,-0.7685075332146718,0.6860868646238092,-0.6161863552883382,-0.5698941976279484,0.033849255332264905,-0.43439357810978474,-0.7943442376350585,0.298362873973679,-0.5181287364033003,0.6874835188973851,0.9376376036246052,0.5906149357713006,0.6199242252948234,0.7925526105025782,0.9949037404387393,-0.3208627185558708,-0.23196865546796097,-0.14566748450014466,-0.5295595820084862,0.6774897258386314,0.531263252468958,0.4782082540315451,0.3298457337159282,-0.1226494554364066,0.33712968664078136,0.4253705896734352,-0.9144524809747823,0.9151191938907783,-0.1933017647696118,-0.9811010616269775,0.3821718601921642,0.15321196644233925,-0.7172571178129148,-0.9649246238556368,-0.2764090782045505,-0.3620716363552685,0.9183042531188308,-0.9087784961439958,0.4335087518825298,-0.5647817748227844,0.8716206710755021,-0.48794692063047207,0.8652703038654996,0.14763403551290488,0.35846790235851245,-0.8102500078744341,-0.1370908114702878,0.9802045299677655,0.5805227356985496,0.04864186947358462,0.5242745210816073,0.8499198436351596,
0.8784452572473187,-0.6163854270268778,-0.5715907109230964,-0.2770286198905789,-0.1490493996567932,0.5620434206396057,0.663177215005833,0.6158424256775006,-0.36377856261266683,-0.6377357824266074,-0.7745344964888576,-0.4892012840845854,0.06958809406933186,0.5672953439924393,0.6651183559920752,0.8132817647730741,0.01148433442423391,-0.659273038322699,-0.7949162852619513,-0.08183975845374847,-0.21773836194826002,0.3823973638714955,0.994084527029788,-0.046252064033364126,-0.6544746127608645,0.8946794341910884,0.634453780878441,0.8369507369785003,-0.3507659303813213,0.9859024547125241,-0.3233997457089386,-0.6001432646071734,-0.6361208006988812,-0.704361265268356,-0.6170990515207257,-0.46246171027444216,0.1496439643330154,0.34728711363845677,0.7376429659882009,-0.9212132923285055,0.5395152894553921,-0.5834114706965725,0.4159673925235847,-0.6040457513590194,-0.45709748568001674,0.5504120306823608,0.22359413879720846,0.6470303924771046,0.15439399337274362,-0.22164726919094768,-0.6195638070996132,-0.01746640962373247,0.0948613696004319,0.5303862439578053,-0.054960890853825495,0.05175160541089574,0.3171988979643945,-0.1929719774087051,-0.33689005476323364,0.7073176812598145,-0.923436663279338,-0.2558530493294757,-0.4277720850911131,
-0.06593793412884774,0.6950588839703571,-0.12721076753147353,-0.1938429540899842,0.7175324678956327,-0.45661153773072605,0.5950677483622906,0.21600974911079462,0.8195291721490829,-0.7829281837012967,0.1803787111532078,0.6618375362176636,0.24245427296365163,0.40240842375223607,-0.06809220979472941,-0.8729462064810154,0.5412278341143248,0.5074421377599787,-0.9184069480368093,0.16942176904066786,-0.9190242622181244,-0.2242390045426208,0.4424139879878426,-0.3538315972242998,-0.15935119553250332,0.306045880989126,-0.1199206959067376,0.1371134998555612,0.42718452024588816,0.16785800351784452,-0.7381105232329541,-0.9614685483494554,0.5917759569878189,0.6342343558213541,-0.3012468032071858,-0.0882093792726657,0.7292671853978494,0.4442382844859494,-0.38296028513057556,-0.6553554537722064,-0.40635524096186404,0.963689833199223,0.4801521078623563,0.31937580969109614,0.7770509121416385,0.12987928514441682,-0.17458971741838059,0.8808231218424201,-0.6233048830877508,-0.8538544293378572,0.6900349212857302,-0.2413507438281428,-0.2865049489750666,0.03477844533740382,0.470727142264866,0.5220353222963501,-0.03176973985838649,0.3617824127107949,0.7945415223119021,0.8313167034259508,0.16544573775016946,-0.285381864341276,-0.9255466214687369,
-0.6000982125233216,0.06229488804979,0.8441147730336687,0.08122438772757357,0.3911446259267266,-0.8110344771706384,0.7743259027273104,0.08387379216358193,-0.8513304431682467,0.5392844681891227,-0.3608217234082973,0.8942647961170735,0.39497517173042973,0.22455070050409032,-0.4776573236997792,0.4970206660619094,0.331971455867633,-0.2194011943600933,0.15683182384474703,0.8541858923333534,-0.561566224470339,-0.24245106190443555,0.9834115701217474,-0.05524728235118448,-0.8168153947455006,0.7236517281030306,-0.22801386840159,0.1323755929125432,-0.640858478912629,0.8790895163770376,0.7776996774391873,0.5502995576385474,-0.7078000587538229,0.1025499610628755,0.2335719150863631,-0.6492686866638484,-0.20975521377024897,0.44283864802303463,-0.12593464102661178,0.3865852640261864,-0.6285847007824303,0.8197533508758403,0.13905939323763605,0.17673963798381798,0.047074830236262466,-0.9871071447200799,-0.2747164714172461,0.8516417371733738,0.7337645897730967,0.8940290481252808,-0.7676574947386066,-0.8156975482552973,0.22975008032258404,-0.7018780052562419,-0.20695861029466145,0.7824263240150573,0.6155958427483617,0.9300120624179671,0.7827994757952434,0.05062335448500055,-0.07546734053237092,-0.73172432965079,-0.02948258906022061,
0.6273546603859235,-0.022790021994121057,0.5546849648756234,0.8033429230344695,-0.3405345249916907,-0.6132471191441082,0.6471641307171065,0.9103555021113747,0.49786210190387914,0.9138737190970219,0.7660887173629822,-0.6347284505804072,0.18109446100285775,0.5881133554943994,-0.021772682541369548,-0.2341526867054886,0.41930583979866065,-0.689881744628722,-0.36042219296273714,-0.23226379303169575,-0.3007819552656159,0.011185410095410075,-0.04219593044541892,-0.6468647709146462,-0.39847962823164473,0.8701366066689817,-0.6630684390476156,-0.1803673102464476,0.4552355884496413,-0.42608924181484387,-0.7685861757956902,-0.7577518091655431,0.04933897559487899,-0.8429077352459182,0.8636345361807578,-0.00826629711287219,0.28010920296441855,0.5669200337450047,-0.6516363611733367,-0.21521721497723556,0.33339318504894155,0.7741513056638958,-0.4803617374826834,-0.30312729676276984,-0.7158299330815325,-0.013518348114022416,0.06999294911333243,0.5860429970893575,-0.15849674145774828,-0.679949169745526,0.4889169799088975,-0.5440081026734118,0.37517119744451843,-0.8541072302242227,0.7268684258809399,-0.570550287111256,0.33097210199348637,0.25201564399645804,0.5131299009933628,-0.7921328338545719,0.6749002848326149,0.9481254099879057,-0.1797584308603093,
0.16103391842901882,0.10209469759262535,-0.7111633855546551,0.0947023279671968,-0.4796780211915641,-0.5953357855340209,0.7025394449862177,-0.4369184637646355,0.5418248141791373,0.6131961108777844,-0.5130776954833429,-0.8253618905375177,0.960743318109754,0.3099585458829299,-0.13152370532396018,0.5559955891627322,-0.42405372694401167,-0.1424897976850492,0.6221367388446428,-0.26962365220272666,-0.6162882157867131,-0.8053664128577711,0.6085440671597206,0.29334985162227656,0.3222339461642787,-0.6777883163389176,-0.9897641300695144,-0.7609957984696543,-0.6064417114152567,-0.36512944213620857,-0.4655916626455543,-0.3050974625991236,0.6971848807779879,-0.15008595236767386,0.39871534803890385,-0.5488610827982479,0.7396602643619135,0.44327934501168875,-0.472100095442205,0.35826265357272136,-0.7229469575788281,0.22294566843110886,-0.937118330189199,-0.579208930699382,0.9022896115545127,0.9534312404832506,-0.9797474535728556,-0.2725137642070101,-0.3930972305503493,0.7907169443805648,0.7389594734636262,0.23652200823115366,-0.37317545668913166,0.695138358286288,0.6122831088361844,-0.1268771639415085,-0.9755672675725091,0.9604904374933438,-0.4729523633076169,-0.600792579187488,-0.33586124136315965,0.5307930160601184,-0.5816733638497258,
0.07902454372522438,0.5063827098218796,-0.1281325972360925,-0.6032635167930456,-0.7082797137944681,0.47497925843805966,0.8230789128328639,0.016738628064165262,-0.0687694269185608,0.5453362440486227,0.0753017828428475,-0.5718016185103463,0.6858446698659972,0.15614654319526444,0.7043668960323854,-0.6102225297294801,0.10423908731854459,0.5647309380488978,0.534955940050841,0.4215648314702074,0.7317341897604168,-0.6537114163503754,-0.9818920009904915,-0.2643211282169844,0.5399796051228329,-0.1201105286693418,-0.22379105192895987,-0.992598169036236,-0.6247737452827511,-0.630878337942103,0.002535692724721539,-0.4642643308931511,0.2147977938408161,0.7128835575913111,0.4981313427484795,-0.10890324832041531,0.6483255664228655,-0.6281092878093115,-0.7130092965907495,-0.24080539343698737,-0.8102342578785966,0.26904346091907394,-0.5287623539263824,-0.6360315578597946,-0.22183071866379378,-0.28311892155806806,0.2711799375203401,0.5887831102324481,0.1396297693074553,-0.617074632804562,-0.9591700183666902,-0.2860861679777953,-0.44021438960212,-0.6162051264341872,-0.5423173875180916,0.5496785737972825,-0.9442916868630185,-0.2584504295771559,-0.9437549358181934,0.6684028595665019,-0.0620407786168613,-0.3591963979104824,-0.1919837478825115,
0.42473244358835505,-0.6819471976072977,0.19272121925704355,0.5463169428419201,0.5026348028542209,-0.7564844951034531,0.7420906908540357,-0.3074257405413625,0.8387615168081113,-0.16781640587575297,-0.8537528949911133,0.9613678848970797,-0.05433193988653939,0.02933627909622971,0.9096952510046761,-0.4952516632166639,0.8947195598019364,0.42571333073874484,0.5758599234706283,-0.697959639170294,0.5173360575216588,0.9514194560815128,-0.6425296894478176,0.5095481361198084,-0.2554392784261492,0.20017115258974605,-0.37033661247663807,-0.04471776555543627,-0.5712380295811794,0.6402950513167498,-0.38503218959841523,0.9970301434715871,-0.5223915694350729,-0.9666612048431111,0.3569103530375737,0.5577976865988468,-0.32071558514434617,0.008110312344887793,-0.09093724639652079,-0.6891512686577814,0.20924108597757707,0.9274125875915324,0.5589262770409822,-0.2927233530700917,0.48260672088607826,-0.06330387535385418,-0.13887073733912358,-0.17775806584160736,0.7527081869605823,0.39830263504051255,-0.7280093375960284,0.8417148597710378,-0.34501735511726883,-0.20807242479651133,-0.742419169661821,0.4197642404199662,0.7568884642577631,-0.39861746902901385,0.8899893593597532,-0.8928626562549611,0.09825025311641777,0.7096905485082072,-0.8484127345143124,
0.5850786432512762,0.6928030466875454,0.38900161206542183,0.43464937973175966,0.5340377139527153,-0.9894726147789006,0.09876796572418667,0.05378087264593878,-0.3748786690330219,0.5716959572132188,-0.004927509037908617,0.9811695859237266,-0.6571541866783672,0.9573804148842056,0.30595657316869485,0.469764620275013,-0.8690494410277663,0.7774945984421193,-0.45795395667710737,0.747059283073997,-0.3012639822758634,0.436279463064118,0.8887285315782045,-0.45776559578856024,0.23359250346519267,0.8964623584007538,-0.9344129833624646,-0.1480027729366853,0.7360891829706375,0.06715176617346108,0.4407489060321774,0.05552781849913413,0.7271969942672625,0.9268564881624195,-0.7477380544924008,-0.7434761632631384,0.1729200171418548,-0.9581531537316446,0.41556225002087777,0.5604127769933693,-0.37018474330314155,-0.24859693075004863,0.585552406709045,0.8873786014891649,0.3355829804764803,0.9653246343393109,-0.10623929026650925,-0.12307260052158209,-0.74788802133316,0.2554018796634421,-0.9044939412640915,0.45729593450862716,0.9140692264348551,0.7213801490404341,0.7389459032794596,-0.26691580719851715,-0.6556753177124859,0.9732738258217568,0.4073377391645414,0.9870710903012714,-0.7317936996528733,0.49571676112113017,-0.912202328528434,
-0.2027486436381345,0.39178264164960686,0.6463630787154342,0.2842933476631846,-0.4622906479130253,-0.394925683739463,-0.4108195908993997,-0.3804390434941274,-0.13797702413871082,-0.3707021954715608,0.5748065964609528,0.36008883268972625,0.16047074843771236,0.8479497174467008,-0.8460324137891426,-0.44973494744353837,0.43739100916012763,-0.15525975719422713,0.14628378250156926,0.25623696499894666,0.5726225361756072,-0.4829092862874469,-0.514380520950279,-0.20301376869965315,-0.48896823308138027,-0.45788918713201743,-0.5755418579191622,-0.22042576909673905,0.5667124390572067,0.44267530726073145,0.003614705440484256,-0.7425331013942695,-0.26648108730069486,-0.4655767323450466,-0.8200758816323064,-0.6046994566905752,0.6611748643606188,0.6302054787024285,0.5533731064455207,0.6504038798232252,0.7862758491225323,-0.4632913940735115,-0.7535288652280183,-0.3291560306352366,8.244615200259098E-5,0.09868959235789254,-0.8375167364520579,0.8617178425238015,0.19007979787334284,0.8294536769032113,0.5854776224979625,0.8858632770435153,-0.9901442517043528,0.011915921895358839,-0.11603384875491041,-0.7578828753246631,0.31193015702951676,-0.4372128910291906,0.9412475218106726,0.5037007528265938,0.8207435206876212,0.9231288041006256,0.8593874023528749,
-0.19873254443911503,-0.17190627336885544,-0.228275106471016,0.47010127610345065,0.6995973626484575,-0.03911423936805547,0.45342143941514457,-0.7653692994271155,-0.2561189390520435,0.40113883461855093,-0.3272123057038401,0.22603477581698517,0.6409836768398736,-0.6692275354224242,0.22415638509884395,0.06114464351080717,-0.7069629876590404,-0.17122822637720292,-0.6876969672848197,0.885757630548262,0.7151578414787163,0.9659104264433,0.36372732752188264,0.8154762016457135,0.24604555186687693,-0.5777129706073765,0.13670437506755917,-0.40407572889674803,0.39966435960429636,0.5955102673942352,0.40897364137754466,-0.3300977627297679,-0.7918311066237496,-0.1275555717800001,-0.444860040982868,-0.6746303676392527,-0.029314930984509102,0.50500681325626,-0.07843860317371765,0.1469726708371495,-0.05048908161483001,0.36058556331665126,0.06470354910344756,-0.39483760283945557,0.744755677776817,-0.2897752786899799,0.6396421584503433,-0.7092232859710033,-0.16961168785617975,0.17280201655612037,-0.9914004136232852,0.039287984217055705,-0.9508802641089611,0.9510022491333971,0.4851028943022826,0.9877458910966002,-0.25950412861833194,0.5749677206325734,-0.46244405012523204,0.468774036754134,-0.38396705767354766,0.5120854695654509,0.2467191882929829,
0.5698051932773496,-0.5028222309443791,-0.7935517984316749,-0.15520426284857858,0.1720707587749586,0.5963302172004039,-0.620894428859023,0.25952404602236023,-0.667314523108445,-0.8518817621918628,-0.24970105768683415,0.2448814156671233,0.984498602343032,0.8875676485456421,0.737451622574498,0.9007053962692135,0.1022097463286733,-0.8762364382302463,0.13776556266398088,0.16674342280353938,-0.2804240938921245,0.9720525928272485,-0.6781487530722672,-0.7776560029018924,-0.5186348936815786,0.6847878996398467,-0.9551015414209043,-0.3687941042392804,-0.22496129467059212,0.9600735468984269,0.6244719267660728,0.5413050723171655,0.9109739336693954,0.6099155886393186,0.9390938361566179,0.2833220114298278,0.30636583517523897,0.0336430258594107,0.4693553412346225,0.3065954319481443,-0.8232244090657861,0.5694124969725085,0.433374245287208,-0.4501687848312588,-0.14937903360042593,-0.013934562963198394,-0.03900285656504887,0.06449902991363876,-0.5042678423219984,0.12955867206066718,-0.7937792878366787,-0.007948719490506795,-0.21657517071158372,0.052642722611600856,-0.6851152570541157,-0.15819649763566734,0.8143701723614798,0.8334152247133244,-0.7552305584551013,0.42451713599815766,-0.5081302730842479,0.727830282653886,0.5778055167706422,
-0.23257029892201464,-0.5480289292460603,-0.6968027952384328,0.6691849048414942,-0.1303203752864306,-0.35381119616612855,0.7641553997494337,-0.2542617331266015,0.252777316696037,-0.2785774327928918,-0.19043424895373073,0.8960223296142946,-0.0810240610496189,0.45299302060869184,0.04821098990062356,-0.7128600547437918,0.5510988297469401,0.6605439776295607,-0.746848266778716,0.3983920473079503,-0.42941502988134084,0.27288757016633824,-0.4509628457933337,0.5794405392451887,0.01621406465823272,0.5066972387543778,0.0036230506775509763,0.8207379548564555,-0.8858204601370647,0.4852811184955277,0.03420256624394491,0.26655842105896377,0.8808780764447821,-0.9525027665126959,0.5416085660073513,-0.2939571997072672,0.13298826071459535,0.983199590770844,-0.2511010107846179,-0.9547514672123885,-0.12488474377717695,0.480432387166565,0.3487910022274352,0.5932727715235822,-0.8065206649927661,-0.8190824572852544,-0.24663926572779915,-0.11190355898797155,0.5048312676501281,-0.0857903339377557,-0.008518740360387467,-0.257126363536349,-0.707020736113728,-0.08278064019596387,0.11392177293170502,-0.7890299489533414,0.3110160729709659,-0.8553647143269207,-0.15701347374898278,-0.751868505164631,-0.3644619252121124,0.13710268338870701,0.6430232537676066,
0.9927421491459554,-0.07014984749549558,-0.16215591704315258,-0.6099148110244044,0.790209987497156,0.8063548587824265,0.7347370662881019,0.3834835551512341,0.3550954881517172,-0.7259733750876507,0.7536902756625139,-0.4310798404201861,0.7946768000894291,0.9150746152097318,0.44048964598470564,0.5323434901097006,-0.38977601274698426,0.655601714810583,0.14211150491786628,-0.9243757962605821,0.2473320668199337,0.778270120495753,-0.8651690577113655,-4.0047476373428204E-4,0.284241359004509,-0.8293140080600685,0.9452791971651939,0.09698893187372315,0.927150989637286,0.7114209063626422,0.4719329997268058,-0.702863279251865,-0.8758892806263083,-0.833711186441737,0.9383476631393792,-0.5935098986488805,0.31415302529451283,7.015295020944556E-4,0.19577216196599556,0.9531746857606063,0.5959068068872648,0.10962882640272231,0.44161412061476835,-0.7290178148667172,-0.06998931429162858,0.6248919778833595,-0.968450303098433,-0.8524612821911965,0.8822240239204686,-0.31977735303868404,0.7369024311442234,-0.8866257544958249,0.36920969316862684,-0.7022771124959974,-0.4647580810288574,-0.23693154788956838,0.8865423881355554,0.4050642634768704,0.8209829908364572,-0.6234004535893147,0.7785737295181676,0.40096759519097636,0.7840927144006185,
0.5484769793623336,0.2523637577470603,0.6572080979870425,0.6288412524706719,-0.4658079989565691,-0.9570342258221236,0.8785937459635642,-0.7091387366687911,-0.4120276447670681,0.9049314766024914,-0.6619325477405615,-0.6403926064995897,0.6927813368416129,-0.5650213110081548,0.6622872107226563,-0.9753631636452058,0.7729545050468192,-0.8766547783891903,0.06374161865222971,0.03795944333286072,-0.2681803575832318,0.9864276259121476,0.6986602728186955,-0.07896646608793612,-0.5289001508450646,-0.34911599520777514,-0.8243164265255842,-0.056187034419180604,0.42585196834085504,0.33945672178365416,-0.8515429372198242,0.7645775166329887,0.08814586272504732,-0.14865039578000072,0.3960212209517371,-0.9568912406926418,-0.5053566070262225,-0.6649275672693125,0.8280685722840586,0.8260989841264985,-0.2823112551878406,0.41924303340107394,-0.552155700912514,-0.9474876544873454,0.0264751209676517,0.09691622572574654,-0.5363303842976201,-0.8620582963813599,0.5743059485075763,-0.34841357232565917,0.4607695429951866,0.27083656877258555,-0.7800784065107504,0.8680889351386092,0.8282905918470562,0.7898021820333252,0.4053163744972115,0.7892032402954381,0.48209685774232236,-0.18999938165745855,-0.11057779402195611,0.35883960615417343,-0.6678640774911571,
0.12801141702538432,0.576491097414956,0.4352685754439256,0.9138688131600243,-0.6416624116023961,-0.32004126668722144,0.8629307305259919,-0.8635374580469048,-0.7589283963178945,0.027026577955511888,0.5589426551298493,-0.8038544280920403,-0.8909368484343485,0.4361525201399854,0.9004929796759251,-0.6386699095491346,0.6142598234321412,-0.21090702318723564,-0.9080999928052318,0.5568087404410753,0.9867179869651712,0.6710923723246005,0.6451818323451859,-0.5424642163233628,-0.6638878501395982,-0.7327298060396499,0.6255662537971687,0.148205643219824,0.8043960749683465,0.5802067751424249,-0.10655203498917776,-0.686953539582583,0.739599706229505,-0.026815556944405516,-0.7831241524634447,0.39094689886291656,-0.5154279487558333,-0.4545075082383294,0.8337350092669673,-0.8357599199300929,-0.13919014391334317,0.9106570755126369,-0.18963761871359397,0.845169975775967,-0.023660878645487937,0.5754121692555394,0.3734161420535502,0.8822693064809313,-0.4020554167028241,0.30667865774101766,-0.7156051364062368,0.42958114401907244,-0.9981287500013911,0.6257732292104943,-0.7187174384111645,0.7048596731252568,0.9534490491684404,0.8835211932872777,0.6293716006168095,0.30858791980141076,-0.7350790079316456,0.24690083408493924,-0.09660377614068572,
-0.016145197736790795,-0.7579178107096256,0.36729986914927304,0.2656847635338164,0.26783517932511947,0.25416612826694074,0.5024172808887777,0.7101193709826763,-0.9811786034103591,0.6477423526574155,-0.5717019028307304,-0.990731927843645,-0.10154309574391651,0.2742175006334029,-0.39505972938814304,0.43213333060551085,-0.4529741349309566,0.011860486448008523,-0.2516326361140344,-0.30746038430228584,0.4103562140032595,0.8371002719523628,0.21401268809383,-0.9567411356682722,-0.03990408758402908,-0.7638272187581969,-0.5892851598123523,0.9485532398072158,-0.6051735929566189,-0.9529782952538288,0.8415763556646059,-0.6521089639183331,-0.18232094177630498,0.18268624862607763,-0.6926084692546746,-0.8338300007192698,-0.643174914672612,0.11123704307878857,-0.6896978878741475,-0.5691391067209557,0.7284107446480035,0.4536486542332441,0.7597924393530906,-0.8759374755872089,-0.6627855732678707,0.6098269951999578,0.7100889933271151,0.7275359035855855,-0.8314955692172634,0.93433614405051,-0.9525173224560364,0.31136560344112607,-0.5547207227376665,-0.3428013762235722,0.7980447019942356,0.971972796086161,-0.6917236226625387,0.4814707172004493,0.04066067968408449,0.4427837875899101,0.6218366197047154,-0.41187758841811495,0.28726015796479865,
-0.21906571229172234,0.4169174154457449,-0.3599199067279879,-0.36842792061552054,0.17597037914500535,0.4532478967241125,0.3011179203399579,-0.03030963880822557,-0.8684174757851271,-0.08417555208208816,-0.22838782789578627,0.16018578296229413,-0.46101113761276036,0.35664755138843085,-0.10799938312314561,-0.8815455966264336,-0.509338016847029,-0.349196276552993,0.4761174834682178,0.5294457500872394,-0.9243298605608208,-0.043300364358678456,0.7104024779930997,0.11486663705421685,0.8529841465565062,-0.5465410847960877,0.6913107665676079,-0.7945898783467318,-0.7833224899800366,0.9741950599478204,0.47207833726331816,0.7455120615693949,0.4470261096405812,0.5620762678477547,-0.6486743122498244,-0.20240934633173424,-0.11590752595840526,-0.5531971603508412,0.559811315330428,0.11467794958308364,-0.6345435981390544,-0.027680855967021856,-0.012026327561757588,-0.5851951428390056,0.8373334301516993,-0.397713653369951,0.14572904358345395,0.6174546394801372,0.8783996054306804,-0.7119551546131708,0.15732090437432977,0.4918533111597514,-0.23178038100074416,-0.7955015268223851,-0.7321561113251271,0.9188175024584662,-0.3127468182216828,0.14255590492817216,-0.9256053678980338,-0.7176652575429183,-0.34700652788692765,0.6924673275828876,0.49362872385392653,
-0.6159969457104961,-0.12313180465248985,0.760598353372359,-0.6611679837854214,0.7129110858952614,-0.6308866871618404,0.9328852805792591,-0.6965580238875428,-0.09450849628722535,-0.17609308691118586,0.7314197672406759,-0.8657160463067148,-0.2056644191771111,0.08462884006288118,0.9063139209419757,-0.17338651978146125,0.5719080964856078,0.8191898184098765,-0.4368007415076147,-0.21561370669733226,0.28455580453291773,0.4279525779784039,-0.8525826629882856,-0.9369962489526291,0.12415606859446249,0.6618441685684044,-0.9108380099195317,0.04811071445256787,-0.2007956741965622,-0.05416115656517362,-0.7404638516441355,-0.7771499022678197,-0.3559065366592242,-0.016933231615330335,0.29569086888740226,-0.9626917949643727,-0.9352100328636967,0.857383697257565,0.32391477883636943,0.31771038800408946,-0.5789335381049749,-0.4426860911782231,-0.3572521932730135,0.139257395747457,-0.49009872896985085,0.6118573863848942,-0.47610532158018404,-0.36468108557617684,-0.5583885328692386,-0.6412700636836015,0.4469169177464889,0.8270302244631567,-0.11026449839039643,0.25818290710299263,0.8043859700974594,-0.7688348142246264,0.44763890325668454,0.620628220972073,-0.6026175547535266,-0.2595125883055145,-0.8607348207214136,0.13387176410572033,-0.11307032209209256,
-0.9303907540416976,-0.9915891034472879,0.6558359149919593,0.7751536521421343,0.9207165634281183,-0.8496451610304292,0.881231315614696,0.46066329555222096,-0.05265456856642703,0.5516250993735388,0.6957156287132127,-0.5541506660269513,-0.41927519877600417,-0.3318594091980114,0.2986540193276772,0.8695024327394336,0.8320272903910773,0.7989178509057584,-0.4943235561999997,0.1963545016095536,0.29519907860091466,0.001984711785655291,-0.9651971646796302,-0.8841494910092924,-0.2511336653470262,0.5510986537199838,0.034986601195778455,-0.5143387779895949,0.9921463369081047,0.7463179814928456,0.6335046354892622,0.5011493959529039,-0.1519834422805446,-0.7315714513435738,0.8587004175022959,0.18020719236005323,0.6292258103437491,-0.7933177563453611,-0.06283613599614402,0.7235832610718396,0.7855578519070616,-0.6087451709786309,0.6695119909033662,0.3440232461786443,0.9375866018946772,0.7262858320993586,0.35650929673368914,-0.24675147142281872,0.05089063051518594,-0.15368495083797495,0.5773482353997157,-0.345996618365757,-0.8839778604963946,0.6083837618434369,-0.985513751573355,0.30510171889091975,-0.6266462700115576,-0.31597796175968584,-0.525486329637507,-0.48939093800664724,0.8582550663718316,-0.17020397589289615,-0.7278928200879202,
-0.7700015450595927,-0.15912113341397172,-0.7079567830002402,0.22419907203807443,-0.5856792027060596,-0.4038358401974018,0.24087587116407683,0.6440721451344242,0.6441357392146132,-0.13650670960793665,-0.8695137289272545,0.930167680610456,0.6781491893107185,0.34176604273148614,-0.552759061940677,0.6119727902500134,0.1172098810737432,0.6144839856838544,0.43400348024453184,0.04542989226212635,-0.9534820726437534,-0.9892352424359889,0.06857928081917053,-0.6571083126804909,-0.2603971214945471,0.08203534361412745,0.8261279642153319,0.5777201447408775,0.29083170674914993,0.6104807296704062,0.5698434911122257,0.8212095376369337,0.3889096189366432,-0.6358471931420153,0.29115356313155893,-0.8504121055510783,-0.6479591130592344,0.17497235407053857,-0.6398552565320494,0.40143311501244705,0.016118420172005044,-0.6603147384531782,-0.5511287591014866,0.1709152759746846,0.10051584623035037,0.8301622840019025,0.3546596518893024,-0.7101438884791449,-0.728242798437509,0.3482588102504094,0.5774744299001995,-0.11832545092230262,-0.7164565687945545,-0.12821850900913234,0.6948621346929897,0.9628654133062775,0.29231823860856143,0.011933732753900195,0.3299457730048654,-0.47726370017961117,0.7307578468899276,0.23894277278877274,-0.1776067014757996,

