-0.9702945095044022,0.9672735973862843,0.8313978495362466,-0.41076197579133766,-0.6074570537301622,0.3878187880676922,-0.7338431168988317,-0.3981187129403825,0.5475132648983567,-0.4930060215162839,-0.31049138376256136,0.4075610720576992,0.047458381352831536,-0.7513508571366649,-0.9033966083945231,-0.31197626718345495,-0.7035639647624163,0.6318831115391332,-0.1050041025776578,0.4750881005206282,-0.5963929037067606,-0.24345554189982832,-0.3605308945413339,0.8322458155644079,0.022644749083415405,-0.7969591079954681,0.8991390443295695,0.06339328358570917,0.998014794406777,-0.2555325637098844,-0.5458337050993483,-0.6757544922259999,-0.8429444858416133,-0.385233030907707,-0.6817705350460539,
0.888933149085984,-0.8331361762189897,0.48483919183975477,0.4442432412306434,0.26373935332745524,0.017571444471147224,-0.23078200857040598,-0.6053677931571275,0.8418845891717901,-0.6013253213435426,-0.08085995541116553,0.7437996924888579,-0.14227902912807933,-0.9973425193722552,0.9535302044772991,-0.4707414096786642,-0.9743481235483362,0.6202273897749517,0.6376327554572132,0.6792198494289374,-0.5614557279657573,-0.21593901986819075,-0.5602790808377023,0.018262354543425063,0.052354903261643715,0.6730341280169323,0.6795197157178008,-0.8109649948224948,0.39814515050156674,-0.993510013134123,0.12768038186724806,-0.3732278561533533,-0.9603884753753373,0.7381764094601524,-0.27615203675297306,
0.584728714485933,-0.2662873363903149,-0.4979378307197142,-0.948432837104656,-0.8675275161174905,-0.7460736733318298,0.9673191053499794,-0.2585269246656541,0.0352967202788832,0.40012326872894,-0.4726630823728333,0.06991923430399227,0.47184588128458294,0.8459982093233545,0.07771334871275504,-0.3216045313243783,0.6583745283058604,-0.8355497165210761,-0.969257408611836,-0.4402063394900748,0.6218885986788458,-0.37674019457132113,0.16900150967786587,0.24078142273060155,-0.39925542552172866,-0.8421393431531703,0.45821207778566087,-0.5647532999693965,-0.14988733570827484,-0.6950398435143728,0.5196364057457996,-0.6480193565642183,0.9910358011924247,0.8202125166417167,0.10483872703195085,
-0.6895325943227906,0.4656462656292917,-0.7948954238397936,0.62072706970165,-0.6481458711344872,0.14742840678483327,-0.5673349709834219,0.520365244060844,-0.8721227482790188,0.7042455186166843,-0.2114369825300324,-0.794875968827115,-0.49127660612657387,-0.0768244139575498,-0.06638663506177611,0.976318392157691,0.07150772795877902,0.8800298063747136,-0.954340034220732,0.5295562408157517,-0.08574531880342562,0.5727554878502008,0.21326172494717932,-0.4973987611338706,0.08596909975188738,-0.5632469319248907,-0.8694417088703814,-0.3323679582138359,-0.6684098153701474,-0.9785347473980788,0.5821462783144553,0.50135617211656,0.821322050446524,-0.9685759781870971,-0.7912503501058317,
-0.9284826245381088,0.06703879416599823,-0.07872977865338049,-0.39107907676609055,0.4459110577045924,-0.6758344010348416,-0.7169127301962612,0.9589635861611079,-0.8398971934919688,-0.5643611791575902,-0.624279686593382,-0.977281873511596,0.6726206484773782,0.29525314308755735,-0.6804217748588821,-0.32519158542664184,0.19147250954910144,-0.10909450568784895,0.7167464111197519,0.8753976449203542,0.7734159888850987,-0.7660507387485556,-0.2449359978635357,0.4114558115119158,-0.8225125269080191,0.3890753481536675,0.2161491209712154,0.6589952530344192,0.5968746852147468,-0.7101601762537373,0.2311830157619259,-0.8773182059811366,0.09829551162007921,0.058160390244713644,-0.8854078313780585,
0.5736842641617703,-0.6343762728189715,-0.8581917601549753,-0.8454041952521751,-0.7664231968910393,0.1745803862064459,-0.25787608010472507,0.8509137954769086,-0.358437777166571,0.9178881037205495,-0.2751105470254147,0.7637593619186738,0.5942373473484102,-0.5446371221140671,-0.5095084403827606,0.8745671775038786,-0.13842469752763464,0.5809973009954643,0.12521533003318375,-0.8422624689768414,0.2597512229951313,-0.5208340795809632,0.5637087522779933,0.9240039044982145,0.10089292016230611,-0.31533750668091654,-0.5366368387362783,-0.5801396950150335,-0.9582105032639601,-0.7336432292020245,-0.9754419618040486,0.1538122408588598,-0.08195497190286627,0.2218364703061293,0.08641965019292086,
0.469044003684574,0.2771172524145058,-0.5995218993897886,0.4859487189308709,-0.006577656574022983,0.013134459358372208,0.6649691854659394,-0.11092617632163404,0.7715851512977101,-0.24166396553625957,-0.5436189388842143,0.08539053849574296,0.12019193068350753,0.5004373091652892,0.44547149108195594,0.08405030280041781,0.5462405826435781,0.2721697361195521,0.5329725478803753,0.25646483810929555,-0.5703161214774208,0.6987030884951746,-0.8958009643750375,-0.7578038588764131,0.5954060472255833,0.6906075654827959,-0.8516107441155536,-0.6323950208713229,0.3859491027585691,0.6344680335496757,0.6207695590956617,0.9225332224073186,0.39520603413274724,0.06021546497592212,-0.7445890851368111,

