0.7732066666615719,1.1734680827646946,-1.2115307331648857,0.29910251715262337,0.5454445511401085,-0.9627862893562378,-0.4353640559218828,0.42677791941658555,0.19467777485511337,1.2617021640208166,0.29741410383029565,1.0708757423968294,0.26587767368196313,-0.224220387312997,-1.2670403353690909,0.9214680780242461,1.0422324779113605,-0.7457833705626261,-0.2952164040555007,0.26727541325757176,0.8979033041774455,-1.8177210557950667,-0.34281133992150525,-1.3594553883019507,-0.006501248547653255,-0.8064464357375716,-1.2324312698139173,0.3732263668784295,-0.45466725526151686,-0.4821553284084541,0.9746894789675616,-0.48115589515572355,-0.0034692750619301606,-0.820740804477185,-1.4863459561863297,
-0.05581299131240681,0.02806201089774029,-0.471687063448256,0.7108359045320197,0.08883165095697627,1.5481237569986364,0.567651914501728,-0.9360082375135713,0.14273991083823326,-0.21196564147825922,-1.5809335488711158,0.5607190885017785,-0.5424959853538225,-0.1877736219395052,-0.7823440062856725,-0.8631060064216053,0.6032410247407098,0.6559219612038232,-1.5367355593877734,0.25075442534390546,0.14749304616068254,0.7342422967444648,-0.7695840890404057,0.13305751638197957,-1.9043473886244249,-0.19891989975874308,0.8023939718524651,0.15276095320176417,0.7522163397384637,0.7685992291273048,-1.9110836830266957,-0.10049056516490476,-0.35737948004529624,-1.640406777064293,-1.709881301972972,
-1.2025580875405473,-0.249105605456857,0.33719580655027453,0.8503280424342133,-0.07837425280006767,-1.7182010880289582,-0.6572177507180895,-0.993364740825576,-0.9410567020914397,0.7702172763552061,-0.634904383423377,-0.8264549776637169,-0.8422618167936525,0.8268333140236094,-1.1591103444894677,-1.3613100325645573,-1.2661220462010456,-0.86866772516096,0.2763601639961787,0.7488249346870892,0.37178457670755943,-0.876667921299777,1.0954287778038998,-0.812712426547524,-1.4713893394328752,-0.2928512305659342,0.8608476777631436,-1.2470797035236645,-0.9554137016179438,0.8978406807215742,0.5816424855555846,-0.8273219617903753,-0.14286129686722998,1.1081697774956327,1.0934804096568222,
1.0145598697495628,0.4158119467923364,0.16434563610806266,-0.5418702832789832,0.24411727655746848,-0.06900397173785504,0.02760842982624472,-1.1460542908456586,0.09370747041065157,-0.9296046871065065,1.012063049271549,-0.8307948629421487,0.48162374154513915,0.19207249897250087,-0.6484054271252424,0.8043688176507418,-0.5447975552812694,-1.6989052577460528,-0.9153986312305681,-1.547029542091093,-0.8407243754133176,-0.41502132405868125,1.2075909898711936,-1.5262673782591905,0.9315896940633206,0.36099508142152836,-0.1828818364089453,-1.1480324711347807,1.5936868759605314,-1.1956281581147727,-0.6990595302523283,0.2032935028620729,0.17145045010428714,-1.0471329409243502,0.5011450528420185,
0.5875248038097017,-0.3471685184820625,-0.6463363788696056,-1.3411950367128722,0.7506807772978672,-0.8447699608063227,0.2060177172684558,0.5603809402512908,1.2230456896128397,-1.3233880436679801,0.3213393625767587,-1.0342352275879088,0.9072217390123014,-0.8039508649758896,-1.3660315827208838,-1.4094285535826228,1.1506433018982918,-0.17323335180645044,0.06960929480099602,0.7106231114302144,-1.5772358939635003,-0.5276507343619634,-0.315046742008288,-0.4876469240459111,1.265081555707639,-0.9440593420667188,-0.8546530871054954,0.8395275189355295,-1.8533167988594839,0.0828887715892337,-1.8798682714693458,-0.21513399843272907,-0.05291256675104258,1.3393593205999166,0.8892447017020289,
-1.1163188698914224,-0.04200072830430104,0.7033707032726909,-0.8595206471952426,-1.0893807152100825,0.7034054820050412,0.19650837850804634,0.58403230595618,1.3353705859498457,1.2416257297307238,-1.483015877812893,-0.6917730102674039,0.443284999476262,-1.0566434234682114,-0.8158800472260067,0.5887769190480415,-0.797750084504265,0.9354399927602491,0.9573466962492813,-0.025702303867223403,-1.3240776199749271,-0.45419300351786007,-0.36464883890826916,0.5717479514290357,0.13162213227283012,-0.5983881141073734,-0.9449085438879709,-0.6562248385466845,0.2630780871820345,-0.8071903801301045,0.7090490967333799,-0.7698788758919872,1.4228256896933926,0.0030328646126620753,-1.6803086638745748,
-0.8799165115687074,-0.5030996908390553,-0.7120727666293319,-0.41903707245285177,-1.7927165790830297,0.5294199805257713,1.4113340577113853,-0.4226394470913984,-1.1094412350190352,-0.4096843764940709,-0.5659718268205014,1.3905022825388527,-0.8043871177467918,-0.15794689627052266,0.14403264142278968,0.3349064739714164,-1.1134739844772674,-1.318720682951596,0.42733196299272463,-1.660371939337328,-0.050512679875751684,-0.11393204084694769,-1.2139221146685524,1.4866777888263005,-0.2840503354076474,-0.5879099169357034,0.5948330201836232,1.0936787330412618,-1.4614332613459349,-0.852772070720225,-0.1734862165040487,-0.31100387381078587,0.15174597820814792,0.4835124676250409,0.5299045079521997,

