-1.11526701408835	-1.6384802115024522	0.9365831255065169	-1.4202429846153233	-1.2457036155592198	-0.15827154978318395	1.0629542126975149	-1.4658200989171968	1.6177576915512417	-1.0821998800062052	0.3752352126718023	0.22029499492191182	0.12379569665113246	0.8929695699790038	0.43501390453479816	0.1541789694822057	0.31706232555257896	-0.07289639286100616	-0.12224164929320903	1.3601324529656567	0.4300510371027784	-0.46692005709047013	0.30625365022022727	-0.6035159119469569	-1.621895515544266	0.5774242154677388	1.0054764723800629	-0.3998433750033821	0.48557488452922437	-1.4744609498501715	-0.47692342432486323	0.35488240289219464	0.6656912460840738	-0.44367512233431183	-0.9652888227431353	
-1.4765251048764432	0.36446396302015627	-0.6226097009820682	-0.6342021677791869	0.860062589284324	-0.19131024870809873	0.06914639631084196	-0.231251491284315	0.1667549415187259	-0.2743501219028143	0.6556653586801736	-0.24366218319537464	-1.0697879834879989	-0.45200404769419184	0.27190870528777933	-2.1999789359233564	1.7239994888203833	-1.2903468238018183	-1.3115961181660571	-0.40029116168446244	-0.08763804370706721	1.0420407604415498	0.7487103091369862	-0.4424416717926142	-0.10799926895357073	-2.127146486708168	0.5287848574010777	0.4494807833705481	0.12374951198955662	0.10143372452720122	-0.5174508727390252	0.9005481719457902	-0.04081531068973678	-0.8717380125058634	0.8818267744242759	
0.7035585189164328	-0.532073337533691	-0.8703388324883046	-1.111620034223648	1.0021399456545725	1.1074268417674815	-0.6787177986010487	0.13303662479150985	0.24319842871650182	-0.856766687919344	0.4455513396876012	0.691797276243441	0.758083848618916	-2.266932053595579	0.1707696357020534	0.6106716949621637	0.48718921229338435	0.8038362808018946	-0.9278833401976448	-0.40686102169195754	0.45378063280101794	1.2436154385694909	-1.5155751046051893	-0.43440437422505174	0.6342714803973073	0.022394427978370154	-0.259104609274637	-0.39478929077785857	0.42440929333355737	-1.6394668173715974	-1.180344861732843	-0.04776077769598441	1.0447678665126585	-1.3783328478266934	-1.0479602307637328	
1.1770714408473721	0.7420000297060128	-0.29858716743866315	-0.16056655826411512	0.08912771913439699	-1.2646383314350713	1.3313988254561429	-1.1855742803031915	0.010701898036370186	0.33304617757119215	-0.7439186409576296	0.7394835718874901	1.1817289123101613	-0.46319239762147224	0.8031008862935165	0.09667058157400395	-0.36747916576868844	-1.197839690548455	1.4395339131610791	-1.1067776234381599	0.7848754652525322	0.5272846907122755	-1.211540797760861	-0.9067866144642285	-1.5666814782408618	-0.5551985687126111	-0.7826858491458568	-1.8887120333803882	-1.2646260548525654	-0.2588595045172626	1.211583394173363	-0.2418374431967094	-0.5574743454174383	0.23853850728509582	0.5512846288883976	
-1.6146548079489287	1.0336394986269049	0.91495466894808	-1.284006186980668	0.06215368923181696	-1.1254780479767819	-0.5467389436671758	-0.2901740584112252	0.1250292502414148	0.3808199483534388	0.092804578255893	1.158384576699614	-1.4386383742390334	0.10487894614321303	0.5563504881593022	-0.5198184142487925	-0.9178197133113019	0.6898794463294637	-0.9294722269884136	-1.0663034122281463	0.4664346259353802	-1.5106628338811876	-1.7280617770692794	0.4344277145809062	0.6302277718405196	0.14039115882517428	-1.5950844198649703	0.7567067047385208	-0.9859568837213097	1.1687293315959077	0.9776351115565636	1.3273266263421932	-0.36542396619193335	-0.9575042912793633	-1.6499889647701056	
-1.4041313917858498	1.1897439748287173	-0.8272335246795746	-0.685016937516534	-1.0127326629980535	0.1433845343249002	-0.5851208037762323	-0.35238542839861686	0.14981979257239594	0.7612328508954274	1.5011679231581685	0.5967121672081915	0.6063275545632416	-0.6877576083163696	-1.4850927092910056	-0.8464348687813337	0.25263960242687644	0.6903778710191332	0.9944887341861084	-0.31259127860650704	0.6788965030380028	-0.9089391501402846	0.11537329643024735	0.3467636834072329	-0.05974537806388414	-0.7673125700965028	0.6406763442017901	-1.373368846107748	0.8204157431001936	-0.15990463557351262	1.1833465384295827	-1.2408062427374416	0.911077094203885	-1.5953501233982013	-0.08118951539511728	
1.0299713230330974	-1.0301635449467443	0.3645549584676526	-0.8831387909373872	-1.265792866254791	-1.2967017730623975	-1.6457339692839714	-0.38290694011240795	0.4353169995694291	1.6571610865862871	0.7951240236948449	-0.09806545034091932	-1.1929677231171572	-0.9236946511886828	-1.7422910133095046	-0.07260427320773002	0.3682620486723618	-1.7857858426791724	-0.8386121977265169	0.5739122624289404	-0.06856209123211254	1.1450202933918536	1.1100255384145414	0.8773152012578849	-0.35019626353678746	0.25619758042640906	-0.4381497354421079	-0.16312026673527114	-1.316489661948239	-0.3874831769533033	-0.8880975791551767	-0.3632779844898926	0.528456647463537	1.0156476040200746	-0.23075382432447872	

