0.5351883219525854	1.1696103605691273	0.2629387468789301	0.2582079835653035	-0.12534414544225217	-0.022231786487380764	0.18599083531831853	0.8017222555974725	-0.011546625448118623	0.03677028301510913	0.19326839939784238	0.8289439024683275	0.11537259279816589	-0.33028222520301304	-0.5384328756483016	1.2433430384221495	1.654696009295962	-0.1275413126469032	0.5491971231177162	0.8681321878326843	0.97218505584152	0.4660001413157764	-0.1163382824436777	0.24010695657097422	0.15452116834217197	0.5643330380580095	0.46968524225040253	-0.05297733901243923	-0.28204028101575507	-1.0047274806198694	1.1709352194503009	0.1707412813337689	-0.5021848223784607	-0.1234798296615929	0.010666007370165397	0.16643851675034702	-0.668479817723625	0.30403151626996266	0.030748536479922917	0.07107525360337763	0.4390293965701876	0.0076586781546994515	-0.3550820397383646	0.03572742416763484	1.6713837387495551	-0.21352749838202525	0.6128674515504463	0.5029083250362143	0.22459526402666422	0.7052919241454464	-0.3413803312378523	1.0434878576336746	0.5341010301821503	1.5271864237058657	-0.50662281461014	0.5974302958880685	-0.8468476031115039	-0.7775342350770279	-1.0039764997627179	-0.0396991621042477	0.6900821480710512	-0.5506925728879349	0.6081733559768786	
0.6661856387377917	0.4884679181849792	-0.06438966155522	-0.04355286844236819	-0.6568938781237098	-0.6593551021691052	0.915295845740748	0.2062752740060339	0.997773352435878	1.0563583696314094	-0.21238087720154245	0.518486441407646	1.1011294430977228	0.6737124310297998	0.1702966729618321	0.04005589576556093	0.9663056610771862	0.7698792602436731	1.2738230941561943	0.678161047473765	0.5998571395065823	0.18953714244519632	-0.6260196695696362	0.10567722900550618	-0.1452150296330087	0.3681570277172101	1.5162078429021417	0.5110038398786328	0.532444175751874	0.36505356962695273	0.4552649569245462	-0.0754609706247948	1.016775991056557	-0.16412573846293355	0.3207818685215263	-0.3063697367098877	-0.3688052397214107	0.8417594628967121	0.41527796015954527	0.562883069382741	-0.5609770125450667	1.0449597370867703	-0.7079061450543579	0.15726233196766443	0.524714984278215	0.38570937382730314	1.1920415824743156	1.227067033166375	0.5207174435169102	1.1720935199687135	0.13134132124720627	1.1792114459897973	-0.01526125398016003	1.3959181848879696	0.40785227105798566	-0.44861701534239934	-0.4963353666082592	-0.460406489766022	-0.6218611339510637	0.6326417144991946	0.20385777169337926	0.026619584363532556	-0.0508542068029178	
-0.3764950683913887	-0.39155733187337316	0.737546517917449	0.5438991449761389	-0.6604940279659126	-0.1921828242661561	-1.1329207752740509	-0.5391288947716094	0.17183733687916936	-1.277591602104697	-1.5862017467809169	-0.6368180735459698	-0.14357188051720296	0.5025772322477622	0.5303485872608893	-0.03928795727933616	-0.20653434277488242	-1.0787845321845615	-0.07208534070797602	-0.49371093749193434	0.34873048457004013	-0.9787753103272605	-0.06881922419322006	-0.36279711955080285	-0.5545324126401026	-0.007703399047651169	-1.0481502349130944	-0.23474309089599993	0.3492198579362011	-0.29105662838610646	0.27307346591917664	-0.44879222315275685	-0.2639899459720632	0.3184657752783849	-0.563709389980644	-0.5900947270266862	0.05249440696599989	-1.322595874448786	-0.5527213626298946	0.07969546979875247	-0.710348868354798	-1.010968565017657	-0.8453658667407595	-0.768005833178276	-1.0918622471293429	0.05482056933595611	-0.810640458815235	0.0814575699852289	-0.2449733304230975	0.14602263569555846	0.009214817151199308	-0.7594937318804263	-0.9408045225872188	-0.8619849528404975	-0.2241554872860217	-1.211573304538042	0.3306481956505629	-0.04063895074708453	-0.3215095271527806	-0.6631518417578068	-0.44689629514888324	0.6117042669245247	-0.12840368339171865	
0.40835756507950804	0.5382983339461882	-0.7365191116182876	-0.6758790868143671	0.9350798349238798	-0.8319935525651976	0.4000200306882156	0.2428446746263983	-0.19325397778469922	0.996632412434312	0.6555471020079986	0.12152357961455786	-0.3527004159051245	0.9923822825521633	0.6122305700150024	0.7166916249232393	0.4429463500435709	0.38383047391216074	1.1056531211468779	1.6514704316400872	-0.4844725004252395	-0.5900336919012363	0.2518911860874717	-0.7979192740504155	0.7018621029572834	0.3680592271973255	-0.08572832395759748	0.25828911092669826	0.10148636923690958	0.015021802065399655	-0.1166447985379182	-0.1664085453823775	0.6215779751902755	0.3781249463809489	0.4462842493519003	1.3090226443536628	-1.0336666310311258	-0.2291797516572158	0.13050412605400322	0.6638511124589048	-0.31618674631913696	0.3410790066701584	-0.6922561505274762	-0.5789414783862439	0.2871605511547381	0.3573694288195451	0.62702465863066	0.07787877735918025	-0.49578546555864395	-0.1150754257431109	0.14830845768656148	0.6120679621637206	1.7234901389322823	1.2415085369483605	-0.6576112118069783	0.3061436050216874	-1.1192029652446738	0.5067490927442406	-0.5265332532217313	-0.7464971612090798	-0.3132190182201712	0.040011966954656836	0.8637425247865893	
-0.4954300736731677	-0.11713008573346526	1.0730601540797846	1.4587145698957829	1.502352386639566	-2.1547217573083532	1.9123248751557145	0.4334527667913821	1.9860154865206372	0.6635131757728421	0.7737562546783869	0.1414809944034672	0.6764250749051248	0.26538130334912424	0.5460238011165942	1.3702168215062263	0.9335627227272998	-0.23473138163934962	0.32389890372591623	-0.27074495922242603	-1.4476079650166103	1.2669330788616362	0.3636020272910079	0.2345861418611754	0.17579368658453906	-0.7180596983899237	-2.219523570771042	-0.5901703918014285	0.6241204985747211	0.3735159673221532	-1.1976637739434428	1.4604934407113959	0.3190064532544107	-1.2170293479990617	1.8280914592834017	0.33624742652746975	0.3722171050303533	-0.34104493934264557	-0.1738313453150274	0.5514081450631951	-1.2444677883579236	-1.5948900743356802	0.9345398370776969	-0.5491293572478552	-0.20832674137137494	1.314117465019696	-1.4829018231018978	-0.031879601395905906	-1.6680465225911814	0.47958525680905695	0.6992449024111336	1.1960866595771567	1.7310374331716543	-0.33624383939597224	-0.3428086174517151	-0.008788658114732102	-0.9233635176942421	0.6313475649369087	-0.4285833915858084	1.6359281261621912	1.712671140054757	-1.9075677317555932	1.1380870356227766	
1.4073379726530435	0.47143143423126255	-0.2118223902735911	0.4711060332986565	2.070744940080522	-0.5217820875870436	2.2627465381833516	1.037865786209694	0.4230203346485344	0.044544245811157714	1.028094795469067	1.106484704209238	-0.37124571105311077	1.2419313700523507	-0.305151422368124	1.4650634388116917	0.2994370051732329	0.7295411559649321	1.365126293253602	0.2711065075097202	-1.892709715842356	1.0049088247478135	0.5763579345596368	0.5701066848084311	2.143780840330568	0.1361079888727549	-0.7034253457206079	-0.8613629238010689	0.6429510170687014	0.21629481429730898	-0.7502036488614339	1.8511482869326694	2.6136291016528017	-0.7295714440325332	0.05013958751559822	-0.36082028561284174	0.5328573428737533	1.0148852616340638	-0.14442782275826052	-0.2546139292342636	0.018663936652988728	-0.6642394057385055	0.4916309796905919	-0.5108121864317259	0.5109331545769812	1.204076192525425	-0.7950339574698209	1.0561298061891218	-1.3671521817368446	0.3758195837748629	-0.9708040179329196	1.4602106393722654	1.2643783640526078	-0.062284376379846525	-0.759832181425951	0.7484586011293699	-0.2643772335693366	1.0664432051434898	0.5479581069829873	1.28571927332237	0.6997499819967183	0.05612687676031799	2.61341397558644	
0.6360907885177475	0.8827494171147893	-0.01742067312713562	0.9792845096301604	0.10171383656712138	-1.24262303849914	0.24280349828395148	-0.20892742659684027	-0.16267630580720027	-0.4725927880196198	-0.4471245988229986	0.9279173784701856	1.468928823368397	1.6293224880157884	-0.3045608358577785	1.105865447300606	0.44936614465835156	0.4493317602595899	0.6174031260023521	0.030208375187369532	1.2911953049703149	0.5889997662352041	-0.2919663599355268	-0.5432725730999771	-0.679097491042454	0.4935955687463408	0.5506707024290728	1.343541323762806	0.48402552238161606	4.2233648414246173E-4	0.33013062017903316	0.059630783264203374	-0.7326555939411473	0.3718415792210993	1.5539490750904554	0.47696202754548866	0.9802359560819339	-0.22173775936325513	0.06451085000788517	0.16790250786943278	0.32080173700781367	1.8900039394043953	0.14465296297596714	0.27940637449535	1.2251014763565102	1.1116741018475889	0.6757037198074628	-0.4560046812421428	0.8660372074012462	0.6019391099499999	-0.12385752708056616	4.222947914446103E-4	-0.18232940911463502	0.7718446350541063	0.7673711957193933	0.18948782359265287	-0.014146689619402191	-0.14008794548021097	0.8620928557337902	0.5520707734508913	0.08528799465198855	-1.1177589335459932	0.06750663822219768	
0.05731611962248	-0.04110855038091689	-0.7622370291176906	0.7219400083588737	0.4640314983000071	0.5017161823410917	1.58453921338147	1.6703287109752998	-1.1053632776026454	-0.09026155115287049	-0.40943595900438	-0.17500502337329227	1.3953745876030743	-0.9256649937353879	0.09532350277367901	-0.3710268200622582	-0.055671319614888554	-1.3602113813704035	0.024625333374153947	1.3535834911803006	-1.4643101860241177	-1.1326539339418324	0.723068742362918	-0.764364545220778	0.5030906465059827	-0.6503292664134394	-1.7509777567650222	1.078600551636198	0.3522984033176806	0.5978050908447871	-1.9198390004292765	0.40005729748776087	-0.5843276575607917	-1.2695883134836812	0.8588996654760194	0.03439763322636269	0.3184965710718278	-0.4754510138055429	-0.46761842564347966	-1.523440425339763	-0.5074613793535524	-0.6868296728837583	-1.309472684716012	0.07633722118476266	0.8462891302589545	0.8339461180224018	-0.46476478131251264	0.5928387034106629	-2.195267115727986	-0.02871182538039142	-0.20819890509028155	-0.5607606740764183	-0.23696426682187327	-0.22577174713811982	1.0506474889887054	-0.0968413265790968	0.3793975925227967	0.483207772460012	-0.49329254397717603	1.3602925211233838	0.016935759962786377	-1.5625086014111975	1.4123956949023324	
1.2402645985801564	1.1618049565623174	-0.45947618242496363	0.11183128369672038	1.257203794322566	1.1048824141143188	-0.7355479076872379	1.1722733168579764	0.3549228590050543	-0.39510660492945665	0.967058628266544	0.051246164544472464	-1.1899074179950118	0.7314664469590851	-0.08932883468648462	-0.3260719653061592	0.5266175923644255	0.45101850768784507	0.8558477908146541	0.15816170296229767	0.024343146637501624	0.6511105840083581	0.7730151929541796	-0.15071871167992731	0.7177785843307736	1.3510274278039391	0.1485433883614786	-0.18577707649515826	0.6341761486797642	0.8289674287449217	0.9519096683737182	1.5029872484104638	0.9886568368767242	-0.8959151646932396	-0.8116358754843572	-0.396689675579121	1.025995292854713	-0.4691255239847844	0.21516377206523232	0.6185440954252043	0.2671213045279523	0.039519221711260696	-0.7092762069439361	0.3958781954041894	0.2772114758619128	0.7390092752728169	-0.40239247527739425	0.4900990204204087	-0.5050866680097456	0.6130090870796029	-0.2963311687812606	-0.18555438789673687	-0.4654631124534849	0.9576668969277596	-0.7661275939941364	0.6042206789016958	1.3692068850399948	1.3662915850796669	-0.17551099682924923	0.4095225336509269	-0.26190154797890536	1.4112587582717877	0.02027690155832905	
-0.3298159447484991	-0.5894754967188858	-0.449821803600955	-0.5009635365405589	0.9040627170812294	1.854415479802447	1.058549978497397	0.23320563341830605	0.12700905402027854	0.9828833788045919	0.2052045742762009	-0.8212580874373581	-0.8668320603983197	1.4056688650756843	0.35700930240407797	-0.6359801487557064	0.7301077157498748	-1.4856464685009034	-0.8958158663869671	0.3147467976411054	-0.15197189309530032	0.561666201922588	-0.3170992204704119	-0.6241616556010863	0.9205984406301493	1.3473259394370305	0.9894513092787727	-0.14515476583184325	0.13974809757460901	-0.09524134179608613	-0.2020437313289897	1.8151850327691714	-0.021833766200883988	1.3295754963631055	-0.7061262706925073	0.5616574022627434	-0.367478525448446	-0.6202293637120873	0.1804062719665591	-0.9627259546989682	0.5221032208890086	-1.051950821473505	0.03664004635985322	1.0567986280551915	-0.3994621098467053	-0.18578134196737842	-0.005941596792992557	0.07720594594605283	0.14622708458080877	-0.341910978755455	1.4314639390012571	0.6929383794758031	-0.2885732495683761	0.5173455811611234	-1.7430290111481415	0.24153313181456207	-0.716451143972028	-0.42741115507525046	0.8030942286754219	2.075190319948425	1.6371235929521513	0.7149798540026266	-0.5995650020804932	
-0.00992868294569847	-0.6794195144128548	0.011805483095829362	-0.5720413010629313	-0.9902438825451723	1.255105434152199	1.290551013355357	-0.5822278533703034	1.146721406549449	-0.712152505891273	-0.7404385842459371	-0.23462519860409164	-0.5147815417482471	-0.5225244046597883	-0.4452195056682384	0.6791889549355874	-0.16060349623588976	-0.5570978188981166	-0.44272431259149925	0.33183532317156006	-0.39923010146610405	0.9771857383567752	0.21604857298281965	0.7556846781387814	-0.1623094018241739	-0.44108659243936743	0.5953206814158089	-1.4934171631514417	0.27656195988612453	0.4641444871139725	0.3567864424648246	-0.566571934213869	0.22327366777526012	-0.0012699298083617293	-2.2266613675899753	0.11433693769376234	-1.5697684267791376	-0.7220711052162945	0.9505753910296151	0.04127033777469513	-0.15982157422257767	-1.356819982670075	0.06749596403151102	-1.1060781552488386	0.26777065305750736	0.07674879035801345	0.32283619219521054	-0.9683349088535631	-0.5029315010883364	0.23937223699405516	1.2836441315943898	0.25518397641586343	-0.7552044825395787	0.2948790854261849	-0.890348093147534	-0.14222013519984059	-1.0227682812148953	-0.5972154833714772	0.49349861493050684	0.48744015355871995	0.6744449574632514	1.4344354791463334	-0.419006068021087	
0.38866097461861693	0.025842263049131377	-0.6066781753427407	1.655601483357703	1.850298962328612	-2.0073484279906277	0.621303365051299	-0.03243097707562304	-1.3315632333357907	-0.163472403533074	2.5255341904476145	-1.7511039531698271	0.6561588185106971	-1.1755103046282755	-1.0243230301490525	-0.8431843810421739	0.07010855041956544	-0.45876645116479997	0.1085436813363294	0.5862422121504541	-2.1157343637981003	-1.0508778422063407	-0.4232797450650255	0.10821816197822896	0.5670371865938831	-0.2825079403672075	-0.9498456540902408	1.012421573556857	-0.019669285652742043	-0.8676816468020473	-1.4445250781099017	1.0251110745489882	0.29861787225644876	-0.9322575911506014	0.6603287314435177	-1.9099222339890884	0.8696952289590817	-0.19642412931040568	0.6512871970934072	0.5851835753084008	0.9664478747010122	0.5913860765674849	-0.4675880772356624	0.5211745043570926	0.8403140004023056	1.0533528131538994	-1.65856505505845	1.2347504936520526	-1.4303811814781242	0.9599854495674777	-1.5378581961146032	-0.22491768446350593	-0.33292914839928156	0.4070764224999587	0.19426127693969955	-0.5481885931219291	0.7761285656215166	1.3714864313124098	-0.013611587180564245	0.48439342387853457	0.9753532511904314	-2.470720080215392	0.5684526182761033	
-0.28627584323662614	-0.9610152094097835	0.6692459180726122	1.343927360638548	-0.6104223476158115	0.28213264860976045	-0.04657667306229456	-1.021910214056365	0.24134056285347552	-0.23918169771462358	0.24674512840472285	0.025998964567476426	-0.4370473237947494	-0.771164113478852	0.49324548305461635	0.026293744863453025	-0.5465422334969606	-0.20425217473900917	-1.121842145347	-0.6447601390602254	0.7396267409970692	-0.5573544526182733	-0.18289686655913331	-0.08987680479379649	-1.2817021479281383	0.023349427191544786	0.14002461991808504	0.4805654614421046	-0.9362438644362969	-0.5568181393136615	0.7645242647152046	-0.8833174315949566	-0.9589348503854425	-0.296508359953916	-1.0685071973682152	-0.5378130488357161	-0.7813545045228316	-0.06253646212713267	-1.2186727477359256	-0.04284649581006944	-0.18912032579753182	-0.8495981953028506	0.9365535385292907	0.7695188455949313	-1.5811682673894414	-0.646007406851439	0.38895115257336654	-0.9088685638819243	0.12917563215423547	0.6931305600509949	0.7700743506416685	-1.7600351874150681	-1.3662834089337281	-0.14937723826346555	-0.04563230638344299	-0.76673362063131	1.2391953009712073	0.20082196481637607	0.8295601966186037	-0.3875616692156637	0.5414704252247947	-0.16946098356292097	0.0265305522163437	
-1.8772989255937258	-0.8414217180423876	0.8097409453309553	-0.3149934818739338	0.3879226960285524	0.8933882484464922	0.017370317715082573	-0.6151462230989121	1.3919234193165537	0.2291535941419154	0.263727026291445	-0.3313367930982423	0.1611877943246642	0.4910231178175674	0.5941396263962242	-0.5836711133256652	1.4816575633356859	0.41533040476607314	0.24657186569722114	0.4660978800022985	0.2451897909680361	1.291249245472879	0.6476751863320266	0.04039927780223044	0.5409689468137217	-1.071078248426049	0.0887619325558859	-0.6911584222290684	0.1429039262003257	-1.085487479811625	0.06744468739268243	0.7659635350712809	-0.9978743442677624	0.07255810854799204	0.45728071687050903	1.0115492664750738	-0.24901286464219416	0.17431850130178814	-0.034240523096355106	0.12436425865059346	0.2321524759509617	-0.6156029872724099	-0.05790072889289107	0.31780084996245556	0.05037921123776664	0.0030410386845551667	-0.3659843707178089	1.1273392273123148	0.05053355369599034	-0.05008715115258621	0.037933969006240624	1.6022365722322522	1.316979564709058	-0.11850582474109457	-0.5423074950854826	0.341457992127311	-1.592371735004785	-0.8848206269302085	1.0841176005168514	-0.21996574300702534	-0.575345254696855	-1.7039033375888128	-0.6684025069643645	
-0.613508712214713	-1.330217635882386	0.6643101174510678	-0.017667639580700792	1.197932951521777	0.240390885262173	-0.7387514424842838	-0.5749267870544933	1.6123115651338606	1.025471844341789	-0.35370018821271665	0.6952534034357024	0.10633218965684679	2.0678519815338032	0.7241508523156823	0.19701720362827008	-0.28368970590633613	-0.07377157450154867	-0.150505660278984	-0.7777601647382655	2.4701424274350785	0.7661630766590908	0.5417285540673127	0.7243854880166734	-0.3534462626752827	0.8442452448503458	0.538454099634627	-0.43382376595934613	1.038533986111191	-0.6046749459325423	0.7219065835135522	0.7267652328785366	-0.374117449700916	1.7261990877180677	-0.28361153493543845	-0.06645376731479227	-0.35731997161169005	0.005331063422752117	-0.505507573421742	0.7235692851751497	-0.7824477692306828	1.0640667992814459	0.5437128904831845	-0.6588198447177249	-0.30858850338289434	0.601277027062191	0.9299788832735998	-0.7381977166518849	1.5814780148602527	-0.041000515251936834	1.393380257184217	0.27185386216559854	1.2959966849493436	0.8161515801217908	-0.8421024852905696	1.0177525188419376	-1.6615993567836913	-0.9010084950540496	0.5650064524301963	0.6336880353775616	0.8209729910819322	1.2414231147342893	-2.1683039001372504	
1.0404818601995498	0.118428041605637	-0.6956357333953384	-1.7893034750757035	0.3438403606300082	0.05661629422328961	0.7814239710561174	0.9605738624544863	-0.6726522546418939	1.4250521445172493	-0.5713759571130974	1.0450567723484727	1.2247244293779083	0.15450899476217958	-0.13872862684738804	0.8195926094509433	0.07812965928733631	0.3781177257816346	0.40681118224723445	0.2647625662687196	-0.5528909216036525	-0.5540788212500402	-0.22094783530288684	-0.5311590032687935	-0.6932672399027867	-1.1485090527262287	1.178657251483987	-0.1636309555730682	0.7292691315594083	-0.2611514562242227	-0.5275728481310226	-0.14830653877691471	-1.2016005463901696	1.5685220306308407	-0.37953055691596593	-0.8206840075402165	-0.920727889519776	0.0894077006929816	1.1463853490851976	-0.6002366244372471	0.5096939879009316	0.7350976463644693	0.26885161145256775	0.4727091686434981	-0.725159082993308	0.4240208394935461	1.0824541924308826	1.0726121219322815	-0.6932489772581084	-0.8854561773812449	-0.7435430473305088	0.7461703025719147	-0.12743871902226914	0.01832564591648152	0.5343429975878305	-0.7821308653428699	-0.7255616919031022	-1.2609465913647047	-0.641471409890975	0.357712199755142	-0.4503591737387297	0.19045077353219056	0.8197383906249932	
-0.40463474125976573	0.11423907675145546	-0.7893719031343926	-1.2830854999501682	0.5996830654911666	0.9219188671825325	0.334024758216866	1.1497009208710611	-0.9230094280521215	1.4717046561682745	-0.9692785273828073	-0.6809190851980593	1.130793034544341	0.2634530535156514	-1.1988386420892763	-0.31215248038460064	-0.4002807483718668	-0.26224502822453594	0.9173836277323781	1.629857226914907	0.7116744898825185	-1.4820357224722154	0.09348502421457221	-0.18162397709974448	-0.5831003095962692	0.09716853465692495	1.9619631596685696	0.5896720153422844	0.4913713782493584	-0.5944249206660649	-0.5885447837675415	-0.39582524264203717	-0.503199725122375	0.8215396685926747	-0.33057920712688105	0.251026909445745	-0.5467900640363276	0.46091858815125886	-0.2719021700265356	1.159877151285556	1.2773107597310964	0.19058575689171459	-0.13349472254958225	-0.05703619008791704	0.9654349090151653	0.33215724781006206	0.15047042155218165	0.6856604298422146	-0.16540161114612173	-1.0756931783116026	-0.36081453251640616	0.5558337039602806	0.8898881897104793	0.2303282282825989	-0.5178811177550748	-0.37886616057231404	-0.8939847834348575	-0.8486333500794097	0.1853472548933367	-0.3050519666887466	0.43515157373994456	-0.006815136427296017	-0.0625972399233559	
-0.6691672974672572	-0.7298555899144926	0.4785934357206493	1.082205269372801	0.3817729532931391	-0.6707779558920987	0.19264116008366416	-0.5626522036851768	-0.9447858181627248	-1.4076426031257043	0.6503770634180231	-0.8742836561787456	-0.5817883745464497	0.20160856795305293	-0.7237810380836799	-0.8052682191277615	-0.571655435457774	-1.2181018376529062	-0.477277452199305	-0.37520526572611446	0.059878713535309366	0.2354066924563083	-0.10630060829524295	-0.014130901793705361	-0.33298311938384034	0.7889521376248313	-0.5814879583245857	-0.0477749507016275	-0.6772915828856437	-1.1281137740939549	-0.48506879565342065	0.6408149830374673	0.46194928979719585	0.29568624464894677	-0.8377309189483143	-0.2407091332197588	0.7948215308148733	-0.49709170631639665	-1.2649239507298449	0.08203867209637412	0.5787351618394388	0.06901919937350441	0.4734041308046679	0.5629529768757281	0.027194598174337226	-0.5085692261727779	-0.741619006355246	-0.19746723506196695	0.6147990396464226	0.6667774636155114	0.3709104277688938	0.4609951034135583	-1.0657297548065643	-0.6890946805414383	-0.46825574811737947	0.9488623766642766	-0.5357030515328204	1.1945184904589816	-0.289779507813681	1.7218099761353665	2.1795578972375877	-0.8660149191631533	-0.8964106944052125	
0.12769885958303834	1.1426995396471342	-0.22944752104728072	0.43782517236272095	-0.3279563622529849	-1.6842556810863172	-0.28547943485869737	0.8460296322573964	0.9214524586670204	0.42311072064339833	0.5155967967576898	-0.1651121779492784	1.018770409584714	-0.968171839429423	0.30427431926864285	1.0999795519710294	1.1961223718252725	0.22865849060019433	-0.4206491017649961	0.4845081342185609	0.04766595237922725	-0.23901225891649164	0.8567385507526402	-0.38610175163764043	-0.4759646789399004	-0.1465670749485039	0.9431586921193239	2.408697104910124	-0.09346449375650148	-0.26830898608858217	-0.9781778131428547	0.1498211536002051	-0.3673217009653155	0.39264949784370945	1.980563125054758	0.5623558890789413	-0.4340911446982713	1.266922050603933	0.13479595802760613	-0.422941029937463	-0.6948541628499141	1.2445742307270653	0.15417768999713694	1.0286725677524367	1.759665019279826	0.3244091829573102	0.8135566649673227	1.3604136832056228	1.2132476141272404	0.5403294221597064	-1.321680347567803	0.8045830487066479	0.08130309304947458	0.12189699089275219	0.870170643437215	-1.7426877538347834	0.8093616333791531	0.43107476569565667	-0.2567980423229352	0.652733709510239	0.4491902780087815	-0.7032945544085323	1.0541918039469598	
0.8926019084720054	0.7106487254312088	0.6870013071962666	0.017271483529079486	1.4279460536472333	-0.03406259716730422	1.194091054233338	1.5760999909270805	-0.5583228001713474	1.5341386464966762	0.7145373552554957	-0.1979337708121413	-0.8609646919493006	0.44578642405445645	0.3396294659885477	1.3984548882856034	1.0790450830484974	-0.7824903841718562	-0.5592950694589802	-0.001878104673623226	0.5719877474688768	0.3497130199985725	0.18824221821527282	-0.031153883546900737	0.7266505205143377	-0.29877962392823243	1.2630574249750466	-0.7118579227527777	-0.19211200143181684	0.5506647823075773	0.1257337396612866	1.3134110200678026	1.3830136375039526	-0.7397725962453214	-0.28579603266337505	-0.9247658335697251	-0.2779642213931389	0.17787769028447936	0.07218468106569222	0.8774392036828309	-0.4494059826944178	0.21931228658765933	-0.42844460574679233	-0.04718359088707378	0.09097083959526746	-0.030797224526837457	-0.28164180551804824	0.06358468402166614	-1.6153167491080487	-0.17579352480266214	-0.16490174566108967	0.6184663501498511	1.4714341960789654	1.3214331172095706	-2.0096863166082324	1.32433117711448	0.5471882744896774	0.7942380460568774	-0.42508856169121845	0.5192072778165879	0.7662513456751008	-0.5636780931644566	1.9707625170489014	
0.18111417456093779	1.5509943999635023	-0.7343634015739832	2.0772590480979196	1.6564113537539862	0.16051726033805977	1.431892056466248	1.6682116809313665	-0.12022064573809814	0.49112960630976554	-0.1602534857396982	0.5231998307058867	-0.26203722209603897	-0.06536891146803987	0.3293000365738191	1.248326212688979	1.5591515686936235	0.25510073391174726	0.7609090284293808	-0.23554126338677514	-0.2629866790034708	-1.0008519373862812	-0.11796750487619385	0.08472211623133342	1.0662229658854867	-0.4198816786961652	0.3435558706448283	0.2782245254424105	0.43116289129679164	-0.003373019254118941	-0.016709458012684406	1.4418174059348219	1.0588362404211262	-1.1176889912035635	0.570524967671468	0.6988932091591146	0.5621264899231254	0.20111251241975955	0.00652069220445054	0.8585727992387494	-0.7216122400763773	0.6729962514791353	-1.0701101953218386	0.9640861539759474	0.6905382360406035	0.8335454335616138	-1.896992816589753	0.23301412735165647	-0.910823965876436	0.714061566019324	-0.7627494867904964	1.1044616857503948	-0.2671727449548287	-0.14275792061197215	-0.9736754361691974	-0.03448698323412077	0.23922973945681467	-0.1573100776109522	0.27079789316232494	1.610336968989056	0.6814254097392044	-1.5478271997150246	2.1148413044414798	
0.4722279319422158	0.4656640762110199	-0.29514898451275684	-0.4948434340277168	0.38818300534227745	-1.3509655615416143	0.9378682151101662	1.0657048434293153	-0.30336294033463296	0.9140164667109679	1.2592033880096183	1.3215459225893562	0.7265623604529469	-0.12320235813517579	0.049071397785788534	-0.2702537104619809	-0.05499747592616066	-0.08175970932920709	0.6073602673420836	0.5562087288326816	0.582399025442343	0.9016354354859725	0.9256409886084856	-0.09212374956362851	0.8680126642718983	1.1106986118348534	1.238387100289564	1.190247377077156	-0.4720277279427265	0.48953414156464636	-0.09353227031738176	0.1799208592950212	0.24700119730664488	0.7226131294464982	1.2539101432207853	0.558300363100648	0.5094992544148319	-0.36815739654645874	0.3455906565996312	-0.14733321459465037	-0.15502273013264767	-0.675407509661727	-0.3702025236274321	0.36232569981199303	0.324030697544282	-0.18663101359116424	0.6625088804162046	1.0483100043280817	-0.2195560132984138	0.3001651609168101	-1.1174352339658575	0.7824571333464275	0.6640274399444315	-0.016784331678162286	-0.7669269443310941	0.1594587807326782	-0.5577642037008247	-0.6954666668507797	0.06673993867399433	-0.8945358163204241	-0.18122954876233072	-0.4400910990803938	-0.42865677304127503	
0.4996037490450007	-0.3231667231593146	-0.45576460319301637	0.5695910746078787	0.09834714656583818	-0.2272175983193166	0.010009860505391668	1.271697533287446	0.8556946738409443	0.5226002771799727	-0.07921938957580638	0.7347016926645182	1.066240055255548	-0.3342592969973365	0.5732792271542458	-0.4475610687572019	0.31035320780609144	4.598367140952659E-4	0.6648574467418812	1.227843124709519	0.4352837961439119	0.114760329419626	0.5940598357907741	0.6224807765216607	-0.05758463822225321	0.5010573899244514	-0.05458706441004526	0.7416326355963263	0.5045412919275927	0.0286906279231815	-0.2570484751224078	0.9881270649451128	-0.3106702994866133	0.9128376019935147	0.7613992735577318	0.5692613813302216	-0.6289603283704068	0.11190579066915407	0.01255599428019685	1.0601285650756254	-0.025892098162018106	0.9041674801772386	-0.08230594680534975	0.8721830716711272	-0.03273495651007196	0.6601743422249506	1.5449390741101894	1.0311045283160973	-0.03542929912320696	-0.7316541461774588	0.528125485147058	1.5236644791467788	1.5222145208115991	0.15739877681885597	-0.636718056611906	0.8499779879080063	-0.4830667480620787	-0.047478636423344024	0.2807418895116942	-0.3425059559494126	-0.7896807646980817	0.05336963524310385	0.6792986887202909	
-0.5598306782055255	-0.8708448365263245	-0.26954163995653263	0.3797307456669374	-0.7276992365935159	-0.9218564243786606	0.3956278833155723	-1.6082590749684385	0.3778797725392812	0.6825619901867556	0.022125854538890308	-0.3178871542511877	0.07438404344542403	-0.09006841753416407	1.210585160744403	-0.8657953438022871	0.8598316790742567	-0.3339588485912431	0.6544406314097729	-1.5446216638784604	-1.7980296802749751	0.3992305777950857	-0.032351346311860714	1.607352187377543	0.2442944814721965	-0.05304595824188881	-1.169571402240918	-0.5516785367448348	-0.13619037952973329	-0.8899096298072936	0.7642225651286209	0.9550128117685258	-0.24551598889975337	-2.246607192491375	-0.5184151386014618	1.2295830039717175	0.714541987091135	-0.33511799648478274	0.34842195170449203	1.1168343594914525	-1.0885596535549915	-2.9363183201917	0.2815462592440793	-0.668769606286208	0.5677596229065084	1.16441845007948	0.35736152591345	-1.3792856245174536	-1.542278051586862	-0.029431844320665305	0.47237886271362156	0.37089032944382677	-0.1172474536327447	-0.8590056164339769	-0.3744371910181354	0.6674356082027241	0.016374309613008446	-1.1106041878808817	0.2126196988180526	0.2319755387337098	0.10030829581933214	1.2782161792935747	1.022888263133345	
0.312379588529389	-0.4142765313969435	0.38592331323658974	-0.2450694772750416	0.8232854948850001	0.8588208047584671	0.9245983038640926	0.19926888772447124	0.3261963851408118	0.8945822503699077	0.30903363073009	0.8133469316327193	0.17825971816784605	0.47101416114786027	-0.023615515541122054	0.9202757800349248	0.9054352163963111	0.8039230908980248	0.8349894633291357	0.24432206069369836	-0.4110593042272625	0.8685145347522607	0.6585972420612505	0.006034500265376562	0.567430456925188	-0.6185661521284918	0.3404589115272277	-0.7218713463400452	-0.4677180141593605	0.08453915194247597	0.4396883003143896	0.5341508092090856	0.3115314035841327	-0.45582572241431357	0.2929018045059643	0.11109186586950645	-0.7709513844936879	-0.3101813466079512	-0.4371313224577435	0.8149080090254655	-1.175131947355816	-0.5772197703545934	-0.5910204201301954	0.8963874908647051	0.08041104464304716	1.3357401631817742	0.2918376446020096	-0.9751315397315233	-1.5226384470280896	1.219039252943673	-0.84298118402121	0.636718967249146	1.1117809733269515	0.812621332932328	0.1577828479344038	-0.16206001742202167	0.8231369135146982	0.24096685151541944	-1.0138675604289065	-0.05092493669384293	-0.7016087255525076	-0.46008212878758087	1.3895352906571201	
-1.4972103681902509	0.07523659386830694	0.1556125306254412	1.5052810507069203	0.3437023295572599	0.27079422635565975	0.5981581021764358	-0.9374695510925416	0.5426452634979521	0.6130082395914959	-0.5280345884262071	-0.5153331496440142	0.11689704734359302	0.3939119112762197	0.5677850540587254	0.17400391673100488	-0.20567187581790577	-0.9345873418032512	-0.6871665777875785	0.41404657420029267	0.36063920012008854	-0.5059117024798452	0.30100301728684076	0.15561628728576363	-0.3863873823778011	-0.33073918805060754	-0.3467837772645428	0.9336274414381757	-0.10176093412641335	-0.07628089041962202	0.009875223559874129	-0.12493743947488788	-0.35353358299975546	0.5021740986857977	0.9109072728285449	0.5170923214313304	0.6055407224565476	0.1402530423708899	-1.026816841378465	0.22144403119713527	0.6908987937106953	0.7667204645035756	0.6525203821339868	0.13830717412680413	-0.2414029348069651	-0.84448793280439	-1.8257871025032346	0.03599429263207964	-0.4409844249713959	0.4580881432434435	-0.5092051668694896	-0.09409403997265264	-0.07972296003393645	-0.9112811595108187	-1.1612471317353708	0.13846176990380257	0.10363266895512857	0.4987454467867378	1.0781326846393837	2.2465460789164284	1.88114951356561	-0.20703247470727074	-0.89647026189093	
-0.025329162469117688	-0.28373604017664356	-0.400455953298377	-0.7321067313040486	0.10775899358830394	0.5328462740558695	-0.13556758800283567	1.0705960174103257	0.29579386001831165	0.03031376879126448	1.3169540080540603	0.13579365166799104	0.32160562687787814	0.8590750949800539	0.28172057921798116	0.7221183817080989	0.4747792603866781	0.30570077647341143	0.20891633764714176	-0.23075737839294366	0.12775027468682	0.34757332080734843	0.9880440917987097	0.5754719816455451	1.3726811185586694	-0.29761984260641505	-0.34317648742546236	0.9778674885683363	-0.25859816594756013	-0.9641497409329742	0.31597977201278205	0.4100089900519131	0.4207076045133161	-0.1132826867955489	0.5506661745647932	0.3601746639546051	0.5295790538245926	-0.052551935515050455	0.5929454943309009	0.535760370436063	1.1055419873442156	1.1142752730285492	0.2291438664881472	-0.2726971919577496	-0.44148115993897813	-0.0651303908354416	-0.22677546614354063	-0.08885904842105975	-0.4845894035279185	-0.7131887093895855	-0.5251443100071251	1.3509357869316772	0.7506893826301477	0.7417545336865332	0.2932783807428001	0.7850050312069548	-1.1041559572667212	-0.6648501324629263	-1.0475540210418133	-0.2472634910072212	-0.4756320702290855	-1.1001586142319384	-0.04254944523927407	
-0.6724767444259857	-0.33631704890623043	-0.45427981162093367	-0.08727809956917286	-0.43960877559295475	-0.340320853647665	-0.46918346091336527	-0.3319111102100918	-1.2574305362827127	0.6143036712167466	1.9699301631395778	0.06024925228458986	-0.040776039476974404	0.5821185500313218	-1.0366355968218324	0.2980835022487832	0.13740205929489796	0.09124274825818589	-0.5014749321938664	-0.8933145951378635	0.6632511358619751	-0.08911476950130877	-0.8741156546269798	1.1622507190480953	-0.17068006340127723	1.3088225655830659	-0.853584305789216	1.0695745106025192	-0.37609165265971256	-0.4147654192703796	0.6629778304957897	-0.6695353585756908	0.22124111397736707	0.47201474992083625	0.5626421820354907	0.36594203487572374	-0.10505410495081906	0.4764468988268229	1.1322558655869088	1.4387093576891237	1.2082711664296784	-0.37710242934290983	0.1423824788677246	0.5445521696940862	0.6300277627807477	0.5174701019402687	0.3955496218691642	-0.03336101767571132	0.606174563495944	0.9470952575852217	0.6802750153678058	0.7967430141622774	-0.26101959346131465	0.33082711352845773	0.22738293025731393	-0.426968389973843	-0.8660796645064678	0.8667660376921195	-1.0229458358353023	-0.3223033301989435	-0.3664569729034908	-0.5030937589821692	0.9945105590515494	
0.3334599566255103	-0.278558298891877	-0.8851450860939788	-0.7970065134080043	1.075542935656997	0.13745261109666426	-0.09302470984523954	0.5343395700226957	0.7118830788767466	0.8799315403282862	0.5760824831212977	-0.30493047124114137	0.6354166602341053	0.2337769962599723	0.8651863574146464	0.9125013942335877	0.19409380554804162	0.8466594715652421	0.30069189940283253	1.2466565874418307	0.834819010738797	-0.9003742140917462	-0.24679583912913566	0.22976248353789705	1.1471451688810446	-0.09971370334809558	0.01564559033671108	-0.15837906716666844	0.39862587142462724	0.2807338544294008	0.6707793537337697	0.3224579019423277	-0.31865812623544587	1.308796660915409	1.2549408321756077	0.9996088485421232	-0.3336063451639517	0.9573803985544204	1.0054839155860151	0.10256821955433437	0.9252611359927353	0.6482076129837483	0.813971459984164	0.382378185627713	1.0918523770273303	0.8014533068876605	1.2613825568410613	0.512009333974001	0.6645809680498741	0.3470769618125563	0.3197959131170789	0.8562196749656076	1.109660930163044	0.3351159915039587	0.6044378809794938	0.20082717694585797	-0.03266241994765595	0.26884427291439295	-0.305054471168531	0.062268071498054835	0.3604913336932992	-0.015600651920999154	-0.11824212125418303	
0.7940319028448196	0.2702405980838435	-0.24203792626671525	-0.4889886219126623	0.016566210457146312	1.3101001664416747	0.029747340718078417	-0.39976732544960797	-1.1477737719250263	-0.2333573753019824	-0.724864201665686	0.4223903958264173	0.9032463801669935	-0.18935486917649316	-0.8663520213733981	0.5050395802827936	-0.5485974402746295	-0.3131236177616276	-1.1376209366829697	-0.24105321785462688	-1.2452732999365026	-0.8744412011488661	0.838295018169272	-0.38851725705255774	0.3166977960126682	-1.3413517027902764	0.052238815179323266	-0.3264493639279005	-0.8773526600556408	0.6778047509610711	-0.59239201262597	0.11244920640965944	0.44957140406224266	-0.788238827514881	-0.7342853331257847	-0.07856842089270644	0.025073265829241274	0.12051055697587675	-0.10227966271189701	-0.46968650772034476	-0.09553264170772635	0.5072663123511726	-0.016636906703516616	0.5378470724702715	0.10729069304780448	0.3330330124817909	-0.8460059439941797	-0.7320861324733922	0.22983833521685879	0.5563409620157717	-0.75344908116436	-1.4486376458106947	-1.2111602382738262	0.4771089965637217	0.5999438563405789	-0.33258542739501307	0.7232979345757559	-0.07033325865579676	-0.06082873411601561	0.6912125314243615	-0.2535368065713125	-0.8592688706732489	0.036146315061529585	
-0.8737685228791117	0.5619997487594415	0.10510270358352435	-0.36753632509663614	0.7252323772925482	-0.4282509175347553	0.7417588762165677	-0.9282566915641175	0.9924196460966936	1.554382526641077	-0.572053812019393	0.2666179394478324	0.311271574520815	-0.7759151252058343	0.05122862435126561	0.5415425423074371	0.3032512973619853	0.7051751851150165	-0.30974846386933763	-0.6886880923510246	-0.29017533379130167	0.16297853276342703	0.3222811746978229	0.8633522840157148	0.8411663433178125	0.1258283004657759	-0.2783853866383058	-0.42119774464434345	1.417256670479612	-0.18612904573364406	-0.8882376803582694	1.4019107837975306	0.7962388756348764	-0.7980724843696114	-0.3008231416196592	1.7705501179550436	-0.11966047564112071	0.4944411627634573	0.9614175622314098	-0.6805082743649824	-0.6612020894997532	-0.26479731734945744	-0.4687911376406483	-0.22825997701759596	0.17932067690376433	1.575183954113072	-0.18838167884176396	-0.7408408151271735	0.02742296839879896	-0.18784929788767737	-0.6268042357237025	0.41135153936278224	0.03184873192263692	0.8534420374696787	0.2794979834743201	0.7058736094814249	-1.3914035402845673	-0.6738261923215696	0.41781291169615875	0.6465973579416264	-0.023458514444017437	-0.1379054728834056	2.536681459520155	
-1.5091983501374184	-1.4243717822219526	-0.7051934116924544	-0.6022170317736707	-1.7774237417309873	-1.2556002863918032	0.24162486091359298	-1.516889118508207	-0.15847952908376833	-0.948671575673072	-0.975107852422587	-0.4601824096902449	-0.001857033691384415	-1.7120242045289757	0.360370498911502	0.06990285106924762	0.6041424693389864	-0.20538286134101963	-0.23343199609033732	-0.40744538379967327	0.7103438260801865	-0.8767069555869437	-1.2309352453367144	-1.0175986911190258	-1.3269085472654532	-0.30590513355469934	-0.8326303280806232	0.4452220335645352	-0.6774587853237578	-1.0247489484484384	0.20594934132487303	-2.5255800681658753	-1.167450189844755	-0.706304179619314	0.6055998798964722	-0.7447995511155406	-0.5441669014220128	-0.7844870692462625	-0.2552440121956456	-0.7581224764940812	-0.4663923931330453	-1.0575280404648437	-0.545410612922803	-1.0938676923072073	-0.10673108291049102	0.44103503899101654	-0.38304120116352003	-0.6693834890516698	-0.8528947787234525	-0.6324482113833042	-0.13837639672543212	0.160477271833597	-0.7854876950281119	0.6243676929800389	2.0971333001705186	-0.12113930413540902	-0.7846886376619159	-0.5043724637256614	-0.5714230347980692	-1.5999299000832858	-0.9308980606287122	-1.1090804211530083	-0.6708430077231141	
-1.2325355767369524	0.03803577716576043	-1.5286510732135397	0.9770127758898953	-0.8549258429817844	0.8646058790206747	-1.6593035555442084	-0.12849547422283075	-2.180182635342868	0.5246603455859821	0.1392217994905936	-1.4088368088619672	-0.4042173292588025	0.7829400172830262	-1.0530224365500434	-1.1230307734941398	-0.22583764959204794	0.33563652586028025	-0.6580876705084052	1.1296276059682508	1.6852697445662606	-1.5780479764399136	-0.23796046476335803	1.214618210104712	-0.22606975326706247	1.2958188082921103	1.476067586246209	0.352692471828122	0.316565462128531	0.16715702870348575	0.7440244003136597	0.6376174781147103	0.5906312366558145	1.866664753685947	-0.2801809199723586	-1.5434530381450404	-0.8740467707242424	-0.39449582021884455	0.19873224521063537	0.6285533978866059	1.390133586081907	1.1282759315804787	-0.4723989372930779	0.14272287552948631	-0.7567696439331609	-0.6067299280999382	-0.19041654484421522	0.24512974977618568	0.12237514263435527	-0.26356652249189505	-0.16205815225183995	0.13756506365819915	-0.8273215673516962	0.03845901283917536	-0.16188074289480614	0.7677381118282881	-1.0171577659891518	-0.16254279900525542	0.8514619912136826	0.8604272597674468	-0.5409592228435302	0.9790254104752621	-0.33608648876077174	
-0.5853857376546125	-0.2210895339969927	1.7288919359642438	-0.33648868409635274	-1.0530844426619836	-0.8789620237667914	-0.8029874663548933	-0.9824280268657484	1.2436632991984675	-1.1438283678463477	0.32443290192581004	0.11963006817999475	0.6044465918149504	-0.2054773223861753	0.2510370413255723	0.6488458628302325	-0.5356227405990419	0.7335242904430219	-1.0962247515696655	-0.7703931296156932	2.3522334712044404	0.7911397299729628	-0.5686834220156118	-0.07733302668152614	-0.8784062842736293	0.6683178780020174	-0.8110483706596778	0.3871563106503882	0.9800436370806431	0.3207370322189435	0.49367637756225174	-0.8564681034638975	-0.848499166093899	0.005396378890643867	0.6340570776366661	0.24122665570412252	-0.04374047506339071	-0.2147888298871398	0.056624425359095176	-0.03172511823342604	-1.753944677879515	0.7391350374496091	0.38686393431738025	-0.4398622069431422	0.02474786977450226	0.09739943157140951	0.14988261627205374	-1.6140622023302953	2.1624177144478094	-0.8518863347839178	-0.18082077345854422	0.630664156289362	0.2056415425687436	-0.04810763027427942	0.6942812872729824	0.5965919024021917	0.5229795613389412	-1.0369668152283462	1.0423173236190466	-1.2344856654355971	-0.622372320611553	1.121325014795991	-2.323251455433024	
0.4623070854202134	-0.4490543456054343	-0.16156927324083736	-1.2961045700722271	-0.21138052318648642	0.10309748056301328	0.1341979631977128	0.6910779087480908	1.032630073387536	0.44345986263009546	0.11594039935347313	-0.15648627457350678	-0.5801533425358585	1.0861719724423105	0.5461407684034204	0.38029466305657217	1.5420991001838995	0.2416103246544985	0.9185919765731749	-0.0013093670887521672	0.6342134422169117	0.4290846115575712	-0.17156020177985304	-0.8117751476158137	0.025829874839800898	0.4895462590454804	1.3782466733200083	0.07348934659951951	0.19982422923419468	-0.8920979118818797	-0.1530340371708998	1.0244989052048534	1.046375338410092	-0.14288399593400808	1.6364771962578424	-0.4899012297794158	0.9170618415773892	1.08917842729461	0.055253930478372716	-0.35761654848908914	0.07125157038517636	0.9202582448790434	0.17779214706231733	-0.526901710901589	0.6702813316595984	-0.1704916029937001	0.47720396697127315	1.2781210690200775	-0.282460808933012	-0.5459634749696554	-1.254475271425114	1.0625685009908739	0.32214255665246655	1.1670505852290676	0.24227000246192798	-0.3956525509539988	-0.6628686627578915	0.15015322799001685	-0.3985906356685353	0.43165514691326007	-0.605787733436676	-1.272730710815485	1.437528766263889	

